tree
version=v2
num_class=1
num_tree_per_iteration=1
label_index=0
max_feature_idx=1716
objective=regression_l1
feature_names=chunk_mean chunk_std chunk_q_0 chunk_q_0.25 chunk_q_0.5 chunk_q_0.75 chunk_q_1 chunk_fft_0 chunk_fft_1 chunk_fft_2 chunk_fft_3 chunk_fft_4 chunk_fft_5 chunk_fft_6 chunk_fft_7 chunk_fft_8 chunk_fft_9 sub_mean_group_0 sub_mean_group_1 sub_mean_group_2 sub_mean_group_3 sub_mean_group_4 sub_mean_group_5 sub_mean_group_6 sub_mean_group_7 sub_mean_group_8 sub_mean_group_9 sub_mean_group_10 sub_mean_group_11 sub_mean_group_12 sub_mean_group_13 sub_mean_group_14 sub_mean_group_15 sub_mean_group_16 sub_mean_group_17 sub_mean_group_18 sub_mean_group_19 sub_mean_group_20 sub_mean_group_21 sub_mean_group_22 sub_mean_group_23 sub_mean_group_24 sub_mean_group_25 sub_mean_group_26 sub_mean_group_27 sub_mean_group_28 sub_mean_group_29 sub_mean_group_30 sub_mean_group_31 sub_mean_group_32 sub_mean_group_33 sub_mean_group_34 sub_mean_group_35 sub_mean_group_36 sub_mean_group_37 sub_mean_group_38 sub_mean_group_39 sub_mean_group_40 sub_mean_group_41 sub_mean_group_42 sub_mean_group_43 sub_mean_group_44 sub_mean_group_45 sub_mean_group_46 sub_mean_group_47 sub_mean_group_48 sub_mean_group_49 sub_mean_group_50 sub_mean_group_51 sub_mean_group_52 sub_mean_group_53 sub_mean_group_54 sub_mean_group_55 sub_mean_group_56 sub_mean_group_57 sub_mean_group_58 sub_mean_group_59 sub_mean_group_60 sub_mean_group_61 sub_mean_group_62 sub_mean_group_63 sub_mean_group_64 sub_mean_group_65 sub_mean_group_66 sub_mean_group_67 sub_mean_group_68 sub_mean_group_69 sub_mean_group_70 sub_mean_group_71 sub_mean_group_72 sub_mean_group_73 sub_mean_group_74 sub_mean_group_75 sub_mean_group_76 sub_mean_group_77 sub_mean_group_78 sub_mean_group_79 sub_mean_group_80 sub_mean_group_81 sub_mean_group_82 sub_mean_group_83 sub_mean_group_84 sub_mean_group_85 sub_mean_group_86 sub_mean_group_87 sub_mean_group_88 sub_mean_group_89 sub_mean_group_90 sub_mean_group_91 sub_mean_group_92 sub_mean_group_93 sub_mean_group_94 sub_mean_group_95 sub_mean_group_96 sub_mean_group_97 sub_mean_group_98 sub_mean_group_99 sub_std_group_0 sub_std_group_1 sub_std_group_2 sub_std_group_3 sub_std_group_4 sub_std_group_5 sub_std_group_6 sub_std_group_7 sub_std_group_8 sub_std_group_9 sub_std_group_10 sub_std_group_11 sub_std_group_12 sub_std_group_13 sub_std_group_14 sub_std_group_15 sub_std_group_16 sub_std_group_17 sub_std_group_18 sub_std_group_19 sub_std_group_20 sub_std_group_21 sub_std_group_22 sub_std_group_23 sub_std_group_24 sub_std_group_25 sub_std_group_26 sub_std_group_27 sub_std_group_28 sub_std_group_29 sub_std_group_30 sub_std_group_31 sub_std_group_32 sub_std_group_33 sub_std_group_34 sub_std_group_35 sub_std_group_36 sub_std_group_37 sub_std_group_38 sub_std_group_39 sub_std_group_40 sub_std_group_41 sub_std_group_42 sub_std_group_43 sub_std_group_44 sub_std_group_45 sub_std_group_46 sub_std_group_47 sub_std_group_48 sub_std_group_49 sub_std_group_50 sub_std_group_51 sub_std_group_52 sub_std_group_53 sub_std_group_54 sub_std_group_55 sub_std_group_56 sub_std_group_57 sub_std_group_58 sub_std_group_59 sub_std_group_60 sub_std_group_61 sub_std_group_62 sub_std_group_63 sub_std_group_64 sub_std_group_65 sub_std_group_66 sub_std_group_67 sub_std_group_68 sub_std_group_69 sub_std_group_70 sub_std_group_71 sub_std_group_72 sub_std_group_73 sub_std_group_74 sub_std_group_75 sub_std_group_76 sub_std_group_77 sub_std_group_78 sub_std_group_79 sub_std_group_80 sub_std_group_81 sub_std_group_82 sub_std_group_83 sub_std_group_84 sub_std_group_85 sub_std_group_86 sub_std_group_87 sub_std_group_88 sub_std_group_89 sub_std_group_90 sub_std_group_91 sub_std_group_92 sub_std_group_93 sub_std_group_94 sub_std_group_95 sub_std_group_96 sub_std_group_97 sub_std_group_98 sub_std_group_99 sub_q_0_group_0 sub_q_0_group_1 sub_q_0_group_2 sub_q_0_group_3 sub_q_0_group_4 sub_q_0_group_5 sub_q_0_group_6 sub_q_0_group_7 sub_q_0_group_8 sub_q_0_group_9 sub_q_0_group_10 sub_q_0_group_11 sub_q_0_group_12 sub_q_0_group_13 sub_q_0_group_14 sub_q_0_group_15 sub_q_0_group_16 sub_q_0_group_17 sub_q_0_group_18 sub_q_0_group_19 sub_q_0_group_20 sub_q_0_group_21 sub_q_0_group_22 sub_q_0_group_23 sub_q_0_group_24 sub_q_0_group_25 sub_q_0_group_26 sub_q_0_group_27 sub_q_0_group_28 sub_q_0_group_29 sub_q_0_group_30 sub_q_0_group_31 sub_q_0_group_32 sub_q_0_group_33 sub_q_0_group_34 sub_q_0_group_35 sub_q_0_group_36 sub_q_0_group_37 sub_q_0_group_38 sub_q_0_group_39 sub_q_0_group_40 sub_q_0_group_41 sub_q_0_group_42 sub_q_0_group_43 sub_q_0_group_44 sub_q_0_group_45 sub_q_0_group_46 sub_q_0_group_47 sub_q_0_group_48 sub_q_0_group_49 sub_q_0_group_50 sub_q_0_group_51 sub_q_0_group_52 sub_q_0_group_53 sub_q_0_group_54 sub_q_0_group_55 sub_q_0_group_56 sub_q_0_group_57 sub_q_0_group_58 sub_q_0_group_59 sub_q_0_group_60 sub_q_0_group_61 sub_q_0_group_62 sub_q_0_group_63 sub_q_0_group_64 sub_q_0_group_65 sub_q_0_group_66 sub_q_0_group_67 sub_q_0_group_68 sub_q_0_group_69 sub_q_0_group_70 sub_q_0_group_71 sub_q_0_group_72 sub_q_0_group_73 sub_q_0_group_74 sub_q_0_group_75 sub_q_0_group_76 sub_q_0_group_77 sub_q_0_group_78 sub_q_0_group_79 sub_q_0_group_80 sub_q_0_group_81 sub_q_0_group_82 sub_q_0_group_83 sub_q_0_group_84 sub_q_0_group_85 sub_q_0_group_86 sub_q_0_group_87 sub_q_0_group_88 sub_q_0_group_89 sub_q_0_group_90 sub_q_0_group_91 sub_q_0_group_92 sub_q_0_group_93 sub_q_0_group_94 sub_q_0_group_95 sub_q_0_group_96 sub_q_0_group_97 sub_q_0_group_98 sub_q_0_group_99 sub_q_0.25_group_0 sub_q_0.25_group_1 sub_q_0.25_group_2 sub_q_0.25_group_3 sub_q_0.25_group_4 sub_q_0.25_group_5 sub_q_0.25_group_6 sub_q_0.25_group_7 sub_q_0.25_group_8 sub_q_0.25_group_9 sub_q_0.25_group_10 sub_q_0.25_group_11 sub_q_0.25_group_12 sub_q_0.25_group_13 sub_q_0.25_group_14 sub_q_0.25_group_15 sub_q_0.25_group_16 sub_q_0.25_group_17 sub_q_0.25_group_18 sub_q_0.25_group_19 sub_q_0.25_group_20 sub_q_0.25_group_21 sub_q_0.25_group_22 sub_q_0.25_group_23 sub_q_0.25_group_24 sub_q_0.25_group_25 sub_q_0.25_group_26 sub_q_0.25_group_27 sub_q_0.25_group_28 sub_q_0.25_group_29 sub_q_0.25_group_30 sub_q_0.25_group_31 sub_q_0.25_group_32 sub_q_0.25_group_33 sub_q_0.25_group_34 sub_q_0.25_group_35 sub_q_0.25_group_36 sub_q_0.25_group_37 sub_q_0.25_group_38 sub_q_0.25_group_39 sub_q_0.25_group_40 sub_q_0.25_group_41 sub_q_0.25_group_42 sub_q_0.25_group_43 sub_q_0.25_group_44 sub_q_0.25_group_45 sub_q_0.25_group_46 sub_q_0.25_group_47 sub_q_0.25_group_48 sub_q_0.25_group_49 sub_q_0.25_group_50 sub_q_0.25_group_51 sub_q_0.25_group_52 sub_q_0.25_group_53 sub_q_0.25_group_54 sub_q_0.25_group_55 sub_q_0.25_group_56 sub_q_0.25_group_57 sub_q_0.25_group_58 sub_q_0.25_group_59 sub_q_0.25_group_60 sub_q_0.25_group_61 sub_q_0.25_group_62 sub_q_0.25_group_63 sub_q_0.25_group_64 sub_q_0.25_group_65 sub_q_0.25_group_66 sub_q_0.25_group_67 sub_q_0.25_group_68 sub_q_0.25_group_69 sub_q_0.25_group_70 sub_q_0.25_group_71 sub_q_0.25_group_72 sub_q_0.25_group_73 sub_q_0.25_group_74 sub_q_0.25_group_75 sub_q_0.25_group_76 sub_q_0.25_group_77 sub_q_0.25_group_78 sub_q_0.25_group_79 sub_q_0.25_group_80 sub_q_0.25_group_81 sub_q_0.25_group_82 sub_q_0.25_group_83 sub_q_0.25_group_84 sub_q_0.25_group_85 sub_q_0.25_group_86 sub_q_0.25_group_87 sub_q_0.25_group_88 sub_q_0.25_group_89 sub_q_0.25_group_90 sub_q_0.25_group_91 sub_q_0.25_group_92 sub_q_0.25_group_93 sub_q_0.25_group_94 sub_q_0.25_group_95 sub_q_0.25_group_96 sub_q_0.25_group_97 sub_q_0.25_group_98 sub_q_0.25_group_99 sub_q_0.5_group_0 sub_q_0.5_group_1 sub_q_0.5_group_2 sub_q_0.5_group_3 sub_q_0.5_group_4 sub_q_0.5_group_5 sub_q_0.5_group_6 sub_q_0.5_group_7 sub_q_0.5_group_8 sub_q_0.5_group_9 sub_q_0.5_group_10 sub_q_0.5_group_11 sub_q_0.5_group_12 sub_q_0.5_group_13 sub_q_0.5_group_14 sub_q_0.5_group_15 sub_q_0.5_group_16 sub_q_0.5_group_17 sub_q_0.5_group_18 sub_q_0.5_group_19 sub_q_0.5_group_20 sub_q_0.5_group_21 sub_q_0.5_group_22 sub_q_0.5_group_23 sub_q_0.5_group_24 sub_q_0.5_group_25 sub_q_0.5_group_26 sub_q_0.5_group_27 sub_q_0.5_group_28 sub_q_0.5_group_29 sub_q_0.5_group_30 sub_q_0.5_group_31 sub_q_0.5_group_32 sub_q_0.5_group_33 sub_q_0.5_group_34 sub_q_0.5_group_35 sub_q_0.5_group_36 sub_q_0.5_group_37 sub_q_0.5_group_38 sub_q_0.5_group_39 sub_q_0.5_group_40 sub_q_0.5_group_41 sub_q_0.5_group_42 sub_q_0.5_group_43 sub_q_0.5_group_44 sub_q_0.5_group_45 sub_q_0.5_group_46 sub_q_0.5_group_47 sub_q_0.5_group_48 sub_q_0.5_group_49 sub_q_0.5_group_50 sub_q_0.5_group_51 sub_q_0.5_group_52 sub_q_0.5_group_53 sub_q_0.5_group_54 sub_q_0.5_group_55 sub_q_0.5_group_56 sub_q_0.5_group_57 sub_q_0.5_group_58 sub_q_0.5_group_59 sub_q_0.5_group_60 sub_q_0.5_group_61 sub_q_0.5_group_62 sub_q_0.5_group_63 sub_q_0.5_group_64 sub_q_0.5_group_65 sub_q_0.5_group_66 sub_q_0.5_group_67 sub_q_0.5_group_68 sub_q_0.5_group_69 sub_q_0.5_group_70 sub_q_0.5_group_71 sub_q_0.5_group_72 sub_q_0.5_group_73 sub_q_0.5_group_74 sub_q_0.5_group_75 sub_q_0.5_group_76 sub_q_0.5_group_77 sub_q_0.5_group_78 sub_q_0.5_group_79 sub_q_0.5_group_80 sub_q_0.5_group_81 sub_q_0.5_group_82 sub_q_0.5_group_83 sub_q_0.5_group_84 sub_q_0.5_group_85 sub_q_0.5_group_86 sub_q_0.5_group_87 sub_q_0.5_group_88 sub_q_0.5_group_89 sub_q_0.5_group_90 sub_q_0.5_group_91 sub_q_0.5_group_92 sub_q_0.5_group_93 sub_q_0.5_group_94 sub_q_0.5_group_95 sub_q_0.5_group_96 sub_q_0.5_group_97 sub_q_0.5_group_98 sub_q_0.5_group_99 sub_q_0.75_group_0 sub_q_0.75_group_1 sub_q_0.75_group_2 sub_q_0.75_group_3 sub_q_0.75_group_4 sub_q_0.75_group_5 sub_q_0.75_group_6 sub_q_0.75_group_7 sub_q_0.75_group_8 sub_q_0.75_group_9 sub_q_0.75_group_10 sub_q_0.75_group_11 sub_q_0.75_group_12 sub_q_0.75_group_13 sub_q_0.75_group_14 sub_q_0.75_group_15 sub_q_0.75_group_16 sub_q_0.75_group_17 sub_q_0.75_group_18 sub_q_0.75_group_19 sub_q_0.75_group_20 sub_q_0.75_group_21 sub_q_0.75_group_22 sub_q_0.75_group_23 sub_q_0.75_group_24 sub_q_0.75_group_25 sub_q_0.75_group_26 sub_q_0.75_group_27 sub_q_0.75_group_28 sub_q_0.75_group_29 sub_q_0.75_group_30 sub_q_0.75_group_31 sub_q_0.75_group_32 sub_q_0.75_group_33 sub_q_0.75_group_34 sub_q_0.75_group_35 sub_q_0.75_group_36 sub_q_0.75_group_37 sub_q_0.75_group_38 sub_q_0.75_group_39 sub_q_0.75_group_40 sub_q_0.75_group_41 sub_q_0.75_group_42 sub_q_0.75_group_43 sub_q_0.75_group_44 sub_q_0.75_group_45 sub_q_0.75_group_46 sub_q_0.75_group_47 sub_q_0.75_group_48 sub_q_0.75_group_49 sub_q_0.75_group_50 sub_q_0.75_group_51 sub_q_0.75_group_52 sub_q_0.75_group_53 sub_q_0.75_group_54 sub_q_0.75_group_55 sub_q_0.75_group_56 sub_q_0.75_group_57 sub_q_0.75_group_58 sub_q_0.75_group_59 sub_q_0.75_group_60 sub_q_0.75_group_61 sub_q_0.75_group_62 sub_q_0.75_group_63 sub_q_0.75_group_64 sub_q_0.75_group_65 sub_q_0.75_group_66 sub_q_0.75_group_67 sub_q_0.75_group_68 sub_q_0.75_group_69 sub_q_0.75_group_70 sub_q_0.75_group_71 sub_q_0.75_group_72 sub_q_0.75_group_73 sub_q_0.75_group_74 sub_q_0.75_group_75 sub_q_0.75_group_76 sub_q_0.75_group_77 sub_q_0.75_group_78 sub_q_0.75_group_79 sub_q_0.75_group_80 sub_q_0.75_group_81 sub_q_0.75_group_82 sub_q_0.75_group_83 sub_q_0.75_group_84 sub_q_0.75_group_85 sub_q_0.75_group_86 sub_q_0.75_group_87 sub_q_0.75_group_88 sub_q_0.75_group_89 sub_q_0.75_group_90 sub_q_0.75_group_91 sub_q_0.75_group_92 sub_q_0.75_group_93 sub_q_0.75_group_94 sub_q_0.75_group_95 sub_q_0.75_group_96 sub_q_0.75_group_97 sub_q_0.75_group_98 sub_q_0.75_group_99 sub_q_1_group_0 sub_q_1_group_1 sub_q_1_group_2 sub_q_1_group_3 sub_q_1_group_4 sub_q_1_group_5 sub_q_1_group_6 sub_q_1_group_7 sub_q_1_group_8 sub_q_1_group_9 sub_q_1_group_10 sub_q_1_group_11 sub_q_1_group_12 sub_q_1_group_13 sub_q_1_group_14 sub_q_1_group_15 sub_q_1_group_16 sub_q_1_group_17 sub_q_1_group_18 sub_q_1_group_19 sub_q_1_group_20 sub_q_1_group_21 sub_q_1_group_22 sub_q_1_group_23 sub_q_1_group_24 sub_q_1_group_25 sub_q_1_group_26 sub_q_1_group_27 sub_q_1_group_28 sub_q_1_group_29 sub_q_1_group_30 sub_q_1_group_31 sub_q_1_group_32 sub_q_1_group_33 sub_q_1_group_34 sub_q_1_group_35 sub_q_1_group_36 sub_q_1_group_37 sub_q_1_group_38 sub_q_1_group_39 sub_q_1_group_40 sub_q_1_group_41 sub_q_1_group_42 sub_q_1_group_43 sub_q_1_group_44 sub_q_1_group_45 sub_q_1_group_46 sub_q_1_group_47 sub_q_1_group_48 sub_q_1_group_49 sub_q_1_group_50 sub_q_1_group_51 sub_q_1_group_52 sub_q_1_group_53 sub_q_1_group_54 sub_q_1_group_55 sub_q_1_group_56 sub_q_1_group_57 sub_q_1_group_58 sub_q_1_group_59 sub_q_1_group_60 sub_q_1_group_61 sub_q_1_group_62 sub_q_1_group_63 sub_q_1_group_64 sub_q_1_group_65 sub_q_1_group_66 sub_q_1_group_67 sub_q_1_group_68 sub_q_1_group_69 sub_q_1_group_70 sub_q_1_group_71 sub_q_1_group_72 sub_q_1_group_73 sub_q_1_group_74 sub_q_1_group_75 sub_q_1_group_76 sub_q_1_group_77 sub_q_1_group_78 sub_q_1_group_79 sub_q_1_group_80 sub_q_1_group_81 sub_q_1_group_82 sub_q_1_group_83 sub_q_1_group_84 sub_q_1_group_85 sub_q_1_group_86 sub_q_1_group_87 sub_q_1_group_88 sub_q_1_group_89 sub_q_1_group_90 sub_q_1_group_91 sub_q_1_group_92 sub_q_1_group_93 sub_q_1_group_94 sub_q_1_group_95 sub_q_1_group_96 sub_q_1_group_97 sub_q_1_group_98 sub_q_1_group_99 sub_fft_0_group_0 sub_fft_1_group_0 sub_fft_2_group_0 sub_fft_3_group_0 sub_fft_4_group_0 sub_fft_5_group_0 sub_fft_6_group_0 sub_fft_7_group_0 sub_fft_8_group_0 sub_fft_9_group_0 sub_fft_0_group_1 sub_fft_1_group_1 sub_fft_2_group_1 sub_fft_3_group_1 sub_fft_4_group_1 sub_fft_5_group_1 sub_fft_6_group_1 sub_fft_7_group_1 sub_fft_8_group_1 sub_fft_9_group_1 sub_fft_0_group_2 sub_fft_1_group_2 sub_fft_2_group_2 sub_fft_3_group_2 sub_fft_4_group_2 sub_fft_5_group_2 sub_fft_6_group_2 sub_fft_7_group_2 sub_fft_8_group_2 sub_fft_9_group_2 sub_fft_0_group_3 sub_fft_1_group_3 sub_fft_2_group_3 sub_fft_3_group_3 sub_fft_4_group_3 sub_fft_5_group_3 sub_fft_6_group_3 sub_fft_7_group_3 sub_fft_8_group_3 sub_fft_9_group_3 sub_fft_0_group_4 sub_fft_1_group_4 sub_fft_2_group_4 sub_fft_3_group_4 sub_fft_4_group_4 sub_fft_5_group_4 sub_fft_6_group_4 sub_fft_7_group_4 sub_fft_8_group_4 sub_fft_9_group_4 sub_fft_0_group_5 sub_fft_1_group_5 sub_fft_2_group_5 sub_fft_3_group_5 sub_fft_4_group_5 sub_fft_5_group_5 sub_fft_6_group_5 sub_fft_7_group_5 sub_fft_8_group_5 sub_fft_9_group_5 sub_fft_0_group_6 sub_fft_1_group_6 sub_fft_2_group_6 sub_fft_3_group_6 sub_fft_4_group_6 sub_fft_5_group_6 sub_fft_6_group_6 sub_fft_7_group_6 sub_fft_8_group_6 sub_fft_9_group_6 sub_fft_0_group_7 sub_fft_1_group_7 sub_fft_2_group_7 sub_fft_3_group_7 sub_fft_4_group_7 sub_fft_5_group_7 sub_fft_6_group_7 sub_fft_7_group_7 sub_fft_8_group_7 sub_fft_9_group_7 sub_fft_0_group_8 sub_fft_1_group_8 sub_fft_2_group_8 sub_fft_3_group_8 sub_fft_4_group_8 sub_fft_5_group_8 sub_fft_6_group_8 sub_fft_7_group_8 sub_fft_8_group_8 sub_fft_9_group_8 sub_fft_0_group_9 sub_fft_1_group_9 sub_fft_2_group_9 sub_fft_3_group_9 sub_fft_4_group_9 sub_fft_5_group_9 sub_fft_6_group_9 sub_fft_7_group_9 sub_fft_8_group_9 sub_fft_9_group_9 sub_fft_0_group_10 sub_fft_1_group_10 sub_fft_2_group_10 sub_fft_3_group_10 sub_fft_4_group_10 sub_fft_5_group_10 sub_fft_6_group_10 sub_fft_7_group_10 sub_fft_8_group_10 sub_fft_9_group_10 sub_fft_0_group_11 sub_fft_1_group_11 sub_fft_2_group_11 sub_fft_3_group_11 sub_fft_4_group_11 sub_fft_5_group_11 sub_fft_6_group_11 sub_fft_7_group_11 sub_fft_8_group_11 sub_fft_9_group_11 sub_fft_0_group_12 sub_fft_1_group_12 sub_fft_2_group_12 sub_fft_3_group_12 sub_fft_4_group_12 sub_fft_5_group_12 sub_fft_6_group_12 sub_fft_7_group_12 sub_fft_8_group_12 sub_fft_9_group_12 sub_fft_0_group_13 sub_fft_1_group_13 sub_fft_2_group_13 sub_fft_3_group_13 sub_fft_4_group_13 sub_fft_5_group_13 sub_fft_6_group_13 sub_fft_7_group_13 sub_fft_8_group_13 sub_fft_9_group_13 sub_fft_0_group_14 sub_fft_1_group_14 sub_fft_2_group_14 sub_fft_3_group_14 sub_fft_4_group_14 sub_fft_5_group_14 sub_fft_6_group_14 sub_fft_7_group_14 sub_fft_8_group_14 sub_fft_9_group_14 sub_fft_0_group_15 sub_fft_1_group_15 sub_fft_2_group_15 sub_fft_3_group_15 sub_fft_4_group_15 sub_fft_5_group_15 sub_fft_6_group_15 sub_fft_7_group_15 sub_fft_8_group_15 sub_fft_9_group_15 sub_fft_0_group_16 sub_fft_1_group_16 sub_fft_2_group_16 sub_fft_3_group_16 sub_fft_4_group_16 sub_fft_5_group_16 sub_fft_6_group_16 sub_fft_7_group_16 sub_fft_8_group_16 sub_fft_9_group_16 sub_fft_0_group_17 sub_fft_1_group_17 sub_fft_2_group_17 sub_fft_3_group_17 sub_fft_4_group_17 sub_fft_5_group_17 sub_fft_6_group_17 sub_fft_7_group_17 sub_fft_8_group_17 sub_fft_9_group_17 sub_fft_0_group_18 sub_fft_1_group_18 sub_fft_2_group_18 sub_fft_3_group_18 sub_fft_4_group_18 sub_fft_5_group_18 sub_fft_6_group_18 sub_fft_7_group_18 sub_fft_8_group_18 sub_fft_9_group_18 sub_fft_0_group_19 sub_fft_1_group_19 sub_fft_2_group_19 sub_fft_3_group_19 sub_fft_4_group_19 sub_fft_5_group_19 sub_fft_6_group_19 sub_fft_7_group_19 sub_fft_8_group_19 sub_fft_9_group_19 sub_fft_0_group_20 sub_fft_1_group_20 sub_fft_2_group_20 sub_fft_3_group_20 sub_fft_4_group_20 sub_fft_5_group_20 sub_fft_6_group_20 sub_fft_7_group_20 sub_fft_8_group_20 sub_fft_9_group_20 sub_fft_0_group_21 sub_fft_1_group_21 sub_fft_2_group_21 sub_fft_3_group_21 sub_fft_4_group_21 sub_fft_5_group_21 sub_fft_6_group_21 sub_fft_7_group_21 sub_fft_8_group_21 sub_fft_9_group_21 sub_fft_0_group_22 sub_fft_1_group_22 sub_fft_2_group_22 sub_fft_3_group_22 sub_fft_4_group_22 sub_fft_5_group_22 sub_fft_6_group_22 sub_fft_7_group_22 sub_fft_8_group_22 sub_fft_9_group_22 sub_fft_0_group_23 sub_fft_1_group_23 sub_fft_2_group_23 sub_fft_3_group_23 sub_fft_4_group_23 sub_fft_5_group_23 sub_fft_6_group_23 sub_fft_7_group_23 sub_fft_8_group_23 sub_fft_9_group_23 sub_fft_0_group_24 sub_fft_1_group_24 sub_fft_2_group_24 sub_fft_3_group_24 sub_fft_4_group_24 sub_fft_5_group_24 sub_fft_6_group_24 sub_fft_7_group_24 sub_fft_8_group_24 sub_fft_9_group_24 sub_fft_0_group_25 sub_fft_1_group_25 sub_fft_2_group_25 sub_fft_3_group_25 sub_fft_4_group_25 sub_fft_5_group_25 sub_fft_6_group_25 sub_fft_7_group_25 sub_fft_8_group_25 sub_fft_9_group_25 sub_fft_0_group_26 sub_fft_1_group_26 sub_fft_2_group_26 sub_fft_3_group_26 sub_fft_4_group_26 sub_fft_5_group_26 sub_fft_6_group_26 sub_fft_7_group_26 sub_fft_8_group_26 sub_fft_9_group_26 sub_fft_0_group_27 sub_fft_1_group_27 sub_fft_2_group_27 sub_fft_3_group_27 sub_fft_4_group_27 sub_fft_5_group_27 sub_fft_6_group_27 sub_fft_7_group_27 sub_fft_8_group_27 sub_fft_9_group_27 sub_fft_0_group_28 sub_fft_1_group_28 sub_fft_2_group_28 sub_fft_3_group_28 sub_fft_4_group_28 sub_fft_5_group_28 sub_fft_6_group_28 sub_fft_7_group_28 sub_fft_8_group_28 sub_fft_9_group_28 sub_fft_0_group_29 sub_fft_1_group_29 sub_fft_2_group_29 sub_fft_3_group_29 sub_fft_4_group_29 sub_fft_5_group_29 sub_fft_6_group_29 sub_fft_7_group_29 sub_fft_8_group_29 sub_fft_9_group_29 sub_fft_0_group_30 sub_fft_1_group_30 sub_fft_2_group_30 sub_fft_3_group_30 sub_fft_4_group_30 sub_fft_5_group_30 sub_fft_6_group_30 sub_fft_7_group_30 sub_fft_8_group_30 sub_fft_9_group_30 sub_fft_0_group_31 sub_fft_1_group_31 sub_fft_2_group_31 sub_fft_3_group_31 sub_fft_4_group_31 sub_fft_5_group_31 sub_fft_6_group_31 sub_fft_7_group_31 sub_fft_8_group_31 sub_fft_9_group_31 sub_fft_0_group_32 sub_fft_1_group_32 sub_fft_2_group_32 sub_fft_3_group_32 sub_fft_4_group_32 sub_fft_5_group_32 sub_fft_6_group_32 sub_fft_7_group_32 sub_fft_8_group_32 sub_fft_9_group_32 sub_fft_0_group_33 sub_fft_1_group_33 sub_fft_2_group_33 sub_fft_3_group_33 sub_fft_4_group_33 sub_fft_5_group_33 sub_fft_6_group_33 sub_fft_7_group_33 sub_fft_8_group_33 sub_fft_9_group_33 sub_fft_0_group_34 sub_fft_1_group_34 sub_fft_2_group_34 sub_fft_3_group_34 sub_fft_4_group_34 sub_fft_5_group_34 sub_fft_6_group_34 sub_fft_7_group_34 sub_fft_8_group_34 sub_fft_9_group_34 sub_fft_0_group_35 sub_fft_1_group_35 sub_fft_2_group_35 sub_fft_3_group_35 sub_fft_4_group_35 sub_fft_5_group_35 sub_fft_6_group_35 sub_fft_7_group_35 sub_fft_8_group_35 sub_fft_9_group_35 sub_fft_0_group_36 sub_fft_1_group_36 sub_fft_2_group_36 sub_fft_3_group_36 sub_fft_4_group_36 sub_fft_5_group_36 sub_fft_6_group_36 sub_fft_7_group_36 sub_fft_8_group_36 sub_fft_9_group_36 sub_fft_0_group_37 sub_fft_1_group_37 sub_fft_2_group_37 sub_fft_3_group_37 sub_fft_4_group_37 sub_fft_5_group_37 sub_fft_6_group_37 sub_fft_7_group_37 sub_fft_8_group_37 sub_fft_9_group_37 sub_fft_0_group_38 sub_fft_1_group_38 sub_fft_2_group_38 sub_fft_3_group_38 sub_fft_4_group_38 sub_fft_5_group_38 sub_fft_6_group_38 sub_fft_7_group_38 sub_fft_8_group_38 sub_fft_9_group_38 sub_fft_0_group_39 sub_fft_1_group_39 sub_fft_2_group_39 sub_fft_3_group_39 sub_fft_4_group_39 sub_fft_5_group_39 sub_fft_6_group_39 sub_fft_7_group_39 sub_fft_8_group_39 sub_fft_9_group_39 sub_fft_0_group_40 sub_fft_1_group_40 sub_fft_2_group_40 sub_fft_3_group_40 sub_fft_4_group_40 sub_fft_5_group_40 sub_fft_6_group_40 sub_fft_7_group_40 sub_fft_8_group_40 sub_fft_9_group_40 sub_fft_0_group_41 sub_fft_1_group_41 sub_fft_2_group_41 sub_fft_3_group_41 sub_fft_4_group_41 sub_fft_5_group_41 sub_fft_6_group_41 sub_fft_7_group_41 sub_fft_8_group_41 sub_fft_9_group_41 sub_fft_0_group_42 sub_fft_1_group_42 sub_fft_2_group_42 sub_fft_3_group_42 sub_fft_4_group_42 sub_fft_5_group_42 sub_fft_6_group_42 sub_fft_7_group_42 sub_fft_8_group_42 sub_fft_9_group_42 sub_fft_0_group_43 sub_fft_1_group_43 sub_fft_2_group_43 sub_fft_3_group_43 sub_fft_4_group_43 sub_fft_5_group_43 sub_fft_6_group_43 sub_fft_7_group_43 sub_fft_8_group_43 sub_fft_9_group_43 sub_fft_0_group_44 sub_fft_1_group_44 sub_fft_2_group_44 sub_fft_3_group_44 sub_fft_4_group_44 sub_fft_5_group_44 sub_fft_6_group_44 sub_fft_7_group_44 sub_fft_8_group_44 sub_fft_9_group_44 sub_fft_0_group_45 sub_fft_1_group_45 sub_fft_2_group_45 sub_fft_3_group_45 sub_fft_4_group_45 sub_fft_5_group_45 sub_fft_6_group_45 sub_fft_7_group_45 sub_fft_8_group_45 sub_fft_9_group_45 sub_fft_0_group_46 sub_fft_1_group_46 sub_fft_2_group_46 sub_fft_3_group_46 sub_fft_4_group_46 sub_fft_5_group_46 sub_fft_6_group_46 sub_fft_7_group_46 sub_fft_8_group_46 sub_fft_9_group_46 sub_fft_0_group_47 sub_fft_1_group_47 sub_fft_2_group_47 sub_fft_3_group_47 sub_fft_4_group_47 sub_fft_5_group_47 sub_fft_6_group_47 sub_fft_7_group_47 sub_fft_8_group_47 sub_fft_9_group_47 sub_fft_0_group_48 sub_fft_1_group_48 sub_fft_2_group_48 sub_fft_3_group_48 sub_fft_4_group_48 sub_fft_5_group_48 sub_fft_6_group_48 sub_fft_7_group_48 sub_fft_8_group_48 sub_fft_9_group_48 sub_fft_0_group_49 sub_fft_1_group_49 sub_fft_2_group_49 sub_fft_3_group_49 sub_fft_4_group_49 sub_fft_5_group_49 sub_fft_6_group_49 sub_fft_7_group_49 sub_fft_8_group_49 sub_fft_9_group_49 sub_fft_0_group_50 sub_fft_1_group_50 sub_fft_2_group_50 sub_fft_3_group_50 sub_fft_4_group_50 sub_fft_5_group_50 sub_fft_6_group_50 sub_fft_7_group_50 sub_fft_8_group_50 sub_fft_9_group_50 sub_fft_0_group_51 sub_fft_1_group_51 sub_fft_2_group_51 sub_fft_3_group_51 sub_fft_4_group_51 sub_fft_5_group_51 sub_fft_6_group_51 sub_fft_7_group_51 sub_fft_8_group_51 sub_fft_9_group_51 sub_fft_0_group_52 sub_fft_1_group_52 sub_fft_2_group_52 sub_fft_3_group_52 sub_fft_4_group_52 sub_fft_5_group_52 sub_fft_6_group_52 sub_fft_7_group_52 sub_fft_8_group_52 sub_fft_9_group_52 sub_fft_0_group_53 sub_fft_1_group_53 sub_fft_2_group_53 sub_fft_3_group_53 sub_fft_4_group_53 sub_fft_5_group_53 sub_fft_6_group_53 sub_fft_7_group_53 sub_fft_8_group_53 sub_fft_9_group_53 sub_fft_0_group_54 sub_fft_1_group_54 sub_fft_2_group_54 sub_fft_3_group_54 sub_fft_4_group_54 sub_fft_5_group_54 sub_fft_6_group_54 sub_fft_7_group_54 sub_fft_8_group_54 sub_fft_9_group_54 sub_fft_0_group_55 sub_fft_1_group_55 sub_fft_2_group_55 sub_fft_3_group_55 sub_fft_4_group_55 sub_fft_5_group_55 sub_fft_6_group_55 sub_fft_7_group_55 sub_fft_8_group_55 sub_fft_9_group_55 sub_fft_0_group_56 sub_fft_1_group_56 sub_fft_2_group_56 sub_fft_3_group_56 sub_fft_4_group_56 sub_fft_5_group_56 sub_fft_6_group_56 sub_fft_7_group_56 sub_fft_8_group_56 sub_fft_9_group_56 sub_fft_0_group_57 sub_fft_1_group_57 sub_fft_2_group_57 sub_fft_3_group_57 sub_fft_4_group_57 sub_fft_5_group_57 sub_fft_6_group_57 sub_fft_7_group_57 sub_fft_8_group_57 sub_fft_9_group_57 sub_fft_0_group_58 sub_fft_1_group_58 sub_fft_2_group_58 sub_fft_3_group_58 sub_fft_4_group_58 sub_fft_5_group_58 sub_fft_6_group_58 sub_fft_7_group_58 sub_fft_8_group_58 sub_fft_9_group_58 sub_fft_0_group_59 sub_fft_1_group_59 sub_fft_2_group_59 sub_fft_3_group_59 sub_fft_4_group_59 sub_fft_5_group_59 sub_fft_6_group_59 sub_fft_7_group_59 sub_fft_8_group_59 sub_fft_9_group_59 sub_fft_0_group_60 sub_fft_1_group_60 sub_fft_2_group_60 sub_fft_3_group_60 sub_fft_4_group_60 sub_fft_5_group_60 sub_fft_6_group_60 sub_fft_7_group_60 sub_fft_8_group_60 sub_fft_9_group_60 sub_fft_0_group_61 sub_fft_1_group_61 sub_fft_2_group_61 sub_fft_3_group_61 sub_fft_4_group_61 sub_fft_5_group_61 sub_fft_6_group_61 sub_fft_7_group_61 sub_fft_8_group_61 sub_fft_9_group_61 sub_fft_0_group_62 sub_fft_1_group_62 sub_fft_2_group_62 sub_fft_3_group_62 sub_fft_4_group_62 sub_fft_5_group_62 sub_fft_6_group_62 sub_fft_7_group_62 sub_fft_8_group_62 sub_fft_9_group_62 sub_fft_0_group_63 sub_fft_1_group_63 sub_fft_2_group_63 sub_fft_3_group_63 sub_fft_4_group_63 sub_fft_5_group_63 sub_fft_6_group_63 sub_fft_7_group_63 sub_fft_8_group_63 sub_fft_9_group_63 sub_fft_0_group_64 sub_fft_1_group_64 sub_fft_2_group_64 sub_fft_3_group_64 sub_fft_4_group_64 sub_fft_5_group_64 sub_fft_6_group_64 sub_fft_7_group_64 sub_fft_8_group_64 sub_fft_9_group_64 sub_fft_0_group_65 sub_fft_1_group_65 sub_fft_2_group_65 sub_fft_3_group_65 sub_fft_4_group_65 sub_fft_5_group_65 sub_fft_6_group_65 sub_fft_7_group_65 sub_fft_8_group_65 sub_fft_9_group_65 sub_fft_0_group_66 sub_fft_1_group_66 sub_fft_2_group_66 sub_fft_3_group_66 sub_fft_4_group_66 sub_fft_5_group_66 sub_fft_6_group_66 sub_fft_7_group_66 sub_fft_8_group_66 sub_fft_9_group_66 sub_fft_0_group_67 sub_fft_1_group_67 sub_fft_2_group_67 sub_fft_3_group_67 sub_fft_4_group_67 sub_fft_5_group_67 sub_fft_6_group_67 sub_fft_7_group_67 sub_fft_8_group_67 sub_fft_9_group_67 sub_fft_0_group_68 sub_fft_1_group_68 sub_fft_2_group_68 sub_fft_3_group_68 sub_fft_4_group_68 sub_fft_5_group_68 sub_fft_6_group_68 sub_fft_7_group_68 sub_fft_8_group_68 sub_fft_9_group_68 sub_fft_0_group_69 sub_fft_1_group_69 sub_fft_2_group_69 sub_fft_3_group_69 sub_fft_4_group_69 sub_fft_5_group_69 sub_fft_6_group_69 sub_fft_7_group_69 sub_fft_8_group_69 sub_fft_9_group_69 sub_fft_0_group_70 sub_fft_1_group_70 sub_fft_2_group_70 sub_fft_3_group_70 sub_fft_4_group_70 sub_fft_5_group_70 sub_fft_6_group_70 sub_fft_7_group_70 sub_fft_8_group_70 sub_fft_9_group_70 sub_fft_0_group_71 sub_fft_1_group_71 sub_fft_2_group_71 sub_fft_3_group_71 sub_fft_4_group_71 sub_fft_5_group_71 sub_fft_6_group_71 sub_fft_7_group_71 sub_fft_8_group_71 sub_fft_9_group_71 sub_fft_0_group_72 sub_fft_1_group_72 sub_fft_2_group_72 sub_fft_3_group_72 sub_fft_4_group_72 sub_fft_5_group_72 sub_fft_6_group_72 sub_fft_7_group_72 sub_fft_8_group_72 sub_fft_9_group_72 sub_fft_0_group_73 sub_fft_1_group_73 sub_fft_2_group_73 sub_fft_3_group_73 sub_fft_4_group_73 sub_fft_5_group_73 sub_fft_6_group_73 sub_fft_7_group_73 sub_fft_8_group_73 sub_fft_9_group_73 sub_fft_0_group_74 sub_fft_1_group_74 sub_fft_2_group_74 sub_fft_3_group_74 sub_fft_4_group_74 sub_fft_5_group_74 sub_fft_6_group_74 sub_fft_7_group_74 sub_fft_8_group_74 sub_fft_9_group_74 sub_fft_0_group_75 sub_fft_1_group_75 sub_fft_2_group_75 sub_fft_3_group_75 sub_fft_4_group_75 sub_fft_5_group_75 sub_fft_6_group_75 sub_fft_7_group_75 sub_fft_8_group_75 sub_fft_9_group_75 sub_fft_0_group_76 sub_fft_1_group_76 sub_fft_2_group_76 sub_fft_3_group_76 sub_fft_4_group_76 sub_fft_5_group_76 sub_fft_6_group_76 sub_fft_7_group_76 sub_fft_8_group_76 sub_fft_9_group_76 sub_fft_0_group_77 sub_fft_1_group_77 sub_fft_2_group_77 sub_fft_3_group_77 sub_fft_4_group_77 sub_fft_5_group_77 sub_fft_6_group_77 sub_fft_7_group_77 sub_fft_8_group_77 sub_fft_9_group_77 sub_fft_0_group_78 sub_fft_1_group_78 sub_fft_2_group_78 sub_fft_3_group_78 sub_fft_4_group_78 sub_fft_5_group_78 sub_fft_6_group_78 sub_fft_7_group_78 sub_fft_8_group_78 sub_fft_9_group_78 sub_fft_0_group_79 sub_fft_1_group_79 sub_fft_2_group_79 sub_fft_3_group_79 sub_fft_4_group_79 sub_fft_5_group_79 sub_fft_6_group_79 sub_fft_7_group_79 sub_fft_8_group_79 sub_fft_9_group_79 sub_fft_0_group_80 sub_fft_1_group_80 sub_fft_2_group_80 sub_fft_3_group_80 sub_fft_4_group_80 sub_fft_5_group_80 sub_fft_6_group_80 sub_fft_7_group_80 sub_fft_8_group_80 sub_fft_9_group_80 sub_fft_0_group_81 sub_fft_1_group_81 sub_fft_2_group_81 sub_fft_3_group_81 sub_fft_4_group_81 sub_fft_5_group_81 sub_fft_6_group_81 sub_fft_7_group_81 sub_fft_8_group_81 sub_fft_9_group_81 sub_fft_0_group_82 sub_fft_1_group_82 sub_fft_2_group_82 sub_fft_3_group_82 sub_fft_4_group_82 sub_fft_5_group_82 sub_fft_6_group_82 sub_fft_7_group_82 sub_fft_8_group_82 sub_fft_9_group_82 sub_fft_0_group_83 sub_fft_1_group_83 sub_fft_2_group_83 sub_fft_3_group_83 sub_fft_4_group_83 sub_fft_5_group_83 sub_fft_6_group_83 sub_fft_7_group_83 sub_fft_8_group_83 sub_fft_9_group_83 sub_fft_0_group_84 sub_fft_1_group_84 sub_fft_2_group_84 sub_fft_3_group_84 sub_fft_4_group_84 sub_fft_5_group_84 sub_fft_6_group_84 sub_fft_7_group_84 sub_fft_8_group_84 sub_fft_9_group_84 sub_fft_0_group_85 sub_fft_1_group_85 sub_fft_2_group_85 sub_fft_3_group_85 sub_fft_4_group_85 sub_fft_5_group_85 sub_fft_6_group_85 sub_fft_7_group_85 sub_fft_8_group_85 sub_fft_9_group_85 sub_fft_0_group_86 sub_fft_1_group_86 sub_fft_2_group_86 sub_fft_3_group_86 sub_fft_4_group_86 sub_fft_5_group_86 sub_fft_6_group_86 sub_fft_7_group_86 sub_fft_8_group_86 sub_fft_9_group_86 sub_fft_0_group_87 sub_fft_1_group_87 sub_fft_2_group_87 sub_fft_3_group_87 sub_fft_4_group_87 sub_fft_5_group_87 sub_fft_6_group_87 sub_fft_7_group_87 sub_fft_8_group_87 sub_fft_9_group_87 sub_fft_0_group_88 sub_fft_1_group_88 sub_fft_2_group_88 sub_fft_3_group_88 sub_fft_4_group_88 sub_fft_5_group_88 sub_fft_6_group_88 sub_fft_7_group_88 sub_fft_8_group_88 sub_fft_9_group_88 sub_fft_0_group_89 sub_fft_1_group_89 sub_fft_2_group_89 sub_fft_3_group_89 sub_fft_4_group_89 sub_fft_5_group_89 sub_fft_6_group_89 sub_fft_7_group_89 sub_fft_8_group_89 sub_fft_9_group_89 sub_fft_0_group_90 sub_fft_1_group_90 sub_fft_2_group_90 sub_fft_3_group_90 sub_fft_4_group_90 sub_fft_5_group_90 sub_fft_6_group_90 sub_fft_7_group_90 sub_fft_8_group_90 sub_fft_9_group_90 sub_fft_0_group_91 sub_fft_1_group_91 sub_fft_2_group_91 sub_fft_3_group_91 sub_fft_4_group_91 sub_fft_5_group_91 sub_fft_6_group_91 sub_fft_7_group_91 sub_fft_8_group_91 sub_fft_9_group_91 sub_fft_0_group_92 sub_fft_1_group_92 sub_fft_2_group_92 sub_fft_3_group_92 sub_fft_4_group_92 sub_fft_5_group_92 sub_fft_6_group_92 sub_fft_7_group_92 sub_fft_8_group_92 sub_fft_9_group_92 sub_fft_0_group_93 sub_fft_1_group_93 sub_fft_2_group_93 sub_fft_3_group_93 sub_fft_4_group_93 sub_fft_5_group_93 sub_fft_6_group_93 sub_fft_7_group_93 sub_fft_8_group_93 sub_fft_9_group_93 sub_fft_0_group_94 sub_fft_1_group_94 sub_fft_2_group_94 sub_fft_3_group_94 sub_fft_4_group_94 sub_fft_5_group_94 sub_fft_6_group_94 sub_fft_7_group_94 sub_fft_8_group_94 sub_fft_9_group_94 sub_fft_0_group_95 sub_fft_1_group_95 sub_fft_2_group_95 sub_fft_3_group_95 sub_fft_4_group_95 sub_fft_5_group_95 sub_fft_6_group_95 sub_fft_7_group_95 sub_fft_8_group_95 sub_fft_9_group_95 sub_fft_0_group_96 sub_fft_1_group_96 sub_fft_2_group_96 sub_fft_3_group_96 sub_fft_4_group_96 sub_fft_5_group_96 sub_fft_6_group_96 sub_fft_7_group_96 sub_fft_8_group_96 sub_fft_9_group_96 sub_fft_0_group_97 sub_fft_1_group_97 sub_fft_2_group_97 sub_fft_3_group_97 sub_fft_4_group_97 sub_fft_5_group_97 sub_fft_6_group_97 sub_fft_7_group_97 sub_fft_8_group_97 sub_fft_9_group_97 sub_fft_0_group_98 sub_fft_1_group_98 sub_fft_2_group_98 sub_fft_3_group_98 sub_fft_4_group_98 sub_fft_5_group_98 sub_fft_6_group_98 sub_fft_7_group_98 sub_fft_8_group_98 sub_fft_9_group_98 sub_fft_0_group_99 sub_fft_1_group_99 sub_fft_2_group_99 sub_fft_3_group_99 sub_fft_4_group_99 sub_fft_5_group_99 sub_fft_6_group_99 sub_fft_7_group_99 sub_fft_8_group_99 sub_fft_9_group_99
feature_infos=[3.5549666666666666:5.2176266666666669] [2.8373168798943365:153.70545691422839] [-5515:-20] [-2:3] [4:5] [6:11] [30:5444] [7420.1064031480128:43934.052635581276] [936.48728712184209:34677.959269074287] [788.82928274210599:49916.833136103356] [792.57705781284528:82113.99758195295] [946.71817148765763:151747.47323211757] [1310.1275201485173:157006.53428241223] [1609.0605480748536:111537.26068755746] [1117.0289712448621:12878.215302926958] [862.62145195990331:1745.1895992550089] [591.40330961613722:860.35900522845577] [0.57600000000000007:5.5253333333333323] [3.0626666666666669:8.4306666666666672] [2.547333333333333:6.7139999999999995] [-6.5499999999999998:6.9000000000000004] [3.0326666666666666:18.707999999999998] [0.034000000000000002:5.7333333333333325] [3.3153333333333328:5.5833333333333321] [2.9386666666666668:7.2873333333333337] [0.89066666666666672:13.196666666666667] [2.6000000000000001:6.5086666666666675] [-0.10000000000000001:5.6373333333333324] [3.3813333333333331:9.8726666666666674] [0.32866666666666666:8.5426666666666673] [1.8093333333333328:6.3653333333333322] [3.4013333333333331:8.4746666666666659] [3.289333333333333:5.5433333333333321] [-15.197333333333333:5.5506666666666664] [2.9386666666666668:37.324666666666666] [-5.5073333333333325:6.7233333333333336] [2.3860000000000001:19.370000000000001] [1.6526666666666667:8.9106666666666658] [-0.77800000000000002:6.5439999999999996] [3.3239999999999998:8.5186666666666664] [2.2959999999999998:6.9986666666666677] [2.4046666666666665:5.6053333333333324] [2.1086666666666667:14.81] [-6.3279999999999994:7.0766666666666671] [0.86733333333333329:7.6906666666666679] [3.1866666666666665:7.0746666666666664] [2.6693333333333333:5.5779999999999994] [2.8560000000000003:5.5753333333333321] [1.8219999999999998:6.5206666666666671] [3.1066666666666665:5.5606666666666671] [2.0059999999999998:6.6333333333333337] [3.2439999999999998:5.5813333333333324] [1.4533333333333334:5.7846666666666664] [3.2093333333333334:6.1893333333333329] [1.8886666666666667:6.3873333333333324] [3.1200000000000001:11.077333333333335] [2.5606666666666662:8.4546666666666663] [3.1560000000000001:5.7573333333333325] [-6.2033333333333323:5.6020000000000003] [3.1146666666666665:14.492666666666667] [2.8273333333333333:10.142666666666667] [0.80400000000000005:6.3873333333333324] [1.5740000000000001:7.6739999999999995] [2.7766666666666668:7.9866666666666664] [2.262:7.0786666666666678] [2.6613333333333333:5.6220000000000008] [2.8326666666666669:6.1166666666666663] [2.8719999999999999:7.4513333333333325] [2.4813333333333332:23.218666666666671] [-2.8073333333333328:5.5960000000000001] [-0.37533333333333335:6.9720000000000004] [2.2759999999999998:8.0366666666666671] [0.050000000000000003:8.3979999999999997] [2.9093333333333331:5.9913333333333325] [2.9713333333333334:6.9593333333333325] [2.6280000000000001:7.011333333333333] [1.2166666666666666:6.4486666666666679] [0.51066666666666671:5.556] [1.8553333333333333:6.5246666666666675] [3.2446666666666668:5.6513333333333335] [1.3859999999999999:6.6493333333333338] [3.2433333333333332:5.5620000000000003] [2.988:6.6220000000000008] [2.3900000000000001:5.6399999999999997] [3.4226666666666667:5.9160000000000004] [3.071333333333333:5.5379999999999994] [3.1286666666666667:6.3300000000000001] [2.7986666666666662:6.7993333333333323] [3.0800000000000001:7.1446666666666676] [1.7033333333333334:5.6513333333333335] [2.9039999999999999:18.751999999999999] [1.3713333333333333:6.1973333333333329] [-1.7093333333333334:5.5566666666666675] [3.059333333333333:6.6853333333333325] [3.1260000000000003:7.8486666666666656] [2.6893333333333334:5.6726666666666663] [2.1640000000000001:5.7139999999999995] [3.3513333333333333:6.4359999999999999] [3.3766666666666665:5.8906666666666663] [2.7786666666666666:5.7233333333333336] [-1.8573333333333333:5.6040000000000001] [3.3139999999999996:33.084000000000003] [-2.3620000000000001:6.9179999999999993] [-1.9566666666666668:5.6239999999999997] [2.8793333333333333:10.592666666666666] [3.1406666666666667:7.2926666666666664] [3.0739999999999998:6.0906666666666665] [2.2593333333333332:5.6560000000000006] [3.2553333333333332:6.0786666666666678] [3.2686666666666668:6.4626666666666663] [2.8026666666666662:5.7000000000000002] [3.297333333333333:5.6920000000000002] [3.1566666666666667:6.3466666666666676] [2.3546666666666667:5.6139999999999999] [2.7826666666666666:5.5120000000000005] [2.4159999999999999:5.782] [3.3046666666666669:8.6213333333333342] [2.4628438846179432:187.71982203273049] [2.4896553978412355:243.44703538597923] [2.5035280882963722:717.99704238914228] [2.520008730143608:1130.1305586081635] [2.4621597565281315:321.96379517372236] [2.4951846068421921:140.08712828331755] [2.5299285014051733:78.378826222392476] [2.5234336395739305:322.25966792565828] [2.4849465900810737:1174.745135758769] [2.4962838157727361:591.9747544658378] [2.4856566313328328:1194.4905287854829] [2.5196239578335677:424.47432170417824] [2.5084613256381343:200.88463184513526] [2.488456549751271:127.99610058470098] [2.5378040376146718:145.25309163892749] [2.4636536553122337:745.19293700326716] [2.4828889087781056:1152.8883703086301] [2.4357386285615021:627.85351735753] [2.5009206304879008:961.71022211798402] [2.4543345782965744:904.78172308758167] [2.4341141213089323:181.41700105435424] [2.5101800732218398:98.156538495065803] [2.5067691468413198:71.841241377544875] [2.4548085238749047:80.75715577788344] [2.4943294801520417:1060.2434471256536] [2.5072871572456328:277.56340697017123] [2.5108741284438949:347.71161823493264] [2.5058488027457329:70.841666032231501] [2.4917246147107743:69.052309482658785] [2.464024801462481:66.494161117098599] [2.487024102997172:113.16807113708744] [2.5089702181483853:56.99730190885257] [2.5083504982801395:104.03290555503206] [2.4944949165891059:73.476581073306775] [2.4953286134072377:708.96132145711749] [2.5105653192502726:250.71388744144195] [2.4909807082530544:61.235777762858717] [2.4946588277090447:265.0729892027644] [2.5108556310548802:287.09300354801786] [2.5146513785325304:402.88570543793458] [2.4739434108321881:98.697523506024297] [2.5239175017332793:490.27593929903963] [2.5114316412932465:1084.5062184912642] [2.4611202507981784:215.80890539137215] [2.4534597793501502:116.78904736318384] [2.5154826353781274:79.308444888717034] [2.490673804415183:45.860860097569997] [2.4970071863911181:69.548955033287314] [2.5195678641827097:77.188568814012569] [2.5007528644168122:83.627766518596488] [2.4545196407172361:1272.7075069640575] [2.504085195568766:707.9140909636485] [2.4976521419569666:223.61942270940798] [2.52474649992606:766.19696372147018] [2.4922222123148559:726.59593435569286] [2.5055295293055759:131.38846537399442] [2.4906448071845886:92.323821931287057] [2.4877901840790351:73.991849025566466] [2.5031957352330418:285.36351429477924] [2.5126392498725316:143.00864082052291] [2.5355572694511688:266.88655121522237] [2.5083394241343542:1215.9516628570759] [2.5181738533221956:330.49059557707369] [2.5124595298012045:191.54490659894881] [2.5090311543170074:78.717752957428019] [2.5161186158225703:465.16506498040252] [2.5105770916929302:202.04748097085167] [2.5003782824915821:71.475013393182053] [2.5108988209182961:165.23998762204425] [2.477355220570697:239.6140738066573] [2.4780246613426229:165.29205471124942] [2.4777634179952597:335.4828595793764] [2.4932588224160681:992.06889981940719] [2.495031863523991:730.31257405944575] [2.5139182343284143:191.6089284059824] [2.4830679052781099:115.73223252932705] [2.4809384425163707:69.937013805280529] [2.5100363875184493:69.264561183912789] [2.492190379744069:104.54365016053768] [2.5204144280036345:83.916595363094487] [2.4885090583185212:61.148831546935995] [2.4967081438477257:72.358889494580339] [2.5175871164448091:78.583460999542808] [2.5056625648496422:965.93710888074327] [2.5093137618790431:717.77255794854671] [2.5134397855440174:207.77819332804557] [2.4458603576019806:99.073427932126293] [2.492781044001525:94.494820373041236] [2.4545195501813017:49.111244170759925] [2.5023548020925324:85.118522008367179] [2.4943281437871985:75.270288814526424] [2.5133933679832574:155.93233728625873] [2.4809618206565687:341.56081871055159] [2.5263767643713706:258.3239113120494] [2.5226617336103989:112.6922425881904] [2.4830880415769041:404.29575758293032] [2.5138262116188983:109.18297030214922] [2.5044692496060361:82.881902155349266] [2.5239637257474379:297.84931359777664] [2.536000701016377:577.2857195054188] [-845:-2] [-979:-2] [-2175:-2] [-4203:-2] [-1250:-2] [-500:-2] [-277:-2] [-1519:-2] [-3704:-2] [-3032:-2] [-3301:-2] [-1877:-2] [-734:-3] [-639:-2] [-887:-2] [-3008:-2] [-4299:-2] [-2033:-2] [-4392:-2] [-4087:-2] [-622:-2] [-331:-2] [-401:-2] [-435:-2] [-4482:-2] [-1070:-2] [-1699:-2] [-334:-2] [-337:-3] [-294:-2] [-522:-2] [-251:-2] [-574:-2] [-785:-2] [-2517:-2] [-1138:-2] [-203:-2] [-1869:-2] [-1300:-2] [-1706:-2] [-495:-3] [-2832:-2] [-2860:-2] [-604:-2] [-396:-2] [-364:-2] [-241:-2] [-411:-2] [-301:-2] [-703:-2] [-3389:-2] [-3905:-2] [-658:-2] [-2476:-2] [-2536:-2] [-494:-2] [-566:-2] [-314:-2] [-1164:-2] [-553:-2] [-1244:-2] [-5008:-2] [-1146:-2] [-855:-2] [-300:-2] [-1577:-2] [-602:-2] [-380:-2] [-907:-2] [-942:-2] [-571:-2] [-1617:-2] [-5515:-2] [-2844:-2] [-759:-2] [-499:-2] [-351:-2] [-291:-2] [-424:-2] [-471:-2] [-335:-2] [-327:-2] [-519:-2] [-2941:-2] [-2368:-2] [-611:-2] [-391:-2] [-569:-2] [-273:-2] [-409:-2] [-489:-2] [-546:-2] [-1299:-2] [-971:-2] [-596:-2] [-1621:-2] [-428:-2] [-405:-2] [-1540:-2] [-1730:-3] [-98:4] [-52.25:4] [-428.5:4] [-684:4] [-182:4] [-92.25:4] [-44.25:4] [-148.25:4] [-658.5:4] [-265:4] [-772.25:4] [-222:4] [-112.25:4] [-50:4] [-26:4] [-262:4] [-710.25:4] [-248:4] [-232.5:4] [-283.75:4] [-112.25:4] [-64:4] [-30.25:4] [-27:4] [-582:4] [-146:4] [-121.5:4] [-38:4] [-23:4] [-23:4] [-20:4] [-26:4] [-20:4] [-19:4] [-440.25:4] [-95.25:4] [-34:4] [-36.25:4] [-88:4] [-144:4] [-29:4] [-161:4] [-702.25:4] [-130.25:4] [-84:4] [-29:4] [-25:4] [-22:4] [-23:4] [-15:4] [-895.75:4] [-351:4] [-161:4] [-460.25:4] [-362:4] [-81:4] [-43:4] [-31.25:4] [-125.25:4] [-67:4] [-78.25:4] [-624.75:4] [-145.5:4] [-77:4] [-44:4] [-258:4] [-116:4] [-29.25:4] [-17:4] [-84.25:4] [-74.25:4] [-112.25:4] [-472.25:4] [-327.25:4] [-120:4] [-66:4] [-41:4] [-24:4] [-21:4] [-22:4] [-14:4] [-21:4] [-35:4] [-645.75:4] [-398.25:4] [-127:4] [-63.25:4] [-30.25:4] [-24:4] [-23.25:4] [-18:4] [-70.25:4] [-151.25:4] [-133:4] [-39:4] [-120:4] [-49.25:4] [-18:4] [-115.25:4] [-352.25:4] [0:6] [3:6] [1.5:13] [-41:9] [3:10] [3:8] [3:6.5] [-0.5:8] [0.5:6] [-1:6] [-1:6] [3:15] [0:8] [1:6.5] [3:8] [3:9] [3:31] [2:14.5] [-14.5:6] [-5.5:7] [-1:9] [-1:6] [3:13] [2:7] [2:6] [3:10] [-0.5:7] [1:9] [3:6] [2:6] [3:6] [0:7] [3:6] [1:6] [3:51.5] [2:10] [3:6] [3:6] [3:13] [0.5:9] [2:6] [-9:6] [-19.5:7] [3:11] [1:7] [2:7.5] [3:6] [2:7] [2:6] [3:6] [-27:6] [2:54] [-2.5:6] [-1:13] [2:31.5] [1:7] [3:6] [3:7] [1:7] [3:9] [3:6] [-34.5:7] [-4:7.5] [1:6] [2:6] [-14:6] [-1.5:6] [2:6] [3:6] [1.5:6] [-1:7] [3:8] [3:37] [-1:7] [3:6] [-0.5:6] [2:6] [2:7] [2:6] [1:6] [3:6] [3:6] [3:6] [3:13] [3:46.5] [2:7] [3:6] [3:12] [3:6] [3:6] [1:6] [3:6] [3:6] [3:6] [3:6] [3:6] [3:6] [3:6] [2:7] [3:18.5] [5:107] [5:68] [5:432.5] [5:679.5] [5:202.25] [5:93] [5:57] [5:159.25] [5:701] [5:243.25] [5:792.25] [5:241] [5:108.25] [5:56] [5:43] [5:226] [5:745.5] [5:288.5] [5:258.75] [5:361] [5:122.25] [5:59] [5:48] [5:36] [5:612.5] [5:159] [5:131.5] [5:56] [5:36.25] [5:32] [5:28.25] [5:31] [5:28] [5:27] [5:466] [5:114.25] [5:43] [5:41.25] [5:119] [5:133] [5:41] [5:171] [5:651] [5:141] [5:84] [5:45] [5:38] [5:28.25] [5:32] [5:26] [5:834] [5:406] [5:147] [5:493] [5:351.25] [5:82.5] [5:58] [5:41] [5:111.25] [5:78] [5:83] [5:594] [5:162.25] [5:79] [5:56] [5:244.25] [5:116.25] [5:40.25] [5:27] [5:100] [5:80] [5:120] [5:519.25] [5:428] [5:123.25] [5:59] [5:56] [5:40] [5:29] [5:28] [5:24] [5:29] [5:43] [5:655.75] [5:432] [5:119] [5:65] [5:54.25] [5:38] [5:32] [5:23] [5:79.25] [5:153] [5:152] [5:57] [5:120] [5:56] [5:27] [5:120.25] [5:372.25] [11:1233] [11:1224] [11:3243] [11:3512] [11:1239] [11:453] [11:259] [11:1861] [11:5444] [11:3671] [11:3914] [11:1779] [11:697] [11:489] [11:642] [11:2778] [11:3382] [11:2757] [11:4198] [11:4317] [11:542] [11:296] [11:285] [11:459] [11:3449] [11:1398] [11:1456] [11:432] [11:358] [11:273] [11:565] [11:356] [11:523] [11:432] [11:2033] [11:962] [11:241] [11:1597] [11:1151] [11:1940] [11:476] [11:3678] [11:3589] [11:946] [11:532] [11:387] [12:234] [11:420] [11:356] [11:826] [11:4281] [11:3109] [11:780] [11:2684] [11:3747] [11:421] [11:452] [11:382] [11:1152] [11:638] [11:1551] [11:4886] [11:1346] [11:739] [11:305] [11:1668] [11:630] [11:304] [11:1091] [11:1102] [11:765] [11:1182] [11:3479] [11:2733] [11:563] [11:528] [11:292] [11:436] [11:481] [11:452] [11:309] [11:417] [11:640] [11:2838] [11:2811] [11:766] [11:346] [11:604] [11:274] [11:493] [11:396] [11:550] [11:1235] [11:834] [11:523] [11:2248] [11:415] [11:406] [11:1090] [11:2488] [864:8288] [10.444066213039511:2987.6139755151648] [24.029073778876949:3236.3490466432427] [33.419934869027358:3860.0157292244016] [63.09550493923976:15756.714133835403] [83.168570818218441:20199.600570105096] [102.53987966274009:13460.388665144354] [95.715987845954572:1224.8109923264649] [78.711585537189208:463.21598113036697] [51.238748385668281:322.52355872848921] [4594:12646] [15.210658655035536:3782.6966261537095] [23.072260503849321:2905.6701871617202] [38.045511553375384:7613.6077137741813] [59.217728982572382:24122.524189753785] [83.774157364824319:29891.72464383869] [108.54858917980326:12351.847508809196] [96.709219869684048:1573.0133760421854] [77.421313973395826:572.45354378089428] [51.632144039438813:390.15021484979758] [3821:10071] [14.057504583703565:11762.455462032862] [20.594815416490512:5867.887954515204] [36.703955947335409:11851.866270518831] [59.60977994539418:41280.930335860241] [90.75452201991844:78424.354196403321] [93.0876639738986:51123.219053775887] [94.769535754091621:7060.703230887173] [78.58822837941878:924.78655970224759] [52.632962701123191:594.6749424945757] [4756:10350] [12.957108960990816:29279.550472108833] [29.45593988267078:28001.355021169733] [39.071016432485401:57701.942717850485] [57.779648740337343:84904.950957716879] [83.121434237349874:108382.25942710043] [108.13456666740372:80328.105997139399] [95.029488742994658:8527.2262357834352] [76.522381258228705:431.19629247161913] [53.373508285076475:171.73725311990685] [4549:28062] [12.981017849357455:18666.023781376811] [25.68309873562642:13091.350047058497] [32.273027544194484:23093.60535789128] [58.433412535298899:29862.906544723886] [88.186696234419713:29809.921708753915] [104.3274430893556:22502.88227507647] [91.082586222339216:2028.3257045150967] [76.405203671795448:180.90285729916661] [53.653272620133478:113.25332224664749] [51:8600] [8.7952936153671093:2471.9513563071991] [20.835247554423173:5640.79800959968] [39.164487384228728:5566.3050609500306] [55.263548673156052:15082.706329872675] [86.192254691319249:13795.920520624852] [111.76513589810159:9366.5120603969353] [97.909441619066939:1159.8217363290084] [76.182873647151254:115.67829953824798] [52.780138637880604:81.487494196769191] [4973:8375] [13.808718420265178:5499.5122034318165] [19.555348495578706:2577.3208797017787] [38.722594438425105:3302.4913922378087] [55.497449025265169:8819.9166852522139] [89.435793927916052:5953.4060889079956] [104.78888198097454:6026.3090312219801] [97.114036908329709:769.53410854252627] [78.13697992558582:136.69299926385008] [52.478560928985097:91.257804041918433] [4408:10931] [18.851875069756886:4757.7954955059058] [27.423386275836247:5031.3927301093936] [30.021164760493264:7296.7136038381113] [60.164667688197241:23187.155502027166] [93.454246769886907:35983.833880207683] [106.1010942357582:20970.315895169198] [98.584264697532277:1859.420285483516] [78.001559343235201:244.51027416674557] [52.771383070253108:146.6857765257256] [1336:19795] [17.454729369278258:17108.37977707676] [29.620917881499146:29504.06448180529] [37.479539400536169:30923.644538556007] [61.628324618512522:80151.072029249466] [93.698611532439017:137077.07896896638] [102.75778582161794:74895.57160395266] [94.890450281214015:9762.4676157039485] [78.114159036310838:1614.8054738805336] [52.865572961404155:671.23521577228405] [3900:9763] [9.2093202890749311:9379.2910735380447] [25.863354688136674:15655.860611830838] [38.457735607215881:10999.286074336955] [59.106094839526548:26883.494470278285] [87.839651758508325:59219.070326509602] [107.12171482035394:48772.387065035393] [91.06314017365284:3991.7263390121611] [78.639056089700858:733.98505213220255] [52.369136270484859:515.04403128255376] [150:8456] [11.106847736388145:26484.925370780562] [27.877600388764328:16312.740341881508] [37.428141213959925:32920.165078946004] [58.960123751088823:113693.49172316672] [95.022768094649493:118144.31218746185] [103.21698224727487:87055.81283808389] [96.946719006537492:8918.5025396960773] [77.421347174647252:466.83095112542082] [53.016657181203755:259.51967826905292] [5072:14809] [11.938459871053038:13390.252445869974] [26.120080925559311:19319.34382549013] [36.127393969759993:19380.869589242771] [60.369840174421682:39761.85009765935] [87.59490395359586:41322.868938033978] [107.02827984996009:29794.562435269487] [94.894625630137995:3076.3535316337202] [78.13607785768545:375.32575933958657] [52.104593171145353:289.82445707452467] [493:12814] [17.312959106462852:8895.0357175632926] [29.62634521599249:5803.380500429198] [41.584837868773242:5775.9277899087465] [62.702140763966028:17127.332912469301] [94.749733940682162:22419.357938044421] [96.848550848272126:11081.356368428176] [97.598194732065181:1271.3296477726958] [77.873410089798881:218.91407466529691] [51.527667491918066:154.84182166683902] [2714:9548] [13.779773012302449:3163.5249924377599] [21.153011155847818:4751.1126664511639] [30.554066990123072:3578.2493132378499] [59.81092355760606:9275.1351537664359] [89.148292782104448:14254.463530812362] [102.84859870770958:7932.4810910444385] [92.761448348993284:793.16779599175982] [77.012596572607293:244.04537558197705] [52.836181086831168:105.79444061147288] [5102:12712] [15.601379519699336:2666.903631449261] [25.274238912344391:2966.1678127443911] [38.735002604888152:3047.9071235842011] [57.864318667794542:13949.746307356616] [79.008429745474842:16565.057877380765] [102.50839006984845:8937.4067534731439] [94.991256993991755:634.67937907253167] [78.420950403225788:129.95685686339056] [53.349246727426149:87.263517863867804] [4934:8315] [9.312802288715627:3105.6069940519887] [26.127212744063502:2922.759810532561] [37.064009499444275:4776.1084341016194] [59.382277090590804:46307.652435073025] [91.730908070267205:66876.4248077425] [104.8999427464941:56720.384658022587] [96.459545197420965:9049.3958811939974] [77.865730024317287:728.09476377080932] [52.926727080528423:482.80593546024863] [3222:22796] [17.805167636218034:15381.191770570784] [20.864365787392021:27953.637817047747] [39.419881271860717:51152.441637750846] [60.954930985605571:103613.07149100016] [88.086218090625493:99062.287303518809] [103.45714401183108:79483.74807489317] [93.757704963474794:7516.0366652089651] [77.310989884908096:1434.35959626051] [52.187815128513563:1037.6445789685451] [4408:55987] [7.9017578385630083:17076.292706662694] [11.780094181000619:37706.834634571154] [36.362245299275457:47143.737398662968] [62.088929129220418:54400.33370963778] [85.881149076229462:58047.602281688152] [107.11482775051226:44121.23219733224] [94.335242845481801:3726.5879397364174] [77.444336410633625:411.9616657451142] [52.550725146400055:287.50877041011813] [4890:10085] [6.5638945567854856:7735.3720464694352] [19.363142701781388:22788.028332915343] [37.822692822245273:23678.225014523654] [58.192315653823798:56229.033962970287] [92.872568009082315:110029.58778609829] [107.19546290359276:59542.151135568674] [97.266977938640352:8393.7684480911721] [77.569110613918241:1512.3817283322512] [50.922455251035565:1032.8723528719768] [3579:29055] [8.3066277708987037:24927.209958462201] [27.104044175599451:33660.513071801914] [31.218447266066093:82191.106504695679] [61.283024700549262:65155.734116675936] [93.1875780725928:103030.08876372733] [107.90307360979338:57211.408925126168] [94.0825548410632:6877.3199447451943] [78.732058156546998:1484.0138845189181] [52.500023214016593:1033.2622731186286] [2479:13366] [12.240476638014927:4665.0354145418796] [26.325095863295651:7034.5744976284877] [39.701037642482454:6585.5753783541231] [59.103154889847147:20564.75792336401] [79.951329188334796:17309.18630907988] [102.60459732793529:12407.771820785129] [95.848894513942241:1514.0953733375407] [78.361079696172339:247.35507143488903] [52.397589599687592:173.3537091131237] [1167:9816] [14.612517599276355:6158.0530912294553] [24.641318887347069:3970.6570608575771] [39.148043984465993:6140.9239486771976] [59.798282383896996:10389.872746381663] [93.590651992531505:8310.7748850050939] [106.12592763972181:6897.4662701598818] [94.605776123504484:967.82280326329976] [76.550209323247671:183.77360433262524] [52.335691255009309:125.3405797721294] [4986:12778] [14.359536767790425:3153.6116003759525] [25.273035845477533:3003.399172526143] [38.562746785384782:3979.9217503373657] [55.663204276585141:5271.3973044660024] [92.458819230039552:8162.7925151267227] [105.81982430043313:6253.7216750721109] [97.241692986641198:764.76458951727705] [78.585815873447558:216.72078302757069] [52.575245619418389:151.46616676666329] [3444:10498] [4.8650951808527436:1602.9934973021645] [26.944979886328262:1379.4372887324937] [37.924310427513426:3485.0317804426745] [58.809213982173006:5255.0562283730142] [78.536016879861009:8832.4493914072209] [111.16230090967548:5561.9152964331579] [96.018985411446479:599.14296160708386] [77.14690853750534:189.04120685350739] [53.04691095040468:127.56876659190449] [3607:8408] [13.554884596577695:24299.550554912741] [25.98238028195459:37882.184798045899] [30.876727812904711:61439.198077136709] [57.335497864194139:91063.413022791952] [83.322401226821967:123276.14283214373] [108.35168361023599:54072.341951662587] [98.448014222320865:6132.9760867173682] [77.49868642790392:184.17492840883111] [53.345862748149187:96.591262337706411] [3163:22215] [15.882397196950073:15712.085057996101] [21.631294554369564:12771.121469761018] [35.449979265014761:26012.310831905397] [53.827305521132821:37964.726200592144] [85.89485983690885:25778.001978211832] [112.10949904096796:18103.19258320488] [94.898382118489337:1239.5446337003955] [77.692025461937831:417.45700868895693] [52.717142873169095:295.61407764524381] [4721:10615] [17.119845997996684:3454.0910574722557] [18.002204113397497:5428.8175773976536] [33.410898972270573:6167.6104950905565] [58.561225526165295:29590.066057128704] [92.431357166140074:40327.048452141811] [102.22075495576887:20606.984400961344] [97.837443860390934:2554.6722346996971] [78.807929026403258:311.16200540769273] [52.314977763763586:217.67084123045842] [1301:11536] [20.151541773014106:4783.4805457216435] [21.902218464287387:2610.9059316628523] [35.102095388705521:4703.9899604396524] [57.818007514842279:6544.5474184330224] [93.030566485814063:6192.9878221803783] [102.83309484343469:5418.8126443428091] [94.833669286466844:831.66346650599974] [78.58108973681729:174.62781959071219] [52.318172842887925:126.70609284205057] [4780:10612] [12.986750766530605:1617.4534171051205] [28.381818319167987:2254.5044574064609] [33.424670879192703:2569.7935124356663] [51.534586477881597:2875.7648846754792] [91.560896908958497:5236.3873282344512] [107.27945693127589:5914.8390265819271] [96.053052247947775:536.05019103164159] [78.393163288052165:187.83611788399108] [52.439068112231972:140.45495068765348] [4004:8367] [16.446346466400914:2415.2288563349421] [22.236632686337973:1281.7496648240408] [37.47455994714953:1521.0224919745524] [55.905927481724405:5026.3551014589048] [88.257828787250943:4977.9036810872085] [104.85532556952832:4971.8858471952881] [97.52941575955677:774.97122332023821] [77.585138577021212:149.50461540105223] [52.861075834889924:104.27536642529093] [4284:8363] [11.649390684337229:1716.8358572398665] [18.882774357039199:1453.0586192581561] [34.02813775190436:1588.6063018769669] [61.451427376568397:5975.0415652755619] [89.051604495753423:10798.106569183114] [104.64366744742708:8357.5133722819919] [97.49889933061381:758.43115887834301] [77.507010532041278:147.84226292101772] [53.150528284532726:106.99394498887943] [2733:9781] [14.596444726670716:1516.0830182448767] [30.344767333112486:1172.2201974228728] [41.552896644351065:1645.078484133099] [61.131742029528944:5104.8430215639437] [85.323479400568829:5458.5995706760532] [104.83731713583872:4284.6048424757046] [96.035539539882336:534.44981932246037] [77.871335194050204:132.233694493012] [52.408081675305397:91.319123738106626] [4660:8341] [10.602014945888858:1130.9871093749616] [27.910184664479551:636.23169364887019] [32.090579111453259:951.88952097004733] [62.686905045025043:7533.6908720919664] [87.525143785573974:9087.1262514219088] [107.22813621176519:6573.7001269807079] [95.806457663204995:1217.5232021204131] [76.960693793139541:125.11096661477707] [52.134122570021184:84.979945101686411] [3009:9950] [17.167454030901936:1938.9141094050135] [20.873755499630011:1863.8518679941465] [34.300966393009872:2218.308228237101] [58.133421432995178:8117.0039368590906] [87.906590030791151:7669.6997481363869] [99.207212593251398:5720.4774159657227] [95.213624267956092:937.80906485119476] [77.40126032174787:138.14971389414649] [53.50115348274597:88.438542243605113] [4866:8372] [7.0369887242917892:2803.9330800485186] [29.364626588846317:5534.9410131988552] [38.467617052527203:5438.7288695103434] [51.667327341064727:47962.921021418049] [81.966789265856221:79276.877661152641] [101.92820589741495:48321.036105757092] [97.271513103465637:3010.0483528551754] [78.687082799857734:471.21376022445219] [52.537474419283235:326.12597031694014] [2180:8677] [15.801468676183221:3087.3354217582832] [12.04688684942699:3544.9176734574762] [33.204773195572727:4397.7200257257828] [64.094154662798104:19650.314519252308] [88.647549186287932:23509.920497826308] [106.71318701320551:17881.472753549795] [97.679799668643952:1695.5970913183373] [77.678492520027561:430.15540672621125] [53.046742005339965:288.3647743489372] [4814:9284] [16.174730526037198:1679.0748049758286] [27.011144814083128:1683.7929465324532] [41.544566145249355:975.44762464238408] [55.635788453004366:5702.5476035279362] [85.803478208489366:6999.2847042181993] [109.7231958456734:4418.0602415646317] [94.970058181655915:593.73940678820509] [78.55228742190566:164.1702069478479] [53.214833696692715:112.58590200477646] [2833:9581] [5.0057015742114874:2554.9359717366351] [25.797580573768109:3766.9457923663131] [42.05622184275871:6049.1277079806605] [54.78641213826937:18992.465282472142] [78.947420760078771:34203.027991930518] [103.40404585010454:15369.105231816353] [94.149880696480523:3239.222479681996] [78.339390922517595:685.64511276582925] [53.114077684169644:488.75590682737101] [4680:16616] [8.0835638262396294:6127.7144756363805] [21.242887684236624:5634.8592688802273] [34.406010559226488:4003.3165029401789] [62.522781074465726:20210.129113489747] [79.46036938618019:27043.782482289902] [109.6039517883853:21303.08043397425] [95.668747226711787:2443.1706804573241] [78.83524409966185:611.24611616089567] [52.777642599970321:420.2149381424498] [3841:12682] [11.923027023146055:4316.6141962386482] [22.147140316394974:5043.2766883261602] [40.237168064194428:4060.1020995258] [60.878664111302363:27983.933767973696] [91.72808576695887:35963.439051437519] [102.95985289206362:33506.294550513187] [98.192975273123494:3797.818822122349] [77.599134152435312:496.80608674578974] [53.428458965915354:325.38900233394145] [4734:8636] [11.867647632608707:1481.4849948757221] [23.985466407099825:1425.3874151870043] [40.031984863670857:2634.2017092144019] [53.188703833597899:5993.412379038662] [90.768867701222931:8099.4226002588321] [106.5022843580316:7975.7479299429406] [94.052342232447955:1148.0537193530142] [78.014572455735774:148.34219687127148] [53.164530724640827:80.819607495635992] [1435:9305] [14.45463218192501:17755.476689429532] [26.064742604516727:9305.5089657125536] [36.231404400431273:17058.590936389373] [53.119126806833172:51396.13687509462] [87.587198840512869:56630.308282112928] [102.04570353507812:30313.308573221031] [96.070666222708226:2591.0182995634977] [78.054791514202577:340.2371288394134] [52.813644714992854:173.83740396116193] [4672:21739] [10.226023888541263:37560.275431049617] [29.028197160309997:33776.034324776338] [36.56030632639532:41739.385417220554] [62.136329027894533:111837.22675412777] [87.061168286996121:101944.23508039373] [105.84598960369541:75036.117316715972] [94.929517215144628:4895.1226329553538] [78.605339639273851:403.4472767757282] [52.518847800634632:207.89308645183917] [4241:15214] [17.436755409635904:16175.676615158001] [24.95678151165767:10504.715406836833] [36.21169385065901:13272.602301540821] [61.903895768940274:23679.04533954836] [91.172806105364202:21367.887831138672] [103.72514149698132:13053.62313822165] [96.73128708530372:1350.8128150211992] [74.281977764923923:295.18485689258205] [52.05584784486777:215.00344640294134] [1206:9581] [12.239361854443915:9953.7325873587215] [23.275500649389659:4787.4504287741529] [42.257158343730367:7081.5571774739774] [60.567868744957231:11817.83028029364] [88.922958566868303:11354.556524323883] [104.39734085974609:8290.7707845606637] [97.941651932272649:728.30585066396816] [78.04867433498481:127.15690166493894] [53.683511074544313:91.089638880730149] [2361:11511] [12.296582120114307:5087.8632296095866] [21.549483282577537:3289.1781192023418] [41.203825233476174:4053.9062084100597] [64.883187684892931:7776.0640686661436] [87.691430156885588:5219.3974432377054] [101.87400905131807:6328.1220411167224] [93.346652900432488:812.62329791056072] [77.303886329575505:128.64338456821031] [52.052090056973597:76.145477569051863] [4165:11980] [10.743310269224763:5394.9171078242089] [29.0486151085593:2196.8011422426434] [36.167335327725112:3047.2616304545777] [50.906622606295684:5004.290029446779] [92.208189880245158:4595.9494983154491] [103.04838933729157:3677.2040209398738] [95.447104607057881:461.49002371000194] [77.518101944409224:109.93812661362776] [51.306582772447797:73.793583308016892] [3393:10618] [5.8355508765836444:1910.5177518446881] [22.582878869279259:2015.3986199713613] [40.670938814293201:1664.4130407996549] [59.671615938295929:4153.5841420643856] [87.562592161768833:5962.1208479964062] [102.77026811419323:5661.570486938359] [94.279862792652324:636.26219128998946] [78.224444103188361:161.19502938441875] [51.499475216207216:98.804087421643118] [3992:8433] [3.4612550048146029:1648.5888885325846] [26.863994692923651:1204.4175900992896] [27.015579063522829:1258.2008523352531] [58.765481979021558:4911.4688024659554] [84.923831053156505:7327.4752812958159] [110.62963199670547:7565.1298466459848] [93.882405446037922:793.45257066608974] [77.72434979567538:144.28127713192058] [52.739934286762001:102.86303923512224] [4249:9175] [11.183379010470134:2543.0369796394712] [24.569266161513017:2094.9867715545047] [34.415099199949424:2214.9283050461818] [53.830713135185526:3871.7707691200067] [81.383565445573211:9662.3328027698335] [105.9581651599317:5478.843933243762] [95.326990140968135:2278.1264733842809] [77.052207824622741:153.55485563879918] [52.276517563694803:102.13543470729357] [4308:11177] [15.459442563441955:10775.063305200429] [21.721071844873396:23488.368791727768] [39.229056997345438:28217.729598338839] [65.635417342779633:97744.96089333533] [83.77174009386016:118400.20670126949] [105.96029224737637:99864.478701108834] [95.564146040576233:11350.518467612656] [76.427769893304557:1155.3220372139729] [53.054340573678523:806.14416213959657] [3722:34828] [10.522167160113595:16894.280666535917] [24.510732040531696:35462.42766591088] [42.125816078195527:34949.740423008283] [56.857621424299786:82109.456122508724] [91.531290320051767:66935.61985941809] [109.13054531970728:46043.198578942247] [90.431307076559435:5609.9635548656852] [75.237119519956579:988.82416209892665] [52.701028455376864:698.63279271711872] [3651:8394] [18.182264008009177:3627.4619524932427] [26.053373895822311:8774.4928070520673] [34.269497385576855:7127.7636611696544] [56.114226180499593:20760.568456996047] [87.9697270366742:22461.632423822997] [105.68474331399551:16262.946618011767] [97.670510383523194:1815.3961278544518] [76.415228718012145:344.14707943737363] [52.552866582140467:252.26272860417546] [563:10458] [11.726680684513711:8074.4586780270411] [21.743547597238315:12731.223960926796] [39.174446126869604:14781.153847893867] [57.858908032447282:66291.502483420263] [86.91750169732228:90638.390338835903] [108.49326107004222:44669.892223059549] [96.845220449839559:3060.1113868357011] [78.382572051021228:245.84207310134047] [52.902291373675105:161.77100491277486] [3414:12055] [13.902518790246699:9872.6792731624882] [22.81799529473237:14574.915660465293] [39.94727015948699:18965.474356973631] [59.572303096420661:52805.078802168762] [88.325914409080909:72380.593380068021] [95.674571588029806:49908.490573650779] [98.244654767231879:5430.247769716053] [77.55951855016626:254.4386238408606] [52.540205976613493:162.67445576036042] [75:12597] [12.344058834417838:3308.1488787528674] [25.745654801143193:3945.1088455522377] [34.900008300230326:6758.3253213831449] [54.264426089251899:11996.533862394805] [88.124968332962709:14242.101168207402] [103.82774234825293:8159.7447281171744] [98.707582177225589:969.88549087018566] [78.841705827200272:235.97839036144089] [53.058162083307245:163.64166575586478] [4364:8987] [16.702997029789255:2436.6628163510491] [24.863769480473913:3100.7307074903965] [38.396162744343094:1974.1194052793742] [61.704068935638105:6288.2219484883544] [89.373478059853284:7456.3047644637973] [105.11800106485315:7713.7714159659854] [97.202446085162194:589.69303354749354] [77.462978158728021:161.7875891342311] [52.342071815449046:106.96187615322279] [4457:10439] [11.817625276137464:1584.4884126827856] [23.132211731404961:1495.805734300513] [36.428953684873136:1677.0769453187472] [62.049510061122561:4996.1592013238387] [85.612460009067235:6802.4007442654092] [102.70123600143715:5680.7909197717509] [95.413206724176163:554.1540898509312] [77.791696925119311:179.01390320465256] [51.414341963868722:118.6468379203298] [3942:10517] [10.720312271507769:2144.4630119523968] [25.865363313723602:3006.9052807087128] [34.491020523973077:5481.6456453369738] [60.219850434953138:29188.40766287221] [87.684745185270273:30583.450958017362] [102.24894063241844:17821.066628920391] [96.419888449449061:1117.2009932795686] [77.568549317627827:168.50102850232099] [53.430126569551412:121.44725877197806] [1825:9673] [14.604124583993777:2323.3829521554721] [21.669431396987886:2763.1174451932752] [34.815662102512213:3338.4442704322978] [58.727130429035405:13652.267764421831] [89.376584519630455:14498.486243658137] [106.11429536636042:8367.8139443198834] [95.17589417769365:1040.0333849950939] [77.076451457852841:175.04606742983947] [51.868916309106474:115.17492024782068] [766:8334] [8.5390536783622686:4357.590416578756] [24.080141428588103:6507.1128056666103] [40.687246216333648:11090.98310176324] [57.689019818297908:19808.198691357091] [90.861942198906078:31378.2743696742] [105.50105961411137:19055.475513185709] [97.782801648567769:1508.6489785067431] [77.796495160119719:235.10833469826343] [51.540050240308332:165.98996297305314] [2783:9787] [8.4356795158457096:32353.185448081826] [20.561809155746566:40904.087189761114] [43.223030708795335:39597.718173635752] [54.115401776872645:146147.90435791007] [89.265256689838296:135187.71954677536] [99.372280369788399:72589.671353097045] [95.383316804090597:8994.7164217220343] [79.002652679037439:511.3589474110708] [54.056810705325177:274.15372570631536] [4867:8477] [6.2525103195108001:9952.0413065777193] [24.154340931560913:14054.203169924236] [35.455263575111523:7059.8308347493839] [58.832147950685119:28348.105000878801] [87.060706669010642:31302.975902295249] [106.88012448618628:26423.742584437601] [93.463632574269965:3681.2810786236378] [77.335647081766439:238.61518660671226] [52.329403411739342:166.38533740915432] [2079:9974] [15.444552518075039:5721.0857972380654] [22.286066206031279:4079.7505880775207] [40.912684374520211:7019.5671586498256] [61.170847348869884:13891.87791408154] [89.240117952726422:13193.621750212926] [104.39234738134128:15589.988033001817] [96.380763411321425:1827.7883101508664] [75.615652280914674:238.32902977147003] [52.860661510919542:158.35877862152026] [4865:8343] [7.6019263848117635:2759.2758680987999] [18.550353969980549:2248.6220856714399] [37.241057313962216:3538.0747217068706] [57.39112698841511:6221.3322946854305] [87.202322967407383:7647.8186808911478] [103.02680709113899:6041.7852887743029] [97.688549813656195:704.18318082128894] [77.641042068990643:236.11291388435669] [52.859439656788091:162.37061717362309] [4482:9933] [6.1937213484574558:5908.8189141805942] [26.756240134336405:6354.3809067060865] [42.517402951350043:3850.2488593793269] [56.83810082265974:33749.95894130833] [92.832230462606503:44880.789427489675] [103.14691102726914:35754.747928671291] [95.801114182406081:1901.5540505272868] [75.154744160126739:180.92887015567436] [52.753346965241505:115.64352355705209] [3585:8460] [16.309183516009167:3637.0234545713361] [26.359820554798251:5094.2890432358945] [36.16155574570918:5420.2406383440384] [60.731168088275709:20532.93832346984] [86.742904676590811:20560.031777895725] [102.99169612014134:13158.408185358359] [93.663043476643423:936.66986368629671] [76.852917132024373:175.93780189022209] [51.7573466547991:118.28429461214778] [5134:8874] [15.236229805409847:1772.782567297435] [20.912295229046965:1113.1115116642745] [42.997794537042139:1421.6175200924406] [53.085056737069905:4736.1870642843514] [90.967018057841202:5975.2555772245923] [105.26031817673159:5325.5327504454135] [93.069245809467205:526.67751768621565] [77.935165868920052:141.70788659040002] [52.554998076660425:96.527844405429761] [4607:8307] [17.50713830924429:1822.1240847265487] [29.432476957116513:1967.4213058741987] [40.293055159396133:1929.8839521147088] [62.851078638414748:9056.3324618969928] [85.883879801732533:12045.763844540132] [100.55528882272483:14089.054019670331] [92.354181680821654:1675.6369027511373] [77.613460076963094:452.96133359640845] [52.390648356479069:314.29525134936694] [4693:9495] [15.845312603602054:2005.5491236105381] [24.72649426827671:1907.6555420002194] [33.921252730711124:1779.0231839356989] [54.860884060978975:16954.750173639506] [85.957813272721879:19025.91565610106] [106.49446577115594:21171.262813472207] [96.012231596105636:2593.3599232195602] [77.359304621628468:464.18777319339461] [51.450744751441796:321.42476619345933] [4198:10199] [13.416746625571037:1971.1475147200119] [23.3021382403304:1886.3081710352049] [36.852272162713227:2667.2900784160106] [60.475205688066652:10007.941439446826] [92.637844519009136:12482.822743316559] [102.23448953464096:13621.223694177281] [92.969233558281019:1704.7471241214694] [77.790067873890848:341.06745180546312] [52.632031416145026:223.93110379882668] [4620:10717] [8.7348610837000518:3487.9402318786388] [14.320741359767624:2333.9762891106834] [31.467219632177311:7771.9313779887752] [59.549099681662256:21370.746872326024] [88.74471399517185:36531.92368335888] [106.39788727046377:23141.724106425489] [98.848428123019545:1564.436247181246] [76.720076796285412:300.07530153166795] [52.446260976268604:214.73492921364047] [2555:8477] [9.280804051281633:2028.9951486396208] [25.381039813172681:8435.4688127733407] [33.357778698061125:32479.456122804688] [56.514556109628465:70503.226759536978] [92.808036472850873:108012.4015241048] [103.15515130092449:69143.392241678099] [96.747262858692793:7691.6003729492932] [79.006112083276548:357.74578914322649] [53.19993852007449:231.53766226073776] [4356:28128] [11.658042869178562:32109.069967895357] [22.222936312227958:33767.625840932487] [36.842549119438289:33793.214208760735] [59.963085903552802:87012.323710290337] [92.012810238188209:79800.66668153237] [107.73227291426186:39236.255020365548] [95.867024934556241:4528.4120118176124] [77.522257362514594:533.23052858955259] [52.184110296236923:383.72336970823716] [2057:9296] [8.8119313587771124:7915.3793404084117] [26.171409657748452:9029.0847545107317] [32.710872497093114:8280.3242111985128] [55.907841703065969:19306.882283486408] [94.092148082088073:19617.96635980565] [107.18087908031626:12789.248481311572] [95.75116899408836:1359.8550925426516] [76.757791487714456:123.08333608220423] [52.545465052836029:82.261796780621822] [2564:8335] [18.910019929144848:5271.3525973294218] [18.363896213488733:5249.5245294549295] [40.62573704770422:3075.7292809796263] [63.763609963121873:10329.148033513173] [84.040282931167013:9413.3508430788788] [103.58610897907623:9340.2297867478155] [93.44367108971052:1409.9747352072559] [78.641755124968967:149.61375599607891] [52.824596300605059:99.153742010448298] [4589:10028] [13.733101541496456:3451.6948123990883] [25.807773906449953:3836.2045993293627] [41.555058550291044:3090.0248038478194] [62.915261904897534:8415.016872175358] [91.416696766366115:5693.583279080498] [98.994106547509944:4987.8393560673385] [95.853089505466841:877.27565380959732] [78.127687128047626:183.76829772023768] [53.473568494486415:125.65291721134831] [4689:11773] [9.7817511493403835:3026.9686778877485] [24.64946039818923:2129.8589237525366] [41.956736262092612:1393.2245861758404] [55.61279601171622:4905.0918525842153] [92.137728329948317:7754.5067726033922] [104.77480508976844:4587.0119310982909] [92.496156552628364:614.99876223864794] [78.126468905551235:180.75896316730686] [52.782416981161042:124.13948868355014] [4034:8509] [9.7276000373784157:1336.8610080621615] [27.021098373433308:2001.9359932827927] [40.063971502198854:1143.8001024582045] [65.912139059499793:4702.0386331107002] [83.537510727715187:12444.331458662793] [107.83377825199335:5796.384898264263] [95.360679814551716:882.94080795138382] [77.801246001813951:147.27262213521715] [52.903965150570365:101.68664117461859] [3246:8571] [11.546552747989374:939.55038516041225] [25.495933468058354:1081.4537524923905] [32.149511852275538:736.48013869143188] [51.260866586145383:5474.5096721372383] [88.606709473810895:6717.3657518948312] [105.99806739405425:6402.7174108258214] [95.624097997997836:887.56915260529217] [76.930570402022411:126.76078522536324] [52.724881079582474:79.38353006172153] [5027:9654] [19.02985728394458:1048.9291008965074] [24.201549187757244:1020.7262530725793] [34.579801131291276:1167.6716025264275] [59.201219937454894:3325.2203777456371] [89.608297135140234:4123.3034547208699] [108.61067738255188:5572.7739762588708] [96.950667530052755:615.32668452118651] [76.925213510201985:146.88804234157448] [52.782755202755155:106.1390923871314] [5065:8836] [16.762523058442177:772.86643342876459] [27.832338117338558:961.39350975487594] [37.158301959100498:946.10541835276172] [59.906054192695173:3867.0351165966463] [89.9340510727436:5278.6168856303102] [108.2204654391284:5667.8490433395964] [95.571790401454791:800.33675611758929] [78.446263515347738:114.57632791769991] [53.546143900231506:69.343858918657901] [4168:8585] [12.168181697917845:2053.2449652329265] [20.827028104375881:788.96495522817429] [40.958348569125853:2862.8577155377161] [64.969438419486167:5646.985335206582] [91.851677356304151:10178.561374928058] [100.50310398053959:5165.2959755146285] [92.851134205679699:798.58148955546199] [77.045492559112546:281.45232955017161] [52.711570967549143:205.60462944262952] [2786:8406] [14.162542995419864:11490.125228804322] [24.165858405844606:15800.567884751359] [34.600216097669332:26311.440272002423] [61.368788899087171:95727.296984049361] [88.79713176936329:112543.80731380847] [106.39112322697002:63869.90654916918] [96.725457880175156:6461.5832253460494] [77.211187663932591:1833.2255204292767] [53.645120958491141:1327.2870705326402] [4971:49626] [15.886091364045065:23014.621584823388] [18.067493969598019:41601.443003161163] [40.04257737350963:40747.655341223399] [61.600873407709656:73904.441120182149] [87.968588838840958:79825.285929625737] [106.7575999062318:39221.291698715024] [97.443961570528771:3956.9077430615471] [77.94071715857956:1346.4204246269119] [52.858806518685547:987.87091533509511] [3543:10377] [9.5962412267342678:10268.714098252156] [26.936082205403057:14118.468103212916] [34.600874507315588:11769.600889498744] [62.11924655034808:16927.570701772096] [93.157401848548048:21348.108517115808] [96.41388573114159:13295.784327602558] [90.428756709476858:1032.8113289293722] [78.526528715604584:240.72192412745997] [52.724479546406144:166.31468522069687] [2935:8436] [10.43959681284692:10106.504893057645] [18.221023142720639:5949.7279157590128] [36.314771591385949:3910.7162111014313] [57.009211427113648:11233.04519460011] [91.533507966044922:9751.6125716269889] [107.13082286501349:6428.934427250837] [97.656449843211902:605.76970899909907] [77.489350497937991:187.90738339851623] [53.193863225908267:124.44015069435841] [4319:15889] [12.323308155628615:4360.2920569671096] [20.94499902893752:5036.2327409902691] [40.182865780626869:3767.222084341618] [57.6217680175006:7291.8748950168128] [82.30657310389357:11243.163980740132] [98.534036086977991:6014.1612164173539] [97.415550147377999:1035.4138351593062] [78.482256201111881:129.88759562788564] [52.111285373092393:93.352992175273286] [4711:10939] [12.82108019278135:4775.321517220561] [27.843617274122533:4320.5388679236366] [42.616246619536369:2018.1472032765273] [58.94229016055462:4099.7281182437991] [85.454051586810806:6224.9697184380784] [104.29824927134294:3806.914492463553] [95.97188701998509:448.50051930668229] [77.933138624661979:129.88387310037729] [52.198383929895499:88.162784354300626] [4611:9136] [16.570915825082107:2596.4628175603625] [19.983351587489334:1948.4871923147737] [38.115015784901651:2166.1416939064693] [55.74861356983925:6448.1412838719925] [88.761538621102616:7492.8919323034152] [106.40617019928348:6539.3236756506685] [96.113061551089885:608.84720433841278] [78.475651337590335:162.4388932524796] [53.075231018876572:104.8850627637824] [3389:8484] [19.794216634367746:1834.3026390447753] [29.747574358506451:1928.4204494808835] [33.945153762832604:1433.8203421822116] [47.639102789054014:4678.557617878495] [91.85137019259632:4836.9804220073947] [104.77185170219344:6603.3410635344226] [94.499127963284096:582.1559677761793] [78.971782355084542:138.1901255061243] [51.693614128988507:97.845061257078655] [4883:9118] [14.927786941487328:780.18600761115204] [25.31789716302897:1529.9640739279846] [35.999142832642285:867.75815196502742] [60.336218872006292:7903.0793034513663] [83.874628144109664:11820.254395133179] [105.26150324560854:12603.462166041929] [92.797145107556005:2006.8724893370695] [78.616837930531403:147.95190694877257] [51.850714787634367:100.39630477790926] [4903:9694] [19.162969129894872:1200.9919010226124] [22.94790993292699:1317.7802019460389] [37.926182294319261:2774.5469474545107] [61.973034903429593:19154.822112490343] [85.203101253206256:38476.745989687035] [105.81023054435757:19913.415310485125] [95.80779191760395:1167.4709082018335] [76.938379482415627:131.202501431141] [52.403917735347605:89.380452494700947] [4204:8550] [16.269999013549274:942.60613444528872] [19.595186948345663:1710.1278920613095] [37.308110145743818:2547.7375201928471] [59.681992193790713:18419.300048685767] [88.342161848566406:26627.392490256647] [105.70522757843477:19143.765964783608] [95.506249168632564:1472.6384682970008] [78.436502939165592:210.34364827724076] [53.245051514252793:141.78982757130098] [4946:8538] [7.9064354507306032:671.97955764534879] [24.492750803167585:1126.4755453474988] [39.637248865253355:1373.5972285664591] [55.986755372208108:4987.5146790011704] [90.457302429506285:12124.396811812527] [102.20595120176814:7595.3046450851334] [97.507142656594596:516.63709231243297] [77.960492324257302:213.48588899688079] [52.212244430447285:150.40119332941657] [4735:9520] [12.597946538561461:2462.8463895264522] [18.157170926219354:1152.7737783669447] [35.99187121432977:2613.2443474609804] [63.177227536828347:16979.951950061244] [92.121931152746598:44685.940337812157] [107.5802727679431:28862.556182050055] [92.329074690114382:3546.2669821794343] [78.10526244397451:161.47363877430982] [53.177558120388497:125.78177194484628] [3532:8421] [16.7149629907743:1713.9481653987332] [17.187365092186653:1142.445139098794] [37.061855121069961:2044.7001558408201] [59.715991693114617:11974.036435259253] [91.18102019298216:11396.678115126128] [105.78238836910484:7018.9823275442031] [96.23320087017612:1147.0143142098011] [77.556074466481931:134.16656775196577] [52.592280319157886:87.780508615972423] [4174:8268] [13.533143428631911:699.1793692968954] [22.529023144201322:623.28856294842319] [34.836747913759289:744.29961954159467] [60.252499466635904:3224.9404682001677] [96.093909760861564:6334.1821080280833] [105.35711366330763:7587.4974163170373] [94.878695274396406:1158.1715028770218] [78.24346290794864:133.51040983408495] [53.593317827089436:94.839730503680556] [3624:8673] [16.532891199927693:5341.1988274457444] [18.690733487262431:7148.8572464978661] [43.373384048129004:9173.6355639525755] [58.94511979295352:34243.07265529978] [88.04624766133243:26105.396157591007] [101.61088697428684:22049.627980673322] [95.4417527407157:1925.5283272935289] [76.696451237249661:408.95493084415762] [52.883313598264188:243.56868792107485] [4957:12932] [15.470917154770811:6937.8396668682535] [27.700516942862873:8447.5290730420711] [41.672000061659752:6403.8086540918221] [64.114345429991602:41433.378433371137] [87.481799954514145:65767.851271827574] [105.11431102741055:34376.537291714834] [96.228505490242441:2823.9849197614549] [77.019235997645069:237.91269659813977] [53.153893972755405:157.71943417812108]
tree_sizes=1152 1202 1203 1202 1203 1200 1203 1208 1204 1208 1212 1209 1211 1206 1207 1208 1203 1205 1203 1204 1203 1211 1212 1205 1208 1210 1212 1209 1206 1211 1208 1208 1208 1205 1210 1199 1213 1207 1208 1208 1213 1209 1206 1200 1207 1207 1212 1202 1211 1201 1204 1209 1206 1209 1210 1209 1210 1212 1206 1209 1209 1209 1209 1214 1208 1206 1203 1206 1205 1201 1210 1206 1203 1202 1211 1204 1208 1206 1204 1206 1205 1210 1204 1210 1210 1206 1207 1214 1203 1209 1205 1208 1212 1212 1213 1213 1206 1207 1217 1215 1213 1214 1215 1213 1211 1219 1211 1211 1212 1210 1217 1208 1218 1220 1209 1215 1216 1213 1212 1207 1217 1209 1217 1206 1209 1216 1214 1220 1207 1212 1212 1208 1213 1217 1217 1214 1211 1214 1218 1214 1211 1214 1205 1215 1218 1224 1222 1223 1219 1220 1219 1221 1224 1213 1213 1221 1217 1216 1218 1220 1221 1213 1222 1222 1217 1216 1217 1216 1221 1222 1222 1223 1212 1222 1217 1217 1213 1213 1225 1213 1218 1217 1220 1218 1221 1223 1211 1219 1222 1215 1222 1212 1210 1215 1224 1222 1219 1213 1227 1220 1220 1215 1216 1212 1221 1216 1224 1214 1219 1215 1224 1222 1226 1224 1223 1222 1218 1223 1214 1219 1217 1221 1226 1227 1218 1222 1222 1218 1219 1218 1218 1208 1219 1214 1223 1210 1216 1227 1223 1216 1223 1220 1225 1220 1210 1227 1224 1223 1217 1219 1222 1215 1217 1215 1222 1223 1224 1227 1218 1221 1221 1227 1219 1230 1222 1218 1222 1227 1228 1218 1208 1224 1221 1225 1219 1223 1213 1224 1214 1217 1212 1220 1218 1226 1223 1221 1215 1222 1221 1225 1224 1222 1228 1229 1231 1224 1224 1217 1214 1224 1226 1223 1224 1216 1224 1224 1222 1223 1229 1230 1221 1225 1216 1228 1221 1223 1218 1218 1222 1215 1225 1216 1224 1227 1221 1219 1218 1226 1214 1217 1224 1224 1227 1225 1219 1228 1215 1221 1222 1224 1224 1225 1225 1227 1219 1223 1223 1217 1231 1223 1221 1227 1227 1227 1218 1224 1221 1220 1227 1222 1223 1226 1225 1227 1231 1228 1220 1225 1236 1231 1228 1220 1224 1221 1222 1231 1218 1225 1213 1225 1225 1227 1229 1218 1221 1227 1226 1227 1226 1231 1224 1217 1232 1227 1221 1223 1231 1229 1221 1229 1226 1231 1225 1231 1238 1224 1223 1231 1231 1232 1212 1227 1229 1229 1222 1224 1232 1225 1228 1229 1220 1212 1218 1227 1235 1230 1237 1232 1224 1223 1231 1217 1211 1223 1225 1226 1226 1228 1219 1228 1230 1221 1232 1232 1229 1225 1230 1227 1231 1237 1234 1232 1234 1220 1227 1237 1225 1211 1225 1230 1231 1222 1232 1225 1234 1231 1223 1227 1220 1230 1226 1207 1228 1235 1229 1231 1226 1222 1227 1229 1231 1216 1225 1229 1232 1227 1214 1232 1234 1221 1218 1220 1229 1230 1225 1211 1233 1220 1237 1229 1219 1225 1220 1228 1222 1233 1215 1226 1227 1218 1225 1229 1227 1230 1222 1230 1222 1232 1222 1226 1231 1222 1232 1232 1235 1205 1241 1223 1228 1233 1231 1227 1224 1224 1231 1224 1220 1227 1225 1225 1235 1226 1229 1226 1221 1233 1234 1226 1223 1234 1229 1235 1227 1226 1232 1231 1219 1225 1229 1231 1237 1225 1226 1233 1233 1236 1224 1222 1229 1223 1231 1233 1224 1238 1226 1233 1221 1233 1219 1221 1225 1230 1234 1233 1231 1229 1217 1234 1232 1223 1216 1228 1230 1228 1223 1227 1232 1236 1226 1228 1230 1233 1225 1232 1231 1227 1225 1227 1235 1223 1231 1230 1225 1225 1224 1229 1232 1223 1234 1224 1238 1233 1224 1232 1233 1238 1225 1219 1230 1216 1230 1224 1228 1239 1233 1231 1231 1218 1226 1226 1230 1232 1220 1227 1231 1237 1220 1223 1227 1231 1230 1230 1233 1235 1229 1230 1220 1223 1237 1228 1224 1231 1228 1231 1217 1222 1226 1229 1230 1233 1229 1228 1234 1231 1228 1228 1232 1225 1225 1219 1231 1227 1230 1221 1238 1231 1230 1227 1236 1233 1221 1215 1224 1223 1229 1226 1231 1232 1230 1235 1232 1241 1233 1233 1229 1229 1229 1220 1236 1221 1217 1232 1241 1229 1210 1228 1226 1220 1225 1236 1221 1226 1230 1224 1228 1240 1229 1233 1231 1234 1223 1231 1223 1220 1230 1235 1225 1241 1228 1230 1228 1237 1226 1228 1224 1227 1225 1226 1226 1236 1241 1229 1229 1227 1231 1231 1227 1237 1226 1226 1232 1224 1233 1239 1230 1234 1231 1228 1224 1241 1233 1222 1227 1229 1228 1231 1237 1239 1225 1234 1221 1232 1230 1230 1228 1217 1229 1228 1237 1226 1218 1236 1231 1230 1224 1236 1235 1226 1229 1227 1230 1222 1228 1227 1225 1227 1226 1235 1221 1227 1228 1231 1227 1238 1227 1223 1228 1228 1223 1229 1224 1237 1236 1239 1228 1233 1229 1228 1224 1230 1226 1225 1231 1226 1233 1225 1228 1232 1223 1224 1238 1234 1227 1231 1231 1233 1239 1236 1234 1231 1228 1227 1229 1219 1234 1229 1228 1224 1239 1229 1230 1226 1228 1233 1227 1226 1228 1233 1224 1222 1234 1231 1229 1233 1231 1232 1233 1226 1221 1234 1232 1232 1224 1229 1231 1231 1235 1232 1222 1232 1236 1229 1218 1232 1235 1230 1245 1231 1229 1237 1232 1235 1223 1229 1227 1235 1226 1234 1230 1237 1222 1237 1236 1229 1228 1220 1231 1229 1227 1215 1217 1230 1236 1236 1228 1236 1227 1231 1228 1229 1221 1228 1228 1226 1231 1231 1230 1229 1225 1220 1228 1230 1213 1242 1225 1221 1233 1240 1225 1234 1235 1233 1236 1234 1225 1223 1230 1231 1228 1225 1219 1228 1233 1230 1226 1236 1225 1227 1227 1232 1225 1231 1221 1227 1233 1233 1226 1236 1235 1234 1229 1235 1237 1227 1229 1226 1230 1224 1225 1231 1236 1228 1234 1230 1233 1234 1229 1226 1223 1233

Tree=0
num_leaves=14
num_cat=0
split_feature=14 14 14 52 186 0 144 10 127 120 1640 1532 920
split_gain=1051.77 82.3664 47.58 39.3395 29.2093 27.8154 24.5051 20.3045 23.2722 18.2529 17.3006 16.9206 19.4293
threshold=1286.2536339435358 1348.1137995955617 1261.8547592090206 4.3496666666666668 2.8894026679446307 4.1873066666666672 2.8646879600933417 878.89620427102761 3.2233397084998896 2.8556143125483442 90.49548313648404 202.28447961125627 84.829427473478859
decision_type=2 2 2 2 2 2 2 2 2 2 2 2 2
left_child=2 3 -1 9 -5 10 -6 8 -7 -2 -3 -4 -13
right_child=1 5 11 4 6 7 -8 -9 -10 -11 -12 12 -14
leaf_value=5.2090473160373829 5.2024509930610661 5.1965129745006564 5.2001978343146877 5.1975702345371246 5.1978827333450317 5.1999019908905026 5.1869699817895887 5.1809997206926344 5.182891979217529 5.1946397423744202 5.1887465083599089 5.1988985133171077 5.1910569894313809
leaf_count=1118 45 57 171 91 63 46 353 813 86 241 49 40 49
internal_value=0 -0.492084 0.663988 -0.247794 -0.415057 -0.675861 -0.527378 -0.730484 -0.359517 0.047486 -0.184211 0.275716 -0.0738255
internal_count=3222 1844 1378 793 507 1051 416 945 132 286 106 260 89
shrinkage=1


Tree=1
num_leaves=14
num_cat=0
split_feature=14 14 14 52 186 0 10 1661 143 1523 904 41 1532
split_gain=1045.18 84.141 47.2199 40.0281 33.9321 24.6281 19.7678 17.9273 17.3856 19.6215 17.7079 17.0888 16.9206
threshold=1286.2536339435358 1357.1228237967409 1261.8547592090206 4.3496666666666668 2.8894026679446307 4.1873066666666672 870.58701243763778 108.03250843472318 3.2314551235959912 324.44428845140203 119.19995275185063 4.339666666666667 202.28447961125627
decision_type=2 2 2 2 2 2 2 2 2 2 2 2 2
left_child=2 3 -1 8 7 -3 -6 -5 10 11 -2 -10 -4
right_child=1 5 12 4 6 -7 -8 -9 9 -11 -12 -13 -14
leaf_value=0.013221579522045923 0.0065205825924873366 -0.0031115636527538283 0.0044163452079640829 0.0066326288878917694 -0.0044888579159975042 -0.014297771278023719 -0.0093883466035127629 -0.004904378205537796 0.0046725496649742126 -0.0087447994410991652 -0.0025341854929924004 -0.0061687138676643372 -0.0022221985191106788
leaf_count=1118 57 93 171 53 146 867 320 49 73 54 85 47 89
internal_value=0 -0.489915 0.662531 -0.266395 -0.425053 -0.695127 -0.539451 0.09375 0.0176991 -0.192661 0.27809 0.0299003 0.275716
internal_count=3222 1844 1378 884 568 960 466 102 316 174 142 120 260
shrinkage=0.005


Tree=2
num_leaves=14
num_cat=0
split_feature=14 14 14 40 161 0 119 1585 338 1401 1031 1532 920
split_gain=1039.9 82.4347 46.5036 38.9008 32.5073 24.4181 23.4698 23.2688 23.2525 19.1639 17.6056 16.9206 19.4293
threshold=1286.2536339435358 1357.1228237967409 1261.8547592090206 4.2750000000000012 2.7470326187562351 4.1873066666666672 3.4017065960288586 89.494443152340082 2.3750000000000004 127.979006170386 113.7836076354903 202.28447961125627 84.829427473478859
decision_type=2 2 2 2 2 2 2 2 2 2 2 2 2
left_child=2 3 -1 7 -5 -3 8 9 -6 -2 -10 -4 -13
right_child=1 5 11 4 6 -7 -8 -9 10 -11 -12 12 -14
leaf_value=0.013155471624435693 0.0054133357040286054 -0.003096005834490061 0.0043942634819242607 0.0054274929918348789 -0.0069171891790777455 -0.014226282421633601 -0.0089989225420802829 -0.0064001023823991423 0.008523316049233079 -0.0025105907938778407 -0.0072839245561212304 0.0031346318079680247 -0.0046676844583302705
leaf_count=1118 129 93 171 58 172 867 300 67 43 68 47 40 49
internal_value=0 -0.489915 0.659617 -0.268657 -0.405545 -0.693045 -0.479374 0.0514372 -0.257622 0.225937 0.150442 0.275716 -0.0738255
internal_count=3222 1844 1378 884 620 960 562 264 262 197 90 260 89
shrinkage=0.005


Tree=3
num_leaves=14
num_cat=0
split_feature=14 14 14 52 186 0 144 1661 120 904 23 1532 920
split_gain=1035.31 83.3221 46.1476 40.0281 33.9321 24.4181 23.9667 17.9273 17.377 17.3499 19.6065 16.9206 19.4293
threshold=1286.2536339435358 1357.1228237967409 1261.8547592090206 4.3496666666666668 2.8894026679446307 4.1873066666666672 2.8646879600933417 108.03250843472318 2.8556143125483442 118.78062047912682 4.0590000000000002 202.28447961125627 84.829427473478859
decision_type=2 2 2 2 2 2 2 2 2 2 2 2 2
left_child=2 3 -1 8 7 -3 -6 -5 -2 -10 -11 -4 -13
right_child=1 5 11 4 6 -7 -8 -9 9 10 -12 12 -14
leaf_value=0.013089694266313514 0.0065201192234877548 -0.0030805258053176088 0.0043722921645146422 0.0065235753453082215 -0.0029311299970474058 -0.014155151009525434 -0.0088384200882596527 -0.00494305981830407 0.0020796053275260128 0.0022549044457186754 -0.0068024139127202355 0.0031189586489281853 -0.004644346036038618
leaf_count=1118 48 93 171 53 70 867 396 49 107 48 113 40 49
internal_value=0 -0.488831 0.65816 -0.266395 -0.425053 -0.693045 -0.539451 0.09375 0.0176991 -0.0804769 -0.288724 0.275716 -0.0738255
internal_count=3222 1844 1378 884 568 960 466 102 316 268 161 260 89
shrinkage=0.005


Tree=4
num_leaves=14
num_cat=0
split_feature=14 14 14 1067 186 0 144 1661 143 1523 904 41 1532
split_gain=1033.35 82.5073 46.1476 40.0281 33.9321 24.2089 23.9667 17.9273 17.3856 19.6215 17.7079 17.0888 16.9206
threshold=1286.2536339435358 1357.1228237967409 1261.8547592090206 6524.5000000000009 2.8894026679446307 4.1873066666666672 2.8646879600933417 108.03250843472318 3.2314551235959912 324.44428845140203 119.19995275185063 4.339666666666667 202.28447961125627
decision_type=2 2 2 2 2 2 2 2 2 2 2 2 2
left_child=2 3 -1 8 7 -3 -6 -5 10 11 -2 -10 -4
right_child=1 5 12 4 6 -7 -8 -9 9 -11 -12 -13 -14
leaf_value=0.013024245794981945 0.0064298731084566543 -0.0030651231762910225 0.0043504307036920679 0.0064909574685816816 -0.0029164743470621703 -0.014084375254477807 -0.0087942279878183531 -0.0049183445192125495 0.0046423067101781434 -0.0085264147078179149 -0.002418317500236231 -0.0061028354644577631 -0.002125613321665114
leaf_count=1118 57 93 171 53 70 867 396 49 73 54 85 47 89
internal_value=0 -0.487747 0.65816 -0.266395 -0.425053 -0.690962 -0.539451 0.09375 0.0176991 -0.192661 0.27809 0.0299003 0.275716
internal_count=3222 1844 1378 884 568 960 466 102 316 174 142 120 260
shrinkage=0.005


Tree=5
num_leaves=14
num_cat=0
split_feature=14 14 14 118 40 0 1413 144 129 1601 1532 920 783
split_gain=1026.82 82.5798 45.7929 38.3408 30.9111 24.0007 23.524 17.5539 17.442 18.0379 16.9206 19.4293 16.6835
threshold=1286.2536339435358 1357.1228237967409 1261.8547592090206 3.0675797845355741 4.257666666666668 4.1873066666666672 168.69826453662805 2.8690755369567662 2.8797450911163982 108.71683086388967 202.28447961125627 84.829427473478859 190.64022079462703
decision_type=2 2 2 2 2 2 2 2 2 2 2 2 2
left_child=2 3 -1 6 -5 -3 -2 -6 -8 -10 12 -12 -4
right_child=1 5 10 4 7 -7 8 -9 9 -11 11 -13 -14
leaf_value=0.012959124566007035 0.0080780638185510116 -0.0030497975604095685 0.011432208180279816 -0.00063166588798774909 -0.0026320983932647791 -0.014013953378205418 0.010415165985866556 -0.0088078156652260688 0.0012794578322806549 -0.0058295994746737764 0.00311399192229187 -0.0046104962392500993 0.0014230684042634057
leaf_count=1118 71 93 72 177 58 867 41 376 63 98 40 49 99
internal_value=0 -0.485578 0.656703 -0.264134 -0.403337 -0.68888 0.0460863 -0.546961 -0.126482 -0.276332 0.275716 -0.0738255 0.459889
internal_count=3222 1844 1378 884 611 960 273 434 202 161 260 89 171
shrinkage=0.005


Tree=6
num_leaves=14
num_cat=0
split_feature=14 14 14 52 186 0 10 1661 158 1473 120 904 23
split_gain=1015.76 81.8408 46.9701 38.7689 33.0231 23.5868 20.4543 17.9273 17.4822 17.4198 17.377 17.3499 19.6065
threshold=1286.2536339435358 1357.1228237967409 1261.8547592090206 4.3496666666666668 2.8894026679446307 4.1873066666666672 870.58701243763778 108.03250843472318 2.7771198066624172 162.75747342805153 2.8556143125483442 118.78062047912682 4.0590000000000002
decision_type=2 2 2 2 2 2 2 2 2 2 2 2 2
left_child=2 3 -1 10 7 -3 -6 -5 -7 -4 -2 -12 -13
right_child=1 5 9 4 6 8 -8 -9 -10 -11 11 12 -14
leaf_value=0.012894328943177 0.0064551673871106989 -0.0030345485726075206 0.0066834152605270382 0.0063963380378796722 -0.0043464576917174114 -0.0073386137024093624 -0.0092603228473337445 -0.0048074990195809165 -0.014217378331773375 0.0011880588054007514 0.0020357473487903422 0.0023310281411254865 -0.0066756717431830119
leaf_count=1118 48 93 65 53 146 50 320 49 817 195 107 48 113
internal_value=0 -0.482325 0.653789 -0.261872 -0.418015 -0.684715 -0.530875 0.09375 -0.736223 0.268031 0.0176991 -0.0804769 -0.288724
internal_count=3222 1844 1378 884 568 960 466 102 867 260 316 268 161
shrinkage=0.005


Tree=7
num_leaves=14
num_cat=0
split_feature=14 14 14 1067 186 597 894 1661 143 1523 904 993 41
split_gain=1008.63 81.0333 48.1619 38.7689 33.0231 23.7745 22.3433 17.9273 17.3856 19.6215 17.7079 17.0989 17.0888
threshold=1286.2536339435358 1357.1228237967409 1261.8547592090206 6524.5000000000009 2.8894026679446307 6.1250000000000009 113.24247307910427 108.03250843472318 3.2314551235959912 324.44428845140203 119.19995275185063 160.41912213044512 4.339666666666667
decision_type=2 2 2 2 2 2 2 2 2 2 2 2 2
left_child=2 3 -1 8 7 6 -3 -5 10 12 -2 -6 -10
right_child=1 5 -4 4 11 -7 -8 -9 9 -11 -12 -13 -14
leaf_value=0.012829857298461117 0.0063159885384640258 0.00041642801280006748 0.0027952646369144565 0.0063643563476902722 -0.0024023059776224053 -0.014119060462102425 -0.011674275224790108 -0.0047834615244830127 0.0046569700380699472 -0.0083836845256103354 -0.0022755410034241731 -0.0086454526927725855 -0.0060377227435724559
leaf_count=1118 57 43 260 53 57 730 187 49 73 54 85 409 47
internal_value=0 -0.481241 0.650874 -0.261872 -0.418015 -0.682632 -0.397569 0.09375 0.0176991 -0.192661 0.27809 -0.530875 0.0299003
internal_count=3222 1844 1378 884 568 960 230 102 316 174 142 466 120
shrinkage=0.005


Tree=8
num_leaves=14
num_cat=0
split_feature=14 10 14 5 125 0 226 605 121 165 723 1574 733
split_gain=1003.44 80.0369 47.4387 42.5631 31.903 30.9504 20.3705 20.7974 17.8303 16.3604 18.2094 16.3396 14.9074
threshold=1286.2536339435358 897.87400700837156 1261.8547592090206 6.1250000000000009 2.8475571729479383 4.1873066666666672 -4.4999999999999991 6.1250000000000009 2.8640014738403945 2.8736511347365936 236.21613220371242 116.43717262849786 201.03271437531507
decision_type=2 2 2 2 2 2 2 2 2 2 2 2 2
left_child=2 3 -1 -2 11 -3 7 12 -7 -4 -11 -5 -6
right_child=1 5 9 4 6 8 -8 -9 -10 10 -12 -13 -14
leaf_value=0.012765708011968808 0.0030211341751803489 -0.0014043787710547662 0.0086980246719720843 0.0059617046183026304 0.0037461159725380223 -0.0065558125572981506 0.0017708150832211355 -0.0091216664424994109 -0.013950574331758369 0.0035955537149690866 -0.0026072963791146852 -0.003973181079814354 -0.007367266728155044
leaf_count=1118 89 116 66 43 51 113 43 390 829 106 88 59 111
internal_value=0 -0.481241 0.64796 -0.238555 -0.322053 -0.660998 -0.410816 -0.462708 -0.721138 0.260346 0.111111 0.191406 -0.157635
internal_count=3222 1844 1378 786 697 1058 595 552 942 260 194 102 162
shrinkage=0.005


Tree=9
num_leaves=14
num_cat=0
split_feature=14 10 14 5 803 0 1213 121 605 165 723 1152 1117
split_gain=995.087 81.264 47.0792 41.8977 32.2147 30.7103 21.2976 17.626 17.4286 16.3604 18.2094 15.7428 15.3667
threshold=1286.2536339435358 897.87400700837156 1261.8547592090206 6.1250000000000009 153.14288517248414 4.1873066666666672 158.60821698854988 2.8640014738403945 6.1250000000000009 2.8736511347365936 236.21613220371242 129.29934012329289 6276.5000000000009
decision_type=2 2 2 2 2 2 2 2 2 2 2 2 2
left_child=2 3 -1 -2 -5 -3 -6 -7 -8 -4 -11 -10 -13
right_child=1 5 9 4 6 7 8 -9 11 10 -12 12 -14
leaf_value=0.012701879471908964 0.0030060285043044454 -0.0013973568771994938 0.0086545345486122253 0.0039789432648659395 0.00095957187928679582 -0.0065230334945116583 -0.0049413727266673212 -0.013880821460099578 -0.0029317218077589227 0.0035775759463942424 -0.0025942598972191135 -0.0056844139234140398 -0.01031889174442107
leaf_count=1118 89 116 66 73 71 113 151 829 50 106 88 47 305
internal_value=0 -0.477987 0.646503 -0.233469 -0.316318 -0.659108 -0.390135 -0.719015 -0.456451 0.260346 0.111111 -0.565606 -0.640182
internal_count=3222 1844 1378 786 697 1058 624 942 553 260 194 402 352
shrinkage=0.005


Tree=10
num_leaves=14
num_cat=0
split_feature=14 10 14 605 813 0 733 1413 1540 763 1473 1023 597
split_gain=991.253 83.2318 47.0792 39.8684 31.9097 30.7103 26.7638 23.2059 18.1614 16.3126 15.6715 16.7145 15.2464
threshold=1286.2536339435358 897.87400700837156 1261.8547592090206 6.1250000000000009 150.19424978069495 4.1873066666666672 197.60500165426998 171.51476066385041 78.123418263925515 164.47370840005652 162.75747342805153 220.34656117130061 6.6250000000000009
decision_type=2 2 2 2 2 2 2 2 2 2 2 2 2
left_child=2 3 -1 6 -5 -3 -2 -6 -8 -7 -4 -12 -9
right_child=1 5 10 4 7 9 8 12 -10 -11 11 -13 -14
leaf_value=0.012638370074549416 0.0067428334481761621 -0.0013903700928134955 0.0066882000402619856 0.0051603304417403573 5.4411441230612924e-05 -0.0064904183270391002 0.0018391523804998932 -0.0032662837377905253 -0.0055869500525216487 -0.013810260544561812 0.0049497441952073198 -0.00246590113769102 -0.0095974950495978199
leaf_count=1118 93 116 65 47 77 103 42 100 125 839 94 101 302
