tree
version=v2
num_class=1
num_tree_per_iteration=1
label_index=0
max_feature_idx=1716
objective=regression_l1
feature_names=chunk_mean chunk_std chunk_q_0 chunk_q_0.25 chunk_q_0.5 chunk_q_0.75 chunk_q_1 chunk_fft_0 chunk_fft_1 chunk_fft_2 chunk_fft_3 chunk_fft_4 chunk_fft_5 chunk_fft_6 chunk_fft_7 chunk_fft_8 chunk_fft_9 sub_mean_group_0 sub_mean_group_1 sub_mean_group_2 sub_mean_group_3 sub_mean_group_4 sub_mean_group_5 sub_mean_group_6 sub_mean_group_7 sub_mean_group_8 sub_mean_group_9 sub_mean_group_10 sub_mean_group_11 sub_mean_group_12 sub_mean_group_13 sub_mean_group_14 sub_mean_group_15 sub_mean_group_16 sub_mean_group_17 sub_mean_group_18 sub_mean_group_19 sub_mean_group_20 sub_mean_group_21 sub_mean_group_22 sub_mean_group_23 sub_mean_group_24 sub_mean_group_25 sub_mean_group_26 sub_mean_group_27 sub_mean_group_28 sub_mean_group_29 sub_mean_group_30 sub_mean_group_31 sub_mean_group_32 sub_mean_group_33 sub_mean_group_34 sub_mean_group_35 sub_mean_group_36 sub_mean_group_37 sub_mean_group_38 sub_mean_group_39 sub_mean_group_40 sub_mean_group_41 sub_mean_group_42 sub_mean_group_43 sub_mean_group_44 sub_mean_group_45 sub_mean_group_46 sub_mean_group_47 sub_mean_group_48 sub_mean_group_49 sub_mean_group_50 sub_mean_group_51 sub_mean_group_52 sub_mean_group_53 sub_mean_group_54 sub_mean_group_55 sub_mean_group_56 sub_mean_group_57 sub_mean_group_58 sub_mean_group_59 sub_mean_group_60 sub_mean_group_61 sub_mean_group_62 sub_mean_group_63 sub_mean_group_64 sub_mean_group_65 sub_mean_group_66 sub_mean_group_67 sub_mean_group_68 sub_mean_group_69 sub_mean_group_70 sub_mean_group_71 sub_mean_group_72 sub_mean_group_73 sub_mean_group_74 sub_mean_group_75 sub_mean_group_76 sub_mean_group_77 sub_mean_group_78 sub_mean_group_79 sub_mean_group_80 sub_mean_group_81 sub_mean_group_82 sub_mean_group_83 sub_mean_group_84 sub_mean_group_85 sub_mean_group_86 sub_mean_group_87 sub_mean_group_88 sub_mean_group_89 sub_mean_group_90 sub_mean_group_91 sub_mean_group_92 sub_mean_group_93 sub_mean_group_94 sub_mean_group_95 sub_mean_group_96 sub_mean_group_97 sub_mean_group_98 sub_mean_group_99 sub_std_group_0 sub_std_group_1 sub_std_group_2 sub_std_group_3 sub_std_group_4 sub_std_group_5 sub_std_group_6 sub_std_group_7 sub_std_group_8 sub_std_group_9 sub_std_group_10 sub_std_group_11 sub_std_group_12 sub_std_group_13 sub_std_group_14 sub_std_group_15 sub_std_group_16 sub_std_group_17 sub_std_group_18 sub_std_group_19 sub_std_group_20 sub_std_group_21 sub_std_group_22 sub_std_group_23 sub_std_group_24 sub_std_group_25 sub_std_group_26 sub_std_group_27 sub_std_group_28 sub_std_group_29 sub_std_group_30 sub_std_group_31 sub_std_group_32 sub_std_group_33 sub_std_group_34 sub_std_group_35 sub_std_group_36 sub_std_group_37 sub_std_group_38 sub_std_group_39 sub_std_group_40 sub_std_group_41 sub_std_group_42 sub_std_group_43 sub_std_group_44 sub_std_group_45 sub_std_group_46 sub_std_group_47 sub_std_group_48 sub_std_group_49 sub_std_group_50 sub_std_group_51 sub_std_group_52 sub_std_group_53 sub_std_group_54 sub_std_group_55 sub_std_group_56 sub_std_group_57 sub_std_group_58 sub_std_group_59 sub_std_group_60 sub_std_group_61 sub_std_group_62 sub_std_group_63 sub_std_group_64 sub_std_group_65 sub_std_group_66 sub_std_group_67 sub_std_group_68 sub_std_group_69 sub_std_group_70 sub_std_group_71 sub_std_group_72 sub_std_group_73 sub_std_group_74 sub_std_group_75 sub_std_group_76 sub_std_group_77 sub_std_group_78 sub_std_group_79 sub_std_group_80 sub_std_group_81 sub_std_group_82 sub_std_group_83 sub_std_group_84 sub_std_group_85 sub_std_group_86 sub_std_group_87 sub_std_group_88 sub_std_group_89 sub_std_group_90 sub_std_group_91 sub_std_group_92 sub_std_group_93 sub_std_group_94 sub_std_group_95 sub_std_group_96 sub_std_group_97 sub_std_group_98 sub_std_group_99 sub_q_0_group_0 sub_q_0_group_1 sub_q_0_group_2 sub_q_0_group_3 sub_q_0_group_4 sub_q_0_group_5 sub_q_0_group_6 sub_q_0_group_7 sub_q_0_group_8 sub_q_0_group_9 sub_q_0_group_10 sub_q_0_group_11 sub_q_0_group_12 sub_q_0_group_13 sub_q_0_group_14 sub_q_0_group_15 sub_q_0_group_16 sub_q_0_group_17 sub_q_0_group_18 sub_q_0_group_19 sub_q_0_group_20 sub_q_0_group_21 sub_q_0_group_22 sub_q_0_group_23 sub_q_0_group_24 sub_q_0_group_25 sub_q_0_group_26 sub_q_0_group_27 sub_q_0_group_28 sub_q_0_group_29 sub_q_0_group_30 sub_q_0_group_31 sub_q_0_group_32 sub_q_0_group_33 sub_q_0_group_34 sub_q_0_group_35 sub_q_0_group_36 sub_q_0_group_37 sub_q_0_group_38 sub_q_0_group_39 sub_q_0_group_40 sub_q_0_group_41 sub_q_0_group_42 sub_q_0_group_43 sub_q_0_group_44 sub_q_0_group_45 sub_q_0_group_46 sub_q_0_group_47 sub_q_0_group_48 sub_q_0_group_49 sub_q_0_group_50 sub_q_0_group_51 sub_q_0_group_52 sub_q_0_group_53 sub_q_0_group_54 sub_q_0_group_55 sub_q_0_group_56 sub_q_0_group_57 sub_q_0_group_58 sub_q_0_group_59 sub_q_0_group_60 sub_q_0_group_61 sub_q_0_group_62 sub_q_0_group_63 sub_q_0_group_64 sub_q_0_group_65 sub_q_0_group_66 sub_q_0_group_67 sub_q_0_group_68 sub_q_0_group_69 sub_q_0_group_70 sub_q_0_group_71 sub_q_0_group_72 sub_q_0_group_73 sub_q_0_group_74 sub_q_0_group_75 sub_q_0_group_76 sub_q_0_group_77 sub_q_0_group_78 sub_q_0_group_79 sub_q_0_group_80 sub_q_0_group_81 sub_q_0_group_82 sub_q_0_group_83 sub_q_0_group_84 sub_q_0_group_85 sub_q_0_group_86 sub_q_0_group_87 sub_q_0_group_88 sub_q_0_group_89 sub_q_0_group_90 sub_q_0_group_91 sub_q_0_group_92 sub_q_0_group_93 sub_q_0_group_94 sub_q_0_group_95 sub_q_0_group_96 sub_q_0_group_97 sub_q_0_group_98 sub_q_0_group_99 sub_q_0.25_group_0 sub_q_0.25_group_1 sub_q_0.25_group_2 sub_q_0.25_group_3 sub_q_0.25_group_4 sub_q_0.25_group_5 sub_q_0.25_group_6 sub_q_0.25_group_7 sub_q_0.25_group_8 sub_q_0.25_group_9 sub_q_0.25_group_10 sub_q_0.25_group_11 sub_q_0.25_group_12 sub_q_0.25_group_13 sub_q_0.25_group_14 sub_q_0.25_group_15 sub_q_0.25_group_16 sub_q_0.25_group_17 sub_q_0.25_group_18 sub_q_0.25_group_19 sub_q_0.25_group_20 sub_q_0.25_group_21 sub_q_0.25_group_22 sub_q_0.25_group_23 sub_q_0.25_group_24 sub_q_0.25_group_25 sub_q_0.25_group_26 sub_q_0.25_group_27 sub_q_0.25_group_28 sub_q_0.25_group_29 sub_q_0.25_group_30 sub_q_0.25_group_31 sub_q_0.25_group_32 sub_q_0.25_group_33 sub_q_0.25_group_34 sub_q_0.25_group_35 sub_q_0.25_group_36 sub_q_0.25_group_37 sub_q_0.25_group_38 sub_q_0.25_group_39 sub_q_0.25_group_40 sub_q_0.25_group_41 sub_q_0.25_group_42 sub_q_0.25_group_43 sub_q_0.25_group_44 sub_q_0.25_group_45 sub_q_0.25_group_46 sub_q_0.25_group_47 sub_q_0.25_group_48 sub_q_0.25_group_49 sub_q_0.25_group_50 sub_q_0.25_group_51 sub_q_0.25_group_52 sub_q_0.25_group_53 sub_q_0.25_group_54 sub_q_0.25_group_55 sub_q_0.25_group_56 sub_q_0.25_group_57 sub_q_0.25_group_58 sub_q_0.25_group_59 sub_q_0.25_group_60 sub_q_0.25_group_61 sub_q_0.25_group_62 sub_q_0.25_group_63 sub_q_0.25_group_64 sub_q_0.25_group_65 sub_q_0.25_group_66 sub_q_0.25_group_67 sub_q_0.25_group_68 sub_q_0.25_group_69 sub_q_0.25_group_70 sub_q_0.25_group_71 sub_q_0.25_group_72 sub_q_0.25_group_73 sub_q_0.25_group_74 sub_q_0.25_group_75 sub_q_0.25_group_76 sub_q_0.25_group_77 sub_q_0.25_group_78 sub_q_0.25_group_79 sub_q_0.25_group_80 sub_q_0.25_group_81 sub_q_0.25_group_82 sub_q_0.25_group_83 sub_q_0.25_group_84 sub_q_0.25_group_85 sub_q_0.25_group_86 sub_q_0.25_group_87 sub_q_0.25_group_88 sub_q_0.25_group_89 sub_q_0.25_group_90 sub_q_0.25_group_91 sub_q_0.25_group_92 sub_q_0.25_group_93 sub_q_0.25_group_94 sub_q_0.25_group_95 sub_q_0.25_group_96 sub_q_0.25_group_97 sub_q_0.25_group_98 sub_q_0.25_group_99 sub_q_0.5_group_0 sub_q_0.5_group_1 sub_q_0.5_group_2 sub_q_0.5_group_3 sub_q_0.5_group_4 sub_q_0.5_group_5 sub_q_0.5_group_6 sub_q_0.5_group_7 sub_q_0.5_group_8 sub_q_0.5_group_9 sub_q_0.5_group_10 sub_q_0.5_group_11 sub_q_0.5_group_12 sub_q_0.5_group_13 sub_q_0.5_group_14 sub_q_0.5_group_15 sub_q_0.5_group_16 sub_q_0.5_group_17 sub_q_0.5_group_18 sub_q_0.5_group_19 sub_q_0.5_group_20 sub_q_0.5_group_21 sub_q_0.5_group_22 sub_q_0.5_group_23 sub_q_0.5_group_24 sub_q_0.5_group_25 sub_q_0.5_group_26 sub_q_0.5_group_27 sub_q_0.5_group_28 sub_q_0.5_group_29 sub_q_0.5_group_30 sub_q_0.5_group_31 sub_q_0.5_group_32 sub_q_0.5_group_33 sub_q_0.5_group_34 sub_q_0.5_group_35 sub_q_0.5_group_36 sub_q_0.5_group_37 sub_q_0.5_group_38 sub_q_0.5_group_39 sub_q_0.5_group_40 sub_q_0.5_group_41 sub_q_0.5_group_42 sub_q_0.5_group_43 sub_q_0.5_group_44 sub_q_0.5_group_45 sub_q_0.5_group_46 sub_q_0.5_group_47 sub_q_0.5_group_48 sub_q_0.5_group_49 sub_q_0.5_group_50 sub_q_0.5_group_51 sub_q_0.5_group_52 sub_q_0.5_group_53 sub_q_0.5_group_54 sub_q_0.5_group_55 sub_q_0.5_group_56 sub_q_0.5_group_57 sub_q_0.5_group_58 sub_q_0.5_group_59 sub_q_0.5_group_60 sub_q_0.5_group_61 sub_q_0.5_group_62 sub_q_0.5_group_63 sub_q_0.5_group_64 sub_q_0.5_group_65 sub_q_0.5_group_66 sub_q_0.5_group_67 sub_q_0.5_group_68 sub_q_0.5_group_69 sub_q_0.5_group_70 sub_q_0.5_group_71 sub_q_0.5_group_72 sub_q_0.5_group_73 sub_q_0.5_group_74 sub_q_0.5_group_75 sub_q_0.5_group_76 sub_q_0.5_group_77 sub_q_0.5_group_78 sub_q_0.5_group_79 sub_q_0.5_group_80 sub_q_0.5_group_81 sub_q_0.5_group_82 sub_q_0.5_group_83 sub_q_0.5_group_84 sub_q_0.5_group_85 sub_q_0.5_group_86 sub_q_0.5_group_87 sub_q_0.5_group_88 sub_q_0.5_group_89 sub_q_0.5_group_90 sub_q_0.5_group_91 sub_q_0.5_group_92 sub_q_0.5_group_93 sub_q_0.5_group_94 sub_q_0.5_group_95 sub_q_0.5_group_96 sub_q_0.5_group_97 sub_q_0.5_group_98 sub_q_0.5_group_99 sub_q_0.75_group_0 sub_q_0.75_group_1 sub_q_0.75_group_2 sub_q_0.75_group_3 sub_q_0.75_group_4 sub_q_0.75_group_5 sub_q_0.75_group_6 sub_q_0.75_group_7 sub_q_0.75_group_8 sub_q_0.75_group_9 sub_q_0.75_group_10 sub_q_0.75_group_11 sub_q_0.75_group_12 sub_q_0.75_group_13 sub_q_0.75_group_14 sub_q_0.75_group_15 sub_q_0.75_group_16 sub_q_0.75_group_17 sub_q_0.75_group_18 sub_q_0.75_group_19 sub_q_0.75_group_20 sub_q_0.75_group_21 sub_q_0.75_group_22 sub_q_0.75_group_23 sub_q_0.75_group_24 sub_q_0.75_group_25 sub_q_0.75_group_26 sub_q_0.75_group_27 sub_q_0.75_group_28 sub_q_0.75_group_29 sub_q_0.75_group_30 sub_q_0.75_group_31 sub_q_0.75_group_32 sub_q_0.75_group_33 sub_q_0.75_group_34 sub_q_0.75_group_35 sub_q_0.75_group_36 sub_q_0.75_group_37 sub_q_0.75_group_38 sub_q_0.75_group_39 sub_q_0.75_group_40 sub_q_0.75_group_41 sub_q_0.75_group_42 sub_q_0.75_group_43 sub_q_0.75_group_44 sub_q_0.75_group_45 sub_q_0.75_group_46 sub_q_0.75_group_47 sub_q_0.75_group_48 sub_q_0.75_group_49 sub_q_0.75_group_50 sub_q_0.75_group_51 sub_q_0.75_group_52 sub_q_0.75_group_53 sub_q_0.75_group_54 sub_q_0.75_group_55 sub_q_0.75_group_56 sub_q_0.75_group_57 sub_q_0.75_group_58 sub_q_0.75_group_59 sub_q_0.75_group_60 sub_q_0.75_group_61 sub_q_0.75_group_62 sub_q_0.75_group_63 sub_q_0.75_group_64 sub_q_0.75_group_65 sub_q_0.75_group_66 sub_q_0.75_group_67 sub_q_0.75_group_68 sub_q_0.75_group_69 sub_q_0.75_group_70 sub_q_0.75_group_71 sub_q_0.75_group_72 sub_q_0.75_group_73 sub_q_0.75_group_74 sub_q_0.75_group_75 sub_q_0.75_group_76 sub_q_0.75_group_77 sub_q_0.75_group_78 sub_q_0.75_group_79 sub_q_0.75_group_80 sub_q_0.75_group_81 sub_q_0.75_group_82 sub_q_0.75_group_83 sub_q_0.75_group_84 sub_q_0.75_group_85 sub_q_0.75_group_86 sub_q_0.75_group_87 sub_q_0.75_group_88 sub_q_0.75_group_89 sub_q_0.75_group_90 sub_q_0.75_group_91 sub_q_0.75_group_92 sub_q_0.75_group_93 sub_q_0.75_group_94 sub_q_0.75_group_95 sub_q_0.75_group_96 sub_q_0.75_group_97 sub_q_0.75_group_98 sub_q_0.75_group_99 sub_q_1_group_0 sub_q_1_group_1 sub_q_1_group_2 sub_q_1_group_3 sub_q_1_group_4 sub_q_1_group_5 sub_q_1_group_6 sub_q_1_group_7 sub_q_1_group_8 sub_q_1_group_9 sub_q_1_group_10 sub_q_1_group_11 sub_q_1_group_12 sub_q_1_group_13 sub_q_1_group_14 sub_q_1_group_15 sub_q_1_group_16 sub_q_1_group_17 sub_q_1_group_18 sub_q_1_group_19 sub_q_1_group_20 sub_q_1_group_21 sub_q_1_group_22 sub_q_1_group_23 sub_q_1_group_24 sub_q_1_group_25 sub_q_1_group_26 sub_q_1_group_27 sub_q_1_group_28 sub_q_1_group_29 sub_q_1_group_30 sub_q_1_group_31 sub_q_1_group_32 sub_q_1_group_33 sub_q_1_group_34 sub_q_1_group_35 sub_q_1_group_36 sub_q_1_group_37 sub_q_1_group_38 sub_q_1_group_39 sub_q_1_group_40 sub_q_1_group_41 sub_q_1_group_42 sub_q_1_group_43 sub_q_1_group_44 sub_q_1_group_45 sub_q_1_group_46 sub_q_1_group_47 sub_q_1_group_48 sub_q_1_group_49 sub_q_1_group_50 sub_q_1_group_51 sub_q_1_group_52 sub_q_1_group_53 sub_q_1_group_54 sub_q_1_group_55 sub_q_1_group_56 sub_q_1_group_57 sub_q_1_group_58 sub_q_1_group_59 sub_q_1_group_60 sub_q_1_group_61 sub_q_1_group_62 sub_q_1_group_63 sub_q_1_group_64 sub_q_1_group_65 sub_q_1_group_66 sub_q_1_group_67 sub_q_1_group_68 sub_q_1_group_69 sub_q_1_group_70 sub_q_1_group_71 sub_q_1_group_72 sub_q_1_group_73 sub_q_1_group_74 sub_q_1_group_75 sub_q_1_group_76 sub_q_1_group_77 sub_q_1_group_78 sub_q_1_group_79 sub_q_1_group_80 sub_q_1_group_81 sub_q_1_group_82 sub_q_1_group_83 sub_q_1_group_84 sub_q_1_group_85 sub_q_1_group_86 sub_q_1_group_87 sub_q_1_group_88 sub_q_1_group_89 sub_q_1_group_90 sub_q_1_group_91 sub_q_1_group_92 sub_q_1_group_93 sub_q_1_group_94 sub_q_1_group_95 sub_q_1_group_96 sub_q_1_group_97 sub_q_1_group_98 sub_q_1_group_99 sub_fft_0_group_0 sub_fft_1_group_0 sub_fft_2_group_0 sub_fft_3_group_0 sub_fft_4_group_0 sub_fft_5_group_0 sub_fft_6_group_0 sub_fft_7_group_0 sub_fft_8_group_0 sub_fft_9_group_0 sub_fft_0_group_1 sub_fft_1_group_1 sub_fft_2_group_1 sub_fft_3_group_1 sub_fft_4_group_1 sub_fft_5_group_1 sub_fft_6_group_1 sub_fft_7_group_1 sub_fft_8_group_1 sub_fft_9_group_1 sub_fft_0_group_2 sub_fft_1_group_2 sub_fft_2_group_2 sub_fft_3_group_2 sub_fft_4_group_2 sub_fft_5_group_2 sub_fft_6_group_2 sub_fft_7_group_2 sub_fft_8_group_2 sub_fft_9_group_2 sub_fft_0_group_3 sub_fft_1_group_3 sub_fft_2_group_3 sub_fft_3_group_3 sub_fft_4_group_3 sub_fft_5_group_3 sub_fft_6_group_3 sub_fft_7_group_3 sub_fft_8_group_3 sub_fft_9_group_3 sub_fft_0_group_4 sub_fft_1_group_4 sub_fft_2_group_4 sub_fft_3_group_4 sub_fft_4_group_4 sub_fft_5_group_4 sub_fft_6_group_4 sub_fft_7_group_4 sub_fft_8_group_4 sub_fft_9_group_4 sub_fft_0_group_5 sub_fft_1_group_5 sub_fft_2_group_5 sub_fft_3_group_5 sub_fft_4_group_5 sub_fft_5_group_5 sub_fft_6_group_5 sub_fft_7_group_5 sub_fft_8_group_5 sub_fft_9_group_5 sub_fft_0_group_6 sub_fft_1_group_6 sub_fft_2_group_6 sub_fft_3_group_6 sub_fft_4_group_6 sub_fft_5_group_6 sub_fft_6_group_6 sub_fft_7_group_6 sub_fft_8_group_6 sub_fft_9_group_6 sub_fft_0_group_7 sub_fft_1_group_7 sub_fft_2_group_7 sub_fft_3_group_7 sub_fft_4_group_7 sub_fft_5_group_7 sub_fft_6_group_7 sub_fft_7_group_7 sub_fft_8_group_7 sub_fft_9_group_7 sub_fft_0_group_8 sub_fft_1_group_8 sub_fft_2_group_8 sub_fft_3_group_8 sub_fft_4_group_8 sub_fft_5_group_8 sub_fft_6_group_8 sub_fft_7_group_8 sub_fft_8_group_8 sub_fft_9_group_8 sub_fft_0_group_9 sub_fft_1_group_9 sub_fft_2_group_9 sub_fft_3_group_9 sub_fft_4_group_9 sub_fft_5_group_9 sub_fft_6_group_9 sub_fft_7_group_9 sub_fft_8_group_9 sub_fft_9_group_9 sub_fft_0_group_10 sub_fft_1_group_10 sub_fft_2_group_10 sub_fft_3_group_10 sub_fft_4_group_10 sub_fft_5_group_10 sub_fft_6_group_10 sub_fft_7_group_10 sub_fft_8_group_10 sub_fft_9_group_10 sub_fft_0_group_11 sub_fft_1_group_11 sub_fft_2_group_11 sub_fft_3_group_11 sub_fft_4_group_11 sub_fft_5_group_11 sub_fft_6_group_11 sub_fft_7_group_11 sub_fft_8_group_11 sub_fft_9_group_11 sub_fft_0_group_12 sub_fft_1_group_12 sub_fft_2_group_12 sub_fft_3_group_12 sub_fft_4_group_12 sub_fft_5_group_12 sub_fft_6_group_12 sub_fft_7_group_12 sub_fft_8_group_12 sub_fft_9_group_12 sub_fft_0_group_13 sub_fft_1_group_13 sub_fft_2_group_13 sub_fft_3_group_13 sub_fft_4_group_13 sub_fft_5_group_13 sub_fft_6_group_13 sub_fft_7_group_13 sub_fft_8_group_13 sub_fft_9_group_13 sub_fft_0_group_14 sub_fft_1_group_14 sub_fft_2_group_14 sub_fft_3_group_14 sub_fft_4_group_14 sub_fft_5_group_14 sub_fft_6_group_14 sub_fft_7_group_14 sub_fft_8_group_14 sub_fft_9_group_14 sub_fft_0_group_15 sub_fft_1_group_15 sub_fft_2_group_15 sub_fft_3_group_15 sub_fft_4_group_15 sub_fft_5_group_15 sub_fft_6_group_15 sub_fft_7_group_15 sub_fft_8_group_15 sub_fft_9_group_15 sub_fft_0_group_16 sub_fft_1_group_16 sub_fft_2_group_16 sub_fft_3_group_16 sub_fft_4_group_16 sub_fft_5_group_16 sub_fft_6_group_16 sub_fft_7_group_16 sub_fft_8_group_16 sub_fft_9_group_16 sub_fft_0_group_17 sub_fft_1_group_17 sub_fft_2_group_17 sub_fft_3_group_17 sub_fft_4_group_17 sub_fft_5_group_17 sub_fft_6_group_17 sub_fft_7_group_17 sub_fft_8_group_17 sub_fft_9_group_17 sub_fft_0_group_18 sub_fft_1_group_18 sub_fft_2_group_18 sub_fft_3_group_18 sub_fft_4_group_18 sub_fft_5_group_18 sub_fft_6_group_18 sub_fft_7_group_18 sub_fft_8_group_18 sub_fft_9_group_18 sub_fft_0_group_19 sub_fft_1_group_19 sub_fft_2_group_19 sub_fft_3_group_19 sub_fft_4_group_19 sub_fft_5_group_19 sub_fft_6_group_19 sub_fft_7_group_19 sub_fft_8_group_19 sub_fft_9_group_19 sub_fft_0_group_20 sub_fft_1_group_20 sub_fft_2_group_20 sub_fft_3_group_20 sub_fft_4_group_20 sub_fft_5_group_20 sub_fft_6_group_20 sub_fft_7_group_20 sub_fft_8_group_20 sub_fft_9_group_20 sub_fft_0_group_21 sub_fft_1_group_21 sub_fft_2_group_21 sub_fft_3_group_21 sub_fft_4_group_21 sub_fft_5_group_21 sub_fft_6_group_21 sub_fft_7_group_21 sub_fft_8_group_21 sub_fft_9_group_21 sub_fft_0_group_22 sub_fft_1_group_22 sub_fft_2_group_22 sub_fft_3_group_22 sub_fft_4_group_22 sub_fft_5_group_22 sub_fft_6_group_22 sub_fft_7_group_22 sub_fft_8_group_22 sub_fft_9_group_22 sub_fft_0_group_23 sub_fft_1_group_23 sub_fft_2_group_23 sub_fft_3_group_23 sub_fft_4_group_23 sub_fft_5_group_23 sub_fft_6_group_23 sub_fft_7_group_23 sub_fft_8_group_23 sub_fft_9_group_23 sub_fft_0_group_24 sub_fft_1_group_24 sub_fft_2_group_24 sub_fft_3_group_24 sub_fft_4_group_24 sub_fft_5_group_24 sub_fft_6_group_24 sub_fft_7_group_24 sub_fft_8_group_24 sub_fft_9_group_24 sub_fft_0_group_25 sub_fft_1_group_25 sub_fft_2_group_25 sub_fft_3_group_25 sub_fft_4_group_25 sub_fft_5_group_25 sub_fft_6_group_25 sub_fft_7_group_25 sub_fft_8_group_25 sub_fft_9_group_25 sub_fft_0_group_26 sub_fft_1_group_26 sub_fft_2_group_26 sub_fft_3_group_26 sub_fft_4_group_26 sub_fft_5_group_26 sub_fft_6_group_26 sub_fft_7_group_26 sub_fft_8_group_26 sub_fft_9_group_26 sub_fft_0_group_27 sub_fft_1_group_27 sub_fft_2_group_27 sub_fft_3_group_27 sub_fft_4_group_27 sub_fft_5_group_27 sub_fft_6_group_27 sub_fft_7_group_27 sub_fft_8_group_27 sub_fft_9_group_27 sub_fft_0_group_28 sub_fft_1_group_28 sub_fft_2_group_28 sub_fft_3_group_28 sub_fft_4_group_28 sub_fft_5_group_28 sub_fft_6_group_28 sub_fft_7_group_28 sub_fft_8_group_28 sub_fft_9_group_28 sub_fft_0_group_29 sub_fft_1_group_29 sub_fft_2_group_29 sub_fft_3_group_29 sub_fft_4_group_29 sub_fft_5_group_29 sub_fft_6_group_29 sub_fft_7_group_29 sub_fft_8_group_29 sub_fft_9_group_29 sub_fft_0_group_30 sub_fft_1_group_30 sub_fft_2_group_30 sub_fft_3_group_30 sub_fft_4_group_30 sub_fft_5_group_30 sub_fft_6_group_30 sub_fft_7_group_30 sub_fft_8_group_30 sub_fft_9_group_30 sub_fft_0_group_31 sub_fft_1_group_31 sub_fft_2_group_31 sub_fft_3_group_31 sub_fft_4_group_31 sub_fft_5_group_31 sub_fft_6_group_31 sub_fft_7_group_31 sub_fft_8_group_31 sub_fft_9_group_31 sub_fft_0_group_32 sub_fft_1_group_32 sub_fft_2_group_32 sub_fft_3_group_32 sub_fft_4_group_32 sub_fft_5_group_32 sub_fft_6_group_32 sub_fft_7_group_32 sub_fft_8_group_32 sub_fft_9_group_32 sub_fft_0_group_33 sub_fft_1_group_33 sub_fft_2_group_33 sub_fft_3_group_33 sub_fft_4_group_33 sub_fft_5_group_33 sub_fft_6_group_33 sub_fft_7_group_33 sub_fft_8_group_33 sub_fft_9_group_33 sub_fft_0_group_34 sub_fft_1_group_34 sub_fft_2_group_34 sub_fft_3_group_34 sub_fft_4_group_34 sub_fft_5_group_34 sub_fft_6_group_34 sub_fft_7_group_34 sub_fft_8_group_34 sub_fft_9_group_34 sub_fft_0_group_35 sub_fft_1_group_35 sub_fft_2_group_35 sub_fft_3_group_35 sub_fft_4_group_35 sub_fft_5_group_35 sub_fft_6_group_35 sub_fft_7_group_35 sub_fft_8_group_35 sub_fft_9_group_35 sub_fft_0_group_36 sub_fft_1_group_36 sub_fft_2_group_36 sub_fft_3_group_36 sub_fft_4_group_36 sub_fft_5_group_36 sub_fft_6_group_36 sub_fft_7_group_36 sub_fft_8_group_36 sub_fft_9_group_36 sub_fft_0_group_37 sub_fft_1_group_37 sub_fft_2_group_37 sub_fft_3_group_37 sub_fft_4_group_37 sub_fft_5_group_37 sub_fft_6_group_37 sub_fft_7_group_37 sub_fft_8_group_37 sub_fft_9_group_37 sub_fft_0_group_38 sub_fft_1_group_38 sub_fft_2_group_38 sub_fft_3_group_38 sub_fft_4_group_38 sub_fft_5_group_38 sub_fft_6_group_38 sub_fft_7_group_38 sub_fft_8_group_38 sub_fft_9_group_38 sub_fft_0_group_39 sub_fft_1_group_39 sub_fft_2_group_39 sub_fft_3_group_39 sub_fft_4_group_39 sub_fft_5_group_39 sub_fft_6_group_39 sub_fft_7_group_39 sub_fft_8_group_39 sub_fft_9_group_39 sub_fft_0_group_40 sub_fft_1_group_40 sub_fft_2_group_40 sub_fft_3_group_40 sub_fft_4_group_40 sub_fft_5_group_40 sub_fft_6_group_40 sub_fft_7_group_40 sub_fft_8_group_40 sub_fft_9_group_40 sub_fft_0_group_41 sub_fft_1_group_41 sub_fft_2_group_41 sub_fft_3_group_41 sub_fft_4_group_41 sub_fft_5_group_41 sub_fft_6_group_41 sub_fft_7_group_41 sub_fft_8_group_41 sub_fft_9_group_41 sub_fft_0_group_42 sub_fft_1_group_42 sub_fft_2_group_42 sub_fft_3_group_42 sub_fft_4_group_42 sub_fft_5_group_42 sub_fft_6_group_42 sub_fft_7_group_42 sub_fft_8_group_42 sub_fft_9_group_42 sub_fft_0_group_43 sub_fft_1_group_43 sub_fft_2_group_43 sub_fft_3_group_43 sub_fft_4_group_43 sub_fft_5_group_43 sub_fft_6_group_43 sub_fft_7_group_43 sub_fft_8_group_43 sub_fft_9_group_43 sub_fft_0_group_44 sub_fft_1_group_44 sub_fft_2_group_44 sub_fft_3_group_44 sub_fft_4_group_44 sub_fft_5_group_44 sub_fft_6_group_44 sub_fft_7_group_44 sub_fft_8_group_44 sub_fft_9_group_44 sub_fft_0_group_45 sub_fft_1_group_45 sub_fft_2_group_45 sub_fft_3_group_45 sub_fft_4_group_45 sub_fft_5_group_45 sub_fft_6_group_45 sub_fft_7_group_45 sub_fft_8_group_45 sub_fft_9_group_45 sub_fft_0_group_46 sub_fft_1_group_46 sub_fft_2_group_46 sub_fft_3_group_46 sub_fft_4_group_46 sub_fft_5_group_46 sub_fft_6_group_46 sub_fft_7_group_46 sub_fft_8_group_46 sub_fft_9_group_46 sub_fft_0_group_47 sub_fft_1_group_47 sub_fft_2_group_47 sub_fft_3_group_47 sub_fft_4_group_47 sub_fft_5_group_47 sub_fft_6_group_47 sub_fft_7_group_47 sub_fft_8_group_47 sub_fft_9_group_47 sub_fft_0_group_48 sub_fft_1_group_48 sub_fft_2_group_48 sub_fft_3_group_48 sub_fft_4_group_48 sub_fft_5_group_48 sub_fft_6_group_48 sub_fft_7_group_48 sub_fft_8_group_48 sub_fft_9_group_48 sub_fft_0_group_49 sub_fft_1_group_49 sub_fft_2_group_49 sub_fft_3_group_49 sub_fft_4_group_49 sub_fft_5_group_49 sub_fft_6_group_49 sub_fft_7_group_49 sub_fft_8_group_49 sub_fft_9_group_49 sub_fft_0_group_50 sub_fft_1_group_50 sub_fft_2_group_50 sub_fft_3_group_50 sub_fft_4_group_50 sub_fft_5_group_50 sub_fft_6_group_50 sub_fft_7_group_50 sub_fft_8_group_50 sub_fft_9_group_50 sub_fft_0_group_51 sub_fft_1_group_51 sub_fft_2_group_51 sub_fft_3_group_51 sub_fft_4_group_51 sub_fft_5_group_51 sub_fft_6_group_51 sub_fft_7_group_51 sub_fft_8_group_51 sub_fft_9_group_51 sub_fft_0_group_52 sub_fft_1_group_52 sub_fft_2_group_52 sub_fft_3_group_52 sub_fft_4_group_52 sub_fft_5_group_52 sub_fft_6_group_52 sub_fft_7_group_52 sub_fft_8_group_52 sub_fft_9_group_52 sub_fft_0_group_53 sub_fft_1_group_53 sub_fft_2_group_53 sub_fft_3_group_53 sub_fft_4_group_53 sub_fft_5_group_53 sub_fft_6_group_53 sub_fft_7_group_53 sub_fft_8_group_53 sub_fft_9_group_53 sub_fft_0_group_54 sub_fft_1_group_54 sub_fft_2_group_54 sub_fft_3_group_54 sub_fft_4_group_54 sub_fft_5_group_54 sub_fft_6_group_54 sub_fft_7_group_54 sub_fft_8_group_54 sub_fft_9_group_54 sub_fft_0_group_55 sub_fft_1_group_55 sub_fft_2_group_55 sub_fft_3_group_55 sub_fft_4_group_55 sub_fft_5_group_55 sub_fft_6_group_55 sub_fft_7_group_55 sub_fft_8_group_55 sub_fft_9_group_55 sub_fft_0_group_56 sub_fft_1_group_56 sub_fft_2_group_56 sub_fft_3_group_56 sub_fft_4_group_56 sub_fft_5_group_56 sub_fft_6_group_56 sub_fft_7_group_56 sub_fft_8_group_56 sub_fft_9_group_56 sub_fft_0_group_57 sub_fft_1_group_57 sub_fft_2_group_57 sub_fft_3_group_57 sub_fft_4_group_57 sub_fft_5_group_57 sub_fft_6_group_57 sub_fft_7_group_57 sub_fft_8_group_57 sub_fft_9_group_57 sub_fft_0_group_58 sub_fft_1_group_58 sub_fft_2_group_58 sub_fft_3_group_58 sub_fft_4_group_58 sub_fft_5_group_58 sub_fft_6_group_58 sub_fft_7_group_58 sub_fft_8_group_58 sub_fft_9_group_58 sub_fft_0_group_59 sub_fft_1_group_59 sub_fft_2_group_59 sub_fft_3_group_59 sub_fft_4_group_59 sub_fft_5_group_59 sub_fft_6_group_59 sub_fft_7_group_59 sub_fft_8_group_59 sub_fft_9_group_59 sub_fft_0_group_60 sub_fft_1_group_60 sub_fft_2_group_60 sub_fft_3_group_60 sub_fft_4_group_60 sub_fft_5_group_60 sub_fft_6_group_60 sub_fft_7_group_60 sub_fft_8_group_60 sub_fft_9_group_60 sub_fft_0_group_61 sub_fft_1_group_61 sub_fft_2_group_61 sub_fft_3_group_61 sub_fft_4_group_61 sub_fft_5_group_61 sub_fft_6_group_61 sub_fft_7_group_61 sub_fft_8_group_61 sub_fft_9_group_61 sub_fft_0_group_62 sub_fft_1_group_62 sub_fft_2_group_62 sub_fft_3_group_62 sub_fft_4_group_62 sub_fft_5_group_62 sub_fft_6_group_62 sub_fft_7_group_62 sub_fft_8_group_62 sub_fft_9_group_62 sub_fft_0_group_63 sub_fft_1_group_63 sub_fft_2_group_63 sub_fft_3_group_63 sub_fft_4_group_63 sub_fft_5_group_63 sub_fft_6_group_63 sub_fft_7_group_63 sub_fft_8_group_63 sub_fft_9_group_63 sub_fft_0_group_64 sub_fft_1_group_64 sub_fft_2_group_64 sub_fft_3_group_64 sub_fft_4_group_64 sub_fft_5_group_64 sub_fft_6_group_64 sub_fft_7_group_64 sub_fft_8_group_64 sub_fft_9_group_64 sub_fft_0_group_65 sub_fft_1_group_65 sub_fft_2_group_65 sub_fft_3_group_65 sub_fft_4_group_65 sub_fft_5_group_65 sub_fft_6_group_65 sub_fft_7_group_65 sub_fft_8_group_65 sub_fft_9_group_65 sub_fft_0_group_66 sub_fft_1_group_66 sub_fft_2_group_66 sub_fft_3_group_66 sub_fft_4_group_66 sub_fft_5_group_66 sub_fft_6_group_66 sub_fft_7_group_66 sub_fft_8_group_66 sub_fft_9_group_66 sub_fft_0_group_67 sub_fft_1_group_67 sub_fft_2_group_67 sub_fft_3_group_67 sub_fft_4_group_67 sub_fft_5_group_67 sub_fft_6_group_67 sub_fft_7_group_67 sub_fft_8_group_67 sub_fft_9_group_67 sub_fft_0_group_68 sub_fft_1_group_68 sub_fft_2_group_68 sub_fft_3_group_68 sub_fft_4_group_68 sub_fft_5_group_68 sub_fft_6_group_68 sub_fft_7_group_68 sub_fft_8_group_68 sub_fft_9_group_68 sub_fft_0_group_69 sub_fft_1_group_69 sub_fft_2_group_69 sub_fft_3_group_69 sub_fft_4_group_69 sub_fft_5_group_69 sub_fft_6_group_69 sub_fft_7_group_69 sub_fft_8_group_69 sub_fft_9_group_69 sub_fft_0_group_70 sub_fft_1_group_70 sub_fft_2_group_70 sub_fft_3_group_70 sub_fft_4_group_70 sub_fft_5_group_70 sub_fft_6_group_70 sub_fft_7_group_70 sub_fft_8_group_70 sub_fft_9_group_70 sub_fft_0_group_71 sub_fft_1_group_71 sub_fft_2_group_71 sub_fft_3_group_71 sub_fft_4_group_71 sub_fft_5_group_71 sub_fft_6_group_71 sub_fft_7_group_71 sub_fft_8_group_71 sub_fft_9_group_71 sub_fft_0_group_72 sub_fft_1_group_72 sub_fft_2_group_72 sub_fft_3_group_72 sub_fft_4_group_72 sub_fft_5_group_72 sub_fft_6_group_72 sub_fft_7_group_72 sub_fft_8_group_72 sub_fft_9_group_72 sub_fft_0_group_73 sub_fft_1_group_73 sub_fft_2_group_73 sub_fft_3_group_73 sub_fft_4_group_73 sub_fft_5_group_73 sub_fft_6_group_73 sub_fft_7_group_73 sub_fft_8_group_73 sub_fft_9_group_73 sub_fft_0_group_74 sub_fft_1_group_74 sub_fft_2_group_74 sub_fft_3_group_74 sub_fft_4_group_74 sub_fft_5_group_74 sub_fft_6_group_74 sub_fft_7_group_74 sub_fft_8_group_74 sub_fft_9_group_74 sub_fft_0_group_75 sub_fft_1_group_75 sub_fft_2_group_75 sub_fft_3_group_75 sub_fft_4_group_75 sub_fft_5_group_75 sub_fft_6_group_75 sub_fft_7_group_75 sub_fft_8_group_75 sub_fft_9_group_75 sub_fft_0_group_76 sub_fft_1_group_76 sub_fft_2_group_76 sub_fft_3_group_76 sub_fft_4_group_76 sub_fft_5_group_76 sub_fft_6_group_76 sub_fft_7_group_76 sub_fft_8_group_76 sub_fft_9_group_76 sub_fft_0_group_77 sub_fft_1_group_77 sub_fft_2_group_77 sub_fft_3_group_77 sub_fft_4_group_77 sub_fft_5_group_77 sub_fft_6_group_77 sub_fft_7_group_77 sub_fft_8_group_77 sub_fft_9_group_77 sub_fft_0_group_78 sub_fft_1_group_78 sub_fft_2_group_78 sub_fft_3_group_78 sub_fft_4_group_78 sub_fft_5_group_78 sub_fft_6_group_78 sub_fft_7_group_78 sub_fft_8_group_78 sub_fft_9_group_78 sub_fft_0_group_79 sub_fft_1_group_79 sub_fft_2_group_79 sub_fft_3_group_79 sub_fft_4_group_79 sub_fft_5_group_79 sub_fft_6_group_79 sub_fft_7_group_79 sub_fft_8_group_79 sub_fft_9_group_79 sub_fft_0_group_80 sub_fft_1_group_80 sub_fft_2_group_80 sub_fft_3_group_80 sub_fft_4_group_80 sub_fft_5_group_80 sub_fft_6_group_80 sub_fft_7_group_80 sub_fft_8_group_80 sub_fft_9_group_80 sub_fft_0_group_81 sub_fft_1_group_81 sub_fft_2_group_81 sub_fft_3_group_81 sub_fft_4_group_81 sub_fft_5_group_81 sub_fft_6_group_81 sub_fft_7_group_81 sub_fft_8_group_81 sub_fft_9_group_81 sub_fft_0_group_82 sub_fft_1_group_82 sub_fft_2_group_82 sub_fft_3_group_82 sub_fft_4_group_82 sub_fft_5_group_82 sub_fft_6_group_82 sub_fft_7_group_82 sub_fft_8_group_82 sub_fft_9_group_82 sub_fft_0_group_83 sub_fft_1_group_83 sub_fft_2_group_83 sub_fft_3_group_83 sub_fft_4_group_83 sub_fft_5_group_83 sub_fft_6_group_83 sub_fft_7_group_83 sub_fft_8_group_83 sub_fft_9_group_83 sub_fft_0_group_84 sub_fft_1_group_84 sub_fft_2_group_84 sub_fft_3_group_84 sub_fft_4_group_84 sub_fft_5_group_84 sub_fft_6_group_84 sub_fft_7_group_84 sub_fft_8_group_84 sub_fft_9_group_84 sub_fft_0_group_85 sub_fft_1_group_85 sub_fft_2_group_85 sub_fft_3_group_85 sub_fft_4_group_85 sub_fft_5_group_85 sub_fft_6_group_85 sub_fft_7_group_85 sub_fft_8_group_85 sub_fft_9_group_85 sub_fft_0_group_86 sub_fft_1_group_86 sub_fft_2_group_86 sub_fft_3_group_86 sub_fft_4_group_86 sub_fft_5_group_86 sub_fft_6_group_86 sub_fft_7_group_86 sub_fft_8_group_86 sub_fft_9_group_86 sub_fft_0_group_87 sub_fft_1_group_87 sub_fft_2_group_87 sub_fft_3_group_87 sub_fft_4_group_87 sub_fft_5_group_87 sub_fft_6_group_87 sub_fft_7_group_87 sub_fft_8_group_87 sub_fft_9_group_87 sub_fft_0_group_88 sub_fft_1_group_88 sub_fft_2_group_88 sub_fft_3_group_88 sub_fft_4_group_88 sub_fft_5_group_88 sub_fft_6_group_88 sub_fft_7_group_88 sub_fft_8_group_88 sub_fft_9_group_88 sub_fft_0_group_89 sub_fft_1_group_89 sub_fft_2_group_89 sub_fft_3_group_89 sub_fft_4_group_89 sub_fft_5_group_89 sub_fft_6_group_89 sub_fft_7_group_89 sub_fft_8_group_89 sub_fft_9_group_89 sub_fft_0_group_90 sub_fft_1_group_90 sub_fft_2_group_90 sub_fft_3_group_90 sub_fft_4_group_90 sub_fft_5_group_90 sub_fft_6_group_90 sub_fft_7_group_90 sub_fft_8_group_90 sub_fft_9_group_90 sub_fft_0_group_91 sub_fft_1_group_91 sub_fft_2_group_91 sub_fft_3_group_91 sub_fft_4_group_91 sub_fft_5_group_91 sub_fft_6_group_91 sub_fft_7_group_91 sub_fft_8_group_91 sub_fft_9_group_91 sub_fft_0_group_92 sub_fft_1_group_92 sub_fft_2_group_92 sub_fft_3_group_92 sub_fft_4_group_92 sub_fft_5_group_92 sub_fft_6_group_92 sub_fft_7_group_92 sub_fft_8_group_92 sub_fft_9_group_92 sub_fft_0_group_93 sub_fft_1_group_93 sub_fft_2_group_93 sub_fft_3_group_93 sub_fft_4_group_93 sub_fft_5_group_93 sub_fft_6_group_93 sub_fft_7_group_93 sub_fft_8_group_93 sub_fft_9_group_93 sub_fft_0_group_94 sub_fft_1_group_94 sub_fft_2_group_94 sub_fft_3_group_94 sub_fft_4_group_94 sub_fft_5_group_94 sub_fft_6_group_94 sub_fft_7_group_94 sub_fft_8_group_94 sub_fft_9_group_94 sub_fft_0_group_95 sub_fft_1_group_95 sub_fft_2_group_95 sub_fft_3_group_95 sub_fft_4_group_95 sub_fft_5_group_95 sub_fft_6_group_95 sub_fft_7_group_95 sub_fft_8_group_95 sub_fft_9_group_95 sub_fft_0_group_96 sub_fft_1_group_96 sub_fft_2_group_96 sub_fft_3_group_96 sub_fft_4_group_96 sub_fft_5_group_96 sub_fft_6_group_96 sub_fft_7_group_96 sub_fft_8_group_96 sub_fft_9_group_96 sub_fft_0_group_97 sub_fft_1_group_97 sub_fft_2_group_97 sub_fft_3_group_97 sub_fft_4_group_97 sub_fft_5_group_97 sub_fft_6_group_97 sub_fft_7_group_97 sub_fft_8_group_97 sub_fft_9_group_97 sub_fft_0_group_98 sub_fft_1_group_98 sub_fft_2_group_98 sub_fft_3_group_98 sub_fft_4_group_98 sub_fft_5_group_98 sub_fft_6_group_98 sub_fft_7_group_98 sub_fft_8_group_98 sub_fft_9_group_98 sub_fft_0_group_99 sub_fft_1_group_99 sub_fft_2_group_99 sub_fft_3_group_99 sub_fft_4_group_99 sub_fft_5_group_99 sub_fft_6_group_99 sub_fft_7_group_99 sub_fft_8_group_99 sub_fft_9_group_99
feature_infos=[3.5549666666666666:5.3921333333333337] [2.8373168798943365:149.32617302058068] [-5008:-20] [-2:3] [4:5] [6:11] [30:5444] [7420.1064031480128:42390.694221558217] [936.48728712184209:34677.959269074287] [787.41133150683822:46695.992124685588] [792.57705781284528:72450.298298838097] [946.71817148765763:151747.47323211757] [1310.1275201485173:148018.28287681768] [1609.0605480748536:111537.26068755746] [1117.0289712448621:12878.215302926958] [862.62145195990331:1745.1895992550089] [591.05007893961408:860.35900522845577] [0.57600000000000007:5.6066666666666665] [3.0626666666666669:8.4306666666666672] [2.547333333333333:7.7833333333333323] [-6.5499999999999998:6.9000000000000004] [1.982:18.707999999999998] [0.034000000000000002:6.2666666666666675] [3.3153333333333328:6.9920000000000009] [2.6539999999999999:7.2873333333333337] [0.89066666666666672:13.196666666666667] [2.9233333333333333:6.5086666666666675] [-0.10000000000000001:6.2053333333333329] [3.3813333333333331:9.8726666666666674] [0.32866666666666666:8.5426666666666673] [1.8093333333333328:6.3653333333333322] [3.4013333333333331:8.4746666666666659] [3.289333333333333:5.7279999999999998] [2.1480000000000001:5.9006666666666678] [2.9386666666666668:5.9313333333333329] [3.2599999999999998:6.7233333333333336] [3.027333333333333:5.8186666666666671] [1.6526666666666667:5.8773333333333335] [3.309333333333333:6.753333333333333] [3.3239999999999998:6.4926666666666675] [3.1819999999999999:6.9986666666666677] [2.4046666666666665:5.6286666666666676] [2.1086666666666667:14.81] [-6.3279999999999994:6.5366666666666671] [0.86733333333333329:7.6906666666666679] [3.1866666666666665:7.0746666666666664] [3.3233333333333333:5.6600000000000001] [2.8560000000000003:5.9620000000000006] [1.8219999999999998:6.1593333333333335] [3.1066666666666665:5.8246666666666664] [3.2366666666666668:5.7326666666666677] [3.2439999999999998:5.5813333333333324] [3.2826666666666666:5.7846666666666664] [3.2093333333333334:5.745333333333333] [3.1006666666666667:6.3873333333333324] [3.3319999999999999:5.7993333333333323] [2.9773333333333332:8.4546666666666663] [3.1560000000000001:5.7573333333333325] [-6.2033333333333323:6.1406666666666663] [3.1146666666666665:14.492666666666667] [2.8273333333333333:10.142666666666667] [0.80400000000000005:6.3873333333333324] [1.5740000000000001:7.6739999999999995] [2.7766666666666668:7.9866666666666664] [2.262:7.0786666666666678] [2.6613333333333333:5.8093333333333321] [2.8326666666666669:6.1166666666666663] [2.8719999999999999:7.6526666666666676] [2.9500000000000002:23.218666666666671] [-2.8073333333333328:5.7233333333333336] [-0.37533333333333335:6.9720000000000004] [2.2759999999999998:8.0366666666666671] [0.050000000000000003:8.3979999999999997] [2.9093333333333331:5.9913333333333325] [3.1039999999999996:6.9593333333333325] [2.6280000000000001:7.011333333333333] [1.2166666666666666:6.8260000000000005] [0.51066666666666671:5.6553333333333322] [1.8553333333333333:6.5246666666666675] [3.2446666666666668:5.6973333333333329] [1.3859999999999999:6.6493333333333338] [3.2433333333333332:5.6893333333333329] [2.988:6.6220000000000008] [2.3900000000000001:5.6513333333333335] [3.4226666666666667:5.9160000000000004] [3.071333333333333:5.8053333333333335] [3.1286666666666667:6.3300000000000001] [-5.4620000000000006:6.7993333333333323] [3.0800000000000001:28.951333333333331] [-5.46:5.7153333333333336] [2.9039999999999999:5.9433333333333325] [2.9260000000000002:6.1973333333333329] [3.1260000000000003:8.3420000000000005] [3.059333333333333:7.4306666666666663] [3.0293333333333332:5.6479999999999997] [2.6893333333333334:5.7320000000000002] [2.7106666666666666:5.7939999999999996] [3.3513333333333333:6.4359999999999999] [3.3766666666666665:5.8906666666666663] [2.7786666666666666:5.8079999999999998] [-1.8573333333333333:5.9533333333333323] [3.3139999999999996:33.084000000000003] [-2.3620000000000001:7.1239999999999997] [-1.9566666666666668:5.7266666666666675] [2.0866666666666664:10.592666666666666] [3.1406666666666667:13.708] [1.3253333333333333:6.5579999999999998] [2.2593333333333332:7.0499999999999998] [-0.31866666666666665:8.8360000000000003] [3.2686666666666668:8.0839999999999996] [2.8026666666666662:6.0360000000000005] [3.297333333333333:6.5939999999999994] [1.9066666666666667:6.3466666666666676] [2.3546666666666667:5.7240000000000002] [1.9446666666666668:6.8346666666666662] [2.4159999999999999:6.7920000000000007] [3.3046666666666669:8.6213333333333342] [2.4628438846179432:187.71982203273049] [2.4896553978412355:243.44703538597923] [2.5035280882963722:717.99704238914228] [2.520008730143608:1130.1305586081635] [2.4621597565281315:321.96379517372236] [2.4951846068421921:140.08712828331755] [2.5299285014051733:105.37079334742937] [2.5175059086325891:322.25966792565828] [2.4849465900810737:1174.745135758769] [2.511624441140301:591.9747544658378] [2.5097909607508484:1194.4905287854829] [2.5196239578335677:424.47432170417824] [2.5084613256381343:200.88463184513526] [2.4773950476704805:127.99610058470098] [2.5378040376146718:145.25309163892749] [2.4636536553122337:141.48444951850911] [2.4828889087781056:63.951901662282289] [2.4357386285615021:97.341514724648135] [2.5009206304879008:58.893691716515782] [2.4543345782965744:94.394214349538728] [2.4341141213089323:89.5413083442497] [2.5101800732218398:65.605273148496892] [2.436893833460037:71.841241377544875] [2.4548085238749047:80.75715577788344] [2.497598846892751:1060.2434471256536] [2.5110432537537504:277.56340697017123] [2.5108741284438949:173.2617432980133] [2.5058488027457329:70.841666032231501] [2.4917246147107743:73.79829687887262] [2.464024801462481:102.65683584101394] [2.487024102997172:49.583534413037654] [2.5089702181483853:57.978372611402825] [2.4910599261269399:104.03290555503206] [2.4944949165891059:102.11091812338188] [2.4953286134072377:708.96132145711749] [2.5126357121998844:250.71388744144195] [2.4909807082530544:69.894870576379844] [2.4946588277090447:64.370820508122222] [2.5108556310548802:161.46777301575278] [2.5146513785325304:402.88570543793458] [2.4739434108321881:98.697523506024297] [2.4839126840978576:490.27593929903963] [2.4881028917631203:1084.5062184912642] [2.4611202507981784:215.80890539137215] [2.4488069657601748:116.78904736318384] [2.5154826353781274:79.308444888717034] [2.490673804415183:45.860860097569997] [2.5149136499424123:69.548955033287314] [2.5195678641827097:77.188568814012569] [2.5007528644168122:230.77515791975722] [2.5217105305724523:1272.7075069640575] [2.504085195568766:707.9140909636485] [2.4976521419569666:223.61942270940798] [2.52474649992606:766.19696372147018] [2.4922222123148559:726.59593435569286] [2.5055295293055759:131.38846537399442] [2.5122013365882032:88.236231923173165] [2.4877901840790351:73.991849025566466] [2.5031957352330418:285.36351429477924] [2.5126392498725316:143.00864082052291] [2.5253685319616666:266.88655121522237] [2.5083394241343542:1215.9516628570759] [2.5181738533221956:330.49059557707369] [2.5124595298012045:191.54490659894881] [2.5090311543170074:128.03310261369475] [2.5068272111708589:465.16506498040252] [2.5105770916929302:202.04748097085167] [2.5003782824915821:83.697984906049754] [2.5251209872004154:201.70139830507432] [2.477355220570697:371.81112485597674] [2.4780246613426229:1192.1191396931208] [2.4777634179952597:484.32509842551917] [2.4932588224160681:182.61860547782817] [2.495031863523991:92.455663779396914] [2.5139182343284143:114.04997474596632] [2.4830679052781099:301.10392239151514] [2.4809384425163707:135.617250105664] [2.5100363875184493:69.264561183912789] [2.492190379744069:104.54365016053768] [2.5204144280036345:83.916595363094487] [2.502290062234104:61.148831546935995] [2.4967081438477257:72.358889494580339] [2.4523824244100991:73.513484102502503] [2.5056625648496422:965.93710888074327] [2.4882774943500352:717.77255794854671] [2.5134397855440174:207.77819332804557] [2.4458603576019806:167.58511898402222] [2.492781044001525:1021.0593644946518] [2.4545195501813017:359.13697860658493] [2.5023548020925324:194.43502640099479] [2.5130242073379772:228.50806110264224] [2.5133933679832574:486.33909958473305] [2.4809618206565687:942.89013478630329] [2.5263767643713706:619.07349134403159] [2.5218511719237782:168.6771981152165] [2.4830880415769041:404.29575758293032] [2.4831767288428481:109.18297030214922] [2.4725101055854601:228.24410676193926] [2.5239637257474379:445.96587096921809] [2.536000701016377:577.2857195054188] [-845:-2] [-979:-2] [-2175:-2] [-4203:-2] [-1250:-2] [-500:-2] [-749:-2] [-1519:-2] [-3704:-2] [-3032:-2] [-3301:-2] [-1877:-2] [-734:-2] [-639:-2] [-887:-2] [-915:-2] [-287:-2] [-450:-2] [-368:-2] [-509:-2] [-400:-2] [-372:-2] [-401:-2] [-435:-2] [-4482:-2] [-1070:-2] [-657:-2] [-322:-2] [-342:-2] [-482:-2] [-244:-2] [-241:-2] [-574:-2] [-785:-2] [-2517:-2] [-1138:-2] [-272:-2] [-221:-2] [-953:-2] [-1706:-2] [-495:-2] [-2832:-2] [-2860:-2] [-604:-2] [-396:-2] [-364:-2] [-254:-2] [-411:-2] [-391:-2] [-1195:-2] [-3389:-2] [-3905:-2] [-658:-2] [-2476:-2] [-2536:-2] [-494:-2] [-445:-2] [-314:-2] [-1164:-2] [-553:-2] [-1244:-2] [-5008:-2] [-1146:-2] [-855:-2] [-530:-2] [-1577:-2] [-602:-1] [-458:-2] [-917:-2] [-1252:-2] [-4079:-2] [-2135:-2] [-588:-2] [-330:-2] [-384:-2] [-1305:-2] [-841:-2] [-291:-2] [-424:-2] [-471:-2] [-335:-2] [-327:-2] [-519:-2] [-2941:-2] [-2368:-2] [-611:-2] [-888:-2] [-3112:-2] [-1566:-2] [-1104:-2] [-972:-2] [-2107:-2] [-2699:-2] [-1988:-2] [-694:-2] [-1621:-2] [-428:-2] [-1442:-2] [-1540:-2] [-1730:-2] [-98:4] [-52.25:4] [-428.5:4] [-684:4] [-182:4] [-92.25:4] [-44.25:4] [-148.25:4] [-658.5:4] [-265:4] [-772.25:4] [-222:4] [-112.25:4] [-50:4] [-26:4] [-57:4] [-30:4] [-34:4] [-16:4] [-26:4] [-48:4] [-27:4] [-21.25:4] [-23:4] [-582:4] [-146:4] [-98:4] [-38:4] [-25:4] [-38:4] [-13.25:4] [-21:4] [-16:4] [-13:4] [-440.25:4] [-95.25:4] [-34:4] [-36.25:4] [-23:4] [-144:4] [-29:4] [-161:4] [-702.25:4] [-130.25:4] [-84:4] [-29:4] [-25:4] [-22:4] [-23:4] [-93.25:4] [-895.75:4] [-351:4] [-161:4] [-460.25:4] [-362:4] [-81:4] [-43:4] [-31.25:4] [-125.25:4] [-67:4] [-78.25:4] [-624.75:4] [-145.5:4] [-77:4] [-49:4] [-258:4] [-116:4] [-29.25:4] [-80:4] [-193.25:4] [-748.5:4] [-193.25:4] [-119:4] [-55:4] [-69:4] [-151:4] [-51:4] [-18:4] [-16:4] [-25:4] [-23:4] [-24:4] [-27.25:4] [-645.75:4] [-398.25:4] [-127:4] [-81:4] [-668.25:4] [-187.75:4] [-98:4] [-103:4] [-187.25:4] [-608.75:4] [-399.25:4] [-102.5:4] [-120:4] [-49.25:4] [-27:4] [-207.25:4] [-352.25:4] [0:6] [3:6] [1.5:13] [-41:9] [0:10] [3:8] [3:7] [-0.5:8] [0.5:6] [-1:6] [-1:6] [3:15] [0:11] [1:6.5] [3:8] [3:9] [3:6] [2:7] [3:6] [2:7] [2:6] [2.5:7] [3:6] [2:7] [2:6] [3:10] [-0.5:7] [1:9] [3:6] [3:6] [3:6] [3:6] [3:6] [3:6] [3:51.5] [3:10] [3:6] [3:6] [3:7] [0.5:9] [3:6] [-9:6] [-19.5:7] [3:11] [1:7] [2:7.5] [3:6] [2:7] [2:6] [3:15] [-27:6] [2.5:54] [-2.5:6] [-1:13] [2:31.5] [3:9] [3:6] [3:7] [1:7] [3:9] [3:6] [-34.5:7] [-4:7.5] [1:6] [2:6] [-14:6] [-1.5:6] [2:6] [3:6] [1.5:27] [-1:28.5] [3:11] [-11:6] [-1:7] [3:7.5] [-1.5:8] [2:10] [2:6] [2:6] [3:6] [3:7] [3:6] [3:6] [3:13] [3:46.5] [3:7] [1:6] [-23:12] [2:13] [0:7] [0:10] [-1:6] [3:21.5] [2.5:35.5] [3:8] [1:6] [3:6] [3:8] [2:7] [3:18.5] [5:107] [5:68] [5:432.5] [5:679.5] [5:202.25] [5:93] [5:57] [5:159.25] [5:701] [5:243.25] [5:792.25] [5:241] [5:108.25] [5:56] [5:43] [5:66] [5:38] [5:46.25] [5:29] [5:32] [5:54] [5:36] [5:30.25] [5:32] [5:612.5] [5:159] [5:88] [5:56] [5:36.25] [5:46] [5:20] [5:31] [5:25] [5:20] [5:466] [5:114.25] [5:43] [5:41.25] [5:34] [5:133] [5:41] [5:171] [5:651] [5:141] [5:84] [5:45] [5:38] [5:28.25] [5:32] [5:113] [5:834] [5:406] [5:147] [5:493] [5:351.25] [5:82.5] [5:58] [5:41] [5:111.25] [5:78] [5:83] [5:594] [5:162.25] [5:79] [5:63] [5:244.25] [5:116.25] [5:40.25] [5:92] [5:217] [5:682.25] [5:240.25] [5:98] [5:65] [5:81] [5:151] [5:68] [5:29] [5:26] [5:37] [5:34] [5:32] [5:37] [5:655.75] [5:432] [5:119] [5:79] [5:601.25] [5:212] [5:101] [5:109] [5:183] [5:615] [5:416] [5:104.25] [5:120] [5:56] [5:39] [5:173.25] [5:372.25] [11:1233] [11:1224] [11:3243] [11:3512] [11:1239] [11:453] [11:516] [11:1861] [11:5444] [11:3671] [11:3914] [11:1779] [11:697] [11:489] [11:642] [11:745] [11:323] [11:399] [11:322] [11:545] [11:511] [11:332] [11:285] [11:459] [11:3449] [11:1398] [11:795] [11:432] [11:358] [11:518] [11:266] [11:297] [11:523] [11:665] [11:2033] [11:962] [12:278] [11:243] [11:869] [11:1940] [11:476] [11:3678] [11:3589] [11:946] [11:532] [11:387] [11:276] [11:420] [11:469] [11:1101] [11:4281] [11:3109] [11:780] [11:2684] [11:3747] [11:421] [11:392] [11:382] [11:1152] [11:638] [11:1551] [11:4886] [11:1346] [11:739] [11:625] [11:1668] [11:630] [11:387] [11:1091] [11:1107] [11:5115] [11:2614] [11:670] [11:420] [11:406] [11:1037] [11:536] [11:436] [11:481] [11:452] [11:309] [11:417] [11:640] [11:2838] [11:2811] [11:766] [11:655] [11:4610] [11:2042] [11:991] [11:941] [11:2043] [11:2951] [11:2190] [11:706] [11:2248] [11:415] [11:1230] [11:2259] [11:2488] [864:8410] [10.030817787235396:2987.6139755151648] [24.029073778876949:3236.3490466432427] [33.419934869027358:3860.0157292244016] [63.09550493923976:15756.714133835403] [76.956778047406999:20199.600570105096] [102.53987966274009:13460.388665144354] [95.511741246138953:1224.8109923264649] [78.711585537189208:463.21598113036697] [51.238748385668281:322.52355872848921] [4594:12646] [15.210658655035536:3782.6966261537095] [23.072260503849321:2905.6701871617202] [33.034405173029363:7613.6077137741813] [59.217728982572382:24122.524189753785] [83.774157364824319:29891.72464383869] [108.15904450033304:12351.847508809196] [96.709219869684048:1573.0133760421854] [77.421313973395826:572.45354378089428] [51.632144039438813:390.15021484979758] [3821:11675] [13.953766803418606:11762.455462032862] [20.594815416490512:5867.887954515204] [36.275326219183604:11851.866270518831] [59.60977994539418:41280.930335860241] [80.223300980344291:78424.354196403321] [93.0876639738986:51123.219053775887] [94.769535754091621:7060.703230887173] [78.58822837941878:924.78655970224759] [51.947645438062679:594.6749424945757] [4756:10350] [12.957108960990816:29279.550472108833] [29.45593988267078:28001.355021169733] [39.071016432485401:57701.942717850485] [57.779648740337343:84904.950957716879] [83.121434237349874:108382.25942710043] [106.14497942000895:80328.105997139399] [95.029488742994658:8527.2262357834352] [76.522381258228705:431.19629247161913] [53.373508285076475:171.73725311990685] [2973:28062] [10.282080363665596:18666.023781376811] [25.17080153971283:13091.350047058497] [32.273027544194484:23093.60535789128] [58.433412535298899:29862.906544723886] [93.669336544885127:29809.921708753915] [104.3274430893556:22502.88227507647] [91.082586222339216:2028.3257045150967] [76.405203671795448:180.90285729916661] [53.654279124926433:113.25332224664749] [51:9400] [8.7952936153671093:2471.9513563071991] [20.835247554423173:5640.79800959968] [39.164487384228728:5566.3050609500306] [55.263548673156052:15082.706329872675] [86.192254691319249:13795.920520624852] [110.71011333385755:9366.5120603969353] [97.909441619066939:1159.8217363290084] [76.182873647151254:126.236127526197] [52.897023308825332:86.292331645935647] [4973:10488] [7.8895527223782587:5499.5122034318165] [19.555348495578706:2577.3208797017787] [38.722594438425105:3302.4913922378087] [55.497449025265169:8819.9166852522139] [89.435793927916052:5953.4060889079956] [104.78888198097454:8529.0698031889988] [98.138521047119298:769.53410854252627] [78.141846420773732:169.31689470753349] [52.478560928985097:116.91863658305643] [3981:10931] [18.851875069756886:4757.7954955059058] [23.082639603772961:5031.3927301093936] [30.021164760493264:7296.7136038381113] [60.929881034596093:23187.155502027166] [88.892159175811017:35983.833880207683] [106.1010942357582:20970.315895169198] [96.978667302016603:1859.420285483516] [78.001559343235201:244.51027416674557] [52.172882801516103:146.6857765257256] [1336:19795] [18.592997547539319:17108.37977707676] [30.753371595681358:29504.06448180529] [37.479539400536169:30923.644538556007] [61.628324618512522:80151.072029249466] [88.560446004623245:137077.07896896638] [102.75778582161794:74895.57160395266] [94.890450281214015:9762.4676157039485] [78.114159036310838:1614.8054738805336] [52.638124214937278:671.23521577228405] [4385:9763] [9.2093202890749311:9379.2910735380447] [25.863354688136674:15655.860611830838] [41.232937634139063:10999.286074336955] [59.106094839526548:26883.494470278285] [87.839651758508325:59219.070326509602] [107.12171482035394:48772.387065035393] [91.06314017365284:3991.7263390121611] [78.446637019756466:733.98505213220255] [52.369136270484859:515.04403128255376] [150:9308] [7.8163547480544873:26484.925370780562] [27.877600388764328:16312.740341881508] [37.428141213959925:32920.165078946004] [58.960123751088823:113693.49172316672] [92.671184474515286:118144.31218746185] [101.41329122039741:87055.81283808389] [93.231054339026926:8918.5025396960773] [77.421347174647252:466.83095112542082] [53.016657181203755:259.51967826905292] [5072:14809] [11.938459871053038:13390.252445869974] [26.120080925559311:19319.34382549013] [36.127393969759993:19380.869589242771] [60.369840174421682:39761.85009765935] [87.59490395359586:41322.868938033978] [104.23226656075032:29794.562435269487] [94.894625630137995:3076.3535316337202] [78.13607785768545:375.32575933958657] [53.022186653300274:289.82445707452467] [493:12814] [17.312959106462852:8895.0357175632926] [29.62634521599249:5803.380500429198] [41.584837868773242:5775.9277899087465] [62.702140763966028:17127.332912469301] [93.202173768489473:22419.357938044421] [96.848550848272126:11081.356368428176] [97.598194732065181:1271.3296477726958] [78.425266777337924:218.91407466529691] [51.527667491918066:154.84182166683902] [2714:9548] [13.779773012302449:3163.5249924377599] [21.153011155847818:4751.1126664511639] [30.554066990123072:3578.2493132378499] [61.021425724263437:9275.1351537664359] [86.78036790756407:14254.463530812362] [102.84859870770958:7932.4810910444385] [92.761448348993284:939.15299759453967] [78.305454194136317:244.04537558197705] [52.836181086831168:105.79444061147288] [5102:12712] [14.171761340716778:2666.903631449261] [25.274238912344391:2966.1678127443911] [38.055726977143152:3047.9071235842011] [57.864318667794542:13949.746307356616] [79.008429745474842:16565.057877380765] [102.50839006984845:8937.4067534731439] [94.991256993991755:634.67937907253167] [78.420950403225788:129.95685686339056] [53.349246727426149:87.263517863867804] [4934:8592] [9.312802288715627:1573.5138385571599] [20.970541575571339:2661.200413590198] [37.810666231977073:2049.5753569477911] [59.382277090590804:10695.993376100769] [91.730908070267205:15830.513563358518] [104.8999427464941:9749.9396427893207] [97.637231980860804:1358.6891384093319] [77.865730024317287:243.24021976833112] [52.926727080528423:171.57672676751218] [3222:8851] [17.805167636218034:2105.9127671776878] [20.864365787392021:2133.5041462622312] [37.215806207522384:1761.4465315747775] [58.721631408352039:5478.3819581486814] [88.086218090625493:6879.1480843473073] [103.45714401183108:5289.639822923421] [93.757704963474794:776.52152087042873] [77.310989884908096:221.36521356492574] [52.187815128513563:166.18706094759409] [4408:8897] [7.9017578385630083:837.01898198729589] [26.381499688957483:1343.5330117473925] [37.232225133817096:807.76075751192752] [56.131996714222495:5058.0715893457664] [85.881149076229462:9722.8145516833592] [107.95099443511292:6024.8684459364431] [94.335242845481801:790.55934682156862] [77.444336410633625:119.42687333708339] [52.550725146400055:87.160974095198213] [4890:10085] [6.5638945567854856:745.83154165386907] [19.363142701781388:1497.3813654223072] [37.822692822245273:1043.4352651427823] [58.192315653823798:4819.0744000624454] [92.872568009082315:4960.2660805367341] [103.87398773340661:4988.7087229487697] [96.690487630618691:479.76751858960478] [77.498740398314069:118.0988556596262] [51.031512081540562:81.15560816052998] [4541:8728] [18.664057128322085:1057.5701623890052] [22.374515937337343:1147.3033151865488] [35.475867540290338:1090.3427537723223] [61.283024700549262:9527.4526261295541] [91.450994648073362:7356.2224769625545] [107.90307360979338:8441.5113457615189] [94.0825548410632:1415.2194694887476] [78.075491693859803:397.6659734749357] [52.500023214016593:277.30725350888491] [2479:8816] [12.240476638014927:2762.4581334081449] [25.96263848793345:953.04639246050465] [39.701037642482454:1057.3769457005164] [58.597066115006932:6612.0547101541251] [82.825185888508557:9081.199484637209] [102.60459732793529:7896.0252099928775] [91.544814009054505:1335.115314400945] [78.361079696172339:398.45271688383536] [52.397589599687592:276.4119944342799] [4964:10130] [14.612517599276355:1301.8895202682752] [24.641318887347069:1013.1295167114121] [35.141384238706138:868.01466072477001] [58.99102367638551:4249.4225477573964] [93.590651992531505:4835.452922225375] [102.7662624566987:5456.0721312772021] [94.605776123504484:648.45005762689971] [76.550209323247671:164.52060426107604] [53.748817053190976:78.74258940601257] [4986:9739] [11.186256374774775:712.38821272784969] [26.577650795985551:723.50908128275478] [38.562746785384782:688.6630479252683] [55.663204276585141:5271.3973044660024] [92.578521072722566:8162.7925151267227] [105.81982430043313:5081.2347889344419] [95.532641966940218:593.67554645735299] [78.585815873447558:124.49965722142868] [52.575245619418389:84.332625063294373] [4773:10498] [10.714664906051821:912.82464652640635] [24.173895251575871:1117.5043471110603] [37.924310427513426:1106.801275698183] [58.809213982173006:5255.0562283730142] [93.189230864824708:8832.4493914072209] [104.62887476747791:5561.9152964331579] [96.018985411446479:695.06949421558477] [77.14690853750534:189.04120685350739] [51.992518835667461:127.56876659190449] [3607:8443] [13.870936078876984:24299.550554912741] [27.216912466519322:37882.184798045899] [35.857601316446768:61439.198077136709] [57.335497864194139:91063.413022791952] [83.322401226821967:123276.14283214373] [108.35168361023599:54072.341951662587] [98.448014222320865:6132.9760867173682] [77.49868642790392:184.17492840883111] [52.27557595539367:96.591262337706411] [3163:22215] [15.882397196950073:15712.085057996101] [21.631294554369564:12771.121469761018] [35.449979265014761:26012.310831905397] [53.827305521132821:37964.726200592144] [87.70072406049843:25778.001978211832] [110.60060613591642:18103.19258320488] [92.663278385951728:1239.5446337003955] [77.692025461937831:417.45700868895693] [52.717142873169095:295.61407764524381] [4721:9805] [16.012323688257155:3454.0910574722557] [18.002204113397497:5428.8175773976536] [33.410898972270573:6167.6104950905565] [58.561225526165295:17811.570434828856] [92.431357166140074:18049.75219954308] [102.22075495576887:10209.086164911623] [97.837443860390934:1457.9243321639199] [77.998518063047186:311.16200540769273] [52.314977763763586:217.67084123045842] [1301:11536] [20.151541773014106:4783.4805457216435] [21.902218464287387:2610.9059316628523] [35.102095388705521:4703.9899604396524] [58.222072493352854:6544.5474184330224] [90.890639876587997:6380.8452915383632] [102.83309484343469:5418.8126443428091] [94.833669286466844:831.66346650599974] [78.099588224242666:142.03960350759186] [52.318172842887925:95.107320491589178] [4780:10612] [12.986750766530605:1617.4534171051205] [28.381818319167987:2254.5044574064609] [33.424670879192703:2569.7935124356663] [51.534586477881597:3836.695318888922] [86.766768345274599:7148.7158042156943] [106.6444672116542:5914.8390265819271] [96.053052247947775:634.26792003483922] [78.064177497603552:187.83611788399108] [52.439068112231972:140.45495068765348] [4985:8490] [16.446346466400914:2415.2288563349421] [22.236632686337973:1281.7496648240408] [37.47455994714953:1521.0224919745524] [60.552592688047717:8525.8220474495738] [88.257828787250943:12905.433148541391] [107.17988185485788:4999.8840015584892] [97.52941575955677:774.97122332023821] [77.585138577021212:149.50461540105223] [53.094335197162657:104.27536642529093] [4284:8943] [11.649390684337229:1716.8358572398665] [18.882774357039199:860.02310302372882] [34.210574193808945:1091.7626794436987] [59.478264866653177:2703.3187552093914] [76.282298358461077:2913.9377058222481] [104.64366744742708:4645.6101722066151] [97.49889933061381:456.71467248491217] [77.507010532041278:147.84226292101772] [53.150528284532726:106.99394498887943] [2733:9239] [15.234650413022992:1516.0830182448767] [22.153993273721646:742.4265199252759] [41.552896644351065:1645.078484133099] [61.131742029528944:2758.7571547239349] [85.323479400568829:4454.9819043372536] [107.27086665919796:4785.3550023586185] [96.035539539882336:520.37764473304003] [77.871335194050204:132.233694493012] [53.022289977574843:91.319123738106626] [4660:8737] [10.602014945888858:1130.9871093749616] [27.910184664479551:636.23169364887019] [32.090579111453259:951.88952097004733] [62.686905045025043:7533.6908720919664] [86.373299318768659:9087.1262514219088] [109.33272190449443:6573.7001269807079] [95.806457663204995:1217.5232021204131] [76.960693793139541:125.11096661477707] [52.134122570021184:84.979945101686411] [4855:8599] [17.167454030901936:1380.0841696743228] [20.873755499630011:699.15460894871478] [34.300966393009872:1482.4377047990365] [60.311107147732116:8117.0039368590906] [93.474175457916871:7669.6997481363869] [99.207212593251398:8573.2527538571485] [95.213624267956092:1095.8283744951618] [77.40126032174787:130.2568477783901] [53.667026929895869:86.644369912224846] [4866:8372] [7.0369887242917892:2803.9330800485186] [30.415779632683272:5534.9410131988552] [38.467617052527203:5438.7288695103434] [51.667327341064727:47962.921021418049] [81.966789265856221:79276.877661152641] [101.92820589741495:48321.036105757092] [97.271513103465637:3010.0483528551754] [77.394126465867373:471.21376022445219] [52.537474419283235:326.12597031694014] [4924:8677] [15.729962879314435:3087.3354217582832] [12.04688684942699:3544.9176734574762] [33.204773195572727:4397.7200257257828] [64.414497783485217:19650.314519252308] [88.647549186287932:23509.920497826308] [104.99041566258232:17881.472753549795] [97.679799668643952:1695.5970913183373] [77.939196518795058:430.15540672621125] [52.896171424071127:288.3647743489372] [4814:8618] [16.206461876859393:1679.0748049758286] [19.305343665814899:1683.7929465324532] [35.469099151576387:1799.8991562801998] [55.635788453004366:5702.5476035279362] [85.803478208489366:6999.2847042181993] [109.2225647555416:4975.6210264278743] [94.970058181655915:991.14205470534159] [76.407613138842152:164.1702069478479] [53.214833696692715:112.58590200477646] [4651:9581] [9.8525705261786669:1253.5555127284435] [26.795215758478051:926.19303172309083] [42.05622184275871:995.83658442334729] [54.78641213826937:3309.6020449977991] [78.947420760078771:4481.7700964544329] [103.40404585010454:5898.4128804460452] [94.149880696480523:663.48166943212925] [77.569834939700826:153.28839255106368] [52.586433866908905:106.7628613919661] [4998:8699] [8.0835638262396294:2623.2153223927844] [21.242887684236624:2903.1631964311723] [36.551553169164961:3593.9889702732899] [62.145706334318419:13577.186547033079] [79.46036938618019:22503.76118836792] [109.67517472911852:8519.3191582242143] [93.100861607131236:2283.0491483260994] [78.032178327502052:476.6260653271583] [52.876463921323108:343.66924026595314] [4466:12682] [11.923027023146055:4316.6141962386482] [22.147140316394974:5043.2766883261602] [36.845730195248585:4060.1020995258] [60.878664111302363:27983.933767973696] [85.752055712034192:35963.439051437519] [102.95985289206362:33506.294550513187] [98.394426321885703:3797.818822122349] [77.599134152435312:496.80608674578974] [53.777274898350363:325.38900233394145] [4734:8636] [11.867647632608707:1481.4849948757221] [23.985466407099825:1425.3874151870043] [40.031984863670857:2634.2017092144019] [53.188703833597899:5993.412379038662] [90.768867701222931:8099.4226002588321] [107.38647371359501:7975.7479299429406] [94.052342232447955:1148.0537193530142] [78.014572455735774:148.34219687127148] [52.730286164418828:80.819607495635992] [1435:9305] [14.45463218192501:17755.476689429532] [26.350365221890435:9305.5089657125536] [36.231404400431273:17058.590936389373] [53.119126806833172:51396.13687509462] [87.587198840512869:56630.308282112928] [102.04570353507812:30313.308573221031] [96.070666222708226:2591.0182995634977] [77.885732329584059:340.2371288394134] [52.813644714992854:173.83740396116193] [4672:21739] [10.226023888541263:37560.275431049617] [26.981204231601559:33776.034324776338] [36.56030632639532:41739.385417220554] [61.835976076817047:111837.22675412777] [87.061168286996121:101944.23508039373] [107.18215801160964:75036.117316715972] [94.929517215144628:4895.1226329553538] [78.605339639273851:403.4472767757282] [52.518847800634632:207.89308645183917] [4241:15214] [17.436755409635904:16175.676615158001] [24.95678151165767:10504.715406836833] [36.21169385065901:13272.602301540821] [59.090865374071633:23679.04533954836] [87.509799118740887:21367.887831138672] [103.72514149698132:13053.62313822165] [96.73128708530372:1350.8128150211992] [74.281977764923923:295.18485689258205] [52.05584784486777:215.00344640294134] [1206:9581] [12.239361854443915:9953.7325873587215] [22.881615352445579:4787.4504287741529] [40.773688282885153:7081.5571774739774] [60.567868744957231:11817.83028029364] [88.922958566868303:11354.556524323883] [104.39734085974609:8290.7707845606637] [95.88404924857187:728.30585066396816] [78.840931747166181:127.15690166493894] [52.424319752663116:91.089638880730149] [2361:11511] [12.717730032194975:5087.8632296095866] [16.447134242659189:3289.1781192023418] [41.866987613493293:4053.9062084100597] [64.752868041653741:7776.0640686661436] [87.691430156885588:5219.3974432377054] [101.87400905131807:6328.1220411167224] [93.346652900432488:812.62329791056072] [77.303886329575505:128.64338456821031] [52.052090056973597:76.145477569051863] [4165:11980] [10.743310269224763:5394.9171078242089] [15.809376298116806:2196.8011422426434] [36.167335327725112:3047.2616304545777] [50.906622606295684:5004.290029446779] [92.208189880245158:4595.9494983154491] [107.78220218746742:4037.2032896627729] [95.447104607057881:461.49002371000194] [77.518101944409224:109.93812661362776] [51.306582772447797:73.793583308016892] [3393:10618] [5.8355508765836444:1910.5177518446881] [23.188027004490014:2015.3986199713613] [40.670938814293201:1664.4130407996549] [57.858706451503451:4362.8898396679124] [87.562592161768833:5281.9503275881325] [102.77026811419323:5661.570486938359] [94.279862792652324:664.18050650942803] [78.604219265126517:161.19502938441875] [52.136611684941023:98.804087421643118] [3992:8714] [3.4612550048146029:1648.5888885325846] [28.756328591628126:1204.4175900992896] [27.015579063522829:1258.2008523352531] [51.915218293701237:4911.4688024659554] [93.577754541065715:7327.4752812958159] [110.17339761019331:7565.1298466459848] [93.882405446037922:793.45257066608974] [77.72434979567538:144.28127713192058] [52.739934286762001:102.86303923512224] [4249:9175] [11.183379010470134:3529.8927432724236] [24.569266161513017:3419.7899382886003] [34.415099199949424:4844.5017631204128] [53.830713135185526:21176.196364449657] [81.383565445573211:24761.346910698561] [105.9581651599317:15186.625338676535] [95.326990140968135:2278.1264733842809] [77.052207824622741:167.45729227555825] [52.276517563694803:106.1888355933732] [4308:11479] [13.460153936982094:10775.063305200429] [21.219497076902886:23488.368791727768] [39.229056997345438:28217.729598338839] [65.635417342779633:97744.96089333533] [83.77174009386016:118400.20670126949] [108.01963245185081:99864.478701108834] [95.564146040576233:11350.518467612656] [76.427769893304557:1155.3220372139729] [52.999455550371501:806.14416213959657] [4425:34828] [10.522167160113595:16894.280666535917] [24.510732040531696:35462.42766591088] [39.141222511087321:34949.740423008283] [56.857621424299786:82109.456122508724] [83.585533521343692:66935.61985941809] [106.74165967463944:46043.198578942247] [90.431307076559435:5609.9635548656852] [75.237119519956579:988.82416209892665] [52.701028455376864:698.63279271711872] [3651:8585] [18.182264008009177:3627.4619524932427] [26.053373895822311:8774.4928070520673] [38.126951736066019:7127.7636611696544] [55.117401040215647:20760.568456996047] [89.470686831026441:22461.632423822997] [105.68474331399551:16262.946618011767] [97.650425686131229:1815.3961278544518] [76.415228718012145:344.14707943737363] [52.552866582140467:252.26272860417546] [563:10458] [11.726680684513711:8074.4586780270411] [21.743547597238315:12731.223960926796] [38.148395026834208:14781.153847893867] [57.858908032447282:66291.502483420263] [88.390964282384715:90638.390338835903] [106.75808456951599:44669.892223059549] [96.845220449839559:3060.1113868357011] [78.155943920817307:245.84207310134047] [52.902291373675105:161.77100491277486] [3414:12055] [13.855068081600086:9872.6792731624882] [22.145566265768434:14574.915660465293] [38.445148683006565:18965.474356973631] [43.990930504009107:52805.078802168762] [88.325914409080909:72380.593380068021] [95.674571588029806:49908.490573650779] [95.450113362573418:5430.247769716053] [77.55951855016626:254.4386238408606] [52.540205976613493:162.67445576036042] [75:12597] [14.372376876813581:3308.1488787528674] [25.745654801143193:3945.1088455522377] [38.284798514646489:6758.3253213831449] [54.264426089251899:11996.533862394805] [88.124968332962709:14242.101168207402] [103.82774234825293:8195.6759042949416] [98.276627893285195:1103.6479238960317] [78.026434888442367:235.97839036144089] [53.058162083307245:163.64166575586478] [4364:8987] [16.739263021788446:2436.6628163510491] [27.80256994691381:3100.7307074903965] [38.396162744343094:1974.1194052793742] [61.704068935638105:6288.2219484883544] [89.373478059853284:7456.3047644637973] [106.14537508890569:6326.4266415503089] [97.202446085162194:589.69303354749354] [77.861795088065037:161.7875891342311] [52.342071815449046:106.96187615322279] [4656:10439] [13.18938486245084:1584.4884126827856] [23.132211731404961:1495.805734300513] [36.428953684873136:1677.0769453187472] [62.049510061122561:4996.1592013238387] [92.085800054171855:6802.4007442654092] [102.70123600143715:5680.7909197717509] [97.873042698048707:554.1540898509312] [77.791696925119311:179.01390320465256] [51.414341963868722:118.6468379203298] [3942:10517] [10.720312271507769:2144.4630119523968] [25.865363313723602:3006.9052807087128] [37.995178174533521:5481.6456453369738] [56.98692779192195:29188.40766287221] [87.684745185270273:30583.450958017362] [102.24894063241844:17821.066628920391] [96.419888449449061:1117.2009932795686] [77.568549317627827:180.13333555311593] [53.606887027147607:123.89567635620384] [1825:10239] [17.141212047670127:3247.0013166372137] [21.669431396987886:3320.2185803147827] [34.815662102512213:3630.2276291120038] [61.817578850921151:13652.267764421831] [89.376584519630455:14498.486243658137] [105.28512976367941:8367.8139443198834] [95.17589417769365:1040.0333849950939] [77.076451457852841:260.62670983939859] [51.868916309106474:115.17492024782068] [766:8483] [8.5390536783622686:4357.590416578756] [24.080141428588103:6507.1128056666103] [40.687246216333648:11090.98310176324] [57.689019818297908:19808.198691357091] [90.861942198906078:31378.2743696742] [105.50105961411137:19055.475513185709] [97.61286601415631:1508.6489785067431] [77.254404084905346:235.10833469826343] [51.540050240308332:165.98996297305314] [2783:9787] [8.4356795158457096:32353.185448081826] [20.561809155746566:40904.087189761114] [39.502772651383026:39597.718173635752] [54.115401776872645:146147.90435791007] [89.265256689838296:135187.71954677536] [99.372280369788399:72589.671353097045] [95.383316804090597:8994.7164217220343] [79.102860380726312:511.3589474110708] [53.496357341361218:274.15372570631536] [4867:8546] [6.2525103195108001:9952.0413065777193] [24.154340931560913:14054.203169924236] [35.455263575111523:7059.8308347493839] [58.832147950685119:28348.105000878801] [94.309995413784051:31302.975902295249] [106.88012448618628:26423.742584437601] [93.463632574269965:3681.2810786236378] [77.335647081766439:238.61518660671226] [52.329403411739342:166.38533740915432] [2079:9974] [15.316728678762553:5721.0857972380654] [22.286066206031279:4079.7505880775207] [40.912684374520211:7019.5671586498256] [58.409666952996176:13891.87791408154] [86.9829060576849:13193.621750212926] [104.39234738134128:15589.988033001817] [96.390971098849434:1827.7883101508664] [78.60910950038857:238.32902977147003] [52.860661510919542:158.35877862152026] [4865:8534] [7.6019263848117635:2759.2758680987999] [28.932320267169782:2248.6220856714399] [36.583567713252506:3538.0747217068706] [57.39112698841511:13933.037056797704] [87.202322967407383:12340.764114383384] [103.02680709113899:8781.322999899885] [96.726463724058718:1407.0303786159295] [77.641042068990643:236.11291388435669] [52.859439656788091:162.37061717362309] [4482:9933] [10.387944466980287:5908.8189141805942] [26.756240134336405:6354.3809067060865] [37.828791106832:3850.2488593793269] [56.83810082265974:33749.95894130833] [90.538399536392902:44880.789427489675] [103.14691102726914:35754.747928671291] [95.801114182406081:1901.5540505272868] [75.154744160126739:180.92887015567436] [52.753346965241505:115.64352355705209] [3585:8477] [14.320107406755884:3637.0234545713361] [25.908377818290209:5094.2890432358945] [36.16155574570918:5420.2406383440384] [60.731168088275709:20532.93832346984] [86.742904676590811:20560.031777895725] [102.99169612014134:13158.408185358359] [93.663043476643423:936.66986368629671] [76.852917132024373:175.93780189022209] [51.7573466547991:118.28429461214778] [5134:8874] [12.547585707076877:1772.782567297435] [20.912295229046965:1113.1115116642745] [42.997794537042139:1421.6175200924406] [53.085056737069905:4736.1870642843514] [84.737525036747954:8773.5375696058727] [105.26031817673159:6153.7785382072889] [93.069245809467205:535.8662269491083] [79.568428550849688:146.98210946203577] [52.554998076660425:98.421449798419729] [4607:8708] [18.68837226452381:2094.5013650777273] [14.366640119311954:1967.4213058741987] [40.431713612297571:4278.1085679046791] [62.851078638414748:16100.52955448098] [89.007756426842747:20769.671500306729] [100.55528882272483:15062.944594407243] [95.062949237916158:1675.6369027511373] [77.613460076963094:452.96133359640845] [52.390648356479069:314.29525134936694] [4693:9495] [15.845312603602054:2005.5491236105381] [19.403686775340468:1907.6555420002194] [39.055734468258684:4262.5411798241475] [61.609183678108202:24836.20415877784] [89.892791409412837:31927.628604482928] [105.19101489658807:31147.945879039649] [96.012231596105636:3913.5051501648177] [77.359304621628468:464.18777319339461] [51.450744751441796:321.42476619345933] [4198:10199] [13.416746625571037:21987.647559302543] [23.3021382403304:22880.936307743534] [36.852272162713227:30595.396459833551] [60.475205688066652:89017.670737687266] [87.063095336110464:116438.84076981078] [107.72016565705704:88039.940619348257] [92.969233558281019:9944.3020091191192] [77.451597089672447:422.83686958595842] [52.750966271173937:244.98068247036616] [4620:43427] [8.7348610837000518:22311.569247612748] [14.320741359767624:8773.8423654860817] [31.467219632177311:28169.173248482955] [59.549099681662256:38787.411773823282] [89.40002083045789:55784.951035306585] [100.51035220293699:31466.569765346463] [92.956441756972964:3983.6380186311089] [76.720076796285412:823.27508774527018] [52.446260976268604:408.54787212247874] [4779:8573] [9.280804051281633:11677.393939727106] [11.528841986920641:7051.3107682338132] [29.592943235152998:8752.4713531027628] [56.514556109628465:17783.7068758553] [92.808036472850873:17257.705096406891] [103.15515130092449:13348.107868302708] [96.747262858692793:1393.5415842201667] [78.473322823305509:326.76376078988761] [53.523425001348031:220.64027125389234] [4356:8915] [11.658042869178562:7970.3420855740842] [22.222936312227958:5561.7134810720718] [32.08606527226037:4231.8107036923902] [59.963085903552802:7821.2281786381373] [92.012810238188209:8831.2126226633773] [105.11836217006285:7138.8714052282321] [95.867024934556241:854.88936872901058] [74.100941153934599:155.12596249715091] [52.184110296236923:105.30548381806496] [4389:9296] [8.8119313587771124:5473.5928869836498] [12.381406781958036:3770.7032511006732] [35.115703444684357:3676.0317869681203] [55.907841703065969:5252.6246432634634] [85.680854775317769:13047.716922131653] [107.18087908031626:8288.5532006557696] [96.508061909159508:647.66898061857489] [76.757791487714456:125.95920982014783] [52.545465052836029:82.261796780621822] [4689:12513] [13.347594804751804:5042.4949768847928] [18.363896213488733:6001.9542724301027] [37.04103306247255:4374.1340378233508] [63.008095625687744:26137.760576487373] [84.040282931167013:36924.78826471373] [103.58610897907623:16586.049799964738] [93.44367108971052:1409.9747352072559] [78.760808717043588:149.74025179899198] [52.824596300605059:111.64383853748836] [4589:11146] [13.733101541496456:2495.4919698256272] [25.807773906449953:2801.6174104954198] [41.555058550291044:2763.0529995558331] [62.915261904897534:12315.854268270547] [93.020475757253919:14105.473111692405] [98.994106547509944:10347.027816221074] [95.474225018132302:877.27565380959732] [78.127687128047626:183.76829772023768] [53.325326986329173:125.65291721134831] [4544:8472] [9.7817511493403835:1373.3469561592171] [20.876493822516416:1332.776488135466] [41.956736262092612:1141.2107224712695] [56.137413180277932:4905.0918525842153] [92.137728329948317:6875.9984057675938] [101.66887563737393:4587.0119310982909] [92.496156552628364:614.99876223864794] [78.126468905551235:180.75896316730686] [52.782416981161042:124.13948868355014] [4034:8598] [9.7276000373784157:1421.1724754977051] [25.96845710863667:1016.3536887929683] [40.063971502198854:905.82131995488544] [62.957714863786279:4702.0386331107002] [83.537510727715187:12444.331458662793] [107.22554793847307:5796.384898264263] [95.360679814551716:882.94080795138382] [77.801246001813951:147.27262213521715] [52.903965150570365:101.68664117461859] [4066:8691] [14.901669233493262:989.20996659643492] [21.701618405578422:818.18994263108311] [33.748343042729005:967.02547850878329] [58.560797857926474:5474.5096721372383] [88.606709473810895:7039.0242779614518] [107.79187369013658:6402.7174108258214] [95.624097997997836:887.56915260529217] [76.930570402022411:126.76078522536324] [52.724881079582474:79.38353006172153] [5027:9654] [19.02985728394458:1048.9291008965074] [24.201549187757244:932.68988959998717] [34.579801131291276:1167.6716025264275] [59.201219937454894:3106.127975662373] [89.608297135140234:5934.4818143318726] [108.61067738255188:5572.7739762588708] [96.950667530052755:615.32668452118651] [76.925213510201985:146.88804234157448] [52.782755202755155:106.1390923871314] [5065:8836] [17.679587755333323:814.99747277212191] [27.832338117338558:899.27178595544376] [37.158301959100498:966.74981727718477] [59.906054192695173:3867.0351165966463] [84.705644093965503:6935.7078123583242] [103.5241625202012:5667.8490433395964] [95.571790401454791:800.33675611758929] [77.4868491282012:114.57632791769991] [53.546143900231506:77.440350091391309] [4168:8712] [12.168181697917845:2053.2449652329265] [20.827028104375881:1162.7831129341198] [38.607598633469436:2862.8577155377161] [64.270851440507812:5646.985335206582] [91.851677356304151:10096.500583004665] [100.50310398053959:5165.2959755146285] [97.107791255495954:798.58148955546199] [78.149637749843009:281.45232955017161] [52.711570967549143:205.60462944262952] [2786:8930] [14.162542995419864:11490.125228804322] [24.165858405844606:15800.567884751359] [34.600216097669332:26311.440272002423] [61.368788899087171:95727.296984049361] [84.774557232782598:112543.80731380847] [107.35010323431152:63869.90654916918] [97.017693623963495:6461.5832253460494] [77.211187663932591:1833.2255204292767] [53.645120958491141:1327.2870705326402] [4971:49626] [15.886091364045065:23014.621584823388] [18.067493969598019:41601.443003161163] [42.249840491648577:40747.655341223399] [61.600873407709656:73904.441120182149] [87.968588838840958:79825.285929625737] [103.1728076917418:39221.291698715024] [95.516570286009198:3956.9077430615471] [78.452327702933559:1346.4204246269119] [52.858806518685547:987.87091533509511] [3543:10686] [9.3582516987946676:10268.714098252156] [25.739996819467638:14118.468103212916] [35.454105999780801:11769.600889498744] [62.11924655034808:16927.570701772096] [91.384847163396302:21348.108517115808] [106.4117743236348:13295.784327602558] [94.68590724798743:1032.8113289293722] [78.526528715604584:240.72192412745997] [52.724479546406144:166.31468522069687] [2542:8590] [10.43959681284692:10106.504893057645] [18.221023142720639:5949.7279157590128] [36.314771591385949:3910.7162111014313] [57.009211427113648:13652.118980663665] [84.537371116848121:16955.797843939632] [107.13082286501349:11277.868443364099] [97.656449843211902:1648.2829458360368] [77.936070347156701:684.8509348173892] [52.583288625897296:486.75522142901377] [3130:15889] [12.323308155628615:7649.7886274448338] [20.94499902893752:16898.951708477493] [37.658028736194503:33687.693775094594] [57.6217680175006:117244.32543042381] [87.009048095090364:118530.46749188227] [98.534036086977991:53335.506392357318] [97.415550147377999:5992.675916056085] [78.482256201111881:553.88998943330432] [52.111285373092393:371.37040258840148] [4711:20562] [12.82108019278135:10889.2288373066] [25.879706751587559:14591.368316676117] [42.616246619536369:12966.388860448433] [58.94229016055462:28817.702063363555] [85.454051586810806:41322.570196174347] [104.29824927134294:19710.054416244573] [95.97188701998509:2206.2533838620943] [77.933138624661979:366.40777243486201] [52.198383929895499:221.4897449576525] [1988:9837] [16.570915825082107:3508.7924793601628] [19.983351587489334:4830.6931123810818] [38.115015784901651:6932.7649247728714] [55.74861356983925:19598.076436118576] [88.761538621102616:18102.926093035814] [106.40617019928348:15142.503229766238] [96.211100729713294:1646.8044467525058] [77.959209914935315:567.2337591540404] [53.075231018876572:392.48397199902649] [3389:10575] [19.794216634367746:5171.1711948108714] [29.3985090072131:4758.173969004004] [33.945153762832604:5409.2087412667079] [47.639102789054014:19840.317977310202] [91.85137019259632:25768.458336507723] [105.27389758755992:15907.06458080544] [94.499127963284096:2659.8655406206599] [77.650337708889069:237.07642070088704] [51.693614128988507:117.10274335830276] [478:13254] [14.927786941487328:3730.6115555707538] [23.860648170588945:7608.8619094050227] [35.999142832642285:9111.0014890353959] [58.610024206126674:29718.231898721657] [83.874628144109664:43882.780086702034] [104.73520611238241:38870.086383071663] [92.797145107556005:3570.6614590968829] [78.481274421196744:792.5262965830367] [51.850714787634367:540.44568440045521] [4903:12126] [16.762433450437538:4366.1066342209497] [19.984220314195841:6206.7251588833487] [40.367908988843638:14957.162043506743] [57.408399148670384:57790.672833014607] [90.548885919439513:89481.26267810518] [105.81023054435757:74081.781036964079] [95.80779191760395:8741.6240622900132] [76.938379482415627:1060.9372311363209] [52.403917735347605:716.77961390468749] [4204:9054] [18.418332747330094:18205.469836107957] [19.595186948345663:17963.119101735749] [40.661187206727362:23329.055489663187] [59.323368319039623:44909.448643077892] [88.342161848566406:68212.965012204411] [105.70522757843477:41719.186318255539] [95.506249168632564:4014.2537360350439] [78.037066845323864:210.34364827724076] [52.528260009843216:141.78982757130098] [4946:9891] [7.9064354507306032:10616.94639821981] [27.915865472104411:9249.4664402143171] [39.637248865253355:7201.0181737089479] [51.956823648183793:17470.397677619378] [89.778080132448792:14783.702342446122] [102.20595120176814:12321.787756668733] [97.18866176200001:1547.0463498358795] [77.960492324257302:399.16032331403261] [52.212244430447285:273.726784017272] [2860:9520] [18.808315264924136:2462.8463895264522] [18.157170926219354:2383.9093748728219] [35.99187121432977:3058.7701514954879] [64.020393063909111:16979.951950061244] [92.121931152746598:44685.940337812157] [107.5802727679431:28862.556182050055] [92.329074690114382:3546.2669821794343] [78.10526244397451:161.47363877430982] [53.364768438163175:125.78177194484628] [3532:8586] [16.469056549642662:1461.3734139314645] [30.163474921708929:1437.2743979887146] [37.061855121069961:2044.7001558408201] [61.157625160867568:11974.036435259253] [88.446797374760564:11396.678115126128] [100.78984938667652:7018.9823275442031] [96.23320087017612:1147.0143142098011] [77.556074466481931:140.18411825894913] [52.592280319157886:102.3542378983913] [2917:10252] [13.533143428631911:3400.3866673536077] [22.529023144201322:4336.9389878876009] [39.668299511365674:4658.3093582696774] [60.019501431735726:10496.615015712292] [95.42373325769293:24797.530644903727] [101.37134675192492:17691.80653810456] [94.878695274396406:2742.0844356776079] [76.687911758414742:615.91353925819669] [53.357712115013364:424.67365145716599] [3624:10188] [11.136447218219653:5341.1988274457444] [18.690733487262431:7148.8572464978661] [41.868285801391366:9173.6355639525755] [58.94511979295352:34243.07265529978] [88.04624766133243:44771.825508606613] [101.61088697428684:32604.219960380498] [94.900950156164441:4219.976860320965] [77.688808128429841:617.11778773933702] [52.883313598264188:399.95395112457771] [4957:12932] [11.312283284721325:6937.8396668682535] [27.700516942862873:8447.5290730420711] [41.672000061659752:6403.8086540918221] [60.793398748772624:41433.378433371137] [87.481799954514145:65767.851271827574] [105.11431102741055:34376.537291714834] [96.228505490242441:2823.9849197614549] [77.019235997645069:237.91269659813977] [53.153893972755405:157.71943417812108]
tree_sizes=1158 1206 1206 1206 1204 1211 1210 1210 1215 1212 1208 1204 1211 1208 1210 1211 1204 1210 1207 1206 1210 1212 1196 1204 1207 1200 1212 1215 1207 1210 1202 1204 1211 1207 1204 1203 1205 1214 1205 1207 1203 1209 1207 1204 1213 1212 1204 1208 1215 1214 1215 1211 1209 1204 1202 1205 1198 1207 1199 1204 1207 1206 1206 1208 1209 1201 1205 1205 1205 1201 1207 1202 1206 1200 1215 1208 1208 1203 1215 1210 1209 1211 1213 1213 1209 1208 1204 1203 1206 1212 1208 1205 1215 1209 1210 1212 1205 1206 1207 1210 1214 1216 1213 1210 1214 1214 1212 1206 1211 1221 1206 1215 1211 1212 1208 1206 1217 1220 1222 1217 1212 1216 1207 1205 1210 1199 1213 1214 1213 1213 1212 1214 1207 1211 1205 1210 1212 1209 1213 1215 1214 1215 1214 1219 1212 1210 1220 1210 1219 1215 1212 1217 1214 1209 1209 1223 1217 1222 1220 1216 1218 1215 1215 1216 1214 1217 1221 1219 1216 1207 1224 1214 1216 1206 1221 1217 1216 1222 1220 1219 1215 1210 1216 1219 1211 1216 1220 1214 1217 1220 1218 1213 1217 1216 1226 1214 1209 1223 1218 1211 1227 1212 1220 1216 1215 1220 1214 1218 1215 1221 1208 1215 1217 1210 1221 1222 1214 1211 1215 1220 1215 1221 1222 1216 1209 1224 1226 1216 1209 1216 1217 1214 1224 1214 1215 1220 1211 1215 1224 1222 1224 1223 1221 1219 1209 1214 1217 1217 1219 1219 1218 1222 1220 1214 1225 1225 1225 1219 1225 1230 1228 1224 1223 1210 1212 1222 1229 1222 1219 1222 1226 1224 1222 1220 1225 1218 1223 1223 1215 1224 1227 1220 1220 1217 1226 1223 1230 1222 1225 1222 1223 1223 1217 1223 1222 1213 1223 1224 1228 1229 1215 1227 1228 1228 1215 1218 1221 1227 1216 1232 1222 1221 1226 1225 1215 1217 1228 1221 1228 1224 1224 1212 1217 1222 1229 1227 1221 1226 1222 1216 1223 1230 1217 1216 1221 1229 1224 1218 1219 1224 1217 1230 1224 1225 1236 1227 1232 1217 1226 1227 1228 1238 1227 1227 1227 1234 1226 1228 1232 1220 1227 1226 1233 1230 1231 1227 1220 1227 1225 1221 1229 1233 1224 1228 1226 1225 1221 1224 1222 1224 1223 1221 1226 1224 1223 1227 1221 1230 1222 1225 1220 1231 1233 1231 1226 1225 1228 1231 1220 1228 1213 1229 1221 1220 1223 1226 1221 1225 1221 1226 1225 1236 1227 1226 1224 1232 1226 1228 1229 1217 1218 1223 1225 1221 1234 1228 1227 1226 1221 1227 1233 1224 1232 1220 1225 1237 1224 1229 1223 1227 1217 1231 1227 1226 1216 1227 1224 1227 1229 1224 1216 1235 1225 1218 1229 1226 1225 1222 1240 1223 1221 1230 1227 1225 1231 1222 1225 1225 1229 1223 1223 1235 1222 1227 1229 1230 1234 1227 1233 1223 1230 1229 1228 1230 1229 1235 1219 1231 1223 1224 1237 1222 1216 1226 1218 1227 1228 1231 1224 1219 1225 1223 1227 1229 1224 1228 1231 1219 1232 1236 1233 1229 1232 1228 1227 1233 1226 1225 1233 1229 1222 1227 1234 1233 1235 1230 1225 1227 1228 1223 1227 1227 1221 1236 1226 1229 1222 1227 1232 1228 1230 1223 1229 1237 1232 1232 1226 1222 1236 1235 1232 1235 1233 1220 1231 1222 1231 1222 1227 1222 1230 1228 1237 1232 1231 1228 1230 1226 1230 1221 1237 1230 1228 1236 1235 1223 1227 1224 1225 1229 1228 1225 1225 1232 1226 1227 1233 1220 1227 1229 1228 1233 1218 1232 1232 1233 1232 1235 1230 1220 1238 1235 1225 1227 1233 1226 1220 1232 1216 1226 1223 1236 1228 1232 1229 1233 1229 1222 1234 1232 1229 1234 1232 1224 1228 1229 1232 1220 1219 1229 1219 1229 1230 1230 1234 1238 1229 1229 1223 1232 1215 1231 1233 1227 1229 1233 1227 1235 1233 1227 1222 1232 1230 1217 1232 1232 1227 1235 1233 1217 1226 1230 1226 1227 1231 1225 1232 1224 1229 1215 1231 1225 1220 1224 1225 1225 1225 1234 1234 1226 1229 1223 1237 1234 1228 1219 1224 1229 1225 1224 1231 1241 1232 1234 1220 1224 1228 1229 1228 1222 1237 1235 1236 1240 1224 1226 1227 1224 1217 1228 1230 1237 1229 1226 1223 1228 1228 1230 1228 1225 1222 1228 1241 1235 1231 1225 1224 1231 1227 1219 1233 1238 1230 1226 1222 1236 1223 1223 1238 1224 1230 1235 1224 1226 1232 1225 1225 1233 1226 1234 1224 1229 1221 1223 1220 1228 1236 1238 1236 1231 1231 1226 1232 1239 1227 1232 1232 1223 1227 1222 1230 1226 1233 1233 1233 1230 1233 1225 1232 1233 1217 1225 1229 1226 1218 1225 1228 1228 1221 1235 1235 1230 1223 1231 1213 1218 1214 1222 1227 1222 1223 1238 1231 1230 1222 1230 1222 1236 1234 1220 1233 1224 1208 1222 1240 1226 1234 1216 1235 1235 1231 1226 1227 1212 1227 1225 1220 1230 1222 1230 1222 1231 1224 1231 1234 1221 1226 1221 1229 1219 1232 1231 1229 1224 1230 1233 1231 1218 1230 1223 1223 1233 1232 1231 1222 1221 1219 1230 1235 1221 1223 1230 1236 1227 1232 1226 1231 1225 1231 1223 1238 1238 1225 1232 1224 1227 1225 1222 1231 1222 1236 1226 1232 1215 1235 1229 1239 1234 1234 1231 1226 1235 1229 1220 1237 1225 1233 1227 1232 1225 1235 1229 1223 1233 1230 1237 1215 1238 1224 1234 1230 1235 1228 1234 1223 1222 1231 1228 1237 1223 1233 1226 1230 1227 1213 1232 1221 1225 1228 1219 1231 1231 1231 1228 1217 1235 1229 1221 1216 1236 1227 1228 1225 1240 1223 1222 1223 1230 1235 1233 1231 1230 1227 1234 1229 1217 1233 1232 1230 1229 1224 1218 1221 1224 1229 1230 1226 1223 1229 1221 1232 1226 1230 1234 1231 1231 1238 1223 1232 1219 1242 1228 1235 1238 1237 1234 1231 1232 1246 1224 1226 1240 1228 1221 1218 1233 1229 1237 1230 1223

Tree=0
num_leaves=14
num_cat=0
split_feature=14 14 14 1413 882 1661 190 135 192 1138 283 753 143
split_gain=1013.27 117.108 50.2578 35.9646 28.1422 27.8818 23.259 20.4069 18.7058 18.1176 16.9878 15.5134 15.2072
threshold=1284.2339590912454 1371.8922006121309 1260.8904225192821 172.44798332801884 126.08823906986734 107.24797627538452 2.8288387089794704 2.8222518983428828 2.9709088751478454 126.25290177709614 -41.499999999999993 149.32266267355018 2.960339730686675
decision_type=2 2 2 2 2 2 2 2 2 2 2 2 2
left_child=2 3 11 5 -5 -2 -6 -8 -4 -10 -9 -1 -12
right_child=1 -3 8 4 6 -7 7 10 9 -11 12 -13 -14
leaf_value=5.6140189248546033 5.6013098633289333 5.5796896028518681 5.6052930951118469 5.5981833469867706 5.5960896241664884 5.5917005968093871 5.5934026169776914 5.5904120922088625 5.6018848419189453 5.5931726229190826 5.5894118773937222 5.6063409495286241 5.584790596365929
leaf_count=448 95 975 78 75 99 121 88 70 97 77 135 700 407
internal_value=0 -0.443788 0.659155 -0.217902 -0.308326 0.146026 -0.363523 -0.427756 0.251981 0.0665138 -0.492489 0.748418 -0.55236
internal_count=3465 2065 1400 1090 874 216 799 700 252 174 612 1148 542
shrinkage=1


Tree=1
num_leaves=14
num_cat=0
split_feature=14 14 123 14 11 198 139 676 190 82 222 799 617
split_gain=1001.8 125.867 39.9885 39.4099 27.7926 26.1746 20.7883 20.3864 19.2686 18.9937 17.6954 17.3506 13.3202
threshold=1280.3553095410916 1371.8922006121309 2.9487261275228889 1254.1208578865042 1896.5994987454544 2.7222395252316085 2.7431679534010258 13.500000000000002 2.8874380922484795 4.9243333333333341 -5.4999999999999991 79.690695059833388 15.500000000000002
decision_type=2 2 2 2 2 2 2 2 2 2 2 2 2
left_child=3 2 4 -1 12 -4 -7 -8 -9 -5 -10 -6 -2
right_child=1 -3 5 9 11 6 7 8 10 -11 -12 -13 -14
leaf_value=0.015037279827230505 0.011474689182639124 -0.015273964905738834 0.0091215236127376552 0.0090882632374426203 0.0046633559703826944 0.0017961231350898687 0.0029325823664665229 -0.00081746337413788337 -0.0094659131318330751 -0.0030109357833862306 -0.0048636744275689162 -0.0078519991278648421 0.0018213999211788147
leaf_count=1064 57 975 46 254 46 52 76 102 490 40 107 70 86
internal_value=0 -0.430198 -0.202755 0.672217 0.141095 -0.305244 -0.346386 -0.387671 -0.441235 0.345109 -0.509876 -0.219931 0.436541
internal_count=3465 2107 1132 1358 259 873 827 775 699 294 597 116 143
shrinkage=0.005


Tree=2
num_leaves=14
num_cat=0
split_feature=14 14 10 14 222 1402 1232 82 1302 1453 174 141 722
split_gain=999.493 127.715 43.0784 36.0471 28.0877 25.0727 19.7957 18.4303 17.116 17.1074 15.7586 15.1712 15.1144
threshold=1279.5371588304861 1371.8922006121309 870.20881833698422 1254.1208578865042 -5.4999999999999991 166.20194160423162 140.20663495010487 4.9136666666666668 140.47634336862055 159.33831202912651 2.8460869800810698 2.9389777911040054 163.75356676750229
decision_type=2 2 2 2 2 2 2 2 2 2 2 2 2
left_child=3 2 5 -1 9 11 -6 -5 -8 -4 -7 -2 -13
right_child=1 -3 4 7 6 10 8 -9 -10 -11 -12 12 -14
leaf_value=0.014962093428094354 0.011067177363336084 -0.015197595081210139 0.0010578392679989367 0.0095881733997971799 0.0088988489546701337 0.0047853908832073168 0.0049891770458519516 -0.0028016283750534046 -0.0066030310164615514 -0.0083860909672826573 -0.0052769548701494928 0.0074531354645937676 -0.0041001209613829781
leaf_count=1064 58 975 67 239 40 40 42 41 99 540 147 53 60
internal_value=0 -0.425474 -0.198535 0.677748 -0.329274 0.0881696 0.014333 0.355207 -0.15983 -0.432335 -0.163287 0.365228 0.146384
internal_count=3465 2121 1146 1344 788 358 181 280 141 607 187 171 113
shrinkage=0.005


Tree=3
num_leaves=14
num_cat=0
split_feature=14 14 14 1413 1661 932 243 1464 221 82 185 11 123
split_gain=990.414 115.792 50.2469 34.8877 27.8818 27.6925 26.3946 23.868 19.5787 18.4492 15.6185 15.3467 14.7405
threshold=1284.2339590912454 1371.8922006121309 1254.1208578865042 172.44798332801884 107.24797627538452 138.87807553524641 -6.4999999999999991 113.1339084885979 -5.4999999999999991 4.9303333333333343 3.7302065776193403 1645.6205701316655 2.8148911477641811
decision_type=2 2 2 2 2 2 2 2 2 2 2 2 2
left_child=2 3 -1 4 -2 8 12 -8 10 -4 -5 -9 -7
right_child=1 -3 9 5 -6 6 7 11 -10 -11 -12 -13 -14
leaf_value=0.014887282960953882 0.006251816970220361 -0.01512160710580409 0.0082078830302205769 0.0023948841329302596 -0.0032121447731170826 -0.0048510028942132079 0.0048268353242661814 0.00064876834928623511 0.01302115546528786 -0.0029779508045130964 -0.010427089571326282 -0.0082615522894848147 -0.0091600774495217991
leaf_count=1064 95 975 293 75 121 46 51 46 44 43 65 143 404
internal_value=0 -0.43701 0.653424 -0.212399 0.146026 -0.301464 -0.393395 -0.123128 0.0412148 0.313912 -0.139601 -0.288279 -0.536412
internal_count=3465 2065 1400 1090 216 874 690 240 184 336 140 189 450
shrinkage=0.005


Tree=4
num_leaves=14
num_cat=0
split_feature=14 14 1413 14 123 1661 138 992 1139 82 784 954 1140
split_gain=983.613 124.542 42.085 36.3213 29.8345 24.7321 24.6144 21.0548 19.881 18.0056 17.253 16.5829 15.0722
threshold=1279.5371588304861 1371.8922006121309 172.44798332801884 1254.1208578865042 3.1530278432765724 107.24797627538452 3.1254622706756936 133.83182629833894 111.47651611868498 4.9136666666666668 109.71928447641143 121.49709093512104 90.322409440081387
decision_type=2 2 2 2 2 2 2 2 2 2 2 2 2
left_child=3 2 5 -1 6 -2 11 -8 -6 -5 -9 -4 -7
right_child=1 -3 4 9 8 12 7 10 -10 -11 -12 -13 -14
leaf_value=0.014812846546149113 0.0062205578853692604 -0.015045999070275068 0.0099107371225640468 0.0094991931176470878 -0.008332758576054004 0.0037836507984331915 0.0065542618422056 0.0020228736750352639 -0.003054145724989148 -0.0027727304791555739 -0.0086044059740491494 -0.0024749621156414259 -0.0043307211327558463
leaf_count=1064 105 975 65 239 476 76 46 40 109 41 124 48 57
internal_value=0 -0.422645 -0.198535 0.671777 -0.296786 0.174497 -0.0513296 -0.254753 -0.4315 0.348074 -0.423358 0.322751 -0.109445
internal_count=3465 2121 1146 1344 908 238 323 210 585 280 164 113 133
shrinkage=0.005


Tree=5
num_leaves=14
num_cat=0
split_feature=14 14 1413 14 238 1661 176 141 82 10 721 144 1273
split_gain=972.121 121.407 39.2564 38.9153 33.4407 25.7754 24.1661 21.3027 18.5901 17.3188 19.5228 17.1546 17.0351
threshold=1280.3553095410916 1366.8856778651714 172.44798332801884 1254.1208578865042 -5.4999999999999991 107.24797627538452 2.7611195377330131 2.8680560585343913 4.9243333333333341 956.34478076064954 95.332432618317455 2.7769661659080906 241.12655135633182
decision_type=2 2 2 2 2 2 2 2 2 2 2 2 2
left_child=3 2 5 -1 6 -2 -4 -6 -5 10 -3 -8 -12
right_child=1 9 4 8 7 -7 11 -9 -10 -11 12 -13 -14
leaf_value=0.014738782313418368 0.006386836521103079 -0.0062765304122039643 0.0032458259867730009 0.0089063456735170785 0.0093571420514708993 -0.002086973151732219 0.0019021556150150222 -0.0045076432614247807 -0.0029531195561756894 -0.017052250293261705 -0.0089647833380767667 -0.0075693600165816031 -0.014428503302104172
leaf_count=1064 98 63 48 254 53 127 43 149 40 512 164 575 275
internal_value=0 -0.422606 -0.190781 0.663354 -0.287425 0.180124 -0.395558 0.0671937 0.338315 -0.671924 -0.536624 -0.4489 -0.611288
internal_count=3465 2107 1093 1358 868 225 666 202 294 1014 502 618 439
shrinkage=0.005


Tree=6
num_leaves=14
num_cat=0
split_feature=14 14 1413 14 933 1661 1311 792 1533 1140 1367 184 10
split_gain=961.149 123.222 41.7934 34.9738 29.559 25.6002 24.4751 19.6402 27.6188 18.0611 18.0056 17.3741 16.2834
threshold=1279.5371588304861 1366.8856778651714 172.44798332801884 1254.1208578865042 170.09518933638307 107.24797627538452 108.82745337734538 149.29914514769288 179.74013849090389 90.322409440081387 7370.5000000000009 3.3970114737689374 956.34478076064954
decision_type=2 2 2 2 2 2 2 2 2 2 2 2 2
left_child=3 2 5 -1 6 -2 -4 8 -6 -7 -5 -8 -3
right_child=1 12 4 10 7 9 11 -9 -10 -11 -12 -13 -14
leaf_value=0.014665088401851279 0.0071323338198091158 -0.011767772196163798 0.0063301988041816462 0.0094071654236912664 0.0074107265269127568 0.0043047398678662183 0.003331129244037139 -0.0075359546289273547 -0.0063700668727911386 -0.0043421505583097321 -0.0027441012289789193 -0.010198372432282917 -0.016966989041795399
leaf_count=1064 100 502 66 239 58 73 40 513 141 56 41 60 512
internal_value=0 -0.416046 -0.184757 0.665807 -0.284153 0.19442 0.09375 -0.372824 -0.10331 -0.0973725 0.348074 -0.215139 -0.667981
internal_count=3465 2121 1107 1344 878 229 166 712 199 129 280 100 1014
shrinkage=0.005


Tree=7
num_leaves=14
num_cat=0
split_feature=14 14 14 129 1601 680 169 1313 1303 753 618 82 1126
split_gain=960.117 110.734 47.3872 31.7835 30.5505 24.0981 23.2423 18.3959 17.6775 16.4977 15.5938 15.5152 15.1978
threshold=1284.2339590912454 1371.8922006121309 1258.3908788331619 2.9541900528984617 112.41481742920867 15.500000000000002 2.8369268962056453 242.0023458265166 152.19270517567017 149.32266267355018 13.500000000000002 4.9303333333333343 61.726962066249918
decision_type=2 2 2 2 2 2 2 2 2 2 2 2 2
left_child=2 3 9 5 6 -2 -5 -7 -6 -1 -8 12 -4
right_child=1 -3 11 4 8 7 10 -9 -10 -11 -12 -13 -14
leaf_value=0.017271713997216925 0.0086837278402959548 -0.014880765597162558 0.0088147781180310369 0.011866716997331541 -0.00052054253779071585 0.0023489587340248621 0.0045474698483368757 -0.0081694114727581015 -0.0087571675184891819 0.011790844572803216 -0.0058129698394984546 -0.0029246334522499183 -0.00095733819873780937
leaf_count=443 103 975 204 49 40 77 40 77 401 663 303 40 50
internal_value=0 -0.430231 0.643394 -0.210565 -0.305496 0.0955711 -0.100917 -0.15285 -0.48618 0.738829 -0.193943 0.283967 0.375786
internal_count=3465 2065 1400 1090 833 257 392 154 441 1106 343 294 254
shrinkage=0.005


Tree=8
num_leaves=14
num_cat=0
split_feature=14 14 1413 14 933 1661 144 1311 1140 82 1153 784 10
split_gain=957.522 120.381 40.6819 34.3096 28.0669 24.1054 23.8677 22.6212 18.0611 18.0056 17.8166 20.4354 16.8129
threshold=1279.5371588304861 1366.8856778651714 172.44798332801884 1254.1208578865042 170.09518933638307 107.24797627538452 2.7769661659080906 108.82745337734538 90.322409440081387 4.9136666666666668 917.39406127355244 113.34887538611936 956.34478076064954
decision_type=2 2 2 2 2 2 2 2 2 2 2 2 2
left_child=3 2 5 -1 7 -2 -6 -4 -7 -5 11 -8 -3
right_child=1 12 4 9 6 8 10 -9 -10 -11 -12 -13 -14
leaf_value=0.014484970521956809 0.0069647385319373091 -0.011634529507197167 0.0061886056837737024 0.0093160557059826527 0.0054440112801244301 0.0042025729080429073 -0.0032738177115373903 -0.0050171477176403642 -0.0042968921320931039 -0.0027157575555727754 0.00086146273643898934 -0.0086699623418216801 -0.01680775026860061
leaf_count=1064 100 502 66 239 60 73 139 100 56 41 46 467 512
internal_value=0 -0.416989 -0.188369 0.662821 -0.28643 0.185702 -0.372824 0.0817308 -0.0973725 0.348074 -0.428571 -0.474274 -0.666009
internal_count=3465 2121 1107 1344 878 229 712 166 129 280 652 606 1014
shrinkage=0.005


Tree=9
num_leaves=14
num_cat=0
split_feature=14 14 14 10 1402 122 1043 82 1453 128 176 830 1604
split_gain=952.443 110.734 47.2666 35.5615 29.2024 22.3679 25.3208 18.7876 17.2418 15.4969 15.295 16.7486 15.3635
threshold=1284.2339590912454 1371.8922006121309 1252.7210970458354 869.25561784374372 166.20194160423162 2.9642102151129595 188.29626793078171 4.9303333333333343 159.33831202912651 3.9766269260896814 3.1331834651108301 80.697914182371264 115.74471432499845
decision_type=2 2 2 2 2 2 2 2 2 2 2 2 2
left_child=2 3 -1 4 -2 6 -5 -4 -7 -8 -10 12 -12
right_child=1 -3 7 5 -6 8 9 -9 10 -11 11 -13 -14
leaf_value=0.014462277097751422 0.0063782211897783657 -0.014719236550108743 0.0078997890866161595 0.0091427841930686298 -0.0038661390419007934 0.0024180382174710459 -0.00035010707462750811 -0.0027021787677949096 -0.0050944590992043582 -0.0092311394012255573 8.1334637953847102e-05 -0.010059881309966559 -0.01077283622239617
leaf_count=1050 147 975 305 52 168 61 82 45 159 55 44 233 89
internal_value=0 -0.430231 0.639096 -0.210565 0.071655 -0.325767 -0.0242872 0.318493 -0.422237 -0.25182 -0.480777 -0.593886 -0.304348
internal_count=3465 2065 1400 1090 315 775 189 350 586 137 525 366 133
shrinkage=0.005


Tree=10
num_leaves=14
num_cat=0
split_feature=14 14 1413 14 238 144 1661 141 82 176 764 10 721
split_gain=948.627 119.468 41.075 34.2712 31.7402 25.9999 24.1054 22.0765 19.4016 17.8937 17.8455 16.8129 19.2253
threshold=1279.5371588304861 1366.8856778651714 172.44798332801884 1252.7210970458354 -5.4999999999999991 2.7769661659080906 107.24797627538452 2.8680560585343913 4.9303333333333343 2.7611195377330131 122.16748522942957 956.34478076064954 95.332432618317455
decision_type=2 2 2 2 2 2 2 2 2 2 2 2 2
left_child=3 2 6 -1 5 -4 -2 -6 -5 -7 -9 12 -3
right_child=1 11 4 8 7 9 -8 10 -10 -11 -12 -13 -14
leaf_value=0.014389965712262663 0.0068006175418616269 -0.005980136240889786 0.0056048439103036076 0.008729380006044592 0.0091674730531697817 0.001775926981891578 -0.0019684508681235813 0.0020206387705386563 -0.0032134518369209488 -0.0074071873996982189 -0.0098491327394138618 -0.016650115334507061 -0.01193684413736432
leaf_count=1050 100 63 53 254 53 40 129 79 40 583 70 512 439
