tree
version=v2
num_class=1
num_tree_per_iteration=1
label_index=0
max_feature_idx=1716
objective=regression_l1
feature_names=chunk_mean chunk_std chunk_q_0 chunk_q_0.25 chunk_q_0.5 chunk_q_0.75 chunk_q_1 chunk_fft_0 chunk_fft_1 chunk_fft_2 chunk_fft_3 chunk_fft_4 chunk_fft_5 chunk_fft_6 chunk_fft_7 chunk_fft_8 chunk_fft_9 sub_mean_group_0 sub_mean_group_1 sub_mean_group_2 sub_mean_group_3 sub_mean_group_4 sub_mean_group_5 sub_mean_group_6 sub_mean_group_7 sub_mean_group_8 sub_mean_group_9 sub_mean_group_10 sub_mean_group_11 sub_mean_group_12 sub_mean_group_13 sub_mean_group_14 sub_mean_group_15 sub_mean_group_16 sub_mean_group_17 sub_mean_group_18 sub_mean_group_19 sub_mean_group_20 sub_mean_group_21 sub_mean_group_22 sub_mean_group_23 sub_mean_group_24 sub_mean_group_25 sub_mean_group_26 sub_mean_group_27 sub_mean_group_28 sub_mean_group_29 sub_mean_group_30 sub_mean_group_31 sub_mean_group_32 sub_mean_group_33 sub_mean_group_34 sub_mean_group_35 sub_mean_group_36 sub_mean_group_37 sub_mean_group_38 sub_mean_group_39 sub_mean_group_40 sub_mean_group_41 sub_mean_group_42 sub_mean_group_43 sub_mean_group_44 sub_mean_group_45 sub_mean_group_46 sub_mean_group_47 sub_mean_group_48 sub_mean_group_49 sub_mean_group_50 sub_mean_group_51 sub_mean_group_52 sub_mean_group_53 sub_mean_group_54 sub_mean_group_55 sub_mean_group_56 sub_mean_group_57 sub_mean_group_58 sub_mean_group_59 sub_mean_group_60 sub_mean_group_61 sub_mean_group_62 sub_mean_group_63 sub_mean_group_64 sub_mean_group_65 sub_mean_group_66 sub_mean_group_67 sub_mean_group_68 sub_mean_group_69 sub_mean_group_70 sub_mean_group_71 sub_mean_group_72 sub_mean_group_73 sub_mean_group_74 sub_mean_group_75 sub_mean_group_76 sub_mean_group_77 sub_mean_group_78 sub_mean_group_79 sub_mean_group_80 sub_mean_group_81 sub_mean_group_82 sub_mean_group_83 sub_mean_group_84 sub_mean_group_85 sub_mean_group_86 sub_mean_group_87 sub_mean_group_88 sub_mean_group_89 sub_mean_group_90 sub_mean_group_91 sub_mean_group_92 sub_mean_group_93 sub_mean_group_94 sub_mean_group_95 sub_mean_group_96 sub_mean_group_97 sub_mean_group_98 sub_mean_group_99 sub_std_group_0 sub_std_group_1 sub_std_group_2 sub_std_group_3 sub_std_group_4 sub_std_group_5 sub_std_group_6 sub_std_group_7 sub_std_group_8 sub_std_group_9 sub_std_group_10 sub_std_group_11 sub_std_group_12 sub_std_group_13 sub_std_group_14 sub_std_group_15 sub_std_group_16 sub_std_group_17 sub_std_group_18 sub_std_group_19 sub_std_group_20 sub_std_group_21 sub_std_group_22 sub_std_group_23 sub_std_group_24 sub_std_group_25 sub_std_group_26 sub_std_group_27 sub_std_group_28 sub_std_group_29 sub_std_group_30 sub_std_group_31 sub_std_group_32 sub_std_group_33 sub_std_group_34 sub_std_group_35 sub_std_group_36 sub_std_group_37 sub_std_group_38 sub_std_group_39 sub_std_group_40 sub_std_group_41 sub_std_group_42 sub_std_group_43 sub_std_group_44 sub_std_group_45 sub_std_group_46 sub_std_group_47 sub_std_group_48 sub_std_group_49 sub_std_group_50 sub_std_group_51 sub_std_group_52 sub_std_group_53 sub_std_group_54 sub_std_group_55 sub_std_group_56 sub_std_group_57 sub_std_group_58 sub_std_group_59 sub_std_group_60 sub_std_group_61 sub_std_group_62 sub_std_group_63 sub_std_group_64 sub_std_group_65 sub_std_group_66 sub_std_group_67 sub_std_group_68 sub_std_group_69 sub_std_group_70 sub_std_group_71 sub_std_group_72 sub_std_group_73 sub_std_group_74 sub_std_group_75 sub_std_group_76 sub_std_group_77 sub_std_group_78 sub_std_group_79 sub_std_group_80 sub_std_group_81 sub_std_group_82 sub_std_group_83 sub_std_group_84 sub_std_group_85 sub_std_group_86 sub_std_group_87 sub_std_group_88 sub_std_group_89 sub_std_group_90 sub_std_group_91 sub_std_group_92 sub_std_group_93 sub_std_group_94 sub_std_group_95 sub_std_group_96 sub_std_group_97 sub_std_group_98 sub_std_group_99 sub_q_0_group_0 sub_q_0_group_1 sub_q_0_group_2 sub_q_0_group_3 sub_q_0_group_4 sub_q_0_group_5 sub_q_0_group_6 sub_q_0_group_7 sub_q_0_group_8 sub_q_0_group_9 sub_q_0_group_10 sub_q_0_group_11 sub_q_0_group_12 sub_q_0_group_13 sub_q_0_group_14 sub_q_0_group_15 sub_q_0_group_16 sub_q_0_group_17 sub_q_0_group_18 sub_q_0_group_19 sub_q_0_group_20 sub_q_0_group_21 sub_q_0_group_22 sub_q_0_group_23 sub_q_0_group_24 sub_q_0_group_25 sub_q_0_group_26 sub_q_0_group_27 sub_q_0_group_28 sub_q_0_group_29 sub_q_0_group_30 sub_q_0_group_31 sub_q_0_group_32 sub_q_0_group_33 sub_q_0_group_34 sub_q_0_group_35 sub_q_0_group_36 sub_q_0_group_37 sub_q_0_group_38 sub_q_0_group_39 sub_q_0_group_40 sub_q_0_group_41 sub_q_0_group_42 sub_q_0_group_43 sub_q_0_group_44 sub_q_0_group_45 sub_q_0_group_46 sub_q_0_group_47 sub_q_0_group_48 sub_q_0_group_49 sub_q_0_group_50 sub_q_0_group_51 sub_q_0_group_52 sub_q_0_group_53 sub_q_0_group_54 sub_q_0_group_55 sub_q_0_group_56 sub_q_0_group_57 sub_q_0_group_58 sub_q_0_group_59 sub_q_0_group_60 sub_q_0_group_61 sub_q_0_group_62 sub_q_0_group_63 sub_q_0_group_64 sub_q_0_group_65 sub_q_0_group_66 sub_q_0_group_67 sub_q_0_group_68 sub_q_0_group_69 sub_q_0_group_70 sub_q_0_group_71 sub_q_0_group_72 sub_q_0_group_73 sub_q_0_group_74 sub_q_0_group_75 sub_q_0_group_76 sub_q_0_group_77 sub_q_0_group_78 sub_q_0_group_79 sub_q_0_group_80 sub_q_0_group_81 sub_q_0_group_82 sub_q_0_group_83 sub_q_0_group_84 sub_q_0_group_85 sub_q_0_group_86 sub_q_0_group_87 sub_q_0_group_88 sub_q_0_group_89 sub_q_0_group_90 sub_q_0_group_91 sub_q_0_group_92 sub_q_0_group_93 sub_q_0_group_94 sub_q_0_group_95 sub_q_0_group_96 sub_q_0_group_97 sub_q_0_group_98 sub_q_0_group_99 sub_q_0.25_group_0 sub_q_0.25_group_1 sub_q_0.25_group_2 sub_q_0.25_group_3 sub_q_0.25_group_4 sub_q_0.25_group_5 sub_q_0.25_group_6 sub_q_0.25_group_7 sub_q_0.25_group_8 sub_q_0.25_group_9 sub_q_0.25_group_10 sub_q_0.25_group_11 sub_q_0.25_group_12 sub_q_0.25_group_13 sub_q_0.25_group_14 sub_q_0.25_group_15 sub_q_0.25_group_16 sub_q_0.25_group_17 sub_q_0.25_group_18 sub_q_0.25_group_19 sub_q_0.25_group_20 sub_q_0.25_group_21 sub_q_0.25_group_22 sub_q_0.25_group_23 sub_q_0.25_group_24 sub_q_0.25_group_25 sub_q_0.25_group_26 sub_q_0.25_group_27 sub_q_0.25_group_28 sub_q_0.25_group_29 sub_q_0.25_group_30 sub_q_0.25_group_31 sub_q_0.25_group_32 sub_q_0.25_group_33 sub_q_0.25_group_34 sub_q_0.25_group_35 sub_q_0.25_group_36 sub_q_0.25_group_37 sub_q_0.25_group_38 sub_q_0.25_group_39 sub_q_0.25_group_40 sub_q_0.25_group_41 sub_q_0.25_group_42 sub_q_0.25_group_43 sub_q_0.25_group_44 sub_q_0.25_group_45 sub_q_0.25_group_46 sub_q_0.25_group_47 sub_q_0.25_group_48 sub_q_0.25_group_49 sub_q_0.25_group_50 sub_q_0.25_group_51 sub_q_0.25_group_52 sub_q_0.25_group_53 sub_q_0.25_group_54 sub_q_0.25_group_55 sub_q_0.25_group_56 sub_q_0.25_group_57 sub_q_0.25_group_58 sub_q_0.25_group_59 sub_q_0.25_group_60 sub_q_0.25_group_61 sub_q_0.25_group_62 sub_q_0.25_group_63 sub_q_0.25_group_64 sub_q_0.25_group_65 sub_q_0.25_group_66 sub_q_0.25_group_67 sub_q_0.25_group_68 sub_q_0.25_group_69 sub_q_0.25_group_70 sub_q_0.25_group_71 sub_q_0.25_group_72 sub_q_0.25_group_73 sub_q_0.25_group_74 sub_q_0.25_group_75 sub_q_0.25_group_76 sub_q_0.25_group_77 sub_q_0.25_group_78 sub_q_0.25_group_79 sub_q_0.25_group_80 sub_q_0.25_group_81 sub_q_0.25_group_82 sub_q_0.25_group_83 sub_q_0.25_group_84 sub_q_0.25_group_85 sub_q_0.25_group_86 sub_q_0.25_group_87 sub_q_0.25_group_88 sub_q_0.25_group_89 sub_q_0.25_group_90 sub_q_0.25_group_91 sub_q_0.25_group_92 sub_q_0.25_group_93 sub_q_0.25_group_94 sub_q_0.25_group_95 sub_q_0.25_group_96 sub_q_0.25_group_97 sub_q_0.25_group_98 sub_q_0.25_group_99 sub_q_0.5_group_0 sub_q_0.5_group_1 sub_q_0.5_group_2 sub_q_0.5_group_3 sub_q_0.5_group_4 sub_q_0.5_group_5 sub_q_0.5_group_6 sub_q_0.5_group_7 sub_q_0.5_group_8 sub_q_0.5_group_9 sub_q_0.5_group_10 sub_q_0.5_group_11 sub_q_0.5_group_12 sub_q_0.5_group_13 sub_q_0.5_group_14 sub_q_0.5_group_15 sub_q_0.5_group_16 sub_q_0.5_group_17 sub_q_0.5_group_18 sub_q_0.5_group_19 sub_q_0.5_group_20 sub_q_0.5_group_21 sub_q_0.5_group_22 sub_q_0.5_group_23 sub_q_0.5_group_24 sub_q_0.5_group_25 sub_q_0.5_group_26 sub_q_0.5_group_27 sub_q_0.5_group_28 sub_q_0.5_group_29 sub_q_0.5_group_30 sub_q_0.5_group_31 sub_q_0.5_group_32 sub_q_0.5_group_33 sub_q_0.5_group_34 sub_q_0.5_group_35 sub_q_0.5_group_36 sub_q_0.5_group_37 sub_q_0.5_group_38 sub_q_0.5_group_39 sub_q_0.5_group_40 sub_q_0.5_group_41 sub_q_0.5_group_42 sub_q_0.5_group_43 sub_q_0.5_group_44 sub_q_0.5_group_45 sub_q_0.5_group_46 sub_q_0.5_group_47 sub_q_0.5_group_48 sub_q_0.5_group_49 sub_q_0.5_group_50 sub_q_0.5_group_51 sub_q_0.5_group_52 sub_q_0.5_group_53 sub_q_0.5_group_54 sub_q_0.5_group_55 sub_q_0.5_group_56 sub_q_0.5_group_57 sub_q_0.5_group_58 sub_q_0.5_group_59 sub_q_0.5_group_60 sub_q_0.5_group_61 sub_q_0.5_group_62 sub_q_0.5_group_63 sub_q_0.5_group_64 sub_q_0.5_group_65 sub_q_0.5_group_66 sub_q_0.5_group_67 sub_q_0.5_group_68 sub_q_0.5_group_69 sub_q_0.5_group_70 sub_q_0.5_group_71 sub_q_0.5_group_72 sub_q_0.5_group_73 sub_q_0.5_group_74 sub_q_0.5_group_75 sub_q_0.5_group_76 sub_q_0.5_group_77 sub_q_0.5_group_78 sub_q_0.5_group_79 sub_q_0.5_group_80 sub_q_0.5_group_81 sub_q_0.5_group_82 sub_q_0.5_group_83 sub_q_0.5_group_84 sub_q_0.5_group_85 sub_q_0.5_group_86 sub_q_0.5_group_87 sub_q_0.5_group_88 sub_q_0.5_group_89 sub_q_0.5_group_90 sub_q_0.5_group_91 sub_q_0.5_group_92 sub_q_0.5_group_93 sub_q_0.5_group_94 sub_q_0.5_group_95 sub_q_0.5_group_96 sub_q_0.5_group_97 sub_q_0.5_group_98 sub_q_0.5_group_99 sub_q_0.75_group_0 sub_q_0.75_group_1 sub_q_0.75_group_2 sub_q_0.75_group_3 sub_q_0.75_group_4 sub_q_0.75_group_5 sub_q_0.75_group_6 sub_q_0.75_group_7 sub_q_0.75_group_8 sub_q_0.75_group_9 sub_q_0.75_group_10 sub_q_0.75_group_11 sub_q_0.75_group_12 sub_q_0.75_group_13 sub_q_0.75_group_14 sub_q_0.75_group_15 sub_q_0.75_group_16 sub_q_0.75_group_17 sub_q_0.75_group_18 sub_q_0.75_group_19 sub_q_0.75_group_20 sub_q_0.75_group_21 sub_q_0.75_group_22 sub_q_0.75_group_23 sub_q_0.75_group_24 sub_q_0.75_group_25 sub_q_0.75_group_26 sub_q_0.75_group_27 sub_q_0.75_group_28 sub_q_0.75_group_29 sub_q_0.75_group_30 sub_q_0.75_group_31 sub_q_0.75_group_32 sub_q_0.75_group_33 sub_q_0.75_group_34 sub_q_0.75_group_35 sub_q_0.75_group_36 sub_q_0.75_group_37 sub_q_0.75_group_38 sub_q_0.75_group_39 sub_q_0.75_group_40 sub_q_0.75_group_41 sub_q_0.75_group_42 sub_q_0.75_group_43 sub_q_0.75_group_44 sub_q_0.75_group_45 sub_q_0.75_group_46 sub_q_0.75_group_47 sub_q_0.75_group_48 sub_q_0.75_group_49 sub_q_0.75_group_50 sub_q_0.75_group_51 sub_q_0.75_group_52 sub_q_0.75_group_53 sub_q_0.75_group_54 sub_q_0.75_group_55 sub_q_0.75_group_56 sub_q_0.75_group_57 sub_q_0.75_group_58 sub_q_0.75_group_59 sub_q_0.75_group_60 sub_q_0.75_group_61 sub_q_0.75_group_62 sub_q_0.75_group_63 sub_q_0.75_group_64 sub_q_0.75_group_65 sub_q_0.75_group_66 sub_q_0.75_group_67 sub_q_0.75_group_68 sub_q_0.75_group_69 sub_q_0.75_group_70 sub_q_0.75_group_71 sub_q_0.75_group_72 sub_q_0.75_group_73 sub_q_0.75_group_74 sub_q_0.75_group_75 sub_q_0.75_group_76 sub_q_0.75_group_77 sub_q_0.75_group_78 sub_q_0.75_group_79 sub_q_0.75_group_80 sub_q_0.75_group_81 sub_q_0.75_group_82 sub_q_0.75_group_83 sub_q_0.75_group_84 sub_q_0.75_group_85 sub_q_0.75_group_86 sub_q_0.75_group_87 sub_q_0.75_group_88 sub_q_0.75_group_89 sub_q_0.75_group_90 sub_q_0.75_group_91 sub_q_0.75_group_92 sub_q_0.75_group_93 sub_q_0.75_group_94 sub_q_0.75_group_95 sub_q_0.75_group_96 sub_q_0.75_group_97 sub_q_0.75_group_98 sub_q_0.75_group_99 sub_q_1_group_0 sub_q_1_group_1 sub_q_1_group_2 sub_q_1_group_3 sub_q_1_group_4 sub_q_1_group_5 sub_q_1_group_6 sub_q_1_group_7 sub_q_1_group_8 sub_q_1_group_9 sub_q_1_group_10 sub_q_1_group_11 sub_q_1_group_12 sub_q_1_group_13 sub_q_1_group_14 sub_q_1_group_15 sub_q_1_group_16 sub_q_1_group_17 sub_q_1_group_18 sub_q_1_group_19 sub_q_1_group_20 sub_q_1_group_21 sub_q_1_group_22 sub_q_1_group_23 sub_q_1_group_24 sub_q_1_group_25 sub_q_1_group_26 sub_q_1_group_27 sub_q_1_group_28 sub_q_1_group_29 sub_q_1_group_30 sub_q_1_group_31 sub_q_1_group_32 sub_q_1_group_33 sub_q_1_group_34 sub_q_1_group_35 sub_q_1_group_36 sub_q_1_group_37 sub_q_1_group_38 sub_q_1_group_39 sub_q_1_group_40 sub_q_1_group_41 sub_q_1_group_42 sub_q_1_group_43 sub_q_1_group_44 sub_q_1_group_45 sub_q_1_group_46 sub_q_1_group_47 sub_q_1_group_48 sub_q_1_group_49 sub_q_1_group_50 sub_q_1_group_51 sub_q_1_group_52 sub_q_1_group_53 sub_q_1_group_54 sub_q_1_group_55 sub_q_1_group_56 sub_q_1_group_57 sub_q_1_group_58 sub_q_1_group_59 sub_q_1_group_60 sub_q_1_group_61 sub_q_1_group_62 sub_q_1_group_63 sub_q_1_group_64 sub_q_1_group_65 sub_q_1_group_66 sub_q_1_group_67 sub_q_1_group_68 sub_q_1_group_69 sub_q_1_group_70 sub_q_1_group_71 sub_q_1_group_72 sub_q_1_group_73 sub_q_1_group_74 sub_q_1_group_75 sub_q_1_group_76 sub_q_1_group_77 sub_q_1_group_78 sub_q_1_group_79 sub_q_1_group_80 sub_q_1_group_81 sub_q_1_group_82 sub_q_1_group_83 sub_q_1_group_84 sub_q_1_group_85 sub_q_1_group_86 sub_q_1_group_87 sub_q_1_group_88 sub_q_1_group_89 sub_q_1_group_90 sub_q_1_group_91 sub_q_1_group_92 sub_q_1_group_93 sub_q_1_group_94 sub_q_1_group_95 sub_q_1_group_96 sub_q_1_group_97 sub_q_1_group_98 sub_q_1_group_99 sub_fft_0_group_0 sub_fft_1_group_0 sub_fft_2_group_0 sub_fft_3_group_0 sub_fft_4_group_0 sub_fft_5_group_0 sub_fft_6_group_0 sub_fft_7_group_0 sub_fft_8_group_0 sub_fft_9_group_0 sub_fft_0_group_1 sub_fft_1_group_1 sub_fft_2_group_1 sub_fft_3_group_1 sub_fft_4_group_1 sub_fft_5_group_1 sub_fft_6_group_1 sub_fft_7_group_1 sub_fft_8_group_1 sub_fft_9_group_1 sub_fft_0_group_2 sub_fft_1_group_2 sub_fft_2_group_2 sub_fft_3_group_2 sub_fft_4_group_2 sub_fft_5_group_2 sub_fft_6_group_2 sub_fft_7_group_2 sub_fft_8_group_2 sub_fft_9_group_2 sub_fft_0_group_3 sub_fft_1_group_3 sub_fft_2_group_3 sub_fft_3_group_3 sub_fft_4_group_3 sub_fft_5_group_3 sub_fft_6_group_3 sub_fft_7_group_3 sub_fft_8_group_3 sub_fft_9_group_3 sub_fft_0_group_4 sub_fft_1_group_4 sub_fft_2_group_4 sub_fft_3_group_4 sub_fft_4_group_4 sub_fft_5_group_4 sub_fft_6_group_4 sub_fft_7_group_4 sub_fft_8_group_4 sub_fft_9_group_4 sub_fft_0_group_5 sub_fft_1_group_5 sub_fft_2_group_5 sub_fft_3_group_5 sub_fft_4_group_5 sub_fft_5_group_5 sub_fft_6_group_5 sub_fft_7_group_5 sub_fft_8_group_5 sub_fft_9_group_5 sub_fft_0_group_6 sub_fft_1_group_6 sub_fft_2_group_6 sub_fft_3_group_6 sub_fft_4_group_6 sub_fft_5_group_6 sub_fft_6_group_6 sub_fft_7_group_6 sub_fft_8_group_6 sub_fft_9_group_6 sub_fft_0_group_7 sub_fft_1_group_7 sub_fft_2_group_7 sub_fft_3_group_7 sub_fft_4_group_7 sub_fft_5_group_7 sub_fft_6_group_7 sub_fft_7_group_7 sub_fft_8_group_7 sub_fft_9_group_7 sub_fft_0_group_8 sub_fft_1_group_8 sub_fft_2_group_8 sub_fft_3_group_8 sub_fft_4_group_8 sub_fft_5_group_8 sub_fft_6_group_8 sub_fft_7_group_8 sub_fft_8_group_8 sub_fft_9_group_8 sub_fft_0_group_9 sub_fft_1_group_9 sub_fft_2_group_9 sub_fft_3_group_9 sub_fft_4_group_9 sub_fft_5_group_9 sub_fft_6_group_9 sub_fft_7_group_9 sub_fft_8_group_9 sub_fft_9_group_9 sub_fft_0_group_10 sub_fft_1_group_10 sub_fft_2_group_10 sub_fft_3_group_10 sub_fft_4_group_10 sub_fft_5_group_10 sub_fft_6_group_10 sub_fft_7_group_10 sub_fft_8_group_10 sub_fft_9_group_10 sub_fft_0_group_11 sub_fft_1_group_11 sub_fft_2_group_11 sub_fft_3_group_11 sub_fft_4_group_11 sub_fft_5_group_11 sub_fft_6_group_11 sub_fft_7_group_11 sub_fft_8_group_11 sub_fft_9_group_11 sub_fft_0_group_12 sub_fft_1_group_12 sub_fft_2_group_12 sub_fft_3_group_12 sub_fft_4_group_12 sub_fft_5_group_12 sub_fft_6_group_12 sub_fft_7_group_12 sub_fft_8_group_12 sub_fft_9_group_12 sub_fft_0_group_13 sub_fft_1_group_13 sub_fft_2_group_13 sub_fft_3_group_13 sub_fft_4_group_13 sub_fft_5_group_13 sub_fft_6_group_13 sub_fft_7_group_13 sub_fft_8_group_13 sub_fft_9_group_13 sub_fft_0_group_14 sub_fft_1_group_14 sub_fft_2_group_14 sub_fft_3_group_14 sub_fft_4_group_14 sub_fft_5_group_14 sub_fft_6_group_14 sub_fft_7_group_14 sub_fft_8_group_14 sub_fft_9_group_14 sub_fft_0_group_15 sub_fft_1_group_15 sub_fft_2_group_15 sub_fft_3_group_15 sub_fft_4_group_15 sub_fft_5_group_15 sub_fft_6_group_15 sub_fft_7_group_15 sub_fft_8_group_15 sub_fft_9_group_15 sub_fft_0_group_16 sub_fft_1_group_16 sub_fft_2_group_16 sub_fft_3_group_16 sub_fft_4_group_16 sub_fft_5_group_16 sub_fft_6_group_16 sub_fft_7_group_16 sub_fft_8_group_16 sub_fft_9_group_16 sub_fft_0_group_17 sub_fft_1_group_17 sub_fft_2_group_17 sub_fft_3_group_17 sub_fft_4_group_17 sub_fft_5_group_17 sub_fft_6_group_17 sub_fft_7_group_17 sub_fft_8_group_17 sub_fft_9_group_17 sub_fft_0_group_18 sub_fft_1_group_18 sub_fft_2_group_18 sub_fft_3_group_18 sub_fft_4_group_18 sub_fft_5_group_18 sub_fft_6_group_18 sub_fft_7_group_18 sub_fft_8_group_18 sub_fft_9_group_18 sub_fft_0_group_19 sub_fft_1_group_19 sub_fft_2_group_19 sub_fft_3_group_19 sub_fft_4_group_19 sub_fft_5_group_19 sub_fft_6_group_19 sub_fft_7_group_19 sub_fft_8_group_19 sub_fft_9_group_19 sub_fft_0_group_20 sub_fft_1_group_20 sub_fft_2_group_20 sub_fft_3_group_20 sub_fft_4_group_20 sub_fft_5_group_20 sub_fft_6_group_20 sub_fft_7_group_20 sub_fft_8_group_20 sub_fft_9_group_20 sub_fft_0_group_21 sub_fft_1_group_21 sub_fft_2_group_21 sub_fft_3_group_21 sub_fft_4_group_21 sub_fft_5_group_21 sub_fft_6_group_21 sub_fft_7_group_21 sub_fft_8_group_21 sub_fft_9_group_21 sub_fft_0_group_22 sub_fft_1_group_22 sub_fft_2_group_22 sub_fft_3_group_22 sub_fft_4_group_22 sub_fft_5_group_22 sub_fft_6_group_22 sub_fft_7_group_22 sub_fft_8_group_22 sub_fft_9_group_22 sub_fft_0_group_23 sub_fft_1_group_23 sub_fft_2_group_23 sub_fft_3_group_23 sub_fft_4_group_23 sub_fft_5_group_23 sub_fft_6_group_23 sub_fft_7_group_23 sub_fft_8_group_23 sub_fft_9_group_23 sub_fft_0_group_24 sub_fft_1_group_24 sub_fft_2_group_24 sub_fft_3_group_24 sub_fft_4_group_24 sub_fft_5_group_24 sub_fft_6_group_24 sub_fft_7_group_24 sub_fft_8_group_24 sub_fft_9_group_24 sub_fft_0_group_25 sub_fft_1_group_25 sub_fft_2_group_25 sub_fft_3_group_25 sub_fft_4_group_25 sub_fft_5_group_25 sub_fft_6_group_25 sub_fft_7_group_25 sub_fft_8_group_25 sub_fft_9_group_25 sub_fft_0_group_26 sub_fft_1_group_26 sub_fft_2_group_26 sub_fft_3_group_26 sub_fft_4_group_26 sub_fft_5_group_26 sub_fft_6_group_26 sub_fft_7_group_26 sub_fft_8_group_26 sub_fft_9_group_26 sub_fft_0_group_27 sub_fft_1_group_27 sub_fft_2_group_27 sub_fft_3_group_27 sub_fft_4_group_27 sub_fft_5_group_27 sub_fft_6_group_27 sub_fft_7_group_27 sub_fft_8_group_27 sub_fft_9_group_27 sub_fft_0_group_28 sub_fft_1_group_28 sub_fft_2_group_28 sub_fft_3_group_28 sub_fft_4_group_28 sub_fft_5_group_28 sub_fft_6_group_28 sub_fft_7_group_28 sub_fft_8_group_28 sub_fft_9_group_28 sub_fft_0_group_29 sub_fft_1_group_29 sub_fft_2_group_29 sub_fft_3_group_29 sub_fft_4_group_29 sub_fft_5_group_29 sub_fft_6_group_29 sub_fft_7_group_29 sub_fft_8_group_29 sub_fft_9_group_29 sub_fft_0_group_30 sub_fft_1_group_30 sub_fft_2_group_30 sub_fft_3_group_30 sub_fft_4_group_30 sub_fft_5_group_30 sub_fft_6_group_30 sub_fft_7_group_30 sub_fft_8_group_30 sub_fft_9_group_30 sub_fft_0_group_31 sub_fft_1_group_31 sub_fft_2_group_31 sub_fft_3_group_31 sub_fft_4_group_31 sub_fft_5_group_31 sub_fft_6_group_31 sub_fft_7_group_31 sub_fft_8_group_31 sub_fft_9_group_31 sub_fft_0_group_32 sub_fft_1_group_32 sub_fft_2_group_32 sub_fft_3_group_32 sub_fft_4_group_32 sub_fft_5_group_32 sub_fft_6_group_32 sub_fft_7_group_32 sub_fft_8_group_32 sub_fft_9_group_32 sub_fft_0_group_33 sub_fft_1_group_33 sub_fft_2_group_33 sub_fft_3_group_33 sub_fft_4_group_33 sub_fft_5_group_33 sub_fft_6_group_33 sub_fft_7_group_33 sub_fft_8_group_33 sub_fft_9_group_33 sub_fft_0_group_34 sub_fft_1_group_34 sub_fft_2_group_34 sub_fft_3_group_34 sub_fft_4_group_34 sub_fft_5_group_34 sub_fft_6_group_34 sub_fft_7_group_34 sub_fft_8_group_34 sub_fft_9_group_34 sub_fft_0_group_35 sub_fft_1_group_35 sub_fft_2_group_35 sub_fft_3_group_35 sub_fft_4_group_35 sub_fft_5_group_35 sub_fft_6_group_35 sub_fft_7_group_35 sub_fft_8_group_35 sub_fft_9_group_35 sub_fft_0_group_36 sub_fft_1_group_36 sub_fft_2_group_36 sub_fft_3_group_36 sub_fft_4_group_36 sub_fft_5_group_36 sub_fft_6_group_36 sub_fft_7_group_36 sub_fft_8_group_36 sub_fft_9_group_36 sub_fft_0_group_37 sub_fft_1_group_37 sub_fft_2_group_37 sub_fft_3_group_37 sub_fft_4_group_37 sub_fft_5_group_37 sub_fft_6_group_37 sub_fft_7_group_37 sub_fft_8_group_37 sub_fft_9_group_37 sub_fft_0_group_38 sub_fft_1_group_38 sub_fft_2_group_38 sub_fft_3_group_38 sub_fft_4_group_38 sub_fft_5_group_38 sub_fft_6_group_38 sub_fft_7_group_38 sub_fft_8_group_38 sub_fft_9_group_38 sub_fft_0_group_39 sub_fft_1_group_39 sub_fft_2_group_39 sub_fft_3_group_39 sub_fft_4_group_39 sub_fft_5_group_39 sub_fft_6_group_39 sub_fft_7_group_39 sub_fft_8_group_39 sub_fft_9_group_39 sub_fft_0_group_40 sub_fft_1_group_40 sub_fft_2_group_40 sub_fft_3_group_40 sub_fft_4_group_40 sub_fft_5_group_40 sub_fft_6_group_40 sub_fft_7_group_40 sub_fft_8_group_40 sub_fft_9_group_40 sub_fft_0_group_41 sub_fft_1_group_41 sub_fft_2_group_41 sub_fft_3_group_41 sub_fft_4_group_41 sub_fft_5_group_41 sub_fft_6_group_41 sub_fft_7_group_41 sub_fft_8_group_41 sub_fft_9_group_41 sub_fft_0_group_42 sub_fft_1_group_42 sub_fft_2_group_42 sub_fft_3_group_42 sub_fft_4_group_42 sub_fft_5_group_42 sub_fft_6_group_42 sub_fft_7_group_42 sub_fft_8_group_42 sub_fft_9_group_42 sub_fft_0_group_43 sub_fft_1_group_43 sub_fft_2_group_43 sub_fft_3_group_43 sub_fft_4_group_43 sub_fft_5_group_43 sub_fft_6_group_43 sub_fft_7_group_43 sub_fft_8_group_43 sub_fft_9_group_43 sub_fft_0_group_44 sub_fft_1_group_44 sub_fft_2_group_44 sub_fft_3_group_44 sub_fft_4_group_44 sub_fft_5_group_44 sub_fft_6_group_44 sub_fft_7_group_44 sub_fft_8_group_44 sub_fft_9_group_44 sub_fft_0_group_45 sub_fft_1_group_45 sub_fft_2_group_45 sub_fft_3_group_45 sub_fft_4_group_45 sub_fft_5_group_45 sub_fft_6_group_45 sub_fft_7_group_45 sub_fft_8_group_45 sub_fft_9_group_45 sub_fft_0_group_46 sub_fft_1_group_46 sub_fft_2_group_46 sub_fft_3_group_46 sub_fft_4_group_46 sub_fft_5_group_46 sub_fft_6_group_46 sub_fft_7_group_46 sub_fft_8_group_46 sub_fft_9_group_46 sub_fft_0_group_47 sub_fft_1_group_47 sub_fft_2_group_47 sub_fft_3_group_47 sub_fft_4_group_47 sub_fft_5_group_47 sub_fft_6_group_47 sub_fft_7_group_47 sub_fft_8_group_47 sub_fft_9_group_47 sub_fft_0_group_48 sub_fft_1_group_48 sub_fft_2_group_48 sub_fft_3_group_48 sub_fft_4_group_48 sub_fft_5_group_48 sub_fft_6_group_48 sub_fft_7_group_48 sub_fft_8_group_48 sub_fft_9_group_48 sub_fft_0_group_49 sub_fft_1_group_49 sub_fft_2_group_49 sub_fft_3_group_49 sub_fft_4_group_49 sub_fft_5_group_49 sub_fft_6_group_49 sub_fft_7_group_49 sub_fft_8_group_49 sub_fft_9_group_49 sub_fft_0_group_50 sub_fft_1_group_50 sub_fft_2_group_50 sub_fft_3_group_50 sub_fft_4_group_50 sub_fft_5_group_50 sub_fft_6_group_50 sub_fft_7_group_50 sub_fft_8_group_50 sub_fft_9_group_50 sub_fft_0_group_51 sub_fft_1_group_51 sub_fft_2_group_51 sub_fft_3_group_51 sub_fft_4_group_51 sub_fft_5_group_51 sub_fft_6_group_51 sub_fft_7_group_51 sub_fft_8_group_51 sub_fft_9_group_51 sub_fft_0_group_52 sub_fft_1_group_52 sub_fft_2_group_52 sub_fft_3_group_52 sub_fft_4_group_52 sub_fft_5_group_52 sub_fft_6_group_52 sub_fft_7_group_52 sub_fft_8_group_52 sub_fft_9_group_52 sub_fft_0_group_53 sub_fft_1_group_53 sub_fft_2_group_53 sub_fft_3_group_53 sub_fft_4_group_53 sub_fft_5_group_53 sub_fft_6_group_53 sub_fft_7_group_53 sub_fft_8_group_53 sub_fft_9_group_53 sub_fft_0_group_54 sub_fft_1_group_54 sub_fft_2_group_54 sub_fft_3_group_54 sub_fft_4_group_54 sub_fft_5_group_54 sub_fft_6_group_54 sub_fft_7_group_54 sub_fft_8_group_54 sub_fft_9_group_54 sub_fft_0_group_55 sub_fft_1_group_55 sub_fft_2_group_55 sub_fft_3_group_55 sub_fft_4_group_55 sub_fft_5_group_55 sub_fft_6_group_55 sub_fft_7_group_55 sub_fft_8_group_55 sub_fft_9_group_55 sub_fft_0_group_56 sub_fft_1_group_56 sub_fft_2_group_56 sub_fft_3_group_56 sub_fft_4_group_56 sub_fft_5_group_56 sub_fft_6_group_56 sub_fft_7_group_56 sub_fft_8_group_56 sub_fft_9_group_56 sub_fft_0_group_57 sub_fft_1_group_57 sub_fft_2_group_57 sub_fft_3_group_57 sub_fft_4_group_57 sub_fft_5_group_57 sub_fft_6_group_57 sub_fft_7_group_57 sub_fft_8_group_57 sub_fft_9_group_57 sub_fft_0_group_58 sub_fft_1_group_58 sub_fft_2_group_58 sub_fft_3_group_58 sub_fft_4_group_58 sub_fft_5_group_58 sub_fft_6_group_58 sub_fft_7_group_58 sub_fft_8_group_58 sub_fft_9_group_58 sub_fft_0_group_59 sub_fft_1_group_59 sub_fft_2_group_59 sub_fft_3_group_59 sub_fft_4_group_59 sub_fft_5_group_59 sub_fft_6_group_59 sub_fft_7_group_59 sub_fft_8_group_59 sub_fft_9_group_59 sub_fft_0_group_60 sub_fft_1_group_60 sub_fft_2_group_60 sub_fft_3_group_60 sub_fft_4_group_60 sub_fft_5_group_60 sub_fft_6_group_60 sub_fft_7_group_60 sub_fft_8_group_60 sub_fft_9_group_60 sub_fft_0_group_61 sub_fft_1_group_61 sub_fft_2_group_61 sub_fft_3_group_61 sub_fft_4_group_61 sub_fft_5_group_61 sub_fft_6_group_61 sub_fft_7_group_61 sub_fft_8_group_61 sub_fft_9_group_61 sub_fft_0_group_62 sub_fft_1_group_62 sub_fft_2_group_62 sub_fft_3_group_62 sub_fft_4_group_62 sub_fft_5_group_62 sub_fft_6_group_62 sub_fft_7_group_62 sub_fft_8_group_62 sub_fft_9_group_62 sub_fft_0_group_63 sub_fft_1_group_63 sub_fft_2_group_63 sub_fft_3_group_63 sub_fft_4_group_63 sub_fft_5_group_63 sub_fft_6_group_63 sub_fft_7_group_63 sub_fft_8_group_63 sub_fft_9_group_63 sub_fft_0_group_64 sub_fft_1_group_64 sub_fft_2_group_64 sub_fft_3_group_64 sub_fft_4_group_64 sub_fft_5_group_64 sub_fft_6_group_64 sub_fft_7_group_64 sub_fft_8_group_64 sub_fft_9_group_64 sub_fft_0_group_65 sub_fft_1_group_65 sub_fft_2_group_65 sub_fft_3_group_65 sub_fft_4_group_65 sub_fft_5_group_65 sub_fft_6_group_65 sub_fft_7_group_65 sub_fft_8_group_65 sub_fft_9_group_65 sub_fft_0_group_66 sub_fft_1_group_66 sub_fft_2_group_66 sub_fft_3_group_66 sub_fft_4_group_66 sub_fft_5_group_66 sub_fft_6_group_66 sub_fft_7_group_66 sub_fft_8_group_66 sub_fft_9_group_66 sub_fft_0_group_67 sub_fft_1_group_67 sub_fft_2_group_67 sub_fft_3_group_67 sub_fft_4_group_67 sub_fft_5_group_67 sub_fft_6_group_67 sub_fft_7_group_67 sub_fft_8_group_67 sub_fft_9_group_67 sub_fft_0_group_68 sub_fft_1_group_68 sub_fft_2_group_68 sub_fft_3_group_68 sub_fft_4_group_68 sub_fft_5_group_68 sub_fft_6_group_68 sub_fft_7_group_68 sub_fft_8_group_68 sub_fft_9_group_68 sub_fft_0_group_69 sub_fft_1_group_69 sub_fft_2_group_69 sub_fft_3_group_69 sub_fft_4_group_69 sub_fft_5_group_69 sub_fft_6_group_69 sub_fft_7_group_69 sub_fft_8_group_69 sub_fft_9_group_69 sub_fft_0_group_70 sub_fft_1_group_70 sub_fft_2_group_70 sub_fft_3_group_70 sub_fft_4_group_70 sub_fft_5_group_70 sub_fft_6_group_70 sub_fft_7_group_70 sub_fft_8_group_70 sub_fft_9_group_70 sub_fft_0_group_71 sub_fft_1_group_71 sub_fft_2_group_71 sub_fft_3_group_71 sub_fft_4_group_71 sub_fft_5_group_71 sub_fft_6_group_71 sub_fft_7_group_71 sub_fft_8_group_71 sub_fft_9_group_71 sub_fft_0_group_72 sub_fft_1_group_72 sub_fft_2_group_72 sub_fft_3_group_72 sub_fft_4_group_72 sub_fft_5_group_72 sub_fft_6_group_72 sub_fft_7_group_72 sub_fft_8_group_72 sub_fft_9_group_72 sub_fft_0_group_73 sub_fft_1_group_73 sub_fft_2_group_73 sub_fft_3_group_73 sub_fft_4_group_73 sub_fft_5_group_73 sub_fft_6_group_73 sub_fft_7_group_73 sub_fft_8_group_73 sub_fft_9_group_73 sub_fft_0_group_74 sub_fft_1_group_74 sub_fft_2_group_74 sub_fft_3_group_74 sub_fft_4_group_74 sub_fft_5_group_74 sub_fft_6_group_74 sub_fft_7_group_74 sub_fft_8_group_74 sub_fft_9_group_74 sub_fft_0_group_75 sub_fft_1_group_75 sub_fft_2_group_75 sub_fft_3_group_75 sub_fft_4_group_75 sub_fft_5_group_75 sub_fft_6_group_75 sub_fft_7_group_75 sub_fft_8_group_75 sub_fft_9_group_75 sub_fft_0_group_76 sub_fft_1_group_76 sub_fft_2_group_76 sub_fft_3_group_76 sub_fft_4_group_76 sub_fft_5_group_76 sub_fft_6_group_76 sub_fft_7_group_76 sub_fft_8_group_76 sub_fft_9_group_76 sub_fft_0_group_77 sub_fft_1_group_77 sub_fft_2_group_77 sub_fft_3_group_77 sub_fft_4_group_77 sub_fft_5_group_77 sub_fft_6_group_77 sub_fft_7_group_77 sub_fft_8_group_77 sub_fft_9_group_77 sub_fft_0_group_78 sub_fft_1_group_78 sub_fft_2_group_78 sub_fft_3_group_78 sub_fft_4_group_78 sub_fft_5_group_78 sub_fft_6_group_78 sub_fft_7_group_78 sub_fft_8_group_78 sub_fft_9_group_78 sub_fft_0_group_79 sub_fft_1_group_79 sub_fft_2_group_79 sub_fft_3_group_79 sub_fft_4_group_79 sub_fft_5_group_79 sub_fft_6_group_79 sub_fft_7_group_79 sub_fft_8_group_79 sub_fft_9_group_79 sub_fft_0_group_80 sub_fft_1_group_80 sub_fft_2_group_80 sub_fft_3_group_80 sub_fft_4_group_80 sub_fft_5_group_80 sub_fft_6_group_80 sub_fft_7_group_80 sub_fft_8_group_80 sub_fft_9_group_80 sub_fft_0_group_81 sub_fft_1_group_81 sub_fft_2_group_81 sub_fft_3_group_81 sub_fft_4_group_81 sub_fft_5_group_81 sub_fft_6_group_81 sub_fft_7_group_81 sub_fft_8_group_81 sub_fft_9_group_81 sub_fft_0_group_82 sub_fft_1_group_82 sub_fft_2_group_82 sub_fft_3_group_82 sub_fft_4_group_82 sub_fft_5_group_82 sub_fft_6_group_82 sub_fft_7_group_82 sub_fft_8_group_82 sub_fft_9_group_82 sub_fft_0_group_83 sub_fft_1_group_83 sub_fft_2_group_83 sub_fft_3_group_83 sub_fft_4_group_83 sub_fft_5_group_83 sub_fft_6_group_83 sub_fft_7_group_83 sub_fft_8_group_83 sub_fft_9_group_83 sub_fft_0_group_84 sub_fft_1_group_84 sub_fft_2_group_84 sub_fft_3_group_84 sub_fft_4_group_84 sub_fft_5_group_84 sub_fft_6_group_84 sub_fft_7_group_84 sub_fft_8_group_84 sub_fft_9_group_84 sub_fft_0_group_85 sub_fft_1_group_85 sub_fft_2_group_85 sub_fft_3_group_85 sub_fft_4_group_85 sub_fft_5_group_85 sub_fft_6_group_85 sub_fft_7_group_85 sub_fft_8_group_85 sub_fft_9_group_85 sub_fft_0_group_86 sub_fft_1_group_86 sub_fft_2_group_86 sub_fft_3_group_86 sub_fft_4_group_86 sub_fft_5_group_86 sub_fft_6_group_86 sub_fft_7_group_86 sub_fft_8_group_86 sub_fft_9_group_86 sub_fft_0_group_87 sub_fft_1_group_87 sub_fft_2_group_87 sub_fft_3_group_87 sub_fft_4_group_87 sub_fft_5_group_87 sub_fft_6_group_87 sub_fft_7_group_87 sub_fft_8_group_87 sub_fft_9_group_87 sub_fft_0_group_88 sub_fft_1_group_88 sub_fft_2_group_88 sub_fft_3_group_88 sub_fft_4_group_88 sub_fft_5_group_88 sub_fft_6_group_88 sub_fft_7_group_88 sub_fft_8_group_88 sub_fft_9_group_88 sub_fft_0_group_89 sub_fft_1_group_89 sub_fft_2_group_89 sub_fft_3_group_89 sub_fft_4_group_89 sub_fft_5_group_89 sub_fft_6_group_89 sub_fft_7_group_89 sub_fft_8_group_89 sub_fft_9_group_89 sub_fft_0_group_90 sub_fft_1_group_90 sub_fft_2_group_90 sub_fft_3_group_90 sub_fft_4_group_90 sub_fft_5_group_90 sub_fft_6_group_90 sub_fft_7_group_90 sub_fft_8_group_90 sub_fft_9_group_90 sub_fft_0_group_91 sub_fft_1_group_91 sub_fft_2_group_91 sub_fft_3_group_91 sub_fft_4_group_91 sub_fft_5_group_91 sub_fft_6_group_91 sub_fft_7_group_91 sub_fft_8_group_91 sub_fft_9_group_91 sub_fft_0_group_92 sub_fft_1_group_92 sub_fft_2_group_92 sub_fft_3_group_92 sub_fft_4_group_92 sub_fft_5_group_92 sub_fft_6_group_92 sub_fft_7_group_92 sub_fft_8_group_92 sub_fft_9_group_92 sub_fft_0_group_93 sub_fft_1_group_93 sub_fft_2_group_93 sub_fft_3_group_93 sub_fft_4_group_93 sub_fft_5_group_93 sub_fft_6_group_93 sub_fft_7_group_93 sub_fft_8_group_93 sub_fft_9_group_93 sub_fft_0_group_94 sub_fft_1_group_94 sub_fft_2_group_94 sub_fft_3_group_94 sub_fft_4_group_94 sub_fft_5_group_94 sub_fft_6_group_94 sub_fft_7_group_94 sub_fft_8_group_94 sub_fft_9_group_94 sub_fft_0_group_95 sub_fft_1_group_95 sub_fft_2_group_95 sub_fft_3_group_95 sub_fft_4_group_95 sub_fft_5_group_95 sub_fft_6_group_95 sub_fft_7_group_95 sub_fft_8_group_95 sub_fft_9_group_95 sub_fft_0_group_96 sub_fft_1_group_96 sub_fft_2_group_96 sub_fft_3_group_96 sub_fft_4_group_96 sub_fft_5_group_96 sub_fft_6_group_96 sub_fft_7_group_96 sub_fft_8_group_96 sub_fft_9_group_96 sub_fft_0_group_97 sub_fft_1_group_97 sub_fft_2_group_97 sub_fft_3_group_97 sub_fft_4_group_97 sub_fft_5_group_97 sub_fft_6_group_97 sub_fft_7_group_97 sub_fft_8_group_97 sub_fft_9_group_97 sub_fft_0_group_98 sub_fft_1_group_98 sub_fft_2_group_98 sub_fft_3_group_98 sub_fft_4_group_98 sub_fft_5_group_98 sub_fft_6_group_98 sub_fft_7_group_98 sub_fft_8_group_98 sub_fft_9_group_98 sub_fft_0_group_99 sub_fft_1_group_99 sub_fft_2_group_99 sub_fft_3_group_99 sub_fft_4_group_99 sub_fft_5_group_99 sub_fft_6_group_99 sub_fft_7_group_99 sub_fft_8_group_99 sub_fft_9_group_99
feature_infos=[3.5549666666666666:5.3921333333333337] [2.8373168798943365:153.70545691422839] [-5515:-20] [-2:3] [4:5] [6:11] [30:5444] [7420.1064031480128:43934.052635581276] [936.48728712184209:34677.959269074287] [787.41133150683822:49916.833136103356] [792.57705781284528:82113.99758195295] [946.71817148765763:151747.47323211757] [1310.1275201485173:157006.53428241223] [1609.0605480748536:111537.26068755746] [1117.0289712448621:12878.215302926958] [862.62145195990331:1745.1895992550089] [591.05007893961408:860.35900522845577] [0.57600000000000007:5.6066666666666665] [3.0626666666666669:8.4306666666666672] [2.547333333333333:7.7833333333333323] [-6.5499999999999998:6.9000000000000004] [1.982:18.707999999999998] [0.034000000000000002:6.2666666666666675] [3.3153333333333328:6.9920000000000009] [2.6539999999999999:7.2873333333333337] [0.89066666666666672:13.196666666666667] [2.6000000000000001:6.5086666666666675] [-0.10000000000000001:6.2053333333333329] [3.3813333333333331:9.8726666666666674] [0.32866666666666666:8.5426666666666673] [1.8093333333333328:6.3653333333333322] [3.4013333333333331:8.4746666666666659] [3.289333333333333:5.7279999999999998] [-15.197333333333333:5.9006666666666678] [2.9386666666666668:37.324666666666666] [-5.5073333333333325:6.7233333333333336] [2.3860000000000001:19.370000000000001] [1.6526666666666667:8.9106666666666658] [-0.77800000000000002:6.753333333333333] [3.3239999999999998:8.5186666666666664] [2.2959999999999998:6.9986666666666677] [2.4046666666666665:5.6286666666666676] [2.1086666666666667:14.81] [-6.3279999999999994:7.0766666666666671] [0.86733333333333329:7.6906666666666679] [3.1866666666666665:7.0746666666666664] [2.6693333333333333:5.6600000000000001] [2.8560000000000003:5.9620000000000006] [1.8219999999999998:6.5206666666666671] [3.1066666666666665:5.8246666666666664] [2.0059999999999998:6.6333333333333337] [3.2439999999999998:5.5813333333333324] [1.4533333333333334:5.7846666666666664] [3.2093333333333334:6.1893333333333329] [1.8886666666666667:6.3873333333333324] [3.1200000000000001:11.077333333333335] [2.5606666666666662:8.4546666666666663] [3.1560000000000001:5.7573333333333325] [-6.2033333333333323:6.1406666666666663] [3.1146666666666665:14.492666666666667] [2.8273333333333333:10.142666666666667] [0.80400000000000005:6.3873333333333324] [1.5740000000000001:7.6739999999999995] [2.7766666666666668:7.9866666666666664] [2.262:7.0786666666666678] [2.6613333333333333:5.8093333333333321] [2.8326666666666669:6.1166666666666663] [2.8719999999999999:7.6526666666666676] [2.4813333333333332:23.218666666666671] [-2.8073333333333328:5.7233333333333336] [-0.37533333333333335:6.9720000000000004] [2.2759999999999998:8.0366666666666671] [0.050000000000000003:8.3979999999999997] [2.9093333333333331:5.9913333333333325] [2.9713333333333334:6.9593333333333325] [2.6280000000000001:7.011333333333333] [1.2166666666666666:6.8260000000000005] [0.51066666666666671:5.6553333333333322] [1.8553333333333333:6.5246666666666675] [3.2446666666666668:5.6973333333333329] [1.3859999999999999:6.6493333333333338] [3.2433333333333332:5.6893333333333329] [2.988:6.6220000000000008] [2.3900000000000001:5.6513333333333335] [3.4226666666666667:5.9160000000000004] [3.071333333333333:5.8053333333333335] [3.1286666666666667:6.3300000000000001] [-5.4620000000000006:6.7993333333333323] [3.0800000000000001:28.951333333333331] [-5.46:5.7153333333333336] [2.9039999999999999:18.751999999999999] [1.3713333333333333:6.1973333333333329] [-1.7093333333333334:8.3420000000000005] [3.059333333333333:7.4306666666666663] [3.0293333333333332:7.8486666666666656] [2.6893333333333334:5.7320000000000002] [2.1640000000000001:5.7939999999999996] [3.3513333333333333:6.4359999999999999] [3.3766666666666665:5.8906666666666663] [2.7786666666666666:5.8079999999999998] [-1.8573333333333333:5.9533333333333323] [3.3139999999999996:33.084000000000003] [-2.3620000000000001:7.1239999999999997] [-1.9566666666666668:5.7266666666666675] [2.0866666666666664:10.592666666666666] [3.1406666666666667:13.708] [1.3253333333333333:6.5579999999999998] [2.2593333333333332:7.0499999999999998] [-0.31866666666666665:8.8360000000000003] [3.2686666666666668:8.0839999999999996] [2.8026666666666662:6.0360000000000005] [3.297333333333333:6.5939999999999994] [1.9066666666666667:6.3466666666666676] [2.3546666666666667:5.7240000000000002] [1.9446666666666668:6.8346666666666662] [2.4159999999999999:6.7920000000000007] [3.3046666666666669:8.6213333333333342] [2.4628438846179432:187.71982203273049] [2.4896553978412355:243.44703538597923] [2.5035280882963722:717.99704238914228] [2.520008730143608:1130.1305586081635] [2.4621597565281315:321.96379517372236] [2.4951846068421921:140.08712828331755] [2.5299285014051733:105.37079334742937] [2.5175059086325891:322.25966792565828] [2.4849465900810737:1174.745135758769] [2.4962838157727361:591.9747544658378] [2.4856566313328328:1194.4905287854829] [2.5196239578335677:424.47432170417824] [2.5084613256381343:200.88463184513526] [2.4773950476704805:127.99610058470098] [2.5378040376146718:145.25309163892749] [2.4636536553122337:745.19293700326716] [2.4828889087781056:1152.8883703086301] [2.4357386285615021:627.85351735753] [2.5009206304879008:961.71022211798402] [2.4543345782965744:904.78172308758167] [2.4341141213089323:181.41700105435424] [2.5101800732218398:98.156538495065803] [2.436893833460037:71.841241377544875] [2.4548085238749047:80.75715577788344] [2.4943294801520417:1060.2434471256536] [2.5072871572456328:277.56340697017123] [2.5108741284438949:347.71161823493264] [2.5058488027457329:70.841666032231501] [2.4917246147107743:73.79829687887262] [2.464024801462481:102.65683584101394] [2.487024102997172:113.16807113708744] [2.5089702181483853:57.978372611402825] [2.4910599261269399:104.03290555503206] [2.4944949165891059:102.11091812338188] [2.4953286134072377:708.96132145711749] [2.5105653192502726:250.71388744144195] [2.4909807082530544:69.894870576379844] [2.4946588277090447:265.0729892027644] [2.5108556310548802:287.09300354801786] [2.5146513785325304:402.88570543793458] [2.4739434108321881:98.697523506024297] [2.4839126840978576:490.27593929903963] [2.4881028917631203:1084.5062184912642] [2.4611202507981784:215.80890539137215] [2.4488069657601748:116.78904736318384] [2.5154826353781274:79.308444888717034] [2.490673804415183:45.860860097569997] [2.4970071863911181:69.548955033287314] [2.5195678641827097:77.188568814012569] [2.5007528644168122:230.77515791975722] [2.4545196407172361:1272.7075069640575] [2.504085195568766:707.9140909636485] [2.4976521419569666:223.61942270940798] [2.52474649992606:766.19696372147018] [2.4922222123148559:726.59593435569286] [2.5055295293055759:131.38846537399442] [2.4906448071845886:92.323821931287057] [2.4877901840790351:73.991849025566466] [2.5031957352330418:285.36351429477924] [2.5126392498725316:143.00864082052291] [2.5253685319616666:266.88655121522237] [2.5083394241343542:1215.9516628570759] [2.5181738533221956:330.49059557707369] [2.5124595298012045:191.54490659894881] [2.5090311543170074:128.03310261369475] [2.5068272111708589:465.16506498040252] [2.5105770916929302:202.04748097085167] [2.5003782824915821:83.697984906049754] [2.5108988209182961:201.70139830507432] [2.477355220570697:371.81112485597674] [2.4780246613426229:1192.1191396931208] [2.4777634179952597:484.32509842551917] [2.4932588224160681:992.06889981940719] [2.495031863523991:730.31257405944575] [2.5139182343284143:191.6089284059824] [2.4830679052781099:301.10392239151514] [2.4809384425163707:135.617250105664] [2.5100363875184493:69.264561183912789] [2.492190379744069:104.54365016053768] [2.5204144280036345:83.916595363094487] [2.4885090583185212:61.148831546935995] [2.4967081438477257:72.358889494580339] [2.4523824244100991:78.583460999542808] [2.5056625648496422:965.93710888074327] [2.4882774943500352:717.77255794854671] [2.5134397855440174:207.77819332804557] [2.4458603576019806:167.58511898402222] [2.492781044001525:1021.0593644946518] [2.4545195501813017:359.13697860658493] [2.5023548020925324:194.43502640099479] [2.4943281437871985:228.50806110264224] [2.5133933679832574:486.33909958473305] [2.4809618206565687:942.89013478630329] [2.5263767643713706:619.07349134403159] [2.5218511719237782:168.6771981152165] [2.4830880415769041:404.29575758293032] [2.4831767288428481:109.18297030214922] [2.4725101055854601:228.24410676193926] [2.5239637257474379:445.96587096921809] [2.536000701016377:577.2857195054188] [-845:-2] [-979:-2] [-2175:-2] [-4203:-2] [-1250:-2] [-500:-2] [-749:-2] [-1519:-2] [-3704:-2] [-3032:-2] [-3301:-2] [-1877:-2] [-734:-2] [-639:-2] [-887:-2] [-3008:-2] [-4299:-2] [-2033:-2] [-4392:-2] [-4087:-2] [-622:-2] [-372:-2] [-401:-2] [-435:-2] [-4482:-2] [-1070:-2] [-1699:-2] [-334:-2] [-342:-2] [-482:-2] [-522:-2] [-251:-2] [-574:-2] [-785:-2] [-2517:-2] [-1138:-2] [-272:-2] [-1869:-2] [-1300:-2] [-1706:-2] [-495:-2] [-2832:-2] [-2860:-2] [-604:-2] [-396:-2] [-364:-2] [-254:-2] [-411:-2] [-391:-2] [-1195:-2] [-3389:-2] [-3905:-2] [-658:-2] [-2476:-2] [-2536:-2] [-494:-2] [-566:-2] [-314:-2] [-1164:-2] [-553:-2] [-1244:-2] [-5008:-2] [-1146:-2] [-855:-2] [-530:-2] [-1577:-2] [-602:-1] [-458:-2] [-917:-2] [-1252:-2] [-4079:-2] [-2135:-2] [-5515:-2] [-2844:-2] [-759:-2] [-1305:-2] [-841:-2] [-291:-2] [-424:-2] [-471:-2] [-335:-2] [-327:-2] [-519:-2] [-2941:-2] [-2368:-2] [-611:-2] [-888:-2] [-3112:-2] [-1566:-2] [-1104:-2] [-972:-2] [-2107:-2] [-2699:-2] [-1988:-2] [-694:-2] [-1621:-2] [-428:-2] [-1442:-2] [-1540:-2] [-1730:-2] [-98:4] [-52.25:4] [-428.5:4] [-684:4] [-182:4] [-92.25:4] [-44.25:4] [-148.25:4] [-658.5:4] [-265:4] [-772.25:4] [-222:4] [-112.25:4] [-50:4] [-26:4] [-262:4] [-710.25:4] [-248:4] [-232.5:4] [-283.75:4] [-112.25:4] [-64:4] [-30.25:4] [-27:4] [-582:4] [-146:4] [-121.5:4] [-38:4] [-25:4] [-38:4] [-20:4] [-26:4] [-20:4] [-19:4] [-440.25:4] [-95.25:4] [-34:4] [-36.25:4] [-88:4] [-144:4] [-29:4] [-161:4] [-702.25:4] [-130.25:4] [-84:4] [-29:4] [-25:4] [-22:4] [-23:4] [-93.25:4] [-895.75:4] [-351:4] [-161:4] [-460.25:4] [-362:4] [-81:4] [-43:4] [-31.25:4] [-125.25:4] [-67:4] [-78.25:4] [-624.75:4] [-145.5:4] [-77:4] [-49:4] [-258:4] [-116:4] [-29.25:4] [-80:4] [-193.25:4] [-748.5:4] [-193.25:4] [-472.25:4] [-327.25:4] [-120:4] [-151:4] [-51:4] [-24:4] [-21:4] [-25:4] [-23:4] [-24:4] [-35:4] [-645.75:4] [-398.25:4] [-127:4] [-81:4] [-668.25:4] [-187.75:4] [-98:4] [-103:4] [-187.25:4] [-608.75:4] [-399.25:4] [-102.5:4] [-120:4] [-49.25:4] [-27:4] [-207.25:4] [-352.25:4] [0:6] [3:6] [1.5:13] [-41:9] [0:10] [3:8] [3:7] [-0.5:8] [0.5:6] [-1:6] [-1:6] [3:15] [0:11] [1:6.5] [3:8] [3:9] [3:31] [2:14.5] [-14.5:6] [-5.5:7] [-1:9] [-1:7] [3:13] [2:7] [2:6] [3:10] [-0.5:7] [1:9] [3:6] [2:6] [3:6] [0:7] [3:6] [1:6] [3:51.5] [2:10] [3:6] [3:6] [3:13] [0.5:9] [2:6] [-9:6] [-19.5:7] [3:11] [1:7] [2:7.5] [3:6] [2:7] [2:6] [3:15] [-27:6] [2:54] [-2.5:6] [-1:13] [2:31.5] [1:9] [3:6] [3:7] [1:7] [3:9] [3:6] [-34.5:7] [-4:7.5] [1:6] [2:6] [-14:6] [-1.5:6] [2:6] [3:6] [1.5:27] [-1:28.5] [3:11] [-11:37] [-1:7] [3:7.5] [-1.5:8] [2:10] [2:7] [2:6] [1:6] [3:7] [3:6] [3:6] [3:13] [3:46.5] [2:7] [1:6] [-23:12] [2:13] [0:7] [0:10] [-1:6] [3:21.5] [2.5:35.5] [3:8] [1:6] [3:6] [3:8] [2:7] [3:18.5] [5:107] [5:68] [5:432.5] [5:679.5] [5:202.25] [5:93] [5:57] [5:159.25] [5:701] [5:243.25] [5:792.25] [5:241] [5:108.25] [5:56] [5:43] [5:226] [5:745.5] [5:288.5] [5:258.75] [5:361] [5:122.25] [5:59] [5:48] [5:36] [5:612.5] [5:159] [5:131.5] [5:56] [5:36.25] [5:46] [5:28.25] [5:31] [5:28] [5:27] [5:466] [5:114.25] [5:43] [5:41.25] [5:119] [5:133] [5:41] [5:171] [5:651] [5:141] [5:84] [5:45] [5:38] [5:28.25] [5:32] [5:113] [5:834] [5:406] [5:147] [5:493] [5:351.25] [5:82.5] [5:58] [5:41] [5:111.25] [5:78] [5:83] [5:594] [5:162.25] [5:79] [5:63] [5:244.25] [5:116.25] [5:40.25] [5:92] [5:217] [5:682.25] [5:240.25] [5:519.25] [5:428] [5:123.25] [5:151] [5:68] [5:40] [5:29] [5:37] [5:34] [5:32] [5:43] [5:655.75] [5:432] [5:119] [5:79] [5:601.25] [5:212] [5:101] [5:109] [5:183] [5:615] [5:416] [5:104.25] [5:120] [5:56] [5:39] [5:173.25] [5:372.25] [11:1233] [11:1224] [11:3243] [11:3512] [11:1239] [11:453] [11:516] [11:1861] [11:5444] [11:3671] [11:3914] [11:1779] [11:697] [11:489] [11:642] [11:2778] [11:3382] [11:2757] [11:4198] [11:4317] [11:542] [11:332] [11:285] [11:459] [11:3449] [11:1398] [11:1456] [11:432] [11:358] [11:518] [11:565] [11:356] [11:523] [11:665] [11:2033] [11:962] [11:278] [11:1597] [11:1151] [11:1940] [11:476] [11:3678] [11:3589] [11:946] [11:532] [11:387] [11:276] [11:420] [11:469] [11:1101] [11:4281] [11:3109] [11:780] [11:2684] [11:3747] [11:421] [11:452] [11:382] [11:1152] [11:638] [11:1551] [11:4886] [11:1346] [11:739] [11:625] [11:1668] [11:630] [11:387] [11:1091] [11:1107] [11:5115] [11:2614] [11:3479] [11:2733] [11:563] [11:1037] [11:536] [11:436] [11:481] [11:452] [11:309] [11:417] [11:640] [11:2838] [11:2811] [11:766] [11:655] [11:4610] [11:2042] [11:991] [11:941] [11:2043] [11:2951] [11:2190] [11:706] [11:2248] [11:415] [11:1230] [11:2259] [11:2488] [864:8410] [10.030817787235396:2987.6139755151648] [24.029073778876949:3236.3490466432427] [33.419934869027358:3860.0157292244016] [63.09550493923976:15756.714133835403] [76.956778047406999:20199.600570105096] [102.53987966274009:13460.388665144354] [95.511741246138953:1224.8109923264649] [78.711585537189208:463.21598113036697] [51.238748385668281:322.52355872848921] [4594:12646] [15.210658655035536:3782.6966261537095] [23.072260503849321:2905.6701871617202] [33.034405173029363:7613.6077137741813] [59.217728982572382:24122.524189753785] [83.774157364824319:29891.72464383869] [108.15904450033304:12351.847508809196] [96.709219869684048:1573.0133760421854] [77.421313973395826:572.45354378089428] [51.632144039438813:390.15021484979758] [3821:11675] [13.953766803418606:11762.455462032862] [20.594815416490512:5867.887954515204] [36.275326219183604:11851.866270518831] [59.60977994539418:41280.930335860241] [80.223300980344291:78424.354196403321] [93.0876639738986:51123.219053775887] [94.769535754091621:7060.703230887173] [78.58822837941878:924.78655970224759] [51.947645438062679:594.6749424945757] [4756:10350] [12.957108960990816:29279.550472108833] [29.45593988267078:28001.355021169733] [39.071016432485401:57701.942717850485] [57.779648740337343:84904.950957716879] [83.121434237349874:108382.25942710043] [106.14497942000895:80328.105997139399] [95.029488742994658:8527.2262357834352] [76.522381258228705:431.19629247161913] [53.373508285076475:171.73725311990685] [2973:28062] [10.282080363665596:18666.023781376811] [25.17080153971283:13091.350047058497] [32.273027544194484:23093.60535789128] [58.433412535298899:29862.906544723886] [88.186696234419713:29809.921708753915] [104.3274430893556:22502.88227507647] [91.082586222339216:2028.3257045150967] [76.405203671795448:180.90285729916661] [53.653272620133478:113.25332224664749] [51:9400] [8.7952936153671093:2471.9513563071991] [20.835247554423173:5640.79800959968] [39.164487384228728:5566.3050609500306] [55.263548673156052:15082.706329872675] [86.192254691319249:13795.920520624852] [110.71011333385755:9366.5120603969353] [97.909441619066939:1159.8217363290084] [76.182873647151254:126.236127526197] [52.780138637880604:86.292331645935647] [4973:10488] [7.8895527223782587:5499.5122034318165] [19.555348495578706:2577.3208797017787] [38.722594438425105:3302.4913922378087] [55.497449025265169:8819.9166852522139] [89.435793927916052:5953.4060889079956] [104.78888198097454:8529.0698031889988] [97.114036908329709:769.53410854252627] [78.13697992558582:169.31689470753349] [52.478560928985097:116.91863658305643] [3981:10931] [18.851875069756886:4757.7954955059058] [23.082639603772961:5031.3927301093936] [30.021164760493264:7296.7136038381113] [60.164667688197241:23187.155502027166] [88.892159175811017:35983.833880207683] [106.1010942357582:20970.315895169198] [96.978667302016603:1859.420285483516] [78.001559343235201:244.51027416674557] [52.172882801516103:146.6857765257256] [1336:19795] [17.454729369278258:17108.37977707676] [29.620917881499146:29504.06448180529] [37.479539400536169:30923.644538556007] [61.628324618512522:80151.072029249466] [88.560446004623245:137077.07896896638] [102.75778582161794:74895.57160395266] [94.890450281214015:9762.4676157039485] [78.114159036310838:1614.8054738805336] [52.638124214937278:671.23521577228405] [3900:9763] [9.2093202890749311:9379.2910735380447] [25.863354688136674:15655.860611830838] [38.457735607215881:10999.286074336955] [59.106094839526548:26883.494470278285] [87.839651758508325:59219.070326509602] [107.12171482035394:48772.387065035393] [91.06314017365284:3991.7263390121611] [78.446637019756466:733.98505213220255] [52.369136270484859:515.04403128255376] [150:9308] [7.8163547480544873:26484.925370780562] [27.877600388764328:16312.740341881508] [37.428141213959925:32920.165078946004] [58.960123751088823:113693.49172316672] [92.671184474515286:118144.31218746185] [101.41329122039741:87055.81283808389] [93.231054339026926:8918.5025396960773] [77.421347174647252:466.83095112542082] [53.016657181203755:259.51967826905292] [5072:14809] [11.938459871053038:13390.252445869974] [26.120080925559311:19319.34382549013] [36.127393969759993:19380.869589242771] [60.369840174421682:39761.85009765935] [87.59490395359586:41322.868938033978] [104.23226656075032:29794.562435269487] [94.894625630137995:3076.3535316337202] [78.13607785768545:375.32575933958657] [52.104593171145353:289.82445707452467] [493:12814] [17.312959106462852:8895.0357175632926] [29.62634521599249:5803.380500429198] [41.584837868773242:5775.9277899087465] [62.702140763966028:17127.332912469301] [93.202173768489473:22419.357938044421] [96.848550848272126:11081.356368428176] [97.598194732065181:1271.3296477726958] [77.873410089798881:218.91407466529691] [51.527667491918066:154.84182166683902] [2714:9548] [13.779773012302449:3163.5249924377599] [21.153011155847818:4751.1126664511639] [30.554066990123072:3578.2493132378499] [59.81092355760606:9275.1351537664359] [86.78036790756407:14254.463530812362] [102.84859870770958:7932.4810910444385] [92.761448348993284:939.15299759453967] [77.012596572607293:244.04537558197705] [52.836181086831168:105.79444061147288] [5102:12712] [14.171761340716778:2666.903631449261] [25.274238912344391:2966.1678127443911] [38.055726977143152:3047.9071235842011] [57.864318667794542:13949.746307356616] [79.008429745474842:16565.057877380765] [102.50839006984845:8937.4067534731439] [94.991256993991755:634.67937907253167] [78.420950403225788:129.95685686339056] [53.349246727426149:87.263517863867804] [4934:8592] [9.312802288715627:3105.6069940519887] [20.970541575571339:2922.759810532561] [37.064009499444275:4776.1084341016194] [59.382277090590804:46307.652435073025] [91.730908070267205:66876.4248077425] [104.8999427464941:56720.384658022587] [96.459545197420965:9049.3958811939974] [77.865730024317287:728.09476377080932] [52.926727080528423:482.80593546024863] [3222:22796] [17.805167636218034:15381.191770570784] [20.864365787392021:27953.637817047747] [37.215806207522384:51152.441637750846] [58.721631408352039:103613.07149100016] [88.086218090625493:99062.287303518809] [103.45714401183108:79483.74807489317] [93.757704963474794:7516.0366652089651] [77.310989884908096:1434.35959626051] [52.187815128513563:1037.6445789685451] [4408:55987] [7.9017578385630083:17076.292706662694] [11.780094181000619:37706.834634571154] [36.362245299275457:47143.737398662968] [56.131996714222495:54400.33370963778] [85.881149076229462:58047.602281688152] [107.11482775051226:44121.23219733224] [94.335242845481801:3726.5879397364174] [77.444336410633625:411.9616657451142] [52.550725146400055:287.50877041011813] [4890:10085] [6.5638945567854856:7735.3720464694352] [19.363142701781388:22788.028332915343] [37.822692822245273:23678.225014523654] [58.192315653823798:56229.033962970287] [92.872568009082315:110029.58778609829] [103.87398773340661:59542.151135568674] [96.690487630618691:8393.7684480911721] [77.498740398314069:1512.3817283322512] [50.922455251035565:1032.8723528719768] [3579:29055] [8.3066277708987037:24927.209958462201] [22.374515937337343:33660.513071801914] [31.218447266066093:82191.106504695679] [61.283024700549262:65155.734116675936] [91.450994648073362:103030.08876372733] [107.90307360979338:57211.408925126168] [94.0825548410632:6877.3199447451943] [78.075491693859803:1484.0138845189181] [52.500023214016593:1033.2622731186286] [2479:13366] [12.240476638014927:4665.0354145418796] [25.96263848793345:7034.5744976284877] [39.701037642482454:6585.5753783541231] [58.597066115006932:20564.75792336401] [79.951329188334796:17309.18630907988] [102.60459732793529:12407.771820785129] [91.544814009054505:1514.0953733375407] [78.361079696172339:398.45271688383536] [52.397589599687592:276.4119944342799] [1167:10130] [14.612517599276355:6158.0530912294553] [24.641318887347069:3970.6570608575771] [35.141384238706138:6140.9239486771976] [58.99102367638551:10389.872746381663] [93.590651992531505:8310.7748850050939] [102.7662624566987:6897.4662701598818] [94.605776123504484:967.82280326329976] [76.550209323247671:183.77360433262524] [52.335691255009309:125.3405797721294] [4986:12778] [11.186256374774775:3153.6116003759525] [25.273035845477533:3003.399172526143] [38.562746785384782:3979.9217503373657] [55.663204276585141:5271.3973044660024] [92.458819230039552:8162.7925151267227] [105.81982430043313:6253.7216750721109] [95.532641966940218:764.76458951727705] [78.585815873447558:216.72078302757069] [52.575245619418389:151.46616676666329] [3444:10498] [4.8650951808527436:1602.9934973021645] [24.173895251575871:1379.4372887324937] [37.924310427513426:3485.0317804426745] [58.809213982173006:5255.0562283730142] [78.536016879861009:8832.4493914072209] [104.62887476747791:5561.9152964331579] [96.018985411446479:695.06949421558477] [77.14690853750534:189.04120685350739] [51.992518835667461:127.56876659190449] [3607:8443] [13.554884596577695:24299.550554912741] [25.98238028195459:37882.184798045899] [30.876727812904711:61439.198077136709] [57.335497864194139:91063.413022791952] [83.322401226821967:123276.14283214373] [108.35168361023599:54072.341951662587] [98.448014222320865:6132.9760867173682] [77.49868642790392:184.17492840883111] [52.27557595539367:96.591262337706411] [3163:22215] [15.882397196950073:15712.085057996101] [21.631294554369564:12771.121469761018] [35.449979265014761:26012.310831905397] [53.827305521132821:37964.726200592144] [85.89485983690885:25778.001978211832] [110.60060613591642:18103.19258320488] [92.663278385951728:1239.5446337003955] [77.692025461937831:417.45700868895693] [52.717142873169095:295.61407764524381] [4721:10615] [16.012323688257155:3454.0910574722557] [18.002204113397497:5428.8175773976536] [33.410898972270573:6167.6104950905565] [58.561225526165295:29590.066057128704] [92.431357166140074:40327.048452141811] [102.22075495576887:20606.984400961344] [97.837443860390934:2554.6722346996971] [77.998518063047186:311.16200540769273] [52.314977763763586:217.67084123045842] [1301:11536] [20.151541773014106:4783.4805457216435] [21.902218464287387:2610.9059316628523] [35.102095388705521:4703.9899604396524] [57.818007514842279:6544.5474184330224] [90.890639876587997:6380.8452915383632] [102.83309484343469:5418.8126443428091] [94.833669286466844:831.66346650599974] [78.099588224242666:174.62781959071219] [52.318172842887925:126.70609284205057] [4780:10612] [12.986750766530605:1617.4534171051205] [28.381818319167987:2254.5044574064609] [33.424670879192703:2569.7935124356663] [51.534586477881597:3836.695318888922] [86.766768345274599:7148.7158042156943] [106.6444672116542:5914.8390265819271] [96.053052247947775:634.26792003483922] [78.064177497603552:187.83611788399108] [52.439068112231972:140.45495068765348] [4004:8490] [16.446346466400914:2415.2288563349421] [22.236632686337973:1281.7496648240408] [37.47455994714953:1521.0224919745524] [55.905927481724405:8525.8220474495738] [88.257828787250943:12905.433148541391] [104.85532556952832:4999.8840015584892] [97.52941575955677:774.97122332023821] [77.585138577021212:149.50461540105223] [52.861075834889924:104.27536642529093] [4284:8943] [11.649390684337229:1716.8358572398665] [18.882774357039199:1453.0586192581561] [34.02813775190436:1588.6063018769669] [59.478264866653177:5975.0415652755619] [76.282298358461077:10798.106569183114] [104.64366744742708:8357.5133722819919] [97.49889933061381:758.43115887834301] [77.507010532041278:147.84226292101772] [53.150528284532726:106.99394498887943] [2733:9781] [14.596444726670716:1516.0830182448767] [22.153993273721646:1172.2201974228728] [41.552896644351065:1645.078484133099] [61.131742029528944:5104.8430215639437] [85.323479400568829:5458.5995706760532] [104.83731713583872:4785.3550023586185] [96.035539539882336:534.44981932246037] [77.871335194050204:132.233694493012] [52.408081675305397:91.319123738106626] [4660:8737] [10.602014945888858:1130.9871093749616] [27.910184664479551:636.23169364887019] [32.090579111453259:951.88952097004733] [62.686905045025043:7533.6908720919664] [86.373299318768659:9087.1262514219088] [107.22813621176519:6573.7001269807079] [95.806457663204995:1217.5232021204131] [76.960693793139541:125.11096661477707] [52.134122570021184:84.979945101686411] [3009:9950] [17.167454030901936:1938.9141094050135] [20.873755499630011:1863.8518679941465] [34.300966393009872:2218.308228237101] [58.133421432995178:8117.0039368590906] [87.906590030791151:7669.6997481363869] [99.207212593251398:8573.2527538571485] [95.213624267956092:1095.8283744951618] [77.40126032174787:138.14971389414649] [53.50115348274597:88.438542243605113] [4866:8372] [7.0369887242917892:2803.9330800485186] [29.364626588846317:5534.9410131988552] [38.467617052527203:5438.7288695103434] [51.667327341064727:47962.921021418049] [81.966789265856221:79276.877661152641] [101.92820589741495:48321.036105757092] [97.271513103465637:3010.0483528551754] [77.394126465867373:471.21376022445219] [52.537474419283235:326.12597031694014] [2180:8677] [15.729962879314435:3087.3354217582832] [12.04688684942699:3544.9176734574762] [33.204773195572727:4397.7200257257828] [64.094154662798104:19650.314519252308] [88.647549186287932:23509.920497826308] [104.99041566258232:17881.472753549795] [97.679799668643952:1695.5970913183373] [77.678492520027561:430.15540672621125] [52.896171424071127:288.3647743489372] [4814:9284] [16.174730526037198:1679.0748049758286] [19.305343665814899:1683.7929465324532] [35.469099151576387:1799.8991562801998] [55.635788453004366:5702.5476035279362] [85.803478208489366:6999.2847042181993] [109.2225647555416:4975.6210264278743] [94.970058181655915:991.14205470534159] [76.407613138842152:164.1702069478479] [53.214833696692715:112.58590200477646] [2833:9581] [5.0057015742114874:2554.9359717366351] [25.797580573768109:3766.9457923663131] [42.05622184275871:6049.1277079806605] [54.78641213826937:18992.465282472142] [78.947420760078771:34203.027991930518] [103.40404585010454:15369.105231816353] [94.149880696480523:3239.222479681996] [77.569834939700826:685.64511276582925] [52.586433866908905:488.75590682737101] [4680:16616] [8.0835638262396294:6127.7144756363805] [21.242887684236624:5634.8592688802273] [34.406010559226488:4003.3165029401789] [62.145706334318419:20210.129113489747] [79.46036938618019:27043.782482289902] [109.6039517883853:21303.08043397425] [93.100861607131236:2443.1706804573241] [78.032178327502052:611.24611616089567] [52.777642599970321:420.2149381424498] [3841:12682] [11.923027023146055:4316.6141962386482] [22.147140316394974:5043.2766883261602] [36.845730195248585:4060.1020995258] [60.878664111302363:27983.933767973696] [85.752055712034192:35963.439051437519] [102.95985289206362:33506.294550513187] [98.192975273123494:3797.818822122349] [77.599134152435312:496.80608674578974] [53.428458965915354:325.38900233394145] [4734:8636] [11.867647632608707:1481.4849948757221] [23.985466407099825:1425.3874151870043] [40.031984863670857:2634.2017092144019] [53.188703833597899:5993.412379038662] [90.768867701222931:8099.4226002588321] [106.5022843580316:7975.7479299429406] [94.052342232447955:1148.0537193530142] [78.014572455735774:148.34219687127148] [52.730286164418828:80.819607495635992] [1435:9305] [14.45463218192501:17755.476689429532] [26.064742604516727:9305.5089657125536] [36.231404400431273:17058.590936389373] [53.119126806833172:51396.13687509462] [87.587198840512869:56630.308282112928] [102.04570353507812:30313.308573221031] [96.070666222708226:2591.0182995634977] [77.885732329584059:340.2371288394134] [52.813644714992854:173.83740396116193] [4672:21739] [10.226023888541263:37560.275431049617] [26.981204231601559:33776.034324776338] [36.56030632639532:41739.385417220554] [61.835976076817047:111837.22675412777] [87.061168286996121:101944.23508039373] [105.84598960369541:75036.117316715972] [94.929517215144628:4895.1226329553538] [78.605339639273851:403.4472767757282] [52.518847800634632:207.89308645183917] [4241:15214] [17.436755409635904:16175.676615158001] [24.95678151165767:10504.715406836833] [36.21169385065901:13272.602301540821] [59.090865374071633:23679.04533954836] [87.509799118740887:21367.887831138672] [103.72514149698132:13053.62313822165] [96.73128708530372:1350.8128150211992] [74.281977764923923:295.18485689258205] [52.05584784486777:215.00344640294134] [1206:9581] [12.239361854443915:9953.7325873587215] [22.881615352445579:4787.4504287741529] [40.773688282885153:7081.5571774739774] [60.567868744957231:11817.83028029364] [88.922958566868303:11354.556524323883] [104.39734085974609:8290.7707845606637] [95.88404924857187:728.30585066396816] [78.04867433498481:127.15690166493894] [52.424319752663116:91.089638880730149] [2361:11511] [12.296582120114307:5087.8632296095866] [16.447134242659189:3289.1781192023418] [41.203825233476174:4053.9062084100597] [64.752868041653741:7776.0640686661436] [87.691430156885588:5219.3974432377054] [101.87400905131807:6328.1220411167224] [93.346652900432488:812.62329791056072] [77.303886329575505:128.64338456821031] [52.052090056973597:76.145477569051863] [4165:11980] [10.743310269224763:5394.9171078242089] [15.809376298116806:2196.8011422426434] [36.167335327725112:3047.2616304545777] [50.906622606295684:5004.290029446779] [92.208189880245158:4595.9494983154491] [103.04838933729157:4037.2032896627729] [95.447104607057881:461.49002371000194] [77.518101944409224:109.93812661362776] [51.306582772447797:73.793583308016892] [3393:10618] [5.8355508765836444:1910.5177518446881] [22.582878869279259:2015.3986199713613] [40.670938814293201:1664.4130407996549] [57.858706451503451:4362.8898396679124] [87.562592161768833:5962.1208479964062] [102.77026811419323:5661.570486938359] [94.279862792652324:664.18050650942803] [78.224444103188361:161.19502938441875] [51.499475216207216:98.804087421643118] [3992:8714] [3.4612550048146029:1648.5888885325846] [26.863994692923651:1204.4175900992896] [27.015579063522829:1258.2008523352531] [51.915218293701237:4911.4688024659554] [84.923831053156505:7327.4752812958159] [110.17339761019331:7565.1298466459848] [93.882405446037922:793.45257066608974] [77.72434979567538:144.28127713192058] [52.739934286762001:102.86303923512224] [4249:9175] [11.183379010470134:3529.8927432724236] [24.569266161513017:3419.7899382886003] [34.415099199949424:4844.5017631204128] [53.830713135185526:21176.196364449657] [81.383565445573211:24761.346910698561] [105.9581651599317:15186.625338676535] [95.326990140968135:2278.1264733842809] [77.052207824622741:167.45729227555825] [52.276517563694803:106.1888355933732] [4308:11479] [13.460153936982094:10775.063305200429] [21.219497076902886:23488.368791727768] [39.229056997345438:28217.729598338839] [65.635417342779633:97744.96089333533] [83.77174009386016:118400.20670126949] [105.96029224737637:99864.478701108834] [95.564146040576233:11350.518467612656] [76.427769893304557:1155.3220372139729] [52.999455550371501:806.14416213959657] [3722:34828] [10.522167160113595:16894.280666535917] [24.510732040531696:35462.42766591088] [39.141222511087321:34949.740423008283] [56.857621424299786:82109.456122508724] [83.585533521343692:66935.61985941809] [106.74165967463944:46043.198578942247] [90.431307076559435:5609.9635548656852] [75.237119519956579:988.82416209892665] [52.701028455376864:698.63279271711872] [3651:8585] [18.182264008009177:3627.4619524932427] [26.053373895822311:8774.4928070520673] [34.269497385576855:7127.7636611696544] [55.117401040215647:20760.568456996047] [87.9697270366742:22461.632423822997] [105.68474331399551:16262.946618011767] [97.650425686131229:1815.3961278544518] [76.415228718012145:344.14707943737363] [52.552866582140467:252.26272860417546] [563:10458] [11.726680684513711:8074.4586780270411] [21.743547597238315:12731.223960926796] [38.148395026834208:14781.153847893867] [57.858908032447282:66291.502483420263] [86.91750169732228:90638.390338835903] [106.75808456951599:44669.892223059549] [96.845220449839559:3060.1113868357011] [78.155943920817307:245.84207310134047] [52.902291373675105:161.77100491277486] [3414:12055] [13.855068081600086:9872.6792731624882] [22.145566265768434:14574.915660465293] [38.445148683006565:18965.474356973631] [43.990930504009107:52805.078802168762] [88.325914409080909:72380.593380068021] [95.674571588029806:49908.490573650779] [95.450113362573418:5430.247769716053] [77.55951855016626:254.4386238408606] [52.540205976613493:162.67445576036042] [75:12597] [12.344058834417838:3308.1488787528674] [25.745654801143193:3945.1088455522377] [34.900008300230326:6758.3253213831449] [54.264426089251899:11996.533862394805] [88.124968332962709:14242.101168207402] [103.82774234825293:8195.6759042949416] [98.276627893285195:1103.6479238960317] [78.026434888442367:235.97839036144089] [53.058162083307245:163.64166575586478] [4364:8987] [16.702997029789255:2436.6628163510491] [24.863769480473913:3100.7307074903965] [38.396162744343094:1974.1194052793742] [61.704068935638105:6288.2219484883544] [89.373478059853284:7456.3047644637973] [105.11800106485315:7713.7714159659854] [97.202446085162194:589.69303354749354] [77.462978158728021:161.7875891342311] [52.342071815449046:106.96187615322279] [4457:10439] [11.817625276137464:1584.4884126827856] [23.132211731404961:1495.805734300513] [36.428953684873136:1677.0769453187472] [62.049510061122561:4996.1592013238387] [85.612460009067235:6802.4007442654092] [102.70123600143715:5680.7909197717509] [95.413206724176163:554.1540898509312] [77.791696925119311:179.01390320465256] [51.414341963868722:118.6468379203298] [3942:10517] [10.720312271507769:2144.4630119523968] [25.865363313723602:3006.9052807087128] [34.491020523973077:5481.6456453369738] [56.98692779192195:29188.40766287221] [87.684745185270273:30583.450958017362] [102.24894063241844:17821.066628920391] [96.419888449449061:1117.2009932795686] [77.568549317627827:180.13333555311593] [53.430126569551412:123.89567635620384] [1825:10239] [14.604124583993777:3247.0013166372137] [21.669431396987886:3320.2185803147827] [34.815662102512213:3630.2276291120038] [58.727130429035405:13652.267764421831] [89.376584519630455:14498.486243658137] [105.28512976367941:8367.8139443198834] [95.17589417769365:1040.0333849950939] [77.076451457852841:260.62670983939859] [51.868916309106474:115.17492024782068] [766:8483] [8.5390536783622686:4357.590416578756] [24.080141428588103:6507.1128056666103] [40.687246216333648:11090.98310176324] [57.689019818297908:19808.198691357091] [90.861942198906078:31378.2743696742] [105.50105961411137:19055.475513185709] [97.61286601415631:1508.6489785067431] [77.254404084905346:235.10833469826343] [51.540050240308332:165.98996297305314] [2783:9787] [8.4356795158457096:32353.185448081826] [20.561809155746566:40904.087189761114] [39.502772651383026:39597.718173635752] [54.115401776872645:146147.90435791007] [89.265256689838296:135187.71954677536] [99.372280369788399:72589.671353097045] [95.383316804090597:8994.7164217220343] [79.002652679037439:511.3589474110708] [53.496357341361218:274.15372570631536] [4867:8546] [6.2525103195108001:9952.0413065777193] [24.154340931560913:14054.203169924236] [35.455263575111523:7059.8308347493839] [58.832147950685119:28348.105000878801] [87.060706669010642:31302.975902295249] [106.88012448618628:26423.742584437601] [93.463632574269965:3681.2810786236378] [77.335647081766439:238.61518660671226] [52.329403411739342:166.38533740915432] [2079:9974] [15.316728678762553:5721.0857972380654] [22.286066206031279:4079.7505880775207] [40.912684374520211:7019.5671586498256] [58.409666952996176:13891.87791408154] [86.9829060576849:13193.621750212926] [104.39234738134128:15589.988033001817] [96.380763411321425:1827.7883101508664] [75.615652280914674:238.32902977147003] [52.860661510919542:158.35877862152026] [4865:8534] [7.6019263848117635:2759.2758680987999] [18.550353969980549:2248.6220856714399] [36.583567713252506:3538.0747217068706] [57.39112698841511:13933.037056797704] [87.202322967407383:12340.764114383384] [103.02680709113899:8781.322999899885] [96.726463724058718:1407.0303786159295] [77.641042068990643:236.11291388435669] [52.859439656788091:162.37061717362309] [4482:9933] [6.1937213484574558:5908.8189141805942] [26.756240134336405:6354.3809067060865] [37.828791106832:3850.2488593793269] [56.83810082265974:33749.95894130833] [90.538399536392902:44880.789427489675] [103.14691102726914:35754.747928671291] [95.801114182406081:1901.5540505272868] [75.154744160126739:180.92887015567436] [52.753346965241505:115.64352355705209] [3585:8477] [14.320107406755884:3637.0234545713361] [25.908377818290209:5094.2890432358945] [36.16155574570918:5420.2406383440384] [60.731168088275709:20532.93832346984] [86.742904676590811:20560.031777895725] [102.99169612014134:13158.408185358359] [93.663043476643423:936.66986368629671] [76.852917132024373:175.93780189022209] [51.7573466547991:118.28429461214778] [5134:8874] [12.547585707076877:1772.782567297435] [20.912295229046965:1113.1115116642745] [42.997794537042139:1421.6175200924406] [53.085056737069905:4736.1870642843514] [84.737525036747954:8773.5375696058727] [105.26031817673159:6153.7785382072889] [93.069245809467205:535.8662269491083] [77.935165868920052:146.98210946203577] [52.554998076660425:98.421449798419729] [4607:8708] [17.50713830924429:2094.5013650777273] [14.366640119311954:1967.4213058741987] [40.293055159396133:4278.1085679046791] [62.851078638414748:16100.52955448098] [85.883879801732533:20769.671500306729] [100.55528882272483:15062.944594407243] [92.354181680821654:1675.6369027511373] [77.613460076963094:452.96133359640845] [52.390648356479069:314.29525134936694] [4693:9495] [15.845312603602054:2005.5491236105381] [19.403686775340468:1907.6555420002194] [33.921252730711124:4262.5411798241475] [54.860884060978975:24836.20415877784] [85.957813272721879:31927.628604482928] [105.19101489658807:31147.945879039649] [96.012231596105636:3913.5051501648177] [77.359304621628468:464.18777319339461] [51.450744751441796:321.42476619345933] [4198:10199] [13.416746625571037:21987.647559302543] [23.3021382403304:22880.936307743534] [36.852272162713227:30595.396459833551] [60.475205688066652:89017.670737687266] [87.063095336110464:116438.84076981078] [102.23448953464096:88039.940619348257] [92.969233558281019:9944.3020091191192] [77.451597089672447:422.83686958595842] [52.632031416145026:244.98068247036616] [4620:43427] [8.7348610837000518:22311.569247612748] [14.320741359767624:8773.8423654860817] [31.467219632177311:28169.173248482955] [59.549099681662256:38787.411773823282] [88.74471399517185:55784.951035306585] [100.51035220293699:31466.569765346463] [92.956441756972964:3983.6380186311089] [76.720076796285412:823.27508774527018] [52.446260976268604:408.54787212247874] [2555:8573] [9.280804051281633:11677.393939727106] [11.528841986920641:8435.4688127733407] [29.592943235152998:32479.456122804688] [56.514556109628465:70503.226759536978] [92.808036472850873:108012.4015241048] [103.15515130092449:69143.392241678099] [96.747262858692793:7691.6003729492932] [78.473322823305509:357.74578914322649] [53.19993852007449:231.53766226073776] [4356:28128] [11.658042869178562:32109.069967895357] [22.222936312227958:33767.625840932487] [32.08606527226037:33793.214208760735] [59.963085903552802:87012.323710290337] [92.012810238188209:79800.66668153237] [105.11836217006285:39236.255020365548] [95.867024934556241:4528.4120118176124] [74.100941153934599:533.23052858955259] [52.184110296236923:383.72336970823716] [2057:9296] [8.8119313587771124:7915.3793404084117] [12.381406781958036:9029.0847545107317] [32.710872497093114:8280.3242111985128] [55.907841703065969:19306.882283486408] [85.680854775317769:19617.96635980565] [107.18087908031626:12789.248481311572] [95.75116899408836:1359.8550925426516] [76.757791487714456:125.95920982014783] [52.545465052836029:82.261796780621822] [2564:12513] [13.347594804751804:5271.3525973294218] [18.363896213488733:6001.9542724301027] [37.04103306247255:4374.1340378233508] [63.008095625687744:26137.760576487373] [84.040282931167013:36924.78826471373] [103.58610897907623:16586.049799964738] [93.44367108971052:1409.9747352072559] [78.641755124968967:149.74025179899198] [52.824596300605059:111.64383853748836] [4589:11146] [13.733101541496456:3451.6948123990883] [25.807773906449953:3836.2045993293627] [41.555058550291044:3090.0248038478194] [62.915261904897534:12315.854268270547] [91.416696766366115:14105.473111692405] [98.994106547509944:10347.027816221074] [95.474225018132302:877.27565380959732] [78.127687128047626:183.76829772023768] [53.325326986329173:125.65291721134831] [4544:11773] [9.7817511493403835:3026.9686778877485] [20.876493822516416:2129.8589237525366] [41.956736262092612:1393.2245861758404] [55.61279601171622:4905.0918525842153] [92.137728329948317:7754.5067726033922] [101.66887563737393:4587.0119310982909] [92.496156552628364:614.99876223864794] [78.126468905551235:180.75896316730686] [52.782416981161042:124.13948868355014] [4034:8598] [9.7276000373784157:1421.1724754977051] [25.96845710863667:2001.9359932827927] [40.063971502198854:1143.8001024582045] [62.957714863786279:4702.0386331107002] [83.537510727715187:12444.331458662793] [107.22554793847307:5796.384898264263] [95.360679814551716:882.94080795138382] [77.801246001813951:147.27262213521715] [52.903965150570365:101.68664117461859] [3246:8691] [11.546552747989374:989.20996659643492] [21.701618405578422:1081.4537524923905] [32.149511852275538:967.02547850878329] [51.260866586145383:5474.5096721372383] [88.606709473810895:7039.0242779614518] [105.99806739405425:6402.7174108258214] [95.624097997997836:887.56915260529217] [76.930570402022411:126.76078522536324] [52.724881079582474:79.38353006172153] [5027:9654] [19.02985728394458:1048.9291008965074] [24.201549187757244:1020.7262530725793] [34.579801131291276:1167.6716025264275] [59.201219937454894:3325.2203777456371] [89.608297135140234:5934.4818143318726] [108.61067738255188:5572.7739762588708] [96.950667530052755:615.32668452118651] [76.925213510201985:146.88804234157448] [52.782755202755155:106.1390923871314] [5065:8836] [16.762523058442177:814.99747277212191] [27.832338117338558:961.39350975487594] [37.158301959100498:966.74981727718477] [59.906054192695173:3867.0351165966463] [84.705644093965503:6935.7078123583242] [103.5241625202012:5667.8490433395964] [95.571790401454791:800.33675611758929] [77.4868491282012:114.57632791769991] [53.546143900231506:77.440350091391309] [4168:8712] [12.168181697917845:2053.2449652329265] [20.827028104375881:1162.7831129341198] [38.607598633469436:2862.8577155377161] [64.270851440507812:5646.985335206582] [91.851677356304151:10178.561374928058] [100.50310398053959:5165.2959755146285] [92.851134205679699:798.58148955546199] [77.045492559112546:281.45232955017161] [52.711570967549143:205.60462944262952] [2786:8930] [14.162542995419864:11490.125228804322] [24.165858405844606:15800.567884751359] [34.600216097669332:26311.440272002423] [61.368788899087171:95727.296984049361] [84.774557232782598:112543.80731380847] [106.39112322697002:63869.90654916918] [96.725457880175156:6461.5832253460494] [77.211187663932591:1833.2255204292767] [53.645120958491141:1327.2870705326402] [4971:49626] [15.886091364045065:23014.621584823388] [18.067493969598019:41601.443003161163] [40.04257737350963:40747.655341223399] [61.600873407709656:73904.441120182149] [87.968588838840958:79825.285929625737] [103.1728076917418:39221.291698715024] [95.516570286009198:3956.9077430615471] [77.94071715857956:1346.4204246269119] [52.858806518685547:987.87091533509511] [3543:10686] [9.3582516987946676:10268.714098252156] [25.739996819467638:14118.468103212916] [34.600874507315588:11769.600889498744] [62.11924655034808:16927.570701772096] [91.384847163396302:21348.108517115808] [96.41388573114159:13295.784327602558] [90.428756709476858:1032.8113289293722] [78.526528715604584:240.72192412745997] [52.724479546406144:166.31468522069687] [2542:8590] [10.43959681284692:10106.504893057645] [18.221023142720639:5949.7279157590128] [36.314771591385949:3910.7162111014313] [57.009211427113648:13652.118980663665] [84.537371116848121:16955.797843939632] [107.13082286501349:11277.868443364099] [97.656449843211902:1648.2829458360368] [77.489350497937991:684.8509348173892] [52.583288625897296:486.75522142901377] [3130:15889] [12.323308155628615:7649.7886274448338] [20.94499902893752:16898.951708477493] [37.658028736194503:33687.693775094594] [57.6217680175006:117244.32543042381] [82.30657310389357:118530.46749188227] [98.534036086977991:53335.506392357318] [97.415550147377999:5992.675916056085] [78.482256201111881:553.88998943330432] [52.111285373092393:371.37040258840148] [4711:20562] [12.82108019278135:10889.2288373066] [25.879706751587559:14591.368316676117] [42.616246619536369:12966.388860448433] [58.94229016055462:28817.702063363555] [85.454051586810806:41322.570196174347] [104.29824927134294:19710.054416244573] [95.97188701998509:2206.2533838620943] [77.933138624661979:366.40777243486201] [52.198383929895499:221.4897449576525] [1988:9837] [16.570915825082107:3508.7924793601628] [19.983351587489334:4830.6931123810818] [38.115015784901651:6932.7649247728714] [55.74861356983925:19598.076436118576] [88.761538621102616:18102.926093035814] [106.40617019928348:15142.503229766238] [96.113061551089885:1646.8044467525058] [77.959209914935315:567.2337591540404] [53.075231018876572:392.48397199902649] [3389:10575] [19.794216634367746:5171.1711948108714] [29.3985090072131:4758.173969004004] [33.945153762832604:5409.2087412667079] [47.639102789054014:19840.317977310202] [91.85137019259632:25768.458336507723] [104.77185170219344:15907.06458080544] [94.499127963284096:2659.8655406206599] [77.650337708889069:237.07642070088704] [51.693614128988507:117.10274335830276] [478:13254] [14.927786941487328:3730.6115555707538] [23.860648170588945:7608.8619094050227] [35.999142832642285:9111.0014890353959] [58.610024206126674:29718.231898721657] [83.874628144109664:43882.780086702034] [104.73520611238241:38870.086383071663] [92.797145107556005:3570.6614590968829] [78.481274421196744:792.5262965830367] [51.850714787634367:540.44568440045521] [4903:12126] [16.762433450437538:4366.1066342209497] [19.984220314195841:6206.7251588833487] [37.926182294319261:14957.162043506743] [57.408399148670384:57790.672833014607] [85.203101253206256:89481.26267810518] [105.81023054435757:74081.781036964079] [95.80779191760395:8741.6240622900132] [76.938379482415627:1060.9372311363209] [52.403917735347605:716.77961390468749] [4204:9054] [16.269999013549274:18205.469836107957] [19.595186948345663:17963.119101735749] [37.308110145743818:23329.055489663187] [59.323368319039623:44909.448643077892] [88.342161848566406:68212.965012204411] [105.70522757843477:41719.186318255539] [95.506249168632564:4014.2537360350439] [78.037066845323864:210.34364827724076] [52.528260009843216:141.78982757130098] [4946:9891] [7.9064354507306032:10616.94639821981] [24.492750803167585:9249.4664402143171] [39.637248865253355:7201.0181737089479] [51.956823648183793:17470.397677619378] [89.778080132448792:14783.702342446122] [102.20595120176814:12321.787756668733] [97.18866176200001:1547.0463498358795] [77.960492324257302:399.16032331403261] [52.212244430447285:273.726784017272] [2860:9520] [12.597946538561461:2462.8463895264522] [18.157170926219354:2383.9093748728219] [35.99187121432977:3058.7701514954879] [63.177227536828347:16979.951950061244] [92.121931152746598:44685.940337812157] [107.5802727679431:28862.556182050055] [92.329074690114382:3546.2669821794343] [78.10526244397451:161.47363877430982] [53.177558120388497:125.78177194484628] [3532:8586] [16.469056549642662:1713.9481653987332] [17.187365092186653:1437.2743979887146] [37.061855121069961:2044.7001558408201] [59.715991693114617:11974.036435259253] [88.446797374760564:11396.678115126128] [100.78984938667652:7018.9823275442031] [96.23320087017612:1147.0143142098011] [77.556074466481931:140.18411825894913] [52.592280319157886:102.3542378983913] [2917:10252] [13.533143428631911:3400.3866673536077] [22.529023144201322:4336.9389878876009] [34.836747913759289:4658.3093582696774] [60.019501431735726:10496.615015712292] [95.42373325769293:24797.530644903727] [101.37134675192492:17691.80653810456] [94.878695274396406:2742.0844356776079] [76.687911758414742:615.91353925819669] [53.357712115013364:424.67365145716599] [3624:10188] [11.136447218219653:5341.1988274457444] [18.690733487262431:7148.8572464978661] [41.868285801391366:9173.6355639525755] [58.94511979295352:34243.07265529978] [88.04624766133243:44771.825508606613] [101.61088697428684:32604.219960380498] [94.900950156164441:4219.976860320965] [76.696451237249661:617.11778773933702] [52.883313598264188:399.95395112457771] [4957:12932] [11.312283284721325:6937.8396668682535] [27.700516942862873:8447.5290730420711] [41.672000061659752:6403.8086540918221] [60.793398748772624:41433.378433371137] [87.481799954514145:65767.851271827574] [105.11431102741055:34376.537291714834] [96.228505490242441:2823.9849197614549] [77.019235997645069:237.91269659813977] [53.153893972755405:157.71943417812108]
tree_sizes=1157 1211 1209 1211 1207 1209 1199 1203 1208 1212 1204 1209 1211 1220 1215 1211 1208 1205 1210 1205 1211 1208 1211 1207 1208 1211 1212 1210 1210 1210 1209 1211 1209 1210 1202 1203 1193 1210 1207 1210 1208 1207 1208 1209 1210 1206 1207 1207 1211 1210 1203 1208 1209 1216 1206 1215 1212 1214 1206 1205 1208 1213 1209 1210 1209 1210 1206 1209 1208 1215 1210 1210 1205 1208 1210 1206 1212 1215 1214 1215 1211 1215 1215 1203 1213 1206 1212 1205 1217 1212 1210 1206 1208 1214 1212 1208 1211 1215 1211 1210 1209 1215 1212 1220 1218 1213 1210 1215 1216 1219 1215 1216 1213 1210 1217 1215 1217 1223 1220 1217 1224 1220 1221 1217 1223 1218 1215 1221 1218 1220 1226 1216 1220 1218 1221 1216 1214 1223 1222 1216 1215 1217 1221 1224 1225 1214 1214 1218 1220 1215 1210 1221 1211 1215 1212 1215 1221 1208 1220 1217 1227 1220 1222 1213 1214 1222 1211 1215 1216 1222 1223 1226 1223 1224 1227 1224 1224 1216 1227 1219 1224 1226 1225 1216 1220 1216 1218 1220 1218 1226 1223 1217 1226 1225 1217 1227 1221 1224 1216 1219 1227 1220 1218 1211 1221 1218 1223 1222 1216 1227 1220 1216 1218 1220 1212 1218 1219 1222 1214 1213 1216 1228 1215 1217 1224 1224 1226 1221 1219 1225 1215 1220 1221 1219 1220 1224 1212 1209 1225 1224 1224 1224 1208 1226 1221 1227 1224 1224 1217 1221 1221 1220 1227 1221 1223 1221 1221 1216 1230 1224 1221 1222 1226 1214 1216 1209 1225 1221 1217 1222 1219 1223 1221 1218 1217 1222 1227 1218 1219 1217 1225 1221 1220 1223 1226 1222 1224 1218 1217 1223 1228 1225 1229 1231 1220 1223 1227 1224 1226 1225 1226 1231 1220 1222 1219 1211 1224 1223 1220 1219 1226 1224 1216 1222 1226 1220 1223 1222 1224 1224 1229 1219 1226 1228 1223 1228 1218 1235 1232 1228 1220 1226 1236 1224 1229 1233 1226 1222 1226 1228 1230 1231 1224 1230 1224 1223 1225 1222 1231 1229 1230 1217 1226 1229 1221 1230 1229 1236 1231 1233 1221 1223 1237 1229 1228 1229 1227 1228 1226 1225 1230 1227 1228 1219 1234 1232 1234 1234 1228 1231 1221 1218 1221 1231 1226 1226 1224 1222 1232 1228 1240 1217 1221 1223 1233 1215 1226 1221 1231 1230 1230 1228 1230 1228 1235 1231 1228 1222 1224 1229 1225 1223 1231 1225 1229 1223 1229 1228 1219 1225 1222 1235 1235 1219 1219 1231 1225 1222 1223 1231 1230 1227 1236 1217 1227 1232 1226 1222 1229 1230 1235 1232 1223 1228 1225 1234 1236 1230 1224 1223 1237 1227 1230 1232 1219 1222 1237 1219 1239 1221 1226 1234 1231 1221 1226 1233 1229 1234 1222 1238 1236 1217 1223 1231 1230 1219 1216 1211 1225 1228 1233 1218 1230 1229 1232 1230 1225 1227 1231 1232 1225 1223 1223 1231 1231 1236 1228 1227 1230 1230 1230 1223 1234 1226 1235 1227 1234 1217 1228 1229 1229 1231 1235 1232 1226 1229 1233 1233 1233 1235 1233 1238 1232 1237 1219 1232 1227 1224 1230 1223 1223 1224 1234 1234 1226 1235 1224 1234 1222 1223 1218 1232 1222 1224 1230 1226 1233 1221 1226 1232 1226 1224 1220 1226 1236 1225 1224 1230 1227 1232 1206 1225 1229 1233 1231 1232 1236 1229 1232 1230 1232 1233 1234 1225 1237 1224 1234 1230 1225 1236 1221 1229 1231 1218 1231 1227 1228 1226 1227 1229 1228 1228 1234 1226 1239 1232 1232 1231 1228 1233 1224 1238 1234 1235 1226 1234 1219 1233 1230 1245 1224 1227 1228 1239 1231 1228 1229 1221 1230 1229 1226 1228 1230 1234 1224 1227 1230 1232 1237 1237 1238 1230 1226 1228 1234 1226 1222 1226 1234 1227 1230 1226 1225 1233 1223 1227 1227 1230 1226 1231 1231 1218 1227 1229 1234 1229 1236 1230 1226 1230 1227 1225 1239 1235 1229 1227 1221 1242 1238 1232 1234 1229 1229 1231 1228 1226 1243 1234 1227 1223 1222 1232 1230 1235 1228 1228 1228 1234 1228 1226 1235 1223 1233 1239 1241 1227 1231 1223 1228 1232 1231 1226 1215 1228 1213 1229 1237 1229 1232 1225 1224 1229 1230 1234 1232 1227 1233 1229 1224 1238 1233 1232 1232 1226 1230 1233 1237 1232 1232 1226 1219 1231 1234 1239 1230 1227 1237 1233 1228 1216 1234 1222 1238 1229 1237 1225 1230 1220 1232 1238 1222 1235 1229 1238 1244 1230 1222 1232 1231 1238 1230 1231 1225 1224 1228 1232 1234 1237 1234 1236 1233 1229 1240 1227 1222 1235 1231 1238 1231 1230 1220 1229 1240 1225 1234 1234 1232 1231 1238 1226 1228 1227 1235 1239 1234 1231 1229 1234 1230 1224 1233 1231 1241 1228 1224 1236 1232 1228 1243 1235 1212 1235 1234 1241 1230 1230 1231 1243 1240 1226 1233 1242 1231 1217 1227 1236 1224 1226 1238 1232 1226 1231 1226 1241 1225 1238 1233 1228 1230 1227 1225 1241 1238 1227 1226 1228 1236 1228 1229 1231 1229 1239 1225 1239 1231 1224 1237 1239 1231 1231 1224 1228 1231 1240 1233 1237 1209 1236 1240 1236 1225 1233 1234 1230 1230 1245 1232 1225 1220 1232 1221 1227 1237 1232 1236 1232 1224 1232 1230 1223 1231 1242 1226 1236 1233 1216 1229 1233 1213 1231 1230 1225 1234 1232 1234 1231 1223 1237 1236 1229 1238 1228 1235 1236 1224 1225 1230 1226 1231 1236 1238 1238 1237 1232 1223 1220 1223 1230 1214 1230 1212 1234 1229 1222 1235 1233 1234 1231 1221 1229 1220 1233 1221 1239 1228 1230 1226 1233 1235 1233 1219 1242 1216 1212 1223 1239 1229 1240 1222 1234 1239 1234 1232 1238 1222 1239 1233 1233 1230 1240 1245 1222 1237 1224 1224 1226 1232 1243 1238 1237 1231 1233 1241 1237 1236 1240 1233 1225 1224 1240 1227 1223 1230 1230 1224 1236 1232 1228 1230 1223

Tree=0
num_leaves=14
num_cat=0
split_feature=14 14 14 185 10 123 13 984 961 1233 165 1432 1214
split_gain=1222.97 125.06 47.3838 39.7594 30.5108 22.6507 20.6797 19.6736 20.6394 18.5711 18.5827 18.5298 17.611
threshold=1283.7300060558989 1366.4024881295302 1254.2655313931361 3.2631496154452608 869.24242054251965 2.9490487983923486 5017.1018265783941 115.96545733106109 112.46919160005054 156.7699166813569 3.0157090188890625 155.12627735498904 118.35330492599674
decision_type=2 2 2 2 2 2 2 2 2 2 2 2 2
left_child=2 3 -1 4 11 6 -5 8 -6 -4 -11 -2 -9
right_child=1 -3 9 5 7 -7 -8 12 -10 10 -12 -13 -14
leaf_value=5.326349645768949 5.3222635102272031 5.2980639660358433 5.3239973894195423 5.3155714917182921 5.3204417395591737 5.3040349817276002 5.3046992284059522 5.3113524818420412 5.3055354976654057 5.3200554752349856 5.3133114671707151 5.3120874738693233 5.3050147533416752
leaf_count=1299 78 1168 82 110 57 580 55 87 52 106 212 92 137
internal_value=0 -0.455885 0.652433 -0.235181 -0.0170838 -0.381808 -0.0519952 -0.193761 0.151737 0.34917 0.237437 0.326291 -0.363636
internal_count=4115 2416 1699 1248 503 745 165 333 109 400 318 170 224
shrinkage=1


Tree=1
num_leaves=14
num_cat=0
split_feature=14 14 14 185 1423 682 178 123 1 1233 1203 843 964
split_gain=1221.14 125.944 47.3838 42.1247 29.9455 24.9341 27.0647 21.3503 21.3651 18.5711 19.2458 18.0995 16.9849
threshold=1283.7300060558989 1366.4024881295302 1254.2655313931361 3.2631496154452608 150.55653802473032 15.500000000000002 3.1500632444024426 2.9490487983923486 5.5951553000658745 156.7699166813569 185.5853100073451 188.19908574669759 109.22533373009053
decision_type=2 2 2 2 2 2 2 2 2 2 2 2 2
left_child=2 3 -1 4 -2 11 -7 8 -5 -4 -11 -6 -9
right_child=1 -3 9 7 5 6 -8 12 -10 10 -12 -13 -14
leaf_value=0.013845397597324411 0.0072788939297199276 -0.014298853737115862 0.011504902529664723 0.0068053987383842477 0.0099601374149322509 0.0022651320219039929 -0.0079960239171981834 1.6555619239806418e-05 -0.0059619846254587161 0.0082062030315399152 0.0010147829890251182 -0.00085912145376205063 -0.0090281798124313365
leaf_count=1299 73 1168 82 75 50 106 175 55 90 101 217 99 525
internal_value=0 -0.455057 0.652433 -0.233579 -0.00913786 -0.110595 -0.286425 -0.384492 -0.0640871 0.34917 0.237437 0.218206 -0.474845
internal_count=4115 2416 1699 1248 503 430 281 745 165 400 318 149 580
shrinkage=0.005


Tree=2
num_leaves=14
num_cat=0
split_feature=14 14 14 1413 1661 144 784 58 1190 1140 1608 1233 165
split_gain=1207.89 126.225 46.2703 40.9415 31.008 28.0793 28.7125 21.7621 21.0778 19.9771 19.0415 18.5711 18.5827
threshold=1283.7300060558989 1373.665679841657 1254.2655313931361 172.49794127368327 107.32984880296145 2.8416042414780898 109.77075986637597 4.2310000000000008 88.188653978792715 90.351182251648666 151.41203942690191 156.7699166813569 3.0157090188890625
decision_type=2 2 2 2 2 2 2 2 2 2 2 2 2
left_child=2 3 -1 4 -2 8 -7 10 -5 -6 -8 -4 -13
right_child=1 -3 11 5 9 6 7 -9 -10 -11 -12 12 -14
leaf_value=0.013776170609337788 0.0065168558853268667 -0.014686836177796129 0.011447378017016398 0.006501772276252509 0.0026343061900287856 0.0010864087681174306 0.00041738763388991188 -0.0087590410715341575 -0.0067488542959690118 -0.0067036066590547569 -0.010346903574578467 0.0075416669008731849 0.00086733597713708924
leaf_count=1299 118 1088 82 80 83 99 129 640 65 67 47 106 212
internal_value=0 -0.452574 0.64889 -0.245107 0.102832 -0.333459 -0.398296 -0.460069 0.0729023 -0.196809 -0.145125 0.34917 0.237437
internal_count=4115 2416 1699 1328 268 1060 915 816 145 150 176 400 318
shrinkage=0.005


Tree=3
num_leaves=14
num_cat=0
split_feature=14 14 14 1413 1661 144 784 175 1127 1608 1140 1233 1203
split_gain=1201.68 127.89 47.4768 38.5263 32.2183 27.3066 27.976 21.2794 20.7442 19.0415 18.7028 16.9058 19.2458
threshold=1283.7300060558989 1373.665679841657 1254.2655313931361 172.49794127368327 107.32984880296145 2.8416042414780898 109.77075986637597 3.3014065051278387 6346.5000000000009 151.41203942690191 90.351182251648666 156.7699166813569 185.5853100073451
decision_type=2 2 2 2 2 2 2 2 2 2 2 2 2
left_child=2 3 -1 4 -2 7 -7 -5 9 -8 -6 -4 -13
right_child=1 -3 11 5 10 6 8 -9 -10 -11 -12 12 -14
leaf_value=0.013707289756291097 0.0064842716059002334 -0.014613401996907145 0.011390141126931317 0.0080708282367198889 0.0026211346590786434 0.0010809767242768453 0.00041530069572046194 -0.0044994665026289217 -0.0087152458661764864 -0.010295169056705574 -0.0066700886257594853 0.0081274636818778542 0.00096787857002690332
leaf_count=1299 118 1088 82 65 83 99 129 80 640 47 67 101 217
internal_value=0 -0.450919 0.647709 -0.242096 0.09538 -0.327801 -0.391741 0.0729023 -0.452719 -0.145125 -0.210106 0.344174 0.237437
internal_count=4115 2416 1699 1328 268 1060 915 145 816 176 150 400 318
shrinkage=0.005


Tree=4
num_leaves=14
num_cat=0
split_feature=14 14 14 1413 1661 144 784 175 58 1140 198 1233 1203
split_gain=1197.29 126.875 47.1039 38.5263 32.2183 27.3066 27.976 21.2794 20.7442 18.7028 17.0383 16.9058 19.2458
threshold=1283.7300060558989 1373.665679841657 1254.2655313931361 172.49794127368327 107.32984880296145 2.8416042414780898 109.77075986637597 3.3014065051278387 4.2310000000000008 90.351182251648666 3.3624665141044665 156.7699166813569 185.5853100073451
decision_type=2 2 2 2 2 2 2 2 2 2 2 2 2
left_child=2 3 10 4 -2 7 -7 -5 -8 -6 -1 -4 -13
right_child=1 -3 11 5 9 6 8 -9 -10 -11 -12 12 -14
leaf_value=0.014323057267045835 0.0064518502478707338 -0.014540334986922608 0.011333190421296662 0.0080304740955362882 0.0026080289857832485 0.0010755718406554626 -0.0035785102507670352 -0.004476969170115779 -0.0086716696368456022 -0.0066367381826306863 0.010774452306887557 0.0080868263634684655 0.00096303917717676995
leaf_count=967 118 1088 82 65 83 99 176 80 640 67 332 101 217
internal_value=0 -0.450091 0.646527 -0.242096 0.09538 -0.327801 -0.391741 0.0729023 -0.452719 -0.210106 0.739581 0.344174 0.237437
internal_count=4115 2416 1699 1328 268 1060 915 145 816 150 1299 400 318
shrinkage=0.005


Tree=5
num_leaves=14
num_cat=0
split_feature=14 14 14 10 185 122 125 1043 833 40 1453 1423 198
split_gain=1183.39 128.544 48.7929 38.526 29.8937 28.4116 20.8517 18.8642 18.4785 17.5659 20.4501 19.0471 16.4955
threshold=1283.7300060558989 1373.665679841657 1254.2655313931361 870.20037832238165 3.1040989059052633 2.9637347211232057 2.8480595318386297 186.82009442494109 262.78317056767008 4.1350000000000007 221.7720059815293 155.39647200460388 3.3624665141044665
decision_type=2 2 2 2 2 2 2 2 2 2 2 2 2
left_child=2 3 12 4 -2 7 -6 -5 -9 10 -7 -11 -1
right_child=1 -3 -4 5 6 9 -8 8 -10 11 -12 -13 -14
leaf_value=0.014251441980710608 0.0065308074361169321 -0.014467633311987993 0.005612733470651712 0.0066240534644587106 0.0062928974726952584 0.005393161631756409 -0.0063413984675663128 -0.00035102649751019845 -0.0091055752266115102 -0.00098791623581112814 -0.0078054913703578315 -0.0088827610399253541 0.010720580045353119
leaf_count=967 159 1088 400 61 45 50 203 86 71 64 53 536 332
internal_value=0 -0.448436 0.641803 -0.239085 0.0162003 -0.35229 -0.199678 -0.0347985 -0.219822 -0.4501 -0.0638298 -0.515656 0.736489
internal_count=4115 2416 1699 1328 407 921 248 218 157 703 103 600 1299
shrinkage=0.005


Tree=6
num_leaves=14
num_cat=0
split_feature=14 14 14 1413 1661 198 125 1140 933 198 883 921 1202
split_gain=1174.69 128.362 49.6482 39.1935 31.008 29.047 22.0733 19.9771 17.8289 17.2949 16.1652 17.9604 17.0255
threshold=1283.7300060558989 1373.665679841657 1254.2655313931361 172.49794127368327 107.32984880296145 2.7915901469393991 2.805997662413739 90.351182251648666 150.59628264973927 3.3624665141044665 249.68962366349379 128.7422372534233 170.9247072992886
decision_type=2 2 2 2 2 2 2 2 2 2 2 2 2
left_child=2 3 9 4 -2 -5 -7 -6 -8 -1 12 -12 -4
right_child=1 -3 10 5 7 6 8 -9 -10 -11 11 -13 -14
leaf_value=0.014180184770807056 0.0063403106339057127 -0.01439529514542805 0.011487904228043896 0.00050400181374706584 0.0026704168296705945 0.001308656087218778 0.00021013842634965752 -0.0065596977219846211 -0.00817104747603104 0.010666977145126353 0.00261506785680544 -0.0049191833562682906 0.0024644089952905457
leaf_count=967 118 1088 128 110 83 97 73 67 780 332 133 40 99
internal_value=0 -0.44678 0.63944 -0.237579 0.102832 -0.324029 -0.380471 -0.196809 -0.431919 0.734942 0.329183 0.0957324 0.504977
internal_count=4115 2416 1699 1328 268 1060 950 150 853 1299 400 173 227
shrinkage=0.005


Tree=7
num_leaves=14
num_cat=0
split_feature=14 14 14 198 125 1653 200 134 753 1244 803 59 198
split_gain=1167.8 129.2 48.8871 37.9347 30.0429 22.9635 20.7326 19.5047 18.9579 20.7748 17.9341 17.566 16.7482
threshold=1283.7300060558989 1373.665679841657 1254.2655313931361 2.7915901469393991 2.8788908357976646 164.40984801136429 2.9326062320059481 2.7966611442103795 165.33220494076406 124.26812270192609 271.20253630924799 3.9553333333333338 3.3624665141044665
decision_type=2 2 2 2 2 2 2 2 2 2 2 2 2
left_child=2 3 12 10 5 -5 -7 -6 9 -9 -2 -10 -1
right_child=1 -3 -4 4 7 6 -8 8 11 -11 -12 -13 -14
leaf_value=0.01410928384695302 0.012706344363418229 -0.014323318669700909 0.0054855883559177332 0.014456403147066831 0.00017931529239015198 0.0067064575159077244 -0.0055065778334450234 -0.0063084490700104469 0.0014176809850839224 0.0071539282319883933 -0.0029761632826188224 -0.0085623583031797425 0.010613642259400723
leaf_count=967 82 1088 400 40 84 43 115 78 41 51 62 732 332
internal_value=0 -0.445953 0.637078 -0.236073 -0.295171 0.0584677 -0.111111 -0.366586 -0.409574 -0.0510046 0.246537 -0.468839 0.73185
internal_count=4115 2416 1699 1328 1184 198 158 986 902 129 144 773 1299
shrinkage=0.005


Tree=8
num_leaves=14
num_cat=0
split_feature=14 14 14 1413 1661 144 784 1190 58 1140 1565 821 198
split_gain=1169.58 126.512 48.8871 39.54 31.008 27.0515 25.5501 21.0778 20.079 19.0068 18.8958 17.6087 16.7482
threshold=1283.7300060558989 1373.665679841657 1254.2655313931361 172.49794127368327 107.32984880296145 2.8416042414780898 109.77075986637597 88.188653978792715 4.2310000000000008 92.768274407649002 87.783097892864248 86.170529126067919 3.3624665141044665
decision_type=2 2 2 2 2 2 2 2 2 2 2 2 2
left_child=2 3 12 4 -2 7 -7 -5 -8 10 -6 -10 -1
right_child=1 -3 -4 5 9 6 8 -9 11 -11 -12 -13 -14
leaf_value=0.014038737427718254 0.0063646877233948067 -0.014251702076352407 0.0054581604141381431 0.0062238102522147055 0.0084399032020383308 0.0010453180904305937 -0.0035072467885114288 -0.0065653764616863102 -0.00038187068795446865 -0.0065553718488842797 -0.0046004790661455823 -0.0088742278544046149 0.010560574048103719
leaf_count=967 118 1088 400 80 43 99 176 65 50 58 49 590 332
internal_value=0 -0.44678 0.637078 -0.239085 0.102832 -0.325915 -0.389556 0.0729023 -0.44782 -0.196809 0.0822511 -0.530294 0.73185
internal_count=4115 2416 1699 1328 268 1060 915 145 816 150 92 640 1299
shrinkage=0.005


Tree=9
num_leaves=14
num_cat=0
split_feature=14 14 14 1413 198 10 144 1190 734 52 160 1000 822
split_gain=1160.93 128.179 48.1319 38.8484 28.8217 28.6483 22.5345 21.3996 18.803 18.5534 18.8522 21.7478 17.8296
threshold=1283.7300060558989 1373.665679841657 1254.2655313931361 172.49794127368327 2.7915901469393991 922.74414703294326 2.8608697200494713 88.188653978792715 123.09170423860927 4.3503333333333343 6.351159411270916 81.063935153269952 134.59040808590399
decision_type=2 2 2 2 2 2 2 2 2 2 2 2 2
left_child=2 3 -1 5 -5 8 7 -6 -2 10 11 -8 -11
right_child=1 -3 -4 4 6 -7 9 -9 -10 12 -12 -13 -14
leaf_value=0.013284239781043468 0.0076433425637229034 -0.014180443565970645 0.0054308696120674536 0.00039739765046876486 0.0031649708521294317 -0.0068286520494975165 0.0024380415408301694 -0.0073878512951822866 -0.0012614467740605395 -0.005598615637867752 0.0013667727073889925 -0.0076560105076375834 -0.0094768547042783577
leaf_count=1299 132 1088 400 110 79 63 66 65 73 97 49 135 459
internal_value=0 -0.445125 0.634716 -0.236073 -0.322143 0.102832 -0.378367 -0.0110803 0.285297 -0.443452 -0.214058 -0.350546 -0.545651
internal_count=4115 2416 1699 1328 1060 268 950 144 205 806 250 201 556
shrinkage=0.005


Tree=10
num_leaves=14
num_cat=0
split_feature=14 14 14 1413 1661 144 784 175 136 191 883 1075 1202
split_gain=1152.31 127.997 48.9815 38.5049 31.008 26.2931 27.0088 21.2794 20.5939 19.1974 17.1121 17.2428 17.0255
threshold=1283.7300060558989 1373.665679841657 1254.2655313931361 172.49794127368327 107.32984880296145 2.8416042414780898 109.77075986637597 3.3014065051278387 2.817869919446617 3.0752508496032607 249.68962366349379 88.879851671184312 170.9247072992886
decision_type=2 2 2 2 2 2 2 2 2 2 2 2 2
left_child=2 3 -1 4 -2 7 -7 -5 -8 -6 12 -12 -4
right_child=1 -3 10 5 9 6 8 -9 -10 -11 11 -13 -14
leaf_value=0.01321781858213825 0.0062813807208164894 -0.014109541348140794 0.01134859161499306 0.0079746271602246788 0.0052756518826106418 0.0010738194420250235 -0.0020337385571998 -0.0044219493387165354 -0.0083476784250069297 -0.0048067946271341724 0.0024453346699040111 -0.0036239023238856618 0.0023702138584034758
leaf_count=1299 118 1088 128 65 44 99 97 80 719 106 120 53 99
