tree
version=v2
num_class=1
num_tree_per_iteration=1
label_index=0
max_feature_idx=1716
objective=regression_l1
feature_names=chunk_mean chunk_std chunk_q_0 chunk_q_0.25 chunk_q_0.5 chunk_q_0.75 chunk_q_1 chunk_fft_0 chunk_fft_1 chunk_fft_2 chunk_fft_3 chunk_fft_4 chunk_fft_5 chunk_fft_6 chunk_fft_7 chunk_fft_8 chunk_fft_9 sub_mean_sub_step_0 sub_mean_sub_step_1 sub_mean_sub_step_2 sub_mean_sub_step_3 sub_mean_sub_step_4 sub_mean_sub_step_5 sub_mean_sub_step_6 sub_mean_sub_step_7 sub_mean_sub_step_8 sub_mean_sub_step_9 sub_mean_sub_step_10 sub_mean_sub_step_11 sub_mean_sub_step_12 sub_mean_sub_step_13 sub_mean_sub_step_14 sub_mean_sub_step_15 sub_mean_sub_step_16 sub_mean_sub_step_17 sub_mean_sub_step_18 sub_mean_sub_step_19 sub_mean_sub_step_20 sub_mean_sub_step_21 sub_mean_sub_step_22 sub_mean_sub_step_23 sub_mean_sub_step_24 sub_mean_sub_step_25 sub_mean_sub_step_26 sub_mean_sub_step_27 sub_mean_sub_step_28 sub_mean_sub_step_29 sub_mean_sub_step_30 sub_mean_sub_step_31 sub_mean_sub_step_32 sub_mean_sub_step_33 sub_mean_sub_step_34 sub_mean_sub_step_35 sub_mean_sub_step_36 sub_mean_sub_step_37 sub_mean_sub_step_38 sub_mean_sub_step_39 sub_mean_sub_step_40 sub_mean_sub_step_41 sub_mean_sub_step_42 sub_mean_sub_step_43 sub_mean_sub_step_44 sub_mean_sub_step_45 sub_mean_sub_step_46 sub_mean_sub_step_47 sub_mean_sub_step_48 sub_mean_sub_step_49 sub_mean_sub_step_50 sub_mean_sub_step_51 sub_mean_sub_step_52 sub_mean_sub_step_53 sub_mean_sub_step_54 sub_mean_sub_step_55 sub_mean_sub_step_56 sub_mean_sub_step_57 sub_mean_sub_step_58 sub_mean_sub_step_59 sub_mean_sub_step_60 sub_mean_sub_step_61 sub_mean_sub_step_62 sub_mean_sub_step_63 sub_mean_sub_step_64 sub_mean_sub_step_65 sub_mean_sub_step_66 sub_mean_sub_step_67 sub_mean_sub_step_68 sub_mean_sub_step_69 sub_mean_sub_step_70 sub_mean_sub_step_71 sub_mean_sub_step_72 sub_mean_sub_step_73 sub_mean_sub_step_74 sub_mean_sub_step_75 sub_mean_sub_step_76 sub_mean_sub_step_77 sub_mean_sub_step_78 sub_mean_sub_step_79 sub_mean_sub_step_80 sub_mean_sub_step_81 sub_mean_sub_step_82 sub_mean_sub_step_83 sub_mean_sub_step_84 sub_mean_sub_step_85 sub_mean_sub_step_86 sub_mean_sub_step_87 sub_mean_sub_step_88 sub_mean_sub_step_89 sub_mean_sub_step_90 sub_mean_sub_step_91 sub_mean_sub_step_92 sub_mean_sub_step_93 sub_mean_sub_step_94 sub_mean_sub_step_95 sub_mean_sub_step_96 sub_mean_sub_step_97 sub_mean_sub_step_98 sub_mean_sub_step_99 sub_std_sub_step_0 sub_std_sub_step_1 sub_std_sub_step_2 sub_std_sub_step_3 sub_std_sub_step_4 sub_std_sub_step_5 sub_std_sub_step_6 sub_std_sub_step_7 sub_std_sub_step_8 sub_std_sub_step_9 sub_std_sub_step_10 sub_std_sub_step_11 sub_std_sub_step_12 sub_std_sub_step_13 sub_std_sub_step_14 sub_std_sub_step_15 sub_std_sub_step_16 sub_std_sub_step_17 sub_std_sub_step_18 sub_std_sub_step_19 sub_std_sub_step_20 sub_std_sub_step_21 sub_std_sub_step_22 sub_std_sub_step_23 sub_std_sub_step_24 sub_std_sub_step_25 sub_std_sub_step_26 sub_std_sub_step_27 sub_std_sub_step_28 sub_std_sub_step_29 sub_std_sub_step_30 sub_std_sub_step_31 sub_std_sub_step_32 sub_std_sub_step_33 sub_std_sub_step_34 sub_std_sub_step_35 sub_std_sub_step_36 sub_std_sub_step_37 sub_std_sub_step_38 sub_std_sub_step_39 sub_std_sub_step_40 sub_std_sub_step_41 sub_std_sub_step_42 sub_std_sub_step_43 sub_std_sub_step_44 sub_std_sub_step_45 sub_std_sub_step_46 sub_std_sub_step_47 sub_std_sub_step_48 sub_std_sub_step_49 sub_std_sub_step_50 sub_std_sub_step_51 sub_std_sub_step_52 sub_std_sub_step_53 sub_std_sub_step_54 sub_std_sub_step_55 sub_std_sub_step_56 sub_std_sub_step_57 sub_std_sub_step_58 sub_std_sub_step_59 sub_std_sub_step_60 sub_std_sub_step_61 sub_std_sub_step_62 sub_std_sub_step_63 sub_std_sub_step_64 sub_std_sub_step_65 sub_std_sub_step_66 sub_std_sub_step_67 sub_std_sub_step_68 sub_std_sub_step_69 sub_std_sub_step_70 sub_std_sub_step_71 sub_std_sub_step_72 sub_std_sub_step_73 sub_std_sub_step_74 sub_std_sub_step_75 sub_std_sub_step_76 sub_std_sub_step_77 sub_std_sub_step_78 sub_std_sub_step_79 sub_std_sub_step_80 sub_std_sub_step_81 sub_std_sub_step_82 sub_std_sub_step_83 sub_std_sub_step_84 sub_std_sub_step_85 sub_std_sub_step_86 sub_std_sub_step_87 sub_std_sub_step_88 sub_std_sub_step_89 sub_std_sub_step_90 sub_std_sub_step_91 sub_std_sub_step_92 sub_std_sub_step_93 sub_std_sub_step_94 sub_std_sub_step_95 sub_std_sub_step_96 sub_std_sub_step_97 sub_std_sub_step_98 sub_std_sub_step_99 sub_q_0_sub_step_0 sub_q_0_sub_step_1 sub_q_0_sub_step_2 sub_q_0_sub_step_3 sub_q_0_sub_step_4 sub_q_0_sub_step_5 sub_q_0_sub_step_6 sub_q_0_sub_step_7 sub_q_0_sub_step_8 sub_q_0_sub_step_9 sub_q_0_sub_step_10 sub_q_0_sub_step_11 sub_q_0_sub_step_12 sub_q_0_sub_step_13 sub_q_0_sub_step_14 sub_q_0_sub_step_15 sub_q_0_sub_step_16 sub_q_0_sub_step_17 sub_q_0_sub_step_18 sub_q_0_sub_step_19 sub_q_0_sub_step_20 sub_q_0_sub_step_21 sub_q_0_sub_step_22 sub_q_0_sub_step_23 sub_q_0_sub_step_24 sub_q_0_sub_step_25 sub_q_0_sub_step_26 sub_q_0_sub_step_27 sub_q_0_sub_step_28 sub_q_0_sub_step_29 sub_q_0_sub_step_30 sub_q_0_sub_step_31 sub_q_0_sub_step_32 sub_q_0_sub_step_33 sub_q_0_sub_step_34 sub_q_0_sub_step_35 sub_q_0_sub_step_36 sub_q_0_sub_step_37 sub_q_0_sub_step_38 sub_q_0_sub_step_39 sub_q_0_sub_step_40 sub_q_0_sub_step_41 sub_q_0_sub_step_42 sub_q_0_sub_step_43 sub_q_0_sub_step_44 sub_q_0_sub_step_45 sub_q_0_sub_step_46 sub_q_0_sub_step_47 sub_q_0_sub_step_48 sub_q_0_sub_step_49 sub_q_0_sub_step_50 sub_q_0_sub_step_51 sub_q_0_sub_step_52 sub_q_0_sub_step_53 sub_q_0_sub_step_54 sub_q_0_sub_step_55 sub_q_0_sub_step_56 sub_q_0_sub_step_57 sub_q_0_sub_step_58 sub_q_0_sub_step_59 sub_q_0_sub_step_60 sub_q_0_sub_step_61 sub_q_0_sub_step_62 sub_q_0_sub_step_63 sub_q_0_sub_step_64 sub_q_0_sub_step_65 sub_q_0_sub_step_66 sub_q_0_sub_step_67 sub_q_0_sub_step_68 sub_q_0_sub_step_69 sub_q_0_sub_step_70 sub_q_0_sub_step_71 sub_q_0_sub_step_72 sub_q_0_sub_step_73 sub_q_0_sub_step_74 sub_q_0_sub_step_75 sub_q_0_sub_step_76 sub_q_0_sub_step_77 sub_q_0_sub_step_78 sub_q_0_sub_step_79 sub_q_0_sub_step_80 sub_q_0_sub_step_81 sub_q_0_sub_step_82 sub_q_0_sub_step_83 sub_q_0_sub_step_84 sub_q_0_sub_step_85 sub_q_0_sub_step_86 sub_q_0_sub_step_87 sub_q_0_sub_step_88 sub_q_0_sub_step_89 sub_q_0_sub_step_90 sub_q_0_sub_step_91 sub_q_0_sub_step_92 sub_q_0_sub_step_93 sub_q_0_sub_step_94 sub_q_0_sub_step_95 sub_q_0_sub_step_96 sub_q_0_sub_step_97 sub_q_0_sub_step_98 sub_q_0_sub_step_99 sub_q_0.25_sub_step_0 sub_q_0.25_sub_step_1 sub_q_0.25_sub_step_2 sub_q_0.25_sub_step_3 sub_q_0.25_sub_step_4 sub_q_0.25_sub_step_5 sub_q_0.25_sub_step_6 sub_q_0.25_sub_step_7 sub_q_0.25_sub_step_8 sub_q_0.25_sub_step_9 sub_q_0.25_sub_step_10 sub_q_0.25_sub_step_11 sub_q_0.25_sub_step_12 sub_q_0.25_sub_step_13 sub_q_0.25_sub_step_14 sub_q_0.25_sub_step_15 sub_q_0.25_sub_step_16 sub_q_0.25_sub_step_17 sub_q_0.25_sub_step_18 sub_q_0.25_sub_step_19 sub_q_0.25_sub_step_20 sub_q_0.25_sub_step_21 sub_q_0.25_sub_step_22 sub_q_0.25_sub_step_23 sub_q_0.25_sub_step_24 sub_q_0.25_sub_step_25 sub_q_0.25_sub_step_26 sub_q_0.25_sub_step_27 sub_q_0.25_sub_step_28 sub_q_0.25_sub_step_29 sub_q_0.25_sub_step_30 sub_q_0.25_sub_step_31 sub_q_0.25_sub_step_32 sub_q_0.25_sub_step_33 sub_q_0.25_sub_step_34 sub_q_0.25_sub_step_35 sub_q_0.25_sub_step_36 sub_q_0.25_sub_step_37 sub_q_0.25_sub_step_38 sub_q_0.25_sub_step_39 sub_q_0.25_sub_step_40 sub_q_0.25_sub_step_41 sub_q_0.25_sub_step_42 sub_q_0.25_sub_step_43 sub_q_0.25_sub_step_44 sub_q_0.25_sub_step_45 sub_q_0.25_sub_step_46 sub_q_0.25_sub_step_47 sub_q_0.25_sub_step_48 sub_q_0.25_sub_step_49 sub_q_0.25_sub_step_50 sub_q_0.25_sub_step_51 sub_q_0.25_sub_step_52 sub_q_0.25_sub_step_53 sub_q_0.25_sub_step_54 sub_q_0.25_sub_step_55 sub_q_0.25_sub_step_56 sub_q_0.25_sub_step_57 sub_q_0.25_sub_step_58 sub_q_0.25_sub_step_59 sub_q_0.25_sub_step_60 sub_q_0.25_sub_step_61 sub_q_0.25_sub_step_62 sub_q_0.25_sub_step_63 sub_q_0.25_sub_step_64 sub_q_0.25_sub_step_65 sub_q_0.25_sub_step_66 sub_q_0.25_sub_step_67 sub_q_0.25_sub_step_68 sub_q_0.25_sub_step_69 sub_q_0.25_sub_step_70 sub_q_0.25_sub_step_71 sub_q_0.25_sub_step_72 sub_q_0.25_sub_step_73 sub_q_0.25_sub_step_74 sub_q_0.25_sub_step_75 sub_q_0.25_sub_step_76 sub_q_0.25_sub_step_77 sub_q_0.25_sub_step_78 sub_q_0.25_sub_step_79 sub_q_0.25_sub_step_80 sub_q_0.25_sub_step_81 sub_q_0.25_sub_step_82 sub_q_0.25_sub_step_83 sub_q_0.25_sub_step_84 sub_q_0.25_sub_step_85 sub_q_0.25_sub_step_86 sub_q_0.25_sub_step_87 sub_q_0.25_sub_step_88 sub_q_0.25_sub_step_89 sub_q_0.25_sub_step_90 sub_q_0.25_sub_step_91 sub_q_0.25_sub_step_92 sub_q_0.25_sub_step_93 sub_q_0.25_sub_step_94 sub_q_0.25_sub_step_95 sub_q_0.25_sub_step_96 sub_q_0.25_sub_step_97 sub_q_0.25_sub_step_98 sub_q_0.25_sub_step_99 sub_q_0.5_sub_step_0 sub_q_0.5_sub_step_1 sub_q_0.5_sub_step_2 sub_q_0.5_sub_step_3 sub_q_0.5_sub_step_4 sub_q_0.5_sub_step_5 sub_q_0.5_sub_step_6 sub_q_0.5_sub_step_7 sub_q_0.5_sub_step_8 sub_q_0.5_sub_step_9 sub_q_0.5_sub_step_10 sub_q_0.5_sub_step_11 sub_q_0.5_sub_step_12 sub_q_0.5_sub_step_13 sub_q_0.5_sub_step_14 sub_q_0.5_sub_step_15 sub_q_0.5_sub_step_16 sub_q_0.5_sub_step_17 sub_q_0.5_sub_step_18 sub_q_0.5_sub_step_19 sub_q_0.5_sub_step_20 sub_q_0.5_sub_step_21 sub_q_0.5_sub_step_22 sub_q_0.5_sub_step_23 sub_q_0.5_sub_step_24 sub_q_0.5_sub_step_25 sub_q_0.5_sub_step_26 sub_q_0.5_sub_step_27 sub_q_0.5_sub_step_28 sub_q_0.5_sub_step_29 sub_q_0.5_sub_step_30 sub_q_0.5_sub_step_31 sub_q_0.5_sub_step_32 sub_q_0.5_sub_step_33 sub_q_0.5_sub_step_34 sub_q_0.5_sub_step_35 sub_q_0.5_sub_step_36 sub_q_0.5_sub_step_37 sub_q_0.5_sub_step_38 sub_q_0.5_sub_step_39 sub_q_0.5_sub_step_40 sub_q_0.5_sub_step_41 sub_q_0.5_sub_step_42 sub_q_0.5_sub_step_43 sub_q_0.5_sub_step_44 sub_q_0.5_sub_step_45 sub_q_0.5_sub_step_46 sub_q_0.5_sub_step_47 sub_q_0.5_sub_step_48 sub_q_0.5_sub_step_49 sub_q_0.5_sub_step_50 sub_q_0.5_sub_step_51 sub_q_0.5_sub_step_52 sub_q_0.5_sub_step_53 sub_q_0.5_sub_step_54 sub_q_0.5_sub_step_55 sub_q_0.5_sub_step_56 sub_q_0.5_sub_step_57 sub_q_0.5_sub_step_58 sub_q_0.5_sub_step_59 sub_q_0.5_sub_step_60 sub_q_0.5_sub_step_61 sub_q_0.5_sub_step_62 sub_q_0.5_sub_step_63 sub_q_0.5_sub_step_64 sub_q_0.5_sub_step_65 sub_q_0.5_sub_step_66 sub_q_0.5_sub_step_67 sub_q_0.5_sub_step_68 sub_q_0.5_sub_step_69 sub_q_0.5_sub_step_70 sub_q_0.5_sub_step_71 sub_q_0.5_sub_step_72 sub_q_0.5_sub_step_73 sub_q_0.5_sub_step_74 sub_q_0.5_sub_step_75 sub_q_0.5_sub_step_76 sub_q_0.5_sub_step_77 sub_q_0.5_sub_step_78 sub_q_0.5_sub_step_79 sub_q_0.5_sub_step_80 sub_q_0.5_sub_step_81 sub_q_0.5_sub_step_82 sub_q_0.5_sub_step_83 sub_q_0.5_sub_step_84 sub_q_0.5_sub_step_85 sub_q_0.5_sub_step_86 sub_q_0.5_sub_step_87 sub_q_0.5_sub_step_88 sub_q_0.5_sub_step_89 sub_q_0.5_sub_step_90 sub_q_0.5_sub_step_91 sub_q_0.5_sub_step_92 sub_q_0.5_sub_step_93 sub_q_0.5_sub_step_94 sub_q_0.5_sub_step_95 sub_q_0.5_sub_step_96 sub_q_0.5_sub_step_97 sub_q_0.5_sub_step_98 sub_q_0.5_sub_step_99 sub_q_0.75_sub_step_0 sub_q_0.75_sub_step_1 sub_q_0.75_sub_step_2 sub_q_0.75_sub_step_3 sub_q_0.75_sub_step_4 sub_q_0.75_sub_step_5 sub_q_0.75_sub_step_6 sub_q_0.75_sub_step_7 sub_q_0.75_sub_step_8 sub_q_0.75_sub_step_9 sub_q_0.75_sub_step_10 sub_q_0.75_sub_step_11 sub_q_0.75_sub_step_12 sub_q_0.75_sub_step_13 sub_q_0.75_sub_step_14 sub_q_0.75_sub_step_15 sub_q_0.75_sub_step_16 sub_q_0.75_sub_step_17 sub_q_0.75_sub_step_18 sub_q_0.75_sub_step_19 sub_q_0.75_sub_step_20 sub_q_0.75_sub_step_21 sub_q_0.75_sub_step_22 sub_q_0.75_sub_step_23 sub_q_0.75_sub_step_24 sub_q_0.75_sub_step_25 sub_q_0.75_sub_step_26 sub_q_0.75_sub_step_27 sub_q_0.75_sub_step_28 sub_q_0.75_sub_step_29 sub_q_0.75_sub_step_30 sub_q_0.75_sub_step_31 sub_q_0.75_sub_step_32 sub_q_0.75_sub_step_33 sub_q_0.75_sub_step_34 sub_q_0.75_sub_step_35 sub_q_0.75_sub_step_36 sub_q_0.75_sub_step_37 sub_q_0.75_sub_step_38 sub_q_0.75_sub_step_39 sub_q_0.75_sub_step_40 sub_q_0.75_sub_step_41 sub_q_0.75_sub_step_42 sub_q_0.75_sub_step_43 sub_q_0.75_sub_step_44 sub_q_0.75_sub_step_45 sub_q_0.75_sub_step_46 sub_q_0.75_sub_step_47 sub_q_0.75_sub_step_48 sub_q_0.75_sub_step_49 sub_q_0.75_sub_step_50 sub_q_0.75_sub_step_51 sub_q_0.75_sub_step_52 sub_q_0.75_sub_step_53 sub_q_0.75_sub_step_54 sub_q_0.75_sub_step_55 sub_q_0.75_sub_step_56 sub_q_0.75_sub_step_57 sub_q_0.75_sub_step_58 sub_q_0.75_sub_step_59 sub_q_0.75_sub_step_60 sub_q_0.75_sub_step_61 sub_q_0.75_sub_step_62 sub_q_0.75_sub_step_63 sub_q_0.75_sub_step_64 sub_q_0.75_sub_step_65 sub_q_0.75_sub_step_66 sub_q_0.75_sub_step_67 sub_q_0.75_sub_step_68 sub_q_0.75_sub_step_69 sub_q_0.75_sub_step_70 sub_q_0.75_sub_step_71 sub_q_0.75_sub_step_72 sub_q_0.75_sub_step_73 sub_q_0.75_sub_step_74 sub_q_0.75_sub_step_75 sub_q_0.75_sub_step_76 sub_q_0.75_sub_step_77 sub_q_0.75_sub_step_78 sub_q_0.75_sub_step_79 sub_q_0.75_sub_step_80 sub_q_0.75_sub_step_81 sub_q_0.75_sub_step_82 sub_q_0.75_sub_step_83 sub_q_0.75_sub_step_84 sub_q_0.75_sub_step_85 sub_q_0.75_sub_step_86 sub_q_0.75_sub_step_87 sub_q_0.75_sub_step_88 sub_q_0.75_sub_step_89 sub_q_0.75_sub_step_90 sub_q_0.75_sub_step_91 sub_q_0.75_sub_step_92 sub_q_0.75_sub_step_93 sub_q_0.75_sub_step_94 sub_q_0.75_sub_step_95 sub_q_0.75_sub_step_96 sub_q_0.75_sub_step_97 sub_q_0.75_sub_step_98 sub_q_0.75_sub_step_99 sub_q_1_sub_step_0 sub_q_1_sub_step_1 sub_q_1_sub_step_2 sub_q_1_sub_step_3 sub_q_1_sub_step_4 sub_q_1_sub_step_5 sub_q_1_sub_step_6 sub_q_1_sub_step_7 sub_q_1_sub_step_8 sub_q_1_sub_step_9 sub_q_1_sub_step_10 sub_q_1_sub_step_11 sub_q_1_sub_step_12 sub_q_1_sub_step_13 sub_q_1_sub_step_14 sub_q_1_sub_step_15 sub_q_1_sub_step_16 sub_q_1_sub_step_17 sub_q_1_sub_step_18 sub_q_1_sub_step_19 sub_q_1_sub_step_20 sub_q_1_sub_step_21 sub_q_1_sub_step_22 sub_q_1_sub_step_23 sub_q_1_sub_step_24 sub_q_1_sub_step_25 sub_q_1_sub_step_26 sub_q_1_sub_step_27 sub_q_1_sub_step_28 sub_q_1_sub_step_29 sub_q_1_sub_step_30 sub_q_1_sub_step_31 sub_q_1_sub_step_32 sub_q_1_sub_step_33 sub_q_1_sub_step_34 sub_q_1_sub_step_35 sub_q_1_sub_step_36 sub_q_1_sub_step_37 sub_q_1_sub_step_38 sub_q_1_sub_step_39 sub_q_1_sub_step_40 sub_q_1_sub_step_41 sub_q_1_sub_step_42 sub_q_1_sub_step_43 sub_q_1_sub_step_44 sub_q_1_sub_step_45 sub_q_1_sub_step_46 sub_q_1_sub_step_47 sub_q_1_sub_step_48 sub_q_1_sub_step_49 sub_q_1_sub_step_50 sub_q_1_sub_step_51 sub_q_1_sub_step_52 sub_q_1_sub_step_53 sub_q_1_sub_step_54 sub_q_1_sub_step_55 sub_q_1_sub_step_56 sub_q_1_sub_step_57 sub_q_1_sub_step_58 sub_q_1_sub_step_59 sub_q_1_sub_step_60 sub_q_1_sub_step_61 sub_q_1_sub_step_62 sub_q_1_sub_step_63 sub_q_1_sub_step_64 sub_q_1_sub_step_65 sub_q_1_sub_step_66 sub_q_1_sub_step_67 sub_q_1_sub_step_68 sub_q_1_sub_step_69 sub_q_1_sub_step_70 sub_q_1_sub_step_71 sub_q_1_sub_step_72 sub_q_1_sub_step_73 sub_q_1_sub_step_74 sub_q_1_sub_step_75 sub_q_1_sub_step_76 sub_q_1_sub_step_77 sub_q_1_sub_step_78 sub_q_1_sub_step_79 sub_q_1_sub_step_80 sub_q_1_sub_step_81 sub_q_1_sub_step_82 sub_q_1_sub_step_83 sub_q_1_sub_step_84 sub_q_1_sub_step_85 sub_q_1_sub_step_86 sub_q_1_sub_step_87 sub_q_1_sub_step_88 sub_q_1_sub_step_89 sub_q_1_sub_step_90 sub_q_1_sub_step_91 sub_q_1_sub_step_92 sub_q_1_sub_step_93 sub_q_1_sub_step_94 sub_q_1_sub_step_95 sub_q_1_sub_step_96 sub_q_1_sub_step_97 sub_q_1_sub_step_98 sub_q_1_sub_step_99 sub_fft_0_sub_step_0 sub_fft_0_sub_step_1 sub_fft_0_sub_step_2 sub_fft_0_sub_step_3 sub_fft_0_sub_step_4 sub_fft_0_sub_step_5 sub_fft_0_sub_step_6 sub_fft_0_sub_step_7 sub_fft_0_sub_step_8 sub_fft_0_sub_step_9 sub_fft_0_sub_step_10 sub_fft_0_sub_step_11 sub_fft_0_sub_step_12 sub_fft_0_sub_step_13 sub_fft_0_sub_step_14 sub_fft_0_sub_step_15 sub_fft_0_sub_step_16 sub_fft_0_sub_step_17 sub_fft_0_sub_step_18 sub_fft_0_sub_step_19 sub_fft_0_sub_step_20 sub_fft_0_sub_step_21 sub_fft_0_sub_step_22 sub_fft_0_sub_step_23 sub_fft_0_sub_step_24 sub_fft_0_sub_step_25 sub_fft_0_sub_step_26 sub_fft_0_sub_step_27 sub_fft_0_sub_step_28 sub_fft_0_sub_step_29 sub_fft_0_sub_step_30 sub_fft_0_sub_step_31 sub_fft_0_sub_step_32 sub_fft_0_sub_step_33 sub_fft_0_sub_step_34 sub_fft_0_sub_step_35 sub_fft_0_sub_step_36 sub_fft_0_sub_step_37 sub_fft_0_sub_step_38 sub_fft_0_sub_step_39 sub_fft_0_sub_step_40 sub_fft_0_sub_step_41 sub_fft_0_sub_step_42 sub_fft_0_sub_step_43 sub_fft_0_sub_step_44 sub_fft_0_sub_step_45 sub_fft_0_sub_step_46 sub_fft_0_sub_step_47 sub_fft_0_sub_step_48 sub_fft_0_sub_step_49 sub_fft_0_sub_step_50 sub_fft_0_sub_step_51 sub_fft_0_sub_step_52 sub_fft_0_sub_step_53 sub_fft_0_sub_step_54 sub_fft_0_sub_step_55 sub_fft_0_sub_step_56 sub_fft_0_sub_step_57 sub_fft_0_sub_step_58 sub_fft_0_sub_step_59 sub_fft_0_sub_step_60 sub_fft_0_sub_step_61 sub_fft_0_sub_step_62 sub_fft_0_sub_step_63 sub_fft_0_sub_step_64 sub_fft_0_sub_step_65 sub_fft_0_sub_step_66 sub_fft_0_sub_step_67 sub_fft_0_sub_step_68 sub_fft_0_sub_step_69 sub_fft_0_sub_step_70 sub_fft_0_sub_step_71 sub_fft_0_sub_step_72 sub_fft_0_sub_step_73 sub_fft_0_sub_step_74 sub_fft_0_sub_step_75 sub_fft_0_sub_step_76 sub_fft_0_sub_step_77 sub_fft_0_sub_step_78 sub_fft_0_sub_step_79 sub_fft_0_sub_step_80 sub_fft_0_sub_step_81 sub_fft_0_sub_step_82 sub_fft_0_sub_step_83 sub_fft_0_sub_step_84 sub_fft_0_sub_step_85 sub_fft_0_sub_step_86 sub_fft_0_sub_step_87 sub_fft_0_sub_step_88 sub_fft_0_sub_step_89 sub_fft_0_sub_step_90 sub_fft_0_sub_step_91 sub_fft_0_sub_step_92 sub_fft_0_sub_step_93 sub_fft_0_sub_step_94 sub_fft_0_sub_step_95 sub_fft_0_sub_step_96 sub_fft_0_sub_step_97 sub_fft_0_sub_step_98 sub_fft_0_sub_step_99 sub_fft_1_sub_step_0 sub_fft_1_sub_step_1 sub_fft_1_sub_step_2 sub_fft_1_sub_step_3 sub_fft_1_sub_step_4 sub_fft_1_sub_step_5 sub_fft_1_sub_step_6 sub_fft_1_sub_step_7 sub_fft_1_sub_step_8 sub_fft_1_sub_step_9 sub_fft_1_sub_step_10 sub_fft_1_sub_step_11 sub_fft_1_sub_step_12 sub_fft_1_sub_step_13 sub_fft_1_sub_step_14 sub_fft_1_sub_step_15 sub_fft_1_sub_step_16 sub_fft_1_sub_step_17 sub_fft_1_sub_step_18 sub_fft_1_sub_step_19 sub_fft_1_sub_step_20 sub_fft_1_sub_step_21 sub_fft_1_sub_step_22 sub_fft_1_sub_step_23 sub_fft_1_sub_step_24 sub_fft_1_sub_step_25 sub_fft_1_sub_step_26 sub_fft_1_sub_step_27 sub_fft_1_sub_step_28 sub_fft_1_sub_step_29 sub_fft_1_sub_step_30 sub_fft_1_sub_step_31 sub_fft_1_sub_step_32 sub_fft_1_sub_step_33 sub_fft_1_sub_step_34 sub_fft_1_sub_step_35 sub_fft_1_sub_step_36 sub_fft_1_sub_step_37 sub_fft_1_sub_step_38 sub_fft_1_sub_step_39 sub_fft_1_sub_step_40 sub_fft_1_sub_step_41 sub_fft_1_sub_step_42 sub_fft_1_sub_step_43 sub_fft_1_sub_step_44 sub_fft_1_sub_step_45 sub_fft_1_sub_step_46 sub_fft_1_sub_step_47 sub_fft_1_sub_step_48 sub_fft_1_sub_step_49 sub_fft_1_sub_step_50 sub_fft_1_sub_step_51 sub_fft_1_sub_step_52 sub_fft_1_sub_step_53 sub_fft_1_sub_step_54 sub_fft_1_sub_step_55 sub_fft_1_sub_step_56 sub_fft_1_sub_step_57 sub_fft_1_sub_step_58 sub_fft_1_sub_step_59 sub_fft_1_sub_step_60 sub_fft_1_sub_step_61 sub_fft_1_sub_step_62 sub_fft_1_sub_step_63 sub_fft_1_sub_step_64 sub_fft_1_sub_step_65 sub_fft_1_sub_step_66 sub_fft_1_sub_step_67 sub_fft_1_sub_step_68 sub_fft_1_sub_step_69 sub_fft_1_sub_step_70 sub_fft_1_sub_step_71 sub_fft_1_sub_step_72 sub_fft_1_sub_step_73 sub_fft_1_sub_step_74 sub_fft_1_sub_step_75 sub_fft_1_sub_step_76 sub_fft_1_sub_step_77 sub_fft_1_sub_step_78 sub_fft_1_sub_step_79 sub_fft_1_sub_step_80 sub_fft_1_sub_step_81 sub_fft_1_sub_step_82 sub_fft_1_sub_step_83 sub_fft_1_sub_step_84 sub_fft_1_sub_step_85 sub_fft_1_sub_step_86 sub_fft_1_sub_step_87 sub_fft_1_sub_step_88 sub_fft_1_sub_step_89 sub_fft_1_sub_step_90 sub_fft_1_sub_step_91 sub_fft_1_sub_step_92 sub_fft_1_sub_step_93 sub_fft_1_sub_step_94 sub_fft_1_sub_step_95 sub_fft_1_sub_step_96 sub_fft_1_sub_step_97 sub_fft_1_sub_step_98 sub_fft_1_sub_step_99 sub_fft_2_sub_step_0 sub_fft_2_sub_step_1 sub_fft_2_sub_step_2 sub_fft_2_sub_step_3 sub_fft_2_sub_step_4 sub_fft_2_sub_step_5 sub_fft_2_sub_step_6 sub_fft_2_sub_step_7 sub_fft_2_sub_step_8 sub_fft_2_sub_step_9 sub_fft_2_sub_step_10 sub_fft_2_sub_step_11 sub_fft_2_sub_step_12 sub_fft_2_sub_step_13 sub_fft_2_sub_step_14 sub_fft_2_sub_step_15 sub_fft_2_sub_step_16 sub_fft_2_sub_step_17 sub_fft_2_sub_step_18 sub_fft_2_sub_step_19 sub_fft_2_sub_step_20 sub_fft_2_sub_step_21 sub_fft_2_sub_step_22 sub_fft_2_sub_step_23 sub_fft_2_sub_step_24 sub_fft_2_sub_step_25 sub_fft_2_sub_step_26 sub_fft_2_sub_step_27 sub_fft_2_sub_step_28 sub_fft_2_sub_step_29 sub_fft_2_sub_step_30 sub_fft_2_sub_step_31 sub_fft_2_sub_step_32 sub_fft_2_sub_step_33 sub_fft_2_sub_step_34 sub_fft_2_sub_step_35 sub_fft_2_sub_step_36 sub_fft_2_sub_step_37 sub_fft_2_sub_step_38 sub_fft_2_sub_step_39 sub_fft_2_sub_step_40 sub_fft_2_sub_step_41 sub_fft_2_sub_step_42 sub_fft_2_sub_step_43 sub_fft_2_sub_step_44 sub_fft_2_sub_step_45 sub_fft_2_sub_step_46 sub_fft_2_sub_step_47 sub_fft_2_sub_step_48 sub_fft_2_sub_step_49 sub_fft_2_sub_step_50 sub_fft_2_sub_step_51 sub_fft_2_sub_step_52 sub_fft_2_sub_step_53 sub_fft_2_sub_step_54 sub_fft_2_sub_step_55 sub_fft_2_sub_step_56 sub_fft_2_sub_step_57 sub_fft_2_sub_step_58 sub_fft_2_sub_step_59 sub_fft_2_sub_step_60 sub_fft_2_sub_step_61 sub_fft_2_sub_step_62 sub_fft_2_sub_step_63 sub_fft_2_sub_step_64 sub_fft_2_sub_step_65 sub_fft_2_sub_step_66 sub_fft_2_sub_step_67 sub_fft_2_sub_step_68 sub_fft_2_sub_step_69 sub_fft_2_sub_step_70 sub_fft_2_sub_step_71 sub_fft_2_sub_step_72 sub_fft_2_sub_step_73 sub_fft_2_sub_step_74 sub_fft_2_sub_step_75 sub_fft_2_sub_step_76 sub_fft_2_sub_step_77 sub_fft_2_sub_step_78 sub_fft_2_sub_step_79 sub_fft_2_sub_step_80 sub_fft_2_sub_step_81 sub_fft_2_sub_step_82 sub_fft_2_sub_step_83 sub_fft_2_sub_step_84 sub_fft_2_sub_step_85 sub_fft_2_sub_step_86 sub_fft_2_sub_step_87 sub_fft_2_sub_step_88 sub_fft_2_sub_step_89 sub_fft_2_sub_step_90 sub_fft_2_sub_step_91 sub_fft_2_sub_step_92 sub_fft_2_sub_step_93 sub_fft_2_sub_step_94 sub_fft_2_sub_step_95 sub_fft_2_sub_step_96 sub_fft_2_sub_step_97 sub_fft_2_sub_step_98 sub_fft_2_sub_step_99 sub_fft_3_sub_step_0 sub_fft_3_sub_step_1 sub_fft_3_sub_step_2 sub_fft_3_sub_step_3 sub_fft_3_sub_step_4 sub_fft_3_sub_step_5 sub_fft_3_sub_step_6 sub_fft_3_sub_step_7 sub_fft_3_sub_step_8 sub_fft_3_sub_step_9 sub_fft_3_sub_step_10 sub_fft_3_sub_step_11 sub_fft_3_sub_step_12 sub_fft_3_sub_step_13 sub_fft_3_sub_step_14 sub_fft_3_sub_step_15 sub_fft_3_sub_step_16 sub_fft_3_sub_step_17 sub_fft_3_sub_step_18 sub_fft_3_sub_step_19 sub_fft_3_sub_step_20 sub_fft_3_sub_step_21 sub_fft_3_sub_step_22 sub_fft_3_sub_step_23 sub_fft_3_sub_step_24 sub_fft_3_sub_step_25 sub_fft_3_sub_step_26 sub_fft_3_sub_step_27 sub_fft_3_sub_step_28 sub_fft_3_sub_step_29 sub_fft_3_sub_step_30 sub_fft_3_sub_step_31 sub_fft_3_sub_step_32 sub_fft_3_sub_step_33 sub_fft_3_sub_step_34 sub_fft_3_sub_step_35 sub_fft_3_sub_step_36 sub_fft_3_sub_step_37 sub_fft_3_sub_step_38 sub_fft_3_sub_step_39 sub_fft_3_sub_step_40 sub_fft_3_sub_step_41 sub_fft_3_sub_step_42 sub_fft_3_sub_step_43 sub_fft_3_sub_step_44 sub_fft_3_sub_step_45 sub_fft_3_sub_step_46 sub_fft_3_sub_step_47 sub_fft_3_sub_step_48 sub_fft_3_sub_step_49 sub_fft_3_sub_step_50 sub_fft_3_sub_step_51 sub_fft_3_sub_step_52 sub_fft_3_sub_step_53 sub_fft_3_sub_step_54 sub_fft_3_sub_step_55 sub_fft_3_sub_step_56 sub_fft_3_sub_step_57 sub_fft_3_sub_step_58 sub_fft_3_sub_step_59 sub_fft_3_sub_step_60 sub_fft_3_sub_step_61 sub_fft_3_sub_step_62 sub_fft_3_sub_step_63 sub_fft_3_sub_step_64 sub_fft_3_sub_step_65 sub_fft_3_sub_step_66 sub_fft_3_sub_step_67 sub_fft_3_sub_step_68 sub_fft_3_sub_step_69 sub_fft_3_sub_step_70 sub_fft_3_sub_step_71 sub_fft_3_sub_step_72 sub_fft_3_sub_step_73 sub_fft_3_sub_step_74 sub_fft_3_sub_step_75 sub_fft_3_sub_step_76 sub_fft_3_sub_step_77 sub_fft_3_sub_step_78 sub_fft_3_sub_step_79 sub_fft_3_sub_step_80 sub_fft_3_sub_step_81 sub_fft_3_sub_step_82 sub_fft_3_sub_step_83 sub_fft_3_sub_step_84 sub_fft_3_sub_step_85 sub_fft_3_sub_step_86 sub_fft_3_sub_step_87 sub_fft_3_sub_step_88 sub_fft_3_sub_step_89 sub_fft_3_sub_step_90 sub_fft_3_sub_step_91 sub_fft_3_sub_step_92 sub_fft_3_sub_step_93 sub_fft_3_sub_step_94 sub_fft_3_sub_step_95 sub_fft_3_sub_step_96 sub_fft_3_sub_step_97 sub_fft_3_sub_step_98 sub_fft_3_sub_step_99 sub_fft_4_sub_step_0 sub_fft_4_sub_step_1 sub_fft_4_sub_step_2 sub_fft_4_sub_step_3 sub_fft_4_sub_step_4 sub_fft_4_sub_step_5 sub_fft_4_sub_step_6 sub_fft_4_sub_step_7 sub_fft_4_sub_step_8 sub_fft_4_sub_step_9 sub_fft_4_sub_step_10 sub_fft_4_sub_step_11 sub_fft_4_sub_step_12 sub_fft_4_sub_step_13 sub_fft_4_sub_step_14 sub_fft_4_sub_step_15 sub_fft_4_sub_step_16 sub_fft_4_sub_step_17 sub_fft_4_sub_step_18 sub_fft_4_sub_step_19 sub_fft_4_sub_step_20 sub_fft_4_sub_step_21 sub_fft_4_sub_step_22 sub_fft_4_sub_step_23 sub_fft_4_sub_step_24 sub_fft_4_sub_step_25 sub_fft_4_sub_step_26 sub_fft_4_sub_step_27 sub_fft_4_sub_step_28 sub_fft_4_sub_step_29 sub_fft_4_sub_step_30 sub_fft_4_sub_step_31 sub_fft_4_sub_step_32 sub_fft_4_sub_step_33 sub_fft_4_sub_step_34 sub_fft_4_sub_step_35 sub_fft_4_sub_step_36 sub_fft_4_sub_step_37 sub_fft_4_sub_step_38 sub_fft_4_sub_step_39 sub_fft_4_sub_step_40 sub_fft_4_sub_step_41 sub_fft_4_sub_step_42 sub_fft_4_sub_step_43 sub_fft_4_sub_step_44 sub_fft_4_sub_step_45 sub_fft_4_sub_step_46 sub_fft_4_sub_step_47 sub_fft_4_sub_step_48 sub_fft_4_sub_step_49 sub_fft_4_sub_step_50 sub_fft_4_sub_step_51 sub_fft_4_sub_step_52 sub_fft_4_sub_step_53 sub_fft_4_sub_step_54 sub_fft_4_sub_step_55 sub_fft_4_sub_step_56 sub_fft_4_sub_step_57 sub_fft_4_sub_step_58 sub_fft_4_sub_step_59 sub_fft_4_sub_step_60 sub_fft_4_sub_step_61 sub_fft_4_sub_step_62 sub_fft_4_sub_step_63 sub_fft_4_sub_step_64 sub_fft_4_sub_step_65 sub_fft_4_sub_step_66 sub_fft_4_sub_step_67 sub_fft_4_sub_step_68 sub_fft_4_sub_step_69 sub_fft_4_sub_step_70 sub_fft_4_sub_step_71 sub_fft_4_sub_step_72 sub_fft_4_sub_step_73 sub_fft_4_sub_step_74 sub_fft_4_sub_step_75 sub_fft_4_sub_step_76 sub_fft_4_sub_step_77 sub_fft_4_sub_step_78 sub_fft_4_sub_step_79 sub_fft_4_sub_step_80 sub_fft_4_sub_step_81 sub_fft_4_sub_step_82 sub_fft_4_sub_step_83 sub_fft_4_sub_step_84 sub_fft_4_sub_step_85 sub_fft_4_sub_step_86 sub_fft_4_sub_step_87 sub_fft_4_sub_step_88 sub_fft_4_sub_step_89 sub_fft_4_sub_step_90 sub_fft_4_sub_step_91 sub_fft_4_sub_step_92 sub_fft_4_sub_step_93 sub_fft_4_sub_step_94 sub_fft_4_sub_step_95 sub_fft_4_sub_step_96 sub_fft_4_sub_step_97 sub_fft_4_sub_step_98 sub_fft_4_sub_step_99 sub_fft_5_sub_step_0 sub_fft_5_sub_step_1 sub_fft_5_sub_step_2 sub_fft_5_sub_step_3 sub_fft_5_sub_step_4 sub_fft_5_sub_step_5 sub_fft_5_sub_step_6 sub_fft_5_sub_step_7 sub_fft_5_sub_step_8 sub_fft_5_sub_step_9 sub_fft_5_sub_step_10 sub_fft_5_sub_step_11 sub_fft_5_sub_step_12 sub_fft_5_sub_step_13 sub_fft_5_sub_step_14 sub_fft_5_sub_step_15 sub_fft_5_sub_step_16 sub_fft_5_sub_step_17 sub_fft_5_sub_step_18 sub_fft_5_sub_step_19 sub_fft_5_sub_step_20 sub_fft_5_sub_step_21 sub_fft_5_sub_step_22 sub_fft_5_sub_step_23 sub_fft_5_sub_step_24 sub_fft_5_sub_step_25 sub_fft_5_sub_step_26 sub_fft_5_sub_step_27 sub_fft_5_sub_step_28 sub_fft_5_sub_step_29 sub_fft_5_sub_step_30 sub_fft_5_sub_step_31 sub_fft_5_sub_step_32 sub_fft_5_sub_step_33 sub_fft_5_sub_step_34 sub_fft_5_sub_step_35 sub_fft_5_sub_step_36 sub_fft_5_sub_step_37 sub_fft_5_sub_step_38 sub_fft_5_sub_step_39 sub_fft_5_sub_step_40 sub_fft_5_sub_step_41 sub_fft_5_sub_step_42 sub_fft_5_sub_step_43 sub_fft_5_sub_step_44 sub_fft_5_sub_step_45 sub_fft_5_sub_step_46 sub_fft_5_sub_step_47 sub_fft_5_sub_step_48 sub_fft_5_sub_step_49 sub_fft_5_sub_step_50 sub_fft_5_sub_step_51 sub_fft_5_sub_step_52 sub_fft_5_sub_step_53 sub_fft_5_sub_step_54 sub_fft_5_sub_step_55 sub_fft_5_sub_step_56 sub_fft_5_sub_step_57 sub_fft_5_sub_step_58 sub_fft_5_sub_step_59 sub_fft_5_sub_step_60 sub_fft_5_sub_step_61 sub_fft_5_sub_step_62 sub_fft_5_sub_step_63 sub_fft_5_sub_step_64 sub_fft_5_sub_step_65 sub_fft_5_sub_step_66 sub_fft_5_sub_step_67 sub_fft_5_sub_step_68 sub_fft_5_sub_step_69 sub_fft_5_sub_step_70 sub_fft_5_sub_step_71 sub_fft_5_sub_step_72 sub_fft_5_sub_step_73 sub_fft_5_sub_step_74 sub_fft_5_sub_step_75 sub_fft_5_sub_step_76 sub_fft_5_sub_step_77 sub_fft_5_sub_step_78 sub_fft_5_sub_step_79 sub_fft_5_sub_step_80 sub_fft_5_sub_step_81 sub_fft_5_sub_step_82 sub_fft_5_sub_step_83 sub_fft_5_sub_step_84 sub_fft_5_sub_step_85 sub_fft_5_sub_step_86 sub_fft_5_sub_step_87 sub_fft_5_sub_step_88 sub_fft_5_sub_step_89 sub_fft_5_sub_step_90 sub_fft_5_sub_step_91 sub_fft_5_sub_step_92 sub_fft_5_sub_step_93 sub_fft_5_sub_step_94 sub_fft_5_sub_step_95 sub_fft_5_sub_step_96 sub_fft_5_sub_step_97 sub_fft_5_sub_step_98 sub_fft_5_sub_step_99 sub_fft_6_sub_step_0 sub_fft_6_sub_step_1 sub_fft_6_sub_step_2 sub_fft_6_sub_step_3 sub_fft_6_sub_step_4 sub_fft_6_sub_step_5 sub_fft_6_sub_step_6 sub_fft_6_sub_step_7 sub_fft_6_sub_step_8 sub_fft_6_sub_step_9 sub_fft_6_sub_step_10 sub_fft_6_sub_step_11 sub_fft_6_sub_step_12 sub_fft_6_sub_step_13 sub_fft_6_sub_step_14 sub_fft_6_sub_step_15 sub_fft_6_sub_step_16 sub_fft_6_sub_step_17 sub_fft_6_sub_step_18 sub_fft_6_sub_step_19 sub_fft_6_sub_step_20 sub_fft_6_sub_step_21 sub_fft_6_sub_step_22 sub_fft_6_sub_step_23 sub_fft_6_sub_step_24 sub_fft_6_sub_step_25 sub_fft_6_sub_step_26 sub_fft_6_sub_step_27 sub_fft_6_sub_step_28 sub_fft_6_sub_step_29 sub_fft_6_sub_step_30 sub_fft_6_sub_step_31 sub_fft_6_sub_step_32 sub_fft_6_sub_step_33 sub_fft_6_sub_step_34 sub_fft_6_sub_step_35 sub_fft_6_sub_step_36 sub_fft_6_sub_step_37 sub_fft_6_sub_step_38 sub_fft_6_sub_step_39 sub_fft_6_sub_step_40 sub_fft_6_sub_step_41 sub_fft_6_sub_step_42 sub_fft_6_sub_step_43 sub_fft_6_sub_step_44 sub_fft_6_sub_step_45 sub_fft_6_sub_step_46 sub_fft_6_sub_step_47 sub_fft_6_sub_step_48 sub_fft_6_sub_step_49 sub_fft_6_sub_step_50 sub_fft_6_sub_step_51 sub_fft_6_sub_step_52 sub_fft_6_sub_step_53 sub_fft_6_sub_step_54 sub_fft_6_sub_step_55 sub_fft_6_sub_step_56 sub_fft_6_sub_step_57 sub_fft_6_sub_step_58 sub_fft_6_sub_step_59 sub_fft_6_sub_step_60 sub_fft_6_sub_step_61 sub_fft_6_sub_step_62 sub_fft_6_sub_step_63 sub_fft_6_sub_step_64 sub_fft_6_sub_step_65 sub_fft_6_sub_step_66 sub_fft_6_sub_step_67 sub_fft_6_sub_step_68 sub_fft_6_sub_step_69 sub_fft_6_sub_step_70 sub_fft_6_sub_step_71 sub_fft_6_sub_step_72 sub_fft_6_sub_step_73 sub_fft_6_sub_step_74 sub_fft_6_sub_step_75 sub_fft_6_sub_step_76 sub_fft_6_sub_step_77 sub_fft_6_sub_step_78 sub_fft_6_sub_step_79 sub_fft_6_sub_step_80 sub_fft_6_sub_step_81 sub_fft_6_sub_step_82 sub_fft_6_sub_step_83 sub_fft_6_sub_step_84 sub_fft_6_sub_step_85 sub_fft_6_sub_step_86 sub_fft_6_sub_step_87 sub_fft_6_sub_step_88 sub_fft_6_sub_step_89 sub_fft_6_sub_step_90 sub_fft_6_sub_step_91 sub_fft_6_sub_step_92 sub_fft_6_sub_step_93 sub_fft_6_sub_step_94 sub_fft_6_sub_step_95 sub_fft_6_sub_step_96 sub_fft_6_sub_step_97 sub_fft_6_sub_step_98 sub_fft_6_sub_step_99 sub_fft_7_sub_step_0 sub_fft_7_sub_step_1 sub_fft_7_sub_step_2 sub_fft_7_sub_step_3 sub_fft_7_sub_step_4 sub_fft_7_sub_step_5 sub_fft_7_sub_step_6 sub_fft_7_sub_step_7 sub_fft_7_sub_step_8 sub_fft_7_sub_step_9 sub_fft_7_sub_step_10 sub_fft_7_sub_step_11 sub_fft_7_sub_step_12 sub_fft_7_sub_step_13 sub_fft_7_sub_step_14 sub_fft_7_sub_step_15 sub_fft_7_sub_step_16 sub_fft_7_sub_step_17 sub_fft_7_sub_step_18 sub_fft_7_sub_step_19 sub_fft_7_sub_step_20 sub_fft_7_sub_step_21 sub_fft_7_sub_step_22 sub_fft_7_sub_step_23 sub_fft_7_sub_step_24 sub_fft_7_sub_step_25 sub_fft_7_sub_step_26 sub_fft_7_sub_step_27 sub_fft_7_sub_step_28 sub_fft_7_sub_step_29 sub_fft_7_sub_step_30 sub_fft_7_sub_step_31 sub_fft_7_sub_step_32 sub_fft_7_sub_step_33 sub_fft_7_sub_step_34 sub_fft_7_sub_step_35 sub_fft_7_sub_step_36 sub_fft_7_sub_step_37 sub_fft_7_sub_step_38 sub_fft_7_sub_step_39 sub_fft_7_sub_step_40 sub_fft_7_sub_step_41 sub_fft_7_sub_step_42 sub_fft_7_sub_step_43 sub_fft_7_sub_step_44 sub_fft_7_sub_step_45 sub_fft_7_sub_step_46 sub_fft_7_sub_step_47 sub_fft_7_sub_step_48 sub_fft_7_sub_step_49 sub_fft_7_sub_step_50 sub_fft_7_sub_step_51 sub_fft_7_sub_step_52 sub_fft_7_sub_step_53 sub_fft_7_sub_step_54 sub_fft_7_sub_step_55 sub_fft_7_sub_step_56 sub_fft_7_sub_step_57 sub_fft_7_sub_step_58 sub_fft_7_sub_step_59 sub_fft_7_sub_step_60 sub_fft_7_sub_step_61 sub_fft_7_sub_step_62 sub_fft_7_sub_step_63 sub_fft_7_sub_step_64 sub_fft_7_sub_step_65 sub_fft_7_sub_step_66 sub_fft_7_sub_step_67 sub_fft_7_sub_step_68 sub_fft_7_sub_step_69 sub_fft_7_sub_step_70 sub_fft_7_sub_step_71 sub_fft_7_sub_step_72 sub_fft_7_sub_step_73 sub_fft_7_sub_step_74 sub_fft_7_sub_step_75 sub_fft_7_sub_step_76 sub_fft_7_sub_step_77 sub_fft_7_sub_step_78 sub_fft_7_sub_step_79 sub_fft_7_sub_step_80 sub_fft_7_sub_step_81 sub_fft_7_sub_step_82 sub_fft_7_sub_step_83 sub_fft_7_sub_step_84 sub_fft_7_sub_step_85 sub_fft_7_sub_step_86 sub_fft_7_sub_step_87 sub_fft_7_sub_step_88 sub_fft_7_sub_step_89 sub_fft_7_sub_step_90 sub_fft_7_sub_step_91 sub_fft_7_sub_step_92 sub_fft_7_sub_step_93 sub_fft_7_sub_step_94 sub_fft_7_sub_step_95 sub_fft_7_sub_step_96 sub_fft_7_sub_step_97 sub_fft_7_sub_step_98 sub_fft_7_sub_step_99 sub_fft_8_sub_step_0 sub_fft_8_sub_step_1 sub_fft_8_sub_step_2 sub_fft_8_sub_step_3 sub_fft_8_sub_step_4 sub_fft_8_sub_step_5 sub_fft_8_sub_step_6 sub_fft_8_sub_step_7 sub_fft_8_sub_step_8 sub_fft_8_sub_step_9 sub_fft_8_sub_step_10 sub_fft_8_sub_step_11 sub_fft_8_sub_step_12 sub_fft_8_sub_step_13 sub_fft_8_sub_step_14 sub_fft_8_sub_step_15 sub_fft_8_sub_step_16 sub_fft_8_sub_step_17 sub_fft_8_sub_step_18 sub_fft_8_sub_step_19 sub_fft_8_sub_step_20 sub_fft_8_sub_step_21 sub_fft_8_sub_step_22 sub_fft_8_sub_step_23 sub_fft_8_sub_step_24 sub_fft_8_sub_step_25 sub_fft_8_sub_step_26 sub_fft_8_sub_step_27 sub_fft_8_sub_step_28 sub_fft_8_sub_step_29 sub_fft_8_sub_step_30 sub_fft_8_sub_step_31 sub_fft_8_sub_step_32 sub_fft_8_sub_step_33 sub_fft_8_sub_step_34 sub_fft_8_sub_step_35 sub_fft_8_sub_step_36 sub_fft_8_sub_step_37 sub_fft_8_sub_step_38 sub_fft_8_sub_step_39 sub_fft_8_sub_step_40 sub_fft_8_sub_step_41 sub_fft_8_sub_step_42 sub_fft_8_sub_step_43 sub_fft_8_sub_step_44 sub_fft_8_sub_step_45 sub_fft_8_sub_step_46 sub_fft_8_sub_step_47 sub_fft_8_sub_step_48 sub_fft_8_sub_step_49 sub_fft_8_sub_step_50 sub_fft_8_sub_step_51 sub_fft_8_sub_step_52 sub_fft_8_sub_step_53 sub_fft_8_sub_step_54 sub_fft_8_sub_step_55 sub_fft_8_sub_step_56 sub_fft_8_sub_step_57 sub_fft_8_sub_step_58 sub_fft_8_sub_step_59 sub_fft_8_sub_step_60 sub_fft_8_sub_step_61 sub_fft_8_sub_step_62 sub_fft_8_sub_step_63 sub_fft_8_sub_step_64 sub_fft_8_sub_step_65 sub_fft_8_sub_step_66 sub_fft_8_sub_step_67 sub_fft_8_sub_step_68 sub_fft_8_sub_step_69 sub_fft_8_sub_step_70 sub_fft_8_sub_step_71 sub_fft_8_sub_step_72 sub_fft_8_sub_step_73 sub_fft_8_sub_step_74 sub_fft_8_sub_step_75 sub_fft_8_sub_step_76 sub_fft_8_sub_step_77 sub_fft_8_sub_step_78 sub_fft_8_sub_step_79 sub_fft_8_sub_step_80 sub_fft_8_sub_step_81 sub_fft_8_sub_step_82 sub_fft_8_sub_step_83 sub_fft_8_sub_step_84 sub_fft_8_sub_step_85 sub_fft_8_sub_step_86 sub_fft_8_sub_step_87 sub_fft_8_sub_step_88 sub_fft_8_sub_step_89 sub_fft_8_sub_step_90 sub_fft_8_sub_step_91 sub_fft_8_sub_step_92 sub_fft_8_sub_step_93 sub_fft_8_sub_step_94 sub_fft_8_sub_step_95 sub_fft_8_sub_step_96 sub_fft_8_sub_step_97 sub_fft_8_sub_step_98 sub_fft_8_sub_step_99 sub_fft_9_sub_step_0 sub_fft_9_sub_step_1 sub_fft_9_sub_step_2 sub_fft_9_sub_step_3 sub_fft_9_sub_step_4 sub_fft_9_sub_step_5 sub_fft_9_sub_step_6 sub_fft_9_sub_step_7 sub_fft_9_sub_step_8 sub_fft_9_sub_step_9 sub_fft_9_sub_step_10 sub_fft_9_sub_step_11 sub_fft_9_sub_step_12 sub_fft_9_sub_step_13 sub_fft_9_sub_step_14 sub_fft_9_sub_step_15 sub_fft_9_sub_step_16 sub_fft_9_sub_step_17 sub_fft_9_sub_step_18 sub_fft_9_sub_step_19 sub_fft_9_sub_step_20 sub_fft_9_sub_step_21 sub_fft_9_sub_step_22 sub_fft_9_sub_step_23 sub_fft_9_sub_step_24 sub_fft_9_sub_step_25 sub_fft_9_sub_step_26 sub_fft_9_sub_step_27 sub_fft_9_sub_step_28 sub_fft_9_sub_step_29 sub_fft_9_sub_step_30 sub_fft_9_sub_step_31 sub_fft_9_sub_step_32 sub_fft_9_sub_step_33 sub_fft_9_sub_step_34 sub_fft_9_sub_step_35 sub_fft_9_sub_step_36 sub_fft_9_sub_step_37 sub_fft_9_sub_step_38 sub_fft_9_sub_step_39 sub_fft_9_sub_step_40 sub_fft_9_sub_step_41 sub_fft_9_sub_step_42 sub_fft_9_sub_step_43 sub_fft_9_sub_step_44 sub_fft_9_sub_step_45 sub_fft_9_sub_step_46 sub_fft_9_sub_step_47 sub_fft_9_sub_step_48 sub_fft_9_sub_step_49 sub_fft_9_sub_step_50 sub_fft_9_sub_step_51 sub_fft_9_sub_step_52 sub_fft_9_sub_step_53 sub_fft_9_sub_step_54 sub_fft_9_sub_step_55 sub_fft_9_sub_step_56 sub_fft_9_sub_step_57 sub_fft_9_sub_step_58 sub_fft_9_sub_step_59 sub_fft_9_sub_step_60 sub_fft_9_sub_step_61 sub_fft_9_sub_step_62 sub_fft_9_sub_step_63 sub_fft_9_sub_step_64 sub_fft_9_sub_step_65 sub_fft_9_sub_step_66 sub_fft_9_sub_step_67 sub_fft_9_sub_step_68 sub_fft_9_sub_step_69 sub_fft_9_sub_step_70 sub_fft_9_sub_step_71 sub_fft_9_sub_step_72 sub_fft_9_sub_step_73 sub_fft_9_sub_step_74 sub_fft_9_sub_step_75 sub_fft_9_sub_step_76 sub_fft_9_sub_step_77 sub_fft_9_sub_step_78 sub_fft_9_sub_step_79 sub_fft_9_sub_step_80 sub_fft_9_sub_step_81 sub_fft_9_sub_step_82 sub_fft_9_sub_step_83 sub_fft_9_sub_step_84 sub_fft_9_sub_step_85 sub_fft_9_sub_step_86 sub_fft_9_sub_step_87 sub_fft_9_sub_step_88 sub_fft_9_sub_step_89 sub_fft_9_sub_step_90 sub_fft_9_sub_step_91 sub_fft_9_sub_step_92 sub_fft_9_sub_step_93 sub_fft_9_sub_step_94 sub_fft_9_sub_step_95 sub_fft_9_sub_step_96 sub_fft_9_sub_step_97 sub_fft_9_sub_step_98 sub_fft_9_sub_step_99
feature_infos=[-2.1819700650730707:3.9060827643902569] [-3.1322081906774102:4.0768664657770266] [-10:0.42512543784080148] [-6.7867475865773867:1.7157652620109902] [-0.92124315092478881:1.0665492315485503] [-1.6288281045833186:9.4051576302268369] [-8.9206924895531756:4.7116369616909335] [-1.9410186276899424:8.1513779840367491] [-10:5.7613197451557188] [-10:4.5598721806755469] [-8.0570609696889015:3.6613641255787561] [-4.1847277962670555:4.1438540206191838] [-4.1038491209949735:5.1463664570696537] [-6.28930723371802:5.8577013543311605] [-4.3035689939121227:5.2744420376676535] [-7.0537750322195629:7.3434752752973029] [-10:7.7825479409156415] [-6.3696250566456998:9.778332687808847] [-3.8407361769480239:7.1889558285347714] [-7.6496972383729078:10] [-2.7195964693908881:8.2228796032731228] [-7.9550175899337185:5.5510404305753376] [-10:4.8189919386156364] [-10:5.4118147234716014] [-4.3459346072881351:4.6296818530791084] [-8.0211586283666225:10] [-2.8296213087828779:4.957308055204753] [-8.5175900783559886:8.3924103731448145] [-6.7221447300606165:10] [-10:10] [-8.3378961436318448:10] [-7.9145516956453941:10] [-2.7123418240410277:7.5815085843677021] [-5.3677066378264984:10] [-4.2493285915723922:5.1080626835230367] [-3.9656371874634169:3.6564216590248386] [-2.6862926747927478:4.6940329953286684] [-10:3.3222447427750703] [-4.1108746586214622:10] [-10:5.0046959607833044] [-2.459176230370872:6.3638289398055008] [-3.4178773765986032:4.7860893112587943] [-6.3848257403437643:9.6709147257583563] [-3.8258967398718959:7.1708655292528478] [-7.6624317042404941:10] [-2.644586678839087:8.5500605853841787] [-10:4.9513831945245288] [-8.1764759313370998:5.455620061677946] [-5.7039665221974429:8.447366021504406] [-6.7905232810506426:3.415404853524437] [-8.2151343349066863:10] [-2.8357669805749981:4.9715714846676935] [-8.3230745910742421:8.457662246127482] [-6.578726762401085:10] [-10:10] [-8.2371445942562076:10] [-7.9551288709293635:10] [-2.7334896801344639:7.4212448439847991] [-4.9975210377331534:10] [-5.1525192446900236:4.6598181706001673] [-3.9771072752213072:4.5402704837718044] [-3.0163870615441475:4.4916520717303712] [-10:3.9394298096323705] [-4.927711597789262:10] [-10:6.2774180994946684] [-2.6776240814331009:5.6694504155740235] [-3.5525734702031224:4.6045315346812927] [-6.3727843791942069:9.7535836412538544] [-3.8395049879099465:7.1899952582296738] [-7.6200607001298453:10] [-2.7009297965708474:8.2305871335179717] [-8.7330658571322104:5.4005398984253326] [-9.606847195346802:5.0760057044897495] [-6.1667286823739564:7.4820526662423674] [-4.5427818884757754:4.4553476664884837] [-8.8400318989129492:10] [-2.875190366390413:4.9063409749074252] [-8.0151765021345671:8.6422200123578623] [-6.5816696539235364:10] [-10:10] [-8.3538086706717305:10] [-7.6659204152915716:10] [-2.6734653337363379:7.7557999070857315] [-4.9764553024983424:10] [-5.6342134416908429:4.5087555798506722] [-3.9824046663758068:4.5421885346219364] [-3.1425072921604782:4.3832351442419375] [-10:4.0849860978672581] [-4.9516143201432099:10] [-10:6.1422159819463333] [-2.6503614757925953:5.682287813191973] [-3.507707763671128:4.669568804503669] [-6.3759939366936838:9.7795949506507931] [-3.8360274313622407:7.1854488873636404] [-7.5891866830737902:10] [-2.6943547191026069:8.2534977643260508] [-8.9326044092933667:5.361806516501046] [-8.3136950514760404:5.317230192097834] [-6.2720476565252685:7.4548340495549867] [-4.5291501937430594:4.4802761117813983] [-8.9145910471907612:10] [-2.888614918730454:4.909868864044336] [-7.9971263396504568:8.7206073707433749] [-6.605344648915259:10] [-10:10] [-8.3989569280080527:10] [-7.8429861734896127:10] [-2.6751309500025542:7.7073793523789433] [-4.9760914971872339:10] [-5.0593792307835939:4.6858267880425952] [-3.9745216980274662:4.5099895733255808] [-3.124861706309833:4.3828757827492515] [-10:4.0806189163829956] [-4.8861232921813187:10] [-10:6.0121067955987488] [-2.6735532145452607:5.6558450077320934] [-3.4900958924179104:4.6885630793996649] [-1.8412299618846188:2.1445334814468127] [-1.9352543127874919:2.1580604656498825] [-1.8615331007463705:2.1125407196942732] [-1.9169868586318921:2.1516285876593506] [-1.8085896426862764:2.1573235346237647] [-1.8680806583947529:2.113593014377432] [-1.8188032732321104:2.1087359347838142] [-2.0616798889900827:2.1462631301136432] [-1.9004503017751968:2.1528655964292298] [-1.9278766507826999:2.1725622678169088] [-1.8381406069156132:2.1444656203395422] [-2.0015125718811189:2.1376339052626525] [-1.8962924236438092:2.1355073327356187] [-1.9724969605724292:2.1487113814541647] [-1.8816803588813389:2.139467056158423] [-1.8837005585069144:2.1456772826712469] [-1.8299493945031653:2.127100045544414] [-1.9393601807998209:2.1171714699302737] [-2.030643712537914:2.1460278718681307] [-1.9099244597828453:2.1350805818679417] [-2.1150073809462686:2.1325889006088832] [-1.9518354418625472:2.1468263055993138] [-2.1225356648333573:2.1238935370938843] [-1.9385460938758832:2.1025926027335755] [-1.8091993796681971:2.1483415407499291] [-1.8372489153815359:2.1505293752287598] [-1.9254336121761679:2.1536700519795611] [-1.8673585973223652:2.1194243950707761] [-1.9117173500657867:2.1527548908605478] [-1.8092449029826148:2.1611364857442288] [-1.8599633951554173:2.1074694689766797] [-1.8243874942136709:2.1109875218281653] [-2.0596950197545545:2.1391485960106551] [-1.8982886486915695:2.1567143369803063] [-1.9311848219033032:2.1708802647575558] [-1.8417355561642279:2.1493802753434808] [-2.0031640668510176:2.1391070340354887] [-1.9155778284562168:2.1469794008046521] [-1.9754629529627199:2.1429002892823146] [-1.8751235069137051:2.135162370076412] [-1.8764074180052064:2.1402550086266889] [-1.8273193598089617:2.124555436320108] [-1.9369894566893893:2.1189968381914017] [-2.0260655372728245:2.1503186698253507] [-1.9088698993823368:2.1399793815445478] [-2.121782993557122:2.1289695734314562] [-1.9580722214557231:2.1470687122512242] [-2.1274523183065481:2.1130053276557659] [-1.9376964220497657:2.099083229820804] [-1.7963659679957285:2.1451690990156806] [-1.8357974791566265:2.1462107380936568] [-1.9323050089607976:2.1530240981468589] [-1.8684478480627544:2.1150509487884666] [-1.9171966513576288:2.1443040480286171] [-1.8085199804308405:2.1588743992863355] [-1.8706859671770268:2.1122609628683962] [-1.8273832852627008:2.1088835945399418] [-2.059548454807937:2.1410620691544699] [-1.9019228701669693:2.1620345349942678] [-1.9307034899027096:2.1724929339733299] [-1.8371482424446028:2.1380525527541985] [-2.0038210876538707:2.1310716641514489] [-1.9124113043462332:2.1463351798581805] [-1.9714499436771049:2.1473145331950221] [-1.8796410421269871:2.1410754085113721] [-1.8775254696500387:2.1490443438290141] [-1.8291246271097548:2.1252065367582453] [-1.9335346783520508:2.1207779617950706] [-2.0296257898865342:2.143538107825389] [-1.9102931837260555:2.1324644047354799] [-2.1136063361690645:2.1378709759704733] [-1.9525419541546309:2.1512247793517307] [-2.1245701702917881:2.1171990603984523] [-1.9474831775099484:2.10302348288899] [-1.8067862925331004:2.1555055212814791] [-1.8356126537994679:2.148728014290413] [-1.935074298531112:2.1577468985090458] [-1.8679512843480015:2.117171960818117] [-1.9142802031081561:2.1515292592469826] [-1.8080870988374664:2.1608783846270727] [-1.8721926593921896:2.1129462717238443] [-1.8185964682468942:2.113397231418352] [-2.0659323628552659:2.1429960278908227] [-1.9046358081634005:2.1566010369873254] [-1.9286858372504925:2.1726677086369124] [-1.8383685064552635:2.1536218839189707] [-2.0047823521640802:2.138228224501745] [-1.9084613337763852:2.1499741225418081] [-1.9774569273311835:2.1493884347509087] [-1.8741105502557831:2.1387223033536285] [-1.8832839272727981:2.1418021736282142] [-1.8123740945736144:2.1138163896607702] [-1.9375440580007537:2.1129098173462544] [-2.0294851663169595:2.1468630542966491] [-1.9077357897941192:2.1340804769249733] [-2.1168211267072912:2.1301836911994965] [-1.9532691615317539:2.148226507864424] [-2.129414090500295:2.1138315565258496] [-1.9447331082846679:2.099688277016845] [-1.8114648256755528:2.1505901679051238] [-10:0.29278426283743897] [-10:0.25935575276129996] [-10:0.3636922584918984] [-10:0.25808303967028529] [-10:0.35778043139473509] [-10:0.34139119295545983] [-10:0.24525176331418766] [-10:0.31599624182706931] [-10:0.24893699671426259] [-10:0.20963882231765121] [-10:0.29984014019156163] [-10:0.2299434079472745] [-10:0.30926352835986293] [-10:0.40265170457220528] [-10:0.37449985080992615] [-10:0.18876735725049049] [-8.201484483905892:0.21812427506653889] [-8.4866159303256374:0.25406234548265377] [-10:0.23176115540684805] [-10:0.2318059625693375] [-10:0.18795769972411569] [-10:0.27191011419402072] [-8.5453797112936449:0.20021639713157255] [-9.4058296131726795:0.32506507317574823] [-10:0.25257735419671939] [-10:0.29411064459308361] [-10:0.26079023536724061] [-9.8549687292463073:0.28304270737394743] [-10:0.20464779974450065] [-10:0.34005191021836678] [-10:0.53221895124375673] [-10:0.36201567393065859] [-10:0.2005737628676936] [-10:0.24854230158488105] [-10:0.21005402486539301] [-10:0.30600078374525491] [-10:0.23251174523483084] [-10:0.30620366533356635] [-10:0.40004866706813869] [-10:0.42508640623769839] [-10:0.32543118282758382] [-9.8971545687073643:0.26048027062282009] [-9.3657650457607673:0.27683962624163982] [-10:0.25328436953704553] [-10:0.22913002457406509] [-10:0.24777191499532586] [-10:0.34959686996486761] [-9.6445047216920958:0.22226160092736644] [-9.425282229169758:0.32576650635214449] [-10:0.25460154796058881] [-10:0.29293836744651042] [-10:0.25691430969385531] [-10:0.36419999435283468] [-10:0.25840766877587656] [-10:0.35444493902043306] [-10:0.53297542088256533] [-10:0.54084734548197944] [-10:0.47999227134409828] [-10:0.24940454737079851] [-10:0.20774181141950465] [-10:0.30546049598892971] [-10:0.23067858974503824] [-10:0.28913418803839314] [-10:0.38176290763547371] [-10:0.42515525036896384] [-10:0.32126118522647468] [-9.9125027562525112:0.25890590084960635] [-9.3038653099911617:0.27446464503570678] [-10:0.24906468327624084] [-10:0.27541872894248492] [-10:0.27679670599950201] [-10:0.32897770893951456] [-9.6244054818805775:0.22070129481631898] [-9.5220019203933806:0.32704142758024612] [-10:0.25130681880656452] [-10:0.29245458462133311] [-10:0.25875882303043723] [-10:0.36339925233409098] [-10:0.25797624894715304] [-10:0.3623856998849142] [-10:0.54132631262937569] [-10:0.54312096097596485] [-10:0.47676524840593731] [-10:0.24948359763709571] [-10:0.20839423903190751] [-10:0.30659091622727919] [-10:0.23177297738191074] [-10:0.3101212936375935] [-10:0.40410385686093298] [-10:0.42552631437794602] [-10:0.32225028855665372] [-9.6872485613205566:0.25405649837832811] [-8.9672299056800071:0.26631329198034753] [-10:0.24560472880682119] [-10:0.27529113989368259] [-10:0.28097920019495914] [-10:0.36756873593001138] [-9.6838098260792762:0.220056929731892] [-9.5174770825428627:0.32484916514188755] [-10:0.25154612090079348] [-10:0.22363458929175911] [-10:0.44393961577607238] [-10:0.36618994567605545] [-10:0.2639337364880377] [-10:0.48890440900093801] [-10:0.36184955051855361] [-7.6231119324499641:0.34964295944570212] [-10:0.33785489918531025] [-10:0.22611827788765254] [-10:0.22619717462821384] [-10:0.26300049636364747] [-10:0.3119840902576298] [-10:0.2991258949692413] [-10:0.73013770245328113] [-10:0.85101526053906007] [-10:0.22246443627643392] [-8.5897967589956128:0.25426695074334021] [-5.6382759678559466:0.20747569404252267] [-10:0.32507470800420168] [-10:0.32226927853387183] [-10:0.20691032901118608] [-10:0.37634995803121141] [-10:0.36320343675894651] [-10:0.4865068779500441] [-10:0.31044541294657885] [-10:0.22436311577784879] [-10:0.44470181333226738] [-10:0.36604830017344248] [-10:0.2095797730078349] [-10:0.44532610334742417] [-10:0.9108372063093032] [-10:0.73492378967432292] [-10:0.38144126068116763] [-10:0.22589540708469849] [-10:0.22650902079084451] [-10:0.26358610358949808] [-10:0.31294296107542707] [-10:0.29878873861094962] [-10:0.74652478829657709] [-10:0.86359841271215532] [-10:0.51031903384650645] [-9.7278061737557611:0.28406679144983826] [-6.3304764390606723:0.22905146846952831] [-10:0.41826685890967136] [-10:0.53739274548526617] [-10:0.22802816270625201] [-10:0.64296034678617853] [-10:0.41013061015562929] [-10:0.49845574932722558] [-10:0.31194679423730037] [-10:0.22462620789552054] [-10:0.4319582485051181] [-10:0.3661581222021858] [-10:0.26381286678174626] [-10:0.48855101353763758] [-10:1.0150484966989883] [-10:1.2174885098552837] [-10:0.96542709742630539] [-10:0.22709227298524079] [-10:0.22544366151637746] [-10:0.26354388977172621] [-10:0.31254397235961706] [-10:0.29078758197677268] [-10:0.70131713806317919] [-10:0.85239419146986162] [-10:0.51008045478079311] [-9.7354097761715703:0.28358359264238608] [-6.3307460022685946:0.2286821100457089] [-10:0.41706726072832812] [-10:0.53926895713373335] [-10:0.26957429053802889] [-10:0.66057421104976555] [-10:0.411813860480986] [-10:0.5031533359574959] [-10:0.30930757408810322] [-10:0.22392650510512366] [-10:0.44316171706369789] [-10:0.3659959887332811] [-10:0.2636946410701021] [-10:0.490763540458175] [-10:1.0464288490700313] [-10:1.2349988490571482] [-10:0.97203681626873017] [-10:0.22669541817833239] [-10:0.22586323348334869] [-10:0.2633923708226667] [-10:0.31259085380921997] [-10:0.29882481112253889] [-10:0.77007112593318272] [-10:0.8508152532439931] [-10:0.50964708236388145] [-9.5837046784088002:0.2800302112919073] [-6.336459839539466:0.22822551921284154] [-10:0.39618215971338178] [-10:0.53868225423555582] [-10:0.27489750210880559] [-10:0.75082430009992462] [-10:0.41049669839304448] [-10:0.4997865970888799] [-10:0.3101286377745669] [-7.8850370369813874:8.3576015023441652] [-6.0739196991977726:7.0989158884688184] [-6.6606936716707752:4.7712120107968179] [-2.6116762670874447:10] [-10:10] [-3.1064543551324504:7.1727075392810358] [-2.7592326638506885:4.7186570970669868] [-6.6192470499142733:3.2427322017149138] [-6.5811618779594019:3.0200043139917128] [-10:10] [-8.2804784331204448:10] [-5.7786688930838235:10] [-10:10] [-9.4608269681716486:10] [-9.2398465989224903:6.5781828586719371] [-6.9014914008178314:10] [-2.5344525987798727:2.5331626357055672] [-4.2117108002249966:4.6852725292086062] [-3.0903433779257132:3.8221054648935877] [-4.8976740416112055:10] [-2.4559698815696307:10] [-3.9312078658915013:10] [-10:4.2826858548556253] [-4.8766200348161179:4.7779509125032691] [-2.993011682237178:10] [-7.9290225875712705:8.2941089744574157] [-6.0448497882572045:7.0948841383987453] [-6.6101793997354772:4.7746969977114402] [-2.5895240056593245:10] [-10:10] [-3.082812793646545:7.2319574396541118] [-2.9532663043229186:4.6099199498343086] [-10:2.618440802761786] [-8.5563591998287052:2.8516305648849678] [-10:10] [-8.1637394666497549:10] [-5.796859619050001:10] [-10:10] [-8.743986603884947:10] [-9.3963533753692428:6.5364729051245032] [-6.9448657362068014:10] [-2.6417402412083701:2.7115291964819388] [-4.3114074584154611:4.6996448556152943] [-3.3610127262068907:4.2936095278066668] [-5.8033179439490459:10] [-2.7903465608199252:10] [-3.8412518203955126:10] [-10:4.2606202635645065] [-4.7329804578950796:4.9134514928566411] [-3.3901847537115843:10] [-7.9384968825976614:8.3072632730588136] [-5.664681926425911:7.4275042137241938] [-6.6648123522977958:4.7694267638278278] [-2.6109763201683522:10] [-10:10] [-3.1069566349893387:7.1418647352827564] [-2.9249084201365503:4.6534243966683428] [-10:2.9099023838201989] [-8.7104468719236294:2.8378604940857088] [-10:10] [-8.1390046153778446:10] [-5.7954001841212515:10] [-10:10] [-8.9521720755070895:10] [-8.9837090711653964:6.6189419288369935] [-6.837500854713606:10] [-2.6352053683762438:2.7113836101717634] [-4.3205781782765085:4.7042363088305459] [-3.3700295396826228:4.3006074128342551] [-5.8116499767890355:10] [-2.9508875354250961:10] [-3.849088217588132:10] [-10:4.3095520153477631] [-4.6917951988434385:4.9304084307813936] [-3.4977478163795253:9.6637173254695909] [-7.9403390756330072:8.3450112711581887] [-6.0546224799282751:7.0905223239388873] [-6.6059170269136747:4.7686652106182805] [-2.5954773039793504:10] [-10:10] [-3.0130327046144103:7.4605593323455297] [-2.9412942321423086:4.6271406577419159] [-10:2.9158825107373767] [-9.2597906288563934:2.8191839042661067] [-10:10] [-8.2078684995789413:10] [-5.7806875590800928:10] [-10:10] [-9.117454115922822:10] [-9.2217538906505858:6.5674572851453625] [-6.8396137740324923:10] [-2.6399954791301741:2.707477676041496] [-4.307539129093187:4.6896456613685098] [-3.3498849662650168:4.2744581152661318] [-5.7812606423679638:10] [-2.9430194505586682:10] [-3.8931790675808178:10] [-10:4.3045723261918596] [-4.2996506793780265:5.3062793225196305] [-3.4241944816510879:10] [-4.4020995796410363:4.7037543478507313] [-4.4378056729299828:4.778470150495818] [-4.4738425489368332:4.1809422942059431] [-4.3200439452230084:4.9211329585562167] [-4.3164044054634694:4.8874764171921621] [-4.3317758642368762:4.4541666499429935] [-4.318023377008827:4.3530202793636068] [-4.4119381736992871:4.6484741509830636] [-4.5103109214040913:4.7612760976115478] [-4.4991471182476293:4.7457097840024201] [-4.4197413865892061:4.6958066259979558] [-4.4216971682179018:4.7301369229497752] [-1.0457711362122029:4.8912326557949433] [-4.3829046031068071:4.7258619372307473] [-4.5869934073855383:4.3253081047252806] [-4.3763161601943699:4.5574778701421366] [-4.3911989898857655:4.3128703874022962] [-4.3756677791736012:4.2885790619969937] [-4.4514841330110411:4.5207845963534554] [-4.4980684341697117:4.5655600692204175] [-4.4979637530996595:4.503460446955649] [-4.4195213161724238:4.6320421827476785] [-4.5069563395911656:4.3520133491838546] [-1.0600127277909688:4.1270448695490289] [-4.5486576844915518:4.3681984559081295] [-4.394397436469287:4.6741455607017333] [-4.3608472139998451:4.7994003332924366] [-4.2890288198856918:4.3485787408348804] [-4.3524061977601027:4.8024616731979926] [-4.3658196541040972:4.824832365457028] [-4.3540865197278364:4.4221484997072844] [-4.3814997009862218:4.2433996336669573] [-4.3811599053277757:4.6711604623502057] [-4.4064796606184897:4.9516034905823298] [-4.518486081416671:4.6861871825661012] [-4.5053437812805432:4.6100698891304335] [-4.4414347094473232:4.7001201195914915] [-1.0524228739273391:4.8433655704560516] [-4.3270986054059888:4.7199197782343436] [-4.4279282561761502:4.4450487083274544] [-4.4166426048128118:4.4644695698606052] [-4.3758310686906787:4.306775638838106] [-4.4056043508826956:4.2754676075789515] [-4.4425929585983308:4.5472831884532843] [-4.4405592244807597:4.7143591290247997] [-4.3598408166081946:4.7441111729526044] [-4.3559988974032819:4.7638848739382187] [-4.3889300874699915:4.4739246162797519] [-1.0605628294822025:4.1172659917531984] [-4.4718201090391014:4.4561529142763128] [-4.3700462445522383:4.7270056882249678] [-4.3875800929643063:4.8303796245505684] [-4.3868048545334242:4.2568317260439352] [-4.3111904294614378:4.9228312489756911] [-4.3355621317858271:4.8644665151438868] [-4.4045460210081622:4.3583420056333635] [-4.3614336148230084:4.3190515189860585] [-4.298101972822022:4.8512194709873038] [-4.4273511048896994:4.9780175584971325] [-4.3525134584176133:5.0508289879915917] [-4.3942868189538746:4.745072554644012] [-4.4190438079332042:4.742700941690754] [-1.040676142664015:4.8826446294046884] [-4.3460951545979229:4.7262600847200975] [-4.389245162159134:4.4960135521056523] [-4.3757396926641592:4.5346853806946275] [-4.316151366144017:4.4022244735691372] [-4.2694740413150987:4.4225841832973494] [-4.3781954355783599:4.6276682689178683] [-4.4827599411327377:4.6300019738307157] [-4.3998115030627645:4.7169540564856263] [-4.3368503198321404:4.8169872436723518] [-4.2694170443600337:4.6460677362477547] [-1.0452917041687146:4.3018740174736489] [-4.4092947941585789:4.575931826402825] [-4.2678932117617991:4.8727384579158777] [-4.4087476783931061:4.8039067177187764] [-4.2796593635826765:4.3783415297098465] [-4.2741218883638918:5.0100719816586521] [-4.3307823675537982:4.8703650818311246] [-4.3573888032935342:4.4375391729006397] [-4.3851355058646915:4.289045470781252] [-4.4074948499708118:4.7009876514148381] [-4.5382635853092541:4.8070400996005969] [-4.4115800443180708:4.8927056424120829] [-4.4621398906548766:4.6960622028190855] [-4.41742868072288:4.7421054314164834] [-1.0465891836022736:4.9190480593564034] [-4.2323455461480997:4.9501478990495995] [-4.4331666750276417:4.5050726933174445] [-4.3944725045279194:4.543580655094563] [-4.2948062638809166:4.4249335509125167] [-4.2086549576925165:4.4883474446486868] [-4.3213202040708847:4.7428875426073516] [-4.3499987746413264:4.8019019173688999] [-4.3996681071436585:4.6787488160951414] [-4.2614131584422239:4.920327957005675] [-4.3899530433051215:4.5205282169986489] [-1.0366705451037157:4.3780231554564564] [-4.3935774115705417:4.5817822325321131] [-3.66796686175788:2.7772007542412251] [-3.7340241115352906:2.7586397494009764] [-3.7455895819491238:2.5431149248428366] [-3.704699106541796:2.8091879888080955] [-3.7227281146979179:2.8611355061163346] [-3.7398476227115598:2.4852787111684771] [-3.7376174146286409:2.5329639342765367] [-3.6521712001760624:2.7942703389252803] [-3.7461753373927982:2.8569734001963107] [-3.695928368679636:2.8772871474350987] [-2.0484771590804125:2.8020193900614414] [-3.7245551926532232:2.7581854984157355] [-3.7084555218391633:2.8372273920378914] [-3.775231878381216:2.755272402850141] [-3.740063210943843:2.656889271837926] [-3.680094372926261:2.6663164850786174] [-3.740172270895024:2.54113832672985] [-3.1078322802266651:2.3774674100839817] [-3.7076402956285519:2.6724201336108093] [-3.7374011667035374:2.6507618924649599] [-3.6748568053874817:2.8428817150552619] [-3.6853997035888439:2.7802584667026933] [-3.66852712998578:2.6016500331184571] [-3.7473824323660159:2.4949703133113617] [-3.6936697172004576:2.7071482898885297] [-3.6742364672927375:2.7761141431142269] [-3.6998897444518448:2.763052346830396] [-3.1250079902581436:2.3850038016525108] [-3.6816720430970018:2.8140024331407321] [-3.1571453256047142:2.560726518221077] [-3.1606318885501787:2.336299311285805] [-3.7736317988216954:2.5156487644343333] [-3.6772157838891424:2.7713304446673703] [-3.716598375981528:2.8835179115677665] [-3.6922060226663365:2.8810846040835623] [-2.0506598478848197:2.8225066740622817] [-3.6784387817898878:2.7782578225566046] [-3.7365215088163568:2.8309242685764362] [-3.7746828956149616:2.7477866381344604] [-3.123615910479228:2.4483487150970293] [-3.6581426001533122:2.6577308228402527] [-3.7227223604045503:2.5377816415961068] [-3.6932518320952408:2.5324896504240821] [-3.664731922219981:2.7089063996671401] [-3.7562757995127529:2.6508210685183404] [-3.68229921995417:2.8423961548211105] [-3.1046914818810478:2.5229348132501954] [-3.7169530530581367:2.5697069842617442] [-3.7155316488881729:2.5056989539725096] [-3.6898440684531519:2.7043387225960056] [-3.6482226357209124:2.782374204719769] [-3.7461894716660082:2.7603921870320054] [-3.7434984818976318:2.5407566386054934] [-3.6881978839758767:2.8087635762044716] [-3.7303365458944366:2.8595080171481162] [-3.7816472700197212:2.466471974511832] [-3.7653293514690449:2.5257892731758416] [-3.650869212877069:2.792645994915905] [-3.7378276407277977:2.8880154208688582] [-3.7287051622938958:2.8803271897806355] [-2.0391546323962011:2.8179061365346256] [-3.7318755642257178:2.7413654788941848] [-3.7254490875990314:2.8379198696448569] [-3.7500379415888219:2.7554166666390207] [-3.677596269213351:2.6775333726071642] [-3.6236221700178186:2.6894508181357253] [-3.6937205449498807:2.5543110357182406] [-3.6691219254957215:2.5428266382574543] [-3.0915697620852751:2.4832731014317861] [-3.7359107169424206:2.6550090203481145] [-3.6805115188184736:2.8521386434349214] [-3.6557384120829761:2.80876492350282] [-3.6612884048658341:2.5977179205518968] [-3.7210771575442703:2.5104182087083902] [-3.6821220250925517:2.7224159370055783] [-3.6327332519311617:2.8028566292106079] [-3.7189227149369151:2.7818271895576423] [-3.7044448076021648:2.5666288370411521] [-3.6680409451973963:2.8282149098525262] [-3.7396754970530313:2.8502807508999348] [-3.7573645429675446:2.4761483034572853] [-3.7319087791574979:2.5335798655158062] [-3.6848564487926816:2.7880758880127372] [-3.7413780001589121:2.8666494580747983] [-3.6833279841367159:2.8926764857237197] [-2.0459124158173343:2.8345534665426442] [-3.7313396688817728:2.7523869239027392] [-3.719424348367669:2.8436937545308387] [-3.7352550337795751:2.7822136143272371] [-3.714539529045207:2.6633164531762512] [-3.674319634406344:2.6699646309020322] [-3.715886914069221:2.5431269991644387] [-3.6671677988677316:2.5365588413329245] [-3.6452822756928449:2.7079363802854042] [-3.7232965384537886:2.6535852673629066] [-3.6684400480585215:2.8468732658455336] [-3.6957603298471731:2.7782640430912924] [-3.7056522395192717:2.5872877776172096] [-3.7095609880530889:2.511830631170171] [-3.6969544262584999:2.7066157033620923] [-6.8264555366942785:9.3524250903694384] [-5.1556575047313418:6.1128902554656923] [-8.0073596916814012:9.5896126207071539] [-2.8439616111488233:7.3489136399729036] [-7.5793972378085757:5.7319696452604685] [-10:4.8580018304386137] [-10:5.5820671854346715] [-4.6568860500765066:4.3166025798092065] [-10:10] [-2.7281828390270686:5.1339973281562683] [-8.2616050490532622:7.9647497029034682] [-7.0761682023723891:10] [-9.7012431053105423:10] [-8.0912316874940249:10] [-7.5887385641597822:10] [-2.7060358757789604:7.550869774279807] [-6.7615513002946308:10] [-4.453837305148296:5.0480892738600778] [-5.185829749653351:3.6155432493392223] [-3.0445214603208171:4.4530415019415681] [-4.9831322718114164:3.2666524687089469] [-5.0533364822680529:10] [-7.2299756544716791:4.6825718533516953] [-2.6635207218756314:5.80805560452335] [-3.4272746880058942:4.7604988140882538] [-6.8683409258568178:9.2399556897110209] [-4.8889620578539761:6.1962341833770989] [-8.011018387663837:9.5434889003987262] [-2.7821306229431531:7.5108901298077111] [-10:5.1073779864143773] [-8.1562497096319202:5.2542408552619229] [-6.8676829962824808:6.9431749031692096] [-7.1040701744841455:3.4260321193417091] [-10:10] [-2.732777300086632:5.1486545195186837] [-8.0248744787067157:8.0210368697019714] [-6.7044369626841345:10] [-10:10] [-7.9734900943793718:10] [-7.6248358571881827:10] [-2.7265157589508897:7.4117044531592908] [-6.5985215739179575:10] [-4.9100457365401553:4.8357078065283003] [-4.4423308725403405:4.2107544760382956] [-2.9690538197102923:4.5713644460964868] [-4.2566711520711662:3.780649366899004] [-5.064875296668184:10] [-5.3705826500750256:5.693328286371572] [-2.6534796727429448:5.8097812523538481] [-3.5348894167982481:4.6183108289175268] [-6.8359103145354867:9.3267875745739222] [-5.0972647548727119:6.157414865251968] [-7.8636430529166557:9.6396336652795327] [-2.8181472744912086:7.3771317330529547] [-9.6516993274897267:5.5434775368429028] [-9.1480792742312165:5.0777334169032953] [-5.8736866981905971:7.4441839193945674] [-4.3824573212678537:4.4477895311595477] [-9.722773952197862:10] [-2.7721421643511763:5.1071433487943212] [-7.698542852654465:8.1628693306829572] [-6.7264725650570343:10] [-9.8067608330811336:10] [-8.1408814385375958:10] [-7.3131251445941734:10] [-2.6676960034412662:7.7016472037338977] [-6.5630504038124142:10] [-7.4425311963384697:4.5123690643427148] [-4.4679762634022913:4.2088293615993031] [-3.0681248070147906:4.5033338248779229] [-4.1071589488558615:3.9184114129317074] [-5.0945396341286351:10] [-5.3226344461703148:5.7500473248666726] [-2.6261691189472622:5.8182727008658812] [-3.4936977791105015:4.6751980696961812] [-6.8371322425240884:9.3511836793220802] [-5.1069151630012426:6.13902766412789] [-7.8513062233788871:9.6422483804954258] [-2.8050707071881922:7.4235595690718545] [-10:5.4896872364466445] [-7.9453433172500336:5.2856324729845507] [-5.9878499278306441:7.4234848029817284] [-4.4626408257091947:4.4760507758560086] [-10:10] [-2.7822562746410004:5.1170522762152304] [-7.677632413416247:8.230099644481804] [-6.7333211017544166:10] [-10:10] [-8.1816265776981911:10] [-7.5171621998483094:10] [-2.6704372398232032:7.6505955323528472] [-6.576124920860039:10] [-4.7586555239414086:4.8884659330074465] [-4.4167807379452091:4.2032817371116078] [-3.0555051098494137:4.4957793847312004] [-4.0443075848382817:3.9290725459734737] [-5.0060761446960251:10] [-5.5499677144427624:5.5920522563818658] [-2.6536869856355909:5.7829874983223135] [-3.4766356799042324:4.6921215390304365] [-7.4098596895878606:10] [-6.1234514851067274:8.8030729090440172] [-5.1143266566919188:9.0829132656395597] [-5.6792120931056331:10] [-5.9775343013666324:10] [-4.2951212075793288:10] [-4.9628223445168116:8.1845054885552795] [-4.6487328084642021:10] [-4.7018933353223664:10] [-6.7147255644319914:10] [-5.0798562668819018:10] [-8.0562171054344116:10] [-5.0023202615512155:10] [-5.2424151530854859:10] [-5.0788548964511033:10] [-4.4665682825284527:10] [-6.1655320606700936:8.7083532973029509] [-7.7576284883892059:6.7154148890919378] [-8.8903432771292739:7.0757906084300384] [-5.6857457989882185:6.610297997710493] [-7.284096027397382:10] [-8.2737022673760201:10] [-5.3660093644916156:10] [-8.9314768472193116:10] [-5.7198236714184025:10] [-7.4282016294698021:10] [-7.1819188531831326:8.7316811139061112] [-5.2866020638726257:8.4762777247352048] [-5.8328137203172234:10] [-7.1549347385844086:10] [-4.2231598728473392:10] [-4.710527592809135:8.8215654569503137] [-4.7990187740344066:10] [-4.5893247431667881:10] [-6.6372021732903965:10] [-5.0430593491531512:10] [-8.0588435224525732:10] [-5.0032454441647882:10] [-5.2419584386668117:10] [-5.0285140026371415:10] [-4.2305749817299718:10] [-4.866776262056292:9.3116157189813169] [-7.3818199151357069:6.9820169664332052] [-8.1101013891559663:7.7174956809191695] [-5.6266655509765933:6.8856700369753527] [-5.5323156984704891:10] [-7.9701262679696967:10] [-5.1083173465297618:10] [-8.7054992964704994:10] [-5.7305292743314435:10] [-7.5666401159711327:9.8820850649814602] [-7.2636587133141814:8.727095642928516] [-5.1297281649051998:8.9127558736998456] [-5.6618475911405284:10] [-6.9190883919741175:10] [-4.0636153739741347:10] [-4.5165325201550797:9.7844819494592965] [-4.4589114997956125:10] [-4.5953955985645036:10] [-6.4460870961578927:10] [-5.0268023796280668:10] [-6.1784469679363276:10] [-5.005466411284325:10] [-5.2760066974561797:10] [-5.0034570114269767:10] [-4.2506126335529313:10] [-5.6858201992484192:9.6588043685018494] [-7.3678006499596274:7.0161120673684714] [-8.0901137682047715:7.7383376312646739] [-5.526616445898858:6.9692095811110137] [-6.4800557447177471:10] [-6.6889560885122981:10] [-5.0055693105827288:10] [-8.3437448796155245:10] [-5.6534110629313306:10] [-7.3530917780439875:10] [-7.0523939112928389:8.9853044781281728] [-4.9938964152633307:9.0252898799829442] [-5.4924936555787696:10] [-6.7739648038680969:10] [-4.1072388038323036:10] [-4.4256706434444375:9.9361724381042027] [-4.0824729902967336:10] [-4.5610420707009007:10] [-6.4585641793298372:10] [-4.9676878531165043:10] [-7.951361610429081:10] [-5.0016485075764407:10] [-5.2042024120898205:10] [-4.6461737478055829:10] [-4.257025508002469:10] [-5.4486705611293491:9.5097745360939356] [-7.5100330974893392:6.8910898018378663] [-8.2024310972500913:7.5820858134167155] [-5.5057904500733574:7.026404981431793] [-6.3908879434938655:10] [-7.5548229572369019:10] [-5.0699842445514109:10] [-8.3773464691097637:10] [-5.6625042585246961:10] [-9.2042749559771071:9.506840397459337] [-6.7272814865813171:9.256491494499258] [-5.7687800458867526:8.7883302888760539] [-7.4515603441647169:10] [-9.1731004364612563:10] [-6.502385997043227:9.4734629239085528] [-7.4385571036610632:8.793819215217205] [-7.3190983654654111:10] [-5.9121946061320223:10] [-5.5391506305674358:10] [-5.4985725691866092:9.9082398290650033] [-10:10] [-10:10] [-5.9828450950487282:10] [-6.9392602346309644:9.8209087499477032] [-8.6317145786034626:8.8840238822274529] [-10:7.3407304265739324] [-6.7274830149099731:6.7427951165226805] [-10:7.0173795673452846] [-10:7.0719327098697899] [-10:10] [-10:10] [-10:9.293319349744424] [-5.8407879457908871:9.3681440406690335] [-10:8.2799747371478087] [-9.4481346629768819:9.1551811317599956] [-6.7885518755723524:8.9997375959575265] [-6.2622465601164805:8.4041882029235886] [-7.7219685605542931:10] [-9.134847631593658:10] [-6.6183589945506025:9.6726851600802437] [-7.0334507085155797:9.4032817072660499] [-6.4341113575395523:10] [-5.8828604824141131:10] [-5.4287805033315584:10] [-5.4917306600574944:10] [-9.9369300389974455:10] [-10:10] [-5.3291678265289715:10] [-6.9227947417981728:9.920790724815193] [-10:9.4400900113408639] [-10:7.7752336795866999] [-6.6510842008306277:6.9344638048175407] [-10:7.5061813504504276] [-10:7.5428563122357586] [-10:10] [-10:10] [-10:9.781491780663071] [-6.2466142757436751:9.6626507843347067] [-10:8.4321593759060125] [-9.4610115942441926:9.1184012760227553] [-6.8517224883686527:8.8849981554337649] [-6.1965019925868834:8.5834436952260074] [-5.455528714774827:10] [-9.0305484849652462:10] [-6.5914516582216827:9.65447957177423] [-6.7237679714369865:10] [-6.3910774830448975:10] [-5.7651867632737099:10] [-5.3794728950300721:10] [-5.3795923388000118:10] [-10:10] [-10:10] [-6.0482577228901517:10] [-6.9307732950750074:9.8182984395642965] [-10:9.6001268321922826] [-7.7500809908066675:7.6918798692524408] [-6.4114047855684992:7.1499768803614625] [-10:7.4225769202629293] [-10:7.635460511948887] [-10:10] [-9.9909261404102239:10] [-10:10] [-5.7722141496909227:10] [-10:8.6682888615013436] [-9.1450972450152364:9.428048322956073] [-6.813622721862413:9.0287874389688643] [-5.5101525012978909:8.3868945594863451] [-7.5910001859334324:10] [-8.7237349820754293:10] [-6.4931299577925685:10] [-6.4969373452730945:10] [-6.3690020912124368:10] [-5.7883585224963348:10] [-5.4494045849732986:10] [-5.4073297418548965:10] [-9.9845626088911796:10] [-10:10] [-6.0592359501085316:10] [-6.8505255535731839:10] [-10:9.3601315351958174] [-10:7.8326117311404566] [-6.7424314239743497:6.7990648234931683] [-10:7.336816728989402] [-10:7.6093864481117786] [-10:10] [-10:10] [-10:10] [-5.7469009053459867:9.9090615378762834] [-10:8.5633085449384687] [-8.2852432550776633:7.2272424018773762] [-10:7.3854076419493939] [-10:6.8257600564332543] [-6.4116183588095259:9.2176446969874117] [-6.5244284582604433:9.0962481381774278] [-10:8.2823174757733025] [-8.9529154971647262:6.3437804677827776] [-5.6671326380499183:7.858988824214169] [-10:9.7623196530833667] [-7.0089652165979377:7.7101221529885304] [-7.3810318574609193:8.2907498078932598] [-8.1211237555830191:7.8820211581316686] [-7.8931345275433484:8.7842236010187698] [-4.8585179165877781:7.8078959625153841] [-6.5655450942731832:7.0609717038477537] [-7.2360833904136159:7.1488692572993102] [-10:6.8319937557578436] [-7.1209254897025343:6.2529313149537185] [-8.8906386569328681:7.1695374572932593] [-8.0811208787362112:6.653781487910619] [-6.636738817972442:8.5126248462193903] [-10:8.2388377339645462] [-6.3648084585763716:7.3604873105563025] [-6.027450432419081:6.7963300578878556] [-8.5439597979214401:7.1863150183946214] [-7.335679198499359:7.1030072985827717] [-10:7.3156101952093087] [-9.6816033688008627:6.7629160197493423] [-6.7926202595396887:8.3205664511087374] [-6.4647075631050397:9.1194914559249636] [-10:8.5160930220349975] [-10:6.7633289754024943] [-5.3879751876205182:8.3281790907355191] [-10:10] [-7.0199029641002682:7.6698030410592137] [-7.3809933755119204:8.3993830287778213] [-10:8.9299702134706607] [-8.4256143524126923:8.7286145894614293] [-4.9078903229250779:7.5341140516523435] [-10:8.1620502166021343] [-7.134430375605878:7.265011097273514] [-7.9811013653355429:6.4270841234207454] [-7.2546904279388844:6.2659303542899654] [-6.1169724427013694:6.9947124502700273] [-7.9228595008623168:7.0068964069375141] [-6.5081110062826273:8.9412373776222118] [-10:8.5630095702019524] [-6.3033616920962929:7.5249546921373316] [-5.9965017217811445:6.8462075054526563] [-8.5611532916951116:7.2512727404252812] [-7.7677896557159194:7.5799535325413538] [-10:7.2558867592633574] [-8.4174383633481114:6.4813532951537027] [-6.7057417552715304:8.5850923899908267] [-6.4759231906969319:9.2554108325891367] [-10:8.712728156909046] [-10:6.7092073060599438] [-5.5526193147283349:8.3792189851309367] [-10:10] [-6.9712657512586178:8.0701078197745932] [-6.7617324842918078:8.4882299130808168] [-8.9982913181208737:8.2268455996887102] [-8.4395939651573162:8.6903414634788927] [-4.9040118858837936:7.5652598529774524] [-7.7903294984630929:7.2666063714082618] [-7.1752411323297691:7.3323767519750405] [-10:6.9231549289327869] [-7.2677102736105441:6.2779649599338505] [-8.5800274974906507:7.5257846002416526] [-7.9882771462355029:6.9405883016504273] [-6.5234475077012037:9.0241441761898802] [-10:8.6534793130596341] [-6.3009133023415842:7.5799865703950964] [-5.9453620558479914:7.0333232400023933] [-8.5505308589149838:7.3778150311173913] [-8.2308969463984312:7.1848367461735503] [-10:7.3286459174601966] [-10:6.8464136958666861] [-6.6223220206400395:8.8746552445536633] [-6.4335909006678751:9.4779694306602487] [-10:8.6412786742474488] [-10:6.9541594578162496] [-5.3974230258957805:8.8592353219754401] [-10:10] [-6.938525424172175:7.985049352638665] [-7.1892903379262236:8.874602246093902] [-10:9.0897217247302482] [-7.7637663421144163:9.2424198541894196] [-4.9037157616945688:7.7260222239240681] [-10:8.2309744479786318] [-7.0288933149199604:7.4867390981118076] [-10:7.0683629062276934] [-7.3454654132651571:6.1584287745989696] [-8.6153514526204535:7.4821366813712373] [-7.9908579708707927:6.9396680306571827] [-6.1444181522427019:8.8361402091485015] [-10:8.6715977365647952] [-6.2545275236657005:7.7416799645353676] [-6.0003009502259594:7.0326856694377415] [-8.6162057383746067:7.3066588798183609] [-8.9513274847147564:3.3760779306994104] [-8.6534437172282388:3.6180055728618723] [-10:3.5530448609044041] [-6.9850219146072945:3.4753227657645982] [-10:3.6390218651335728] [-10:3.4666543135782963] [-6.2770661957944345:3.2561512800459518] [-6.3662874345465434:3.6367455166788449] [-7.4603455684915403:3.6750854139007103] [-10:3.4564049171355102] [-10:3.729906939182186] [-10:3.5238282647964816] [-10:3.6646019912006009] [-10:3.7306076225347762] [-6.4831612896704804:3.3925029400375726] [-10:3.456451176059109] [-6.8852130795904518:3.2965219450184362] [-9.8487615169101765:3.3044457072723881] [-10:3.7182062247916847] [-10:3.4312120603055511] [-10:3.7057726822177237] [-5.9265203635384012:3.41185384051643] [-5.4596561178531431:3.5420634168402314] [-6.3921380855717418:3.2211209248903447] [-5.1612265456830899:3.5512470989685827] [-5.5593796829277071:3.4806331908453352] [-8.723514396340299:3.5803326962195383] [-10:3.5767737664539543] [-7.0403681791696382:3.4623409350279086] [-10:3.6432840777167623] [-10:3.4594477216309718] [-6.2551900419867552:3.2534241515266613] [-5.7466792533802735:3.5018288307417103] [-7.6140284295710678:3.6253192672686119] [-10:3.4858679767497467] [-10:3.7427683791928046] [-10:3.5613130596947968] [-10:3.6839968952924154] [-10:3.735673222055544] [-6.4823021847716609:3.3699213326530857] [-10:3.4461785779396257] [-6.9408724140661189:3.2693850693669804] [-9.6276219229464122:3.325360000974853] [-10:3.7377493909775095] [-10:3.4537577420010916] [-10:3.6256177129266871] [-5.9293731300146391:3.4223448915023997] [-5.3708119611967478:3.5490022167988085] [-6.3001461755666623:3.2314837536396506] [-5.1485595016997632:3.5495498342422382] [-8.8242820314141071:3.3908333174109906] [-8.6528276428278534:3.6287445296383898] [-10:3.5661420590141883] [-6.9036076651758673:3.4931979126806367] [-10:3.6372642635083134] [-10:3.4480147199939357] [-6.2625075112588799:3.246096761357625] [-6.8669439117332587:3.6796114540315776] [-7.493516608109732:3.6832509683387809] [-10:3.5083647948580201] [-10:3.7306164450674055] [-10:3.534578206182593] [-10:3.6437778260983729] [-10:3.7603598905660096] [-6.4555130757980566:3.3762947340998619] [-10:3.4749478927510227] [-6.8926927548823569:3.2810820295038443] [-9.7891924800683476:3.3244309231665867] [-10:3.7268015863166255] [-10:3.5237564075374306] [-10:3.6754331728362639] [-5.9130204012662491:3.4181163120415974] [-5.3836590333070076:3.5508421117404638] [-6.3618677125443028:3.2420905357809424] [-5.1571449022897138:3.5853660091238053] [-8.93368953731229:3.3689759454087516] [-8.7146983201097061:3.6133181480545264] [-10:3.5522919452525845] [-6.9948526665853974:3.4837865417050589] [-10:3.6626292965900729] [-10:3.4780771609235206] [-6.3015170582322755:3.2558892525777621] [-6.7368012149359204:3.7292422738681426] [-7.3043243185638866:3.7661211839962441] [-10:3.5056986769307343] [-10:3.7364403098188053] [-10:3.5055770540937261] [-10:3.7709211228726804] [-10:3.7659874273513068] [-6.4518231242420541:3.3914780657177563] [-10:3.4809275738468228] [-6.9343492084520877:3.2850370115691403] [-9.7318766380129951:3.3082376111272915] [-10:3.7265100895481962] [-10:3.4702867845495744] [-10:3.6326604613962727] [-5.582113604845917:3.5722983060744675] [-5.3759815865639826:3.5750606325908625] [-6.3352060296684742:3.2680048296281026] [-5.1612801453206734:3.5669294216423362] [-10:2.9459050462751053] [-10:3.1301791645091761] [-10:2.7273339955472546] [-4.8764586220794239:3.2153860684239266] [-8.5440904337223387:3.4822392479443707] [-10:2.7642609413734403] [-8.166263366595361:2.7154022301986749] [-8.1643808847439114:3.1726437358233426] [-10:3.229315493185819] [-4.1446897134441718:3.1237913886809885] [-4.363935256417002:3.2443317641363247] [-10:3.057974096496535] [-4.6986981173623086:3.0236501461682908] [-7.2969270831329034:3.1867443554680235] [-10:2.8186319559116235] [-4.3213630861907335:2.9175465181134808] [-6.2023726279377982:2.9287284773044067] [-10:2.9207900272367247] [-5.3654957805991446:3.1381858394790383] [-4.5004178354852833:2.9227812424174893] [-4.8126844055925977:3.0289527768652542] [-3.9604338631321201:3.0684756582143016] [-3.8667776462017862:2.8367272193658435] [-4.2498473298868431:2.6461284754776671] [-5.815106489387702:2.9400542099740465] [-10:2.961166387609393] [-10:3.1165940899158366] [-10:2.7262014094290707] [-4.891891028217624:3.2173209886026335] [-8.532109605680942:3.4822836693948638] [-10:2.7738819910010681] [-8.4268703640359259:2.7049056306699164] [-5.6212201595572564:2.990718324315865] [-10:3.236823135333609] [-4.1284648206484844:3.1420921669849142] [-4.5854110651139672:3.312511599584373] [-10:3.0582005094005877] [-4.6019662012072216:3.0927286135052179] [-10:2.9571413580547143] [-10:2.8091036308991515] [-8.0502211840911198:3.2241455504143417] [-6.1378683529590372:2.9340357881992762] [-10:2.9244342512037558] [-5.3424321477099284:3.1583849396525152] [-4.4672470556921064:2.9518746203004804] [-4.8038917024988255:3.042742856733947] [-4.0601145072461442:3.1196439899252493] [-4.2990322759550432:2.9172135194472801] [-4.2600475578572343:2.6450454509158443] [-5.8013488941636684:2.9427642388573689] [-10:2.9611120301900828] [-10:3.135564259932305] [-10:2.7217130466534769] [-4.9179187258420214:3.2037967252035324] [-8.415090470327069:3.5114721752660865] [-10:2.7588272445308943] [-10:2.7516004919027357] [-8.2546367394626134:3.1386073360551827] [-7.5255659529800516:3.2183440100638614] [-3.9541960938303689:3.23643104970277] [-4.5296257240550535:3.3072208662984868] [-8.095976553182151:3.0529196236434024] [-4.7230945558874611:3.0252903922538592] [-7.351839820410019:3.1614913825291397] [-10:2.8319122766431812] [-7.9400269329659965:3.2648856439691429] [-6.140015161731192:2.9372099826182776] [-10:2.9484460121658955] [-4.0347822028253617:2.9341639828568726] [-4.4453297402706484:2.9663280256206153] [-4.8081535836120883:3.0491901606806677] [-4.5895637632895729:3.3028598788824528] [-4.900208994856257:2.9977224216499048] [-4.2461390489216413:2.6574958738417807] [-5.7626519006478389:2.9697396805280643] [-10:2.9696234565787298] [-10:3.1304559213118548] [-10:2.725831121079032] [-4.8676159392464742:3.2325689302787741] [-8.4355334588156801:3.4981898846499582] [-10:2.7668047822211213] [-10:2.7420398875980045] [-8.255355434616332:3.1613848526987685] [-10:3.2537302508573358] [-4.1530029632383592:3.1389402396887718] [-4.5947928843896655:3.3004661804077817] [-10:3.0621410118174266] [-4.6807228281645594:3.0370327002412867] [-7.402761567292532:3.1691887193747403] [-10:2.8172807953011065] [-7.9854606496391503:3.2564897657038965] [-6.1084484003296922:2.9540820116093345] [-10:2.9318415609134094] [-5.3498023054704174:3.1570004237439035] [-4.4843388566019637:2.9364749573355313] [-4.7882379743598067:3.0404936693461835] [-4.6119061862180661:3.2967816881673304] [-4.0237347850077549:2.8616571902870991] [-4.2315106451185578:2.665285641429449] [-5.8290184076452505:2.9551470149513586] [-6.3899717138517902:3.8432722211032129] [-6.0575113700548551:3.9647298260631518] [-3.3111573181251801:2.8482715623993253] [-3.8960135006391985:4.0426148207554986] [-3.0508117097652683:3.8148782070707736] [-2.9968427807699625:3.0830622174937834] [-5.9500711926708805:3.1923279647710623] [-4.7418436165761104:3.5919301233042829] [-4.4369313049017824:4.1231075103243437] [-4.9719915975194136:4.1383667422109625] [-3.7506220533839514:3.9178880902216409] [-7.2190672926865229:3.700971085868471] [-5.5887654452600817:3.8323266862515921] [-4.2650547907141663:3.6420783149255751] [-6.1369396876992734:3.5330140582631406] [-6.0337117936685978:3.5334221266517387] [-4.6492270279804764:3.3938383983181035] [-4.9101573370554883:3.0167079958457981] [-5.0562305567305046:3.5660769301764024] [-6.4285182326756027:3.772881113839416] [-6.4386823417152099:4.2151351940628796] [-6.7796002990202817:3.7437864980264437] [-4.2095396761522874:3.2170821746149563] [-6.6737366942045036:2.9992659741601826] [-4.9308748977576133:3.6053352108503689] [-6.2730998421243767:3.8781324534393393] [-4.4467144943641195:3.7497469644619819] [-3.3174381806998245:2.84432776016288] [-3.9084361930978817:4.0338099776791134] [-3.0583576470022078:3.8090336756011967] [-3.0763376623217797:3.1024141184819798] [-5.305895711299434:3.1749216323176337] [-4.6042183451620629:3.5902941212440966] [-4.4147543601015764:4.1474011830866537] [-4.9679269838019318:4.1318477462666738] [-3.7238487512309759:3.9792491642405263] [-7.2335292555330994:3.6835764601315888] [-5.6574628967816762:3.826643337091959] [-4.2714613518556117:3.6327872020561336] [-6.0700451462195293:3.5216968989909385] [-6.0678482693960012:3.5012860587751726] [-4.6222407563531842:3.3954436805143646] [-3.9212981383830203:2.9602754871179049] [-5.0254003728457564:3.5867336425951337] [-6.3583689015419278:3.8190060077472094] [-6.4285905172291686:4.2422335878382604] [-6.7778771426877675:3.7538703017478281] [-6.6686280097651469:3.3468132234987285] [-6.6296187809506124:3.0022741701857614] [-4.0516007462482646:3.5375745013097282] [-6.3071388604113112:3.8573707330814209] [-4.44398926810159:3.776126591352853] [-3.309593483065087:2.8475313151895723] [-3.8926159786506669:4.0485975987973895] [-3.05601001249314:3.8137379285517423] [-3.1740344414963371:3.150347667387138] [-5.8481378620372473:3.2314624521192177] [-4.7243997918084304:3.6065792503133247] [-4.3787094585676636:4.2215723946438608] [-4.9709769028729047:4.1762925872480086] [-3.75853183910356:3.9090771880365849] [-4.8126230199836977:3.542425974719174] [-5.6540219815035417:3.813723672134564] [-3.7491222957660431:3.5249201219803488] [-6.0552177492300769:3.5367964892884816] [-6.028979221795522:3.5308055867342616] [-4.6046467835015124:3.4141730655333187] [-5.4452565455428728:3.0610673670569022] [-5.0624894260060858:3.5625706662508465] [-6.3388298870139845:3.8184544652543968] [-5.0042639763158379:4.1738025840985067] [-4.7867283361347877:3.6601261980375472] [-5.2675535085780645:3.3372061576879202] [-6.6243924117208346:3.0224409257887848] [-5.4427031781206061:3.6736053832366418] [-6.3006288834146185:3.865663248811785] [-4.4636147077138189:3.7688278183083672] [-3.327742092581472:2.8557026353417467] [-3.894600068662561:4.0563888661108702] [-3.042314403801015:3.8353982730965366] [-3.1748785749775408:3.1558953342320959] [-5.8562736652132639:3.2183795196501279] [-4.7135102663352288:3.6214412091793649] [-4.4336176471185045:4.1558271557935687] [-4.9773059129038151:4.149410656485343] [-3.7336464165445:3.9649876653244736] [-7.1933783481781362:3.7040822013008015] [-5.6100578691807854:3.8491865486934782] [-4.23680302673238:3.6761897198414295] [-5.2320933802040424:3.5024040400583125] [-6.0860210806975159:3.5207034961054848] [-4.6453060603555949:3.3951108719541438] [-4.2361477305836095:3.0644498961016797] [-5.0476497041421631:3.5834257342237685] [-6.3900522014792625:3.7976811636998016] [-6.44119958952533:4.2346968284852977] [-6.7231719563094572:3.7716530423833241] [-6.6462547656213351:3.3654612465129983] [-6.6143113665622124:3.0223093650406279] [-3.3380247502269045:3.3337012660659155] [-6.8630564423773173:4.0292319336044038] [-5.4522474686154005:3.8197716122383101] [-6.9760988714766112:3.5017788901680942] [-8.9259007385099789:4.2910119883381244] [-5.4880918200278188:3.9107819756434332] [-4.7572064269705701:3.5655047581612545] [-4.9707988277389594:3.2996654710845887] [-6.0585555630369674:3.806508886703222] [-8.993873982729804:4.6440354617440232] [-5.515825104673989:3.9984020324070602] [-7.7454601633999429:4.0546631051265951] [-5.7042506532792334:4.1769832204152095] [-4.7635244251106563:4.1280532094191225] [-5.9260942914042865:3.9683972690851914] [-7.4430592781685956:3.831358023587383] [-6.6679682332589225:3.8137126598795517] [-10:3.7831622846905284] [-8.2810321978779289:3.4842062448584263] [-6.8520962908228782:3.6261027351191362] [-5.4240270141066782:4.1398036617885134] [-10:4.2130495863322546] [-10:4.0776594823827299] [-5.0120627867224137:3.8523648738344529] [-10:3.521782240431917] [-6.9264781344973674:3.6979496636269666] [-6.4627759978224466:4.1018863778873644] [-5.4122144627158617:3.7814241285996402] [-7.0022036967186212:3.4909552615465849] [-7.5171210584613455:4.0875536015399865] [-5.5211606461528406:3.9008780765532327] [-4.6033084919188152:3.6172701249141919] [-5.5169235496614428:3.455763749728181] [-5.9724244068430004:3.8491693509018163] [-9.1291817348619393:4.593296910476079] [-5.5767209705893981:3.9595508215543527] [-6.8078518074996373:4.1849735570339313] [-5.7613594554560592:4.1243693051884751] [-4.7869587763450516:4.1050322828010133] [-5.9670291059729079:3.9407941715096118] [-7.4246110437291071:3.8161794337891566] [-6.6417261941971084:3.7724706142129598] [-10:3.7665718173253393] [-7.0694995358814072:3.4628006246295566] [-6.7819021238871304:3.6696413037411646] [-5.33174352217954:4.2225208962492218] [-10:4.2575141200098665] [-10:4.0082265239422856] [-4.9645481485747913:3.8656336339540762] [-10:3.5288398043583515] [-6.2883134831341012:3.7007021074258883] [-6.8923715297986829:4.0200457137266783] [-5.4382688334158704:3.8105809728862621] [-6.9314277165069118:3.4959216011946692] [-7.9450413744896329:4.1997536191221831] [-5.4914636043704004:3.9225577997262873] [-5.5238714179287944:3.9408667561068369] [-5.5884384583692821:3.4664932064307545] [-5.7424688648694744:3.9186713857467641] [-8.942086118222198:4.7221423972633341] [-5.5570069984988324:4.0000542397315435] [-7.7097346209284625:4.0703240122852655] [-5.7415459644320039:4.1332274017995561] [-4.8032273050213883:4.0960401484197462] [-6.0192865640423321:3.8917542904794233] [-5.9166259415274691:3.7246869530105533] [-5.8944674197158715:3.7024056221679986] [-10:3.809655115160016] [-8.0897422279104383:3.5246854009315274] [-6.8453579670540039:3.6517241522270658] [-5.4207209490451991:4.1797129199092211] [-10:4.2940592306093404] [-10:3.9752478513893159] [-4.9725000285639354:3.8666005947845119] [-7.1045325527720085:3.5805176628567366] [-6.1965414391282483:3.7186649923018233] [-6.6919250241175146:4.1020021661015464] [-5.4368527784128347:3.8010511693132161] [-6.9876535968068474:3.5138208894625267] [-8.9312912187829312:4.2978466209760269] [-5.5154700336918685:3.8809888538531987] [-5.5814478822406448:3.9355262363313939] [-5.4881356710363027:3.4744335409949443] [-6.0822997158209731:3.8062696115876888] [-9.0915426675721864:4.6067405947171274] [-5.5511251346574655:4.0073402009783647] [-7.3574074650014625:4.2502707272645877] [-5.6679902112842413:4.1704052937373985] [-4.7329644166857143:4.1830246776133722] [-5.9061009876275659:3.9951827505973339] [-7.4476567198561598:3.842806225959353] [-6.5898909434352735:3.8218801046074802] [-10:3.8245157935158436] [-6.8832184155590399:3.4424652769393544] [-6.7245703608535861:3.6877166946910842] [-5.4009583742835385:4.1692231180285981] [-10:4.2647227061818285] [-10:4.1358519731235228] [-4.9681429771065186:3.882765788666505] [-10:3.6007527347500123] [-7.3568199053085186:3.763136943582496] [-5.2028775892440144:10] [-5.7384493204616618:10] [-6.7208020264453827:9.8793654919029805] [-4.9970330521757766:10] [-6.6207030567978764:10] [-6.1857351304617305:9.9545406566255465] [-6.758846646933125:7.7937330042762829] [-5.6606262986512164:10] [-8.4654798307300183:10] [-7.9662164296142457:10] [-8.2429532878616616:10] [-9.4525268305242029:10] [-6.4613213272242662:10] [-5.4600947909678421:10] [-6.1827544452107386:10] [-10:9.5395969599654133] [-7.5891868627476242:8.3515278354827664] [-7.4604216297304449:6.5607649527971414] [-5.5207338771018923:10] [-6.5461945458511863:10] [-7.4910354813958415:10] [-8.7787887509287685:10] [-9.3988658814933661:10] [-10:6.0332140077016341] [-6.2350446838159659:9.7428994296436162] [-5.2260564629225117:10] [-5.8189030945869575:10] [-7.0893323913948008:8.9565263714113996] [-5.4099566273022166:10] [-6.7196800688847391:10] [-5.3881747713950077:10] [-5.9687768655279294:9.8347704054075606] [-5.5473457168295583:10] [-8.3977563963997888:10] [-7.9301139610720721:10] [-8.1698357509691437:10] [-9.3743201653472443:10] [-6.8169722406034685:10] [-5.577598335705396:10] [-5.9125723460950494:10] [-10:10] [-7.1851374561637211:9.1964791867381717] [-7.2142761512948024:6.8411555951321628] [-5.3818415625747935:10] [-6.497892577128912:10] [-6.9742747945569015:10] [-8.1279367749516958:10] [-8.3436808437893202:10] [-10:6.1130248395252798] [-6.5537836029163872:9.3358500422727673] [-5.0776044792819768:10] [-5.8126775870229617:10] [-6.7335808725771393:9.7838360710595733] [-5.0665616827261513:10] [-5.9565037899442146:10] [-5.4113941708790732:10] [-5.3794918900279116:10] [-5.1276026966785215:10] [-8.4735093339196315:10] [-7.9377252880932128:10] [-7.5667483071462716:10] [-9.4822717953760272:10] [-7.3611560147531652:10] [-5.5334480452405215:10] [-6.0198394694830135:10] [-10:10] [-7.2690921570312623:9.2192940326769666] [-7.2702976914296649:6.7849352170636221] [-5.4288983236258579:10] [-6.2366030737944724:10] [-7.2560624291326441:10] [-6.4832630220846017:10] [-8.3547282373046095:10] [-10:6.1206407932683264] [-6.2561458297413779:9.9032138405081493] [-5.200773188220948:10] [-5.7864685707167034:10] [-6.7547339197663723:9.7678859383993153] [-5.0973847203083773:10] [-5.9784236599132452:10] [-5.19340651236495:10] [-5.3423223082301705:10] [-5.1874156260326068:10] [-8.325498029775984:10] [-7.8012896585534595:10] [-8.0835846984810935:10] [-9.5397923820459205:10] [-7.2144008913794693:10] [-5.4613556498207334:10] [-6.0041002247851871:10] [-10:10] [-7.2910731323601343:9.022799316388463] [-7.3965753529746019:6.5902457455052836] [-5.4548721885920965:10] [-6.1955345089473735:10] [-6.8290470128477363:10] [-7.7873998703799199:10] [-8.1589996802659197:10] [-10:5.9241522764220322] [-6.8228025006158219:8.7465699076317343] [-5.701781442443111:10] [-7.3264557584047578:10] [-7.9579610477654095:9.625213327251533] [-5.9633653133195725:10] [-5.7656104790337936:10] [-6.2448794416901938:10] [-6.7924616649772735:7.6297960834880874] [-6.3710401969784733:9.8655001547823442] [-7.2262751377466659:10] [-7.0046653247346198:10] [-6.7835549199638425:10] [-6.1029197664477177:10] [-6.4392635107841789:10] [-5.8403504138845541:10] [-5.5940534063420913:10] [-5.8916420091586161:9.8799968652933021] [-7.820936374236978:8.8243985154903548] [-6.4910507500476209:6.3749417820434884] [-7.3811967330702091:10] [-10:9.9175003882819048] [-6.9252064856364939:10] [-10:10] [-7.5882382404680024:9.9817175032511525] [-7.2200556680937673:6.3115488902784653] [-5.9448219108917071:9.4304356234941196] [-5.7342339944683616:10] [-7.3247124262082721:10] [-8.612259115394:8.6021961898063175] [-6.5043007819795884:9.6140257845425392] [-6.135903528247213:10] [-5.2142400934800275:10] [-6.2784993879388535:9.4044203980593117] [-6.2229889664023128:10] [-7.177513913610448:10] [-6.9838408806809698:10] [-6.6583213892206015:10] [-6.0788062586402747:10] [-6.6517859798027645:10] [-5.9705708952289331:10] [-5.6095203954924884:10] [-5.5029639722281125:10] [-7.1101420800814994:9.7563228855484567] [-6.8389664659585954:6.6560567527752879] [-7.3589814473293806:10] [-10:10] [-7.1453903585548009:10] [-9.1442869690131889:10] [-6.9352018398025512:10] [-7.1091320974720942:6.4528939704572776] [-6.1413631693863246:9.0606385378476659] [-5.781652430027183:10] [-6.7485129914686537:10] [-7.9470411262357317:9.4835046060899497] [-5.9698215762339286:10] [-5.1455851802430379:10] [-4.9122908503429317:10] [-5.5623750472791516:10] [-5.8256590340445147:10] [-6.60308494645375:10] [-6.9799209795312462:10] [-6.5902819534311448:10] [-6.0271332287412696:10] [-6.4367764585643492:10] [-5.9850128668256675:10] [-6.2085322008838473:10] [-5.5070811195408726:10] [-7.3072284519319775:9.7871343425529957] [-6.457133243608391:6.6094470900901197] [-7.4121052817149486:10] [-10:10] [-6.4022016274493527:10] [-8.7775204301082148:10] [-6.9527384152337453:10] [-7.2013162355787674:6.4078295647467103] [-5.7513861244493247:9.8461810790455182] [-5.7604403153848125:10] [-7.2588206939280582:10] [-8.0159245978393638:9.4604938832452437] [-5.9790582112125144:10] [-5.2250553239764033:10] [-4.7459414080614986:10] [-5.7015764514251055:10] [-5.8124645030425093:10] [-6.5636261864524901:10] [-6.9284545256754031:10] [-6.6542362523885785:10] [-6.0589651392672668:10] [-6.3535099374015145:10] [-5.8145507390827635:10] [-5.7514095959049705:10] [-5.4585491023149189:10] [-7.310736541756591:9.7198076834402833] [-6.6045556333301425:6.4516811088874029] [-7.4034490864793385:10] [-10:10] [-6.4577145493814907:10] [-8.7198104790807953:10] [-6.8542871262343379:10] [-6.7255733065036845:6.2250942924359425] [-6.4844877173623248:8.3857608325046051]
