tree
version=v2
num_class=1
num_tree_per_iteration=1
label_index=0
max_feature_idx=1716
objective=regression_l1
feature_names=chunk_mean chunk_std chunk_q_0 chunk_q_0.25 chunk_q_0.5 chunk_q_0.75 chunk_q_1 chunk_fft_0 chunk_fft_1 chunk_fft_2 chunk_fft_3 chunk_fft_4 chunk_fft_5 chunk_fft_6 chunk_fft_7 chunk_fft_8 chunk_fft_9 sub_mean_sub_step_0 sub_mean_sub_step_1 sub_mean_sub_step_2 sub_mean_sub_step_3 sub_mean_sub_step_4 sub_mean_sub_step_5 sub_mean_sub_step_6 sub_mean_sub_step_7 sub_mean_sub_step_8 sub_mean_sub_step_9 sub_mean_sub_step_10 sub_mean_sub_step_11 sub_mean_sub_step_12 sub_mean_sub_step_13 sub_mean_sub_step_14 sub_mean_sub_step_15 sub_mean_sub_step_16 sub_mean_sub_step_17 sub_mean_sub_step_18 sub_mean_sub_step_19 sub_mean_sub_step_20 sub_mean_sub_step_21 sub_mean_sub_step_22 sub_mean_sub_step_23 sub_mean_sub_step_24 sub_mean_sub_step_25 sub_mean_sub_step_26 sub_mean_sub_step_27 sub_mean_sub_step_28 sub_mean_sub_step_29 sub_mean_sub_step_30 sub_mean_sub_step_31 sub_mean_sub_step_32 sub_mean_sub_step_33 sub_mean_sub_step_34 sub_mean_sub_step_35 sub_mean_sub_step_36 sub_mean_sub_step_37 sub_mean_sub_step_38 sub_mean_sub_step_39 sub_mean_sub_step_40 sub_mean_sub_step_41 sub_mean_sub_step_42 sub_mean_sub_step_43 sub_mean_sub_step_44 sub_mean_sub_step_45 sub_mean_sub_step_46 sub_mean_sub_step_47 sub_mean_sub_step_48 sub_mean_sub_step_49 sub_mean_sub_step_50 sub_mean_sub_step_51 sub_mean_sub_step_52 sub_mean_sub_step_53 sub_mean_sub_step_54 sub_mean_sub_step_55 sub_mean_sub_step_56 sub_mean_sub_step_57 sub_mean_sub_step_58 sub_mean_sub_step_59 sub_mean_sub_step_60 sub_mean_sub_step_61 sub_mean_sub_step_62 sub_mean_sub_step_63 sub_mean_sub_step_64 sub_mean_sub_step_65 sub_mean_sub_step_66 sub_mean_sub_step_67 sub_mean_sub_step_68 sub_mean_sub_step_69 sub_mean_sub_step_70 sub_mean_sub_step_71 sub_mean_sub_step_72 sub_mean_sub_step_73 sub_mean_sub_step_74 sub_mean_sub_step_75 sub_mean_sub_step_76 sub_mean_sub_step_77 sub_mean_sub_step_78 sub_mean_sub_step_79 sub_mean_sub_step_80 sub_mean_sub_step_81 sub_mean_sub_step_82 sub_mean_sub_step_83 sub_mean_sub_step_84 sub_mean_sub_step_85 sub_mean_sub_step_86 sub_mean_sub_step_87 sub_mean_sub_step_88 sub_mean_sub_step_89 sub_mean_sub_step_90 sub_mean_sub_step_91 sub_mean_sub_step_92 sub_mean_sub_step_93 sub_mean_sub_step_94 sub_mean_sub_step_95 sub_mean_sub_step_96 sub_mean_sub_step_97 sub_mean_sub_step_98 sub_mean_sub_step_99 sub_std_sub_step_0 sub_std_sub_step_1 sub_std_sub_step_2 sub_std_sub_step_3 sub_std_sub_step_4 sub_std_sub_step_5 sub_std_sub_step_6 sub_std_sub_step_7 sub_std_sub_step_8 sub_std_sub_step_9 sub_std_sub_step_10 sub_std_sub_step_11 sub_std_sub_step_12 sub_std_sub_step_13 sub_std_sub_step_14 sub_std_sub_step_15 sub_std_sub_step_16 sub_std_sub_step_17 sub_std_sub_step_18 sub_std_sub_step_19 sub_std_sub_step_20 sub_std_sub_step_21 sub_std_sub_step_22 sub_std_sub_step_23 sub_std_sub_step_24 sub_std_sub_step_25 sub_std_sub_step_26 sub_std_sub_step_27 sub_std_sub_step_28 sub_std_sub_step_29 sub_std_sub_step_30 sub_std_sub_step_31 sub_std_sub_step_32 sub_std_sub_step_33 sub_std_sub_step_34 sub_std_sub_step_35 sub_std_sub_step_36 sub_std_sub_step_37 sub_std_sub_step_38 sub_std_sub_step_39 sub_std_sub_step_40 sub_std_sub_step_41 sub_std_sub_step_42 sub_std_sub_step_43 sub_std_sub_step_44 sub_std_sub_step_45 sub_std_sub_step_46 sub_std_sub_step_47 sub_std_sub_step_48 sub_std_sub_step_49 sub_std_sub_step_50 sub_std_sub_step_51 sub_std_sub_step_52 sub_std_sub_step_53 sub_std_sub_step_54 sub_std_sub_step_55 sub_std_sub_step_56 sub_std_sub_step_57 sub_std_sub_step_58 sub_std_sub_step_59 sub_std_sub_step_60 sub_std_sub_step_61 sub_std_sub_step_62 sub_std_sub_step_63 sub_std_sub_step_64 sub_std_sub_step_65 sub_std_sub_step_66 sub_std_sub_step_67 sub_std_sub_step_68 sub_std_sub_step_69 sub_std_sub_step_70 sub_std_sub_step_71 sub_std_sub_step_72 sub_std_sub_step_73 sub_std_sub_step_74 sub_std_sub_step_75 sub_std_sub_step_76 sub_std_sub_step_77 sub_std_sub_step_78 sub_std_sub_step_79 sub_std_sub_step_80 sub_std_sub_step_81 sub_std_sub_step_82 sub_std_sub_step_83 sub_std_sub_step_84 sub_std_sub_step_85 sub_std_sub_step_86 sub_std_sub_step_87 sub_std_sub_step_88 sub_std_sub_step_89 sub_std_sub_step_90 sub_std_sub_step_91 sub_std_sub_step_92 sub_std_sub_step_93 sub_std_sub_step_94 sub_std_sub_step_95 sub_std_sub_step_96 sub_std_sub_step_97 sub_std_sub_step_98 sub_std_sub_step_99 sub_q_0_sub_step_0 sub_q_0_sub_step_1 sub_q_0_sub_step_2 sub_q_0_sub_step_3 sub_q_0_sub_step_4 sub_q_0_sub_step_5 sub_q_0_sub_step_6 sub_q_0_sub_step_7 sub_q_0_sub_step_8 sub_q_0_sub_step_9 sub_q_0_sub_step_10 sub_q_0_sub_step_11 sub_q_0_sub_step_12 sub_q_0_sub_step_13 sub_q_0_sub_step_14 sub_q_0_sub_step_15 sub_q_0_sub_step_16 sub_q_0_sub_step_17 sub_q_0_sub_step_18 sub_q_0_sub_step_19 sub_q_0_sub_step_20 sub_q_0_sub_step_21 sub_q_0_sub_step_22 sub_q_0_sub_step_23 sub_q_0_sub_step_24 sub_q_0_sub_step_25 sub_q_0_sub_step_26 sub_q_0_sub_step_27 sub_q_0_sub_step_28 sub_q_0_sub_step_29 sub_q_0_sub_step_30 sub_q_0_sub_step_31 sub_q_0_sub_step_32 sub_q_0_sub_step_33 sub_q_0_sub_step_34 sub_q_0_sub_step_35 sub_q_0_sub_step_36 sub_q_0_sub_step_37 sub_q_0_sub_step_38 sub_q_0_sub_step_39 sub_q_0_sub_step_40 sub_q_0_sub_step_41 sub_q_0_sub_step_42 sub_q_0_sub_step_43 sub_q_0_sub_step_44 sub_q_0_sub_step_45 sub_q_0_sub_step_46 sub_q_0_sub_step_47 sub_q_0_sub_step_48 sub_q_0_sub_step_49 sub_q_0_sub_step_50 sub_q_0_sub_step_51 sub_q_0_sub_step_52 sub_q_0_sub_step_53 sub_q_0_sub_step_54 sub_q_0_sub_step_55 sub_q_0_sub_step_56 sub_q_0_sub_step_57 sub_q_0_sub_step_58 sub_q_0_sub_step_59 sub_q_0_sub_step_60 sub_q_0_sub_step_61 sub_q_0_sub_step_62 sub_q_0_sub_step_63 sub_q_0_sub_step_64 sub_q_0_sub_step_65 sub_q_0_sub_step_66 sub_q_0_sub_step_67 sub_q_0_sub_step_68 sub_q_0_sub_step_69 sub_q_0_sub_step_70 sub_q_0_sub_step_71 sub_q_0_sub_step_72 sub_q_0_sub_step_73 sub_q_0_sub_step_74 sub_q_0_sub_step_75 sub_q_0_sub_step_76 sub_q_0_sub_step_77 sub_q_0_sub_step_78 sub_q_0_sub_step_79 sub_q_0_sub_step_80 sub_q_0_sub_step_81 sub_q_0_sub_step_82 sub_q_0_sub_step_83 sub_q_0_sub_step_84 sub_q_0_sub_step_85 sub_q_0_sub_step_86 sub_q_0_sub_step_87 sub_q_0_sub_step_88 sub_q_0_sub_step_89 sub_q_0_sub_step_90 sub_q_0_sub_step_91 sub_q_0_sub_step_92 sub_q_0_sub_step_93 sub_q_0_sub_step_94 sub_q_0_sub_step_95 sub_q_0_sub_step_96 sub_q_0_sub_step_97 sub_q_0_sub_step_98 sub_q_0_sub_step_99 sub_q_0.25_sub_step_0 sub_q_0.25_sub_step_1 sub_q_0.25_sub_step_2 sub_q_0.25_sub_step_3 sub_q_0.25_sub_step_4 sub_q_0.25_sub_step_5 sub_q_0.25_sub_step_6 sub_q_0.25_sub_step_7 sub_q_0.25_sub_step_8 sub_q_0.25_sub_step_9 sub_q_0.25_sub_step_10 sub_q_0.25_sub_step_11 sub_q_0.25_sub_step_12 sub_q_0.25_sub_step_13 sub_q_0.25_sub_step_14 sub_q_0.25_sub_step_15 sub_q_0.25_sub_step_16 sub_q_0.25_sub_step_17 sub_q_0.25_sub_step_18 sub_q_0.25_sub_step_19 sub_q_0.25_sub_step_20 sub_q_0.25_sub_step_21 sub_q_0.25_sub_step_22 sub_q_0.25_sub_step_23 sub_q_0.25_sub_step_24 sub_q_0.25_sub_step_25 sub_q_0.25_sub_step_26 sub_q_0.25_sub_step_27 sub_q_0.25_sub_step_28 sub_q_0.25_sub_step_29 sub_q_0.25_sub_step_30 sub_q_0.25_sub_step_31 sub_q_0.25_sub_step_32 sub_q_0.25_sub_step_33 sub_q_0.25_sub_step_34 sub_q_0.25_sub_step_35 sub_q_0.25_sub_step_36 sub_q_0.25_sub_step_37 sub_q_0.25_sub_step_38 sub_q_0.25_sub_step_39 sub_q_0.25_sub_step_40 sub_q_0.25_sub_step_41 sub_q_0.25_sub_step_42 sub_q_0.25_sub_step_43 sub_q_0.25_sub_step_44 sub_q_0.25_sub_step_45 sub_q_0.25_sub_step_46 sub_q_0.25_sub_step_47 sub_q_0.25_sub_step_48 sub_q_0.25_sub_step_49 sub_q_0.25_sub_step_50 sub_q_0.25_sub_step_51 sub_q_0.25_sub_step_52 sub_q_0.25_sub_step_53 sub_q_0.25_sub_step_54 sub_q_0.25_sub_step_55 sub_q_0.25_sub_step_56 sub_q_0.25_sub_step_57 sub_q_0.25_sub_step_58 sub_q_0.25_sub_step_59 sub_q_0.25_sub_step_60 sub_q_0.25_sub_step_61 sub_q_0.25_sub_step_62 sub_q_0.25_sub_step_63 sub_q_0.25_sub_step_64 sub_q_0.25_sub_step_65 sub_q_0.25_sub_step_66 sub_q_0.25_sub_step_67 sub_q_0.25_sub_step_68 sub_q_0.25_sub_step_69 sub_q_0.25_sub_step_70 sub_q_0.25_sub_step_71 sub_q_0.25_sub_step_72 sub_q_0.25_sub_step_73 sub_q_0.25_sub_step_74 sub_q_0.25_sub_step_75 sub_q_0.25_sub_step_76 sub_q_0.25_sub_step_77 sub_q_0.25_sub_step_78 sub_q_0.25_sub_step_79 sub_q_0.25_sub_step_80 sub_q_0.25_sub_step_81 sub_q_0.25_sub_step_82 sub_q_0.25_sub_step_83 sub_q_0.25_sub_step_84 sub_q_0.25_sub_step_85 sub_q_0.25_sub_step_86 sub_q_0.25_sub_step_87 sub_q_0.25_sub_step_88 sub_q_0.25_sub_step_89 sub_q_0.25_sub_step_90 sub_q_0.25_sub_step_91 sub_q_0.25_sub_step_92 sub_q_0.25_sub_step_93 sub_q_0.25_sub_step_94 sub_q_0.25_sub_step_95 sub_q_0.25_sub_step_96 sub_q_0.25_sub_step_97 sub_q_0.25_sub_step_98 sub_q_0.25_sub_step_99 sub_q_0.5_sub_step_0 sub_q_0.5_sub_step_1 sub_q_0.5_sub_step_2 sub_q_0.5_sub_step_3 sub_q_0.5_sub_step_4 sub_q_0.5_sub_step_5 sub_q_0.5_sub_step_6 sub_q_0.5_sub_step_7 sub_q_0.5_sub_step_8 sub_q_0.5_sub_step_9 sub_q_0.5_sub_step_10 sub_q_0.5_sub_step_11 sub_q_0.5_sub_step_12 sub_q_0.5_sub_step_13 sub_q_0.5_sub_step_14 sub_q_0.5_sub_step_15 sub_q_0.5_sub_step_16 sub_q_0.5_sub_step_17 sub_q_0.5_sub_step_18 sub_q_0.5_sub_step_19 sub_q_0.5_sub_step_20 sub_q_0.5_sub_step_21 sub_q_0.5_sub_step_22 sub_q_0.5_sub_step_23 sub_q_0.5_sub_step_24 sub_q_0.5_sub_step_25 sub_q_0.5_sub_step_26 sub_q_0.5_sub_step_27 sub_q_0.5_sub_step_28 sub_q_0.5_sub_step_29 sub_q_0.5_sub_step_30 sub_q_0.5_sub_step_31 sub_q_0.5_sub_step_32 sub_q_0.5_sub_step_33 sub_q_0.5_sub_step_34 sub_q_0.5_sub_step_35 sub_q_0.5_sub_step_36 sub_q_0.5_sub_step_37 sub_q_0.5_sub_step_38 sub_q_0.5_sub_step_39 sub_q_0.5_sub_step_40 sub_q_0.5_sub_step_41 sub_q_0.5_sub_step_42 sub_q_0.5_sub_step_43 sub_q_0.5_sub_step_44 sub_q_0.5_sub_step_45 sub_q_0.5_sub_step_46 sub_q_0.5_sub_step_47 sub_q_0.5_sub_step_48 sub_q_0.5_sub_step_49 sub_q_0.5_sub_step_50 sub_q_0.5_sub_step_51 sub_q_0.5_sub_step_52 sub_q_0.5_sub_step_53 sub_q_0.5_sub_step_54 sub_q_0.5_sub_step_55 sub_q_0.5_sub_step_56 sub_q_0.5_sub_step_57 sub_q_0.5_sub_step_58 sub_q_0.5_sub_step_59 sub_q_0.5_sub_step_60 sub_q_0.5_sub_step_61 sub_q_0.5_sub_step_62 sub_q_0.5_sub_step_63 sub_q_0.5_sub_step_64 sub_q_0.5_sub_step_65 sub_q_0.5_sub_step_66 sub_q_0.5_sub_step_67 sub_q_0.5_sub_step_68 sub_q_0.5_sub_step_69 sub_q_0.5_sub_step_70 sub_q_0.5_sub_step_71 sub_q_0.5_sub_step_72 sub_q_0.5_sub_step_73 sub_q_0.5_sub_step_74 sub_q_0.5_sub_step_75 sub_q_0.5_sub_step_76 sub_q_0.5_sub_step_77 sub_q_0.5_sub_step_78 sub_q_0.5_sub_step_79 sub_q_0.5_sub_step_80 sub_q_0.5_sub_step_81 sub_q_0.5_sub_step_82 sub_q_0.5_sub_step_83 sub_q_0.5_sub_step_84 sub_q_0.5_sub_step_85 sub_q_0.5_sub_step_86 sub_q_0.5_sub_step_87 sub_q_0.5_sub_step_88 sub_q_0.5_sub_step_89 sub_q_0.5_sub_step_90 sub_q_0.5_sub_step_91 sub_q_0.5_sub_step_92 sub_q_0.5_sub_step_93 sub_q_0.5_sub_step_94 sub_q_0.5_sub_step_95 sub_q_0.5_sub_step_96 sub_q_0.5_sub_step_97 sub_q_0.5_sub_step_98 sub_q_0.5_sub_step_99 sub_q_0.75_sub_step_0 sub_q_0.75_sub_step_1 sub_q_0.75_sub_step_2 sub_q_0.75_sub_step_3 sub_q_0.75_sub_step_4 sub_q_0.75_sub_step_5 sub_q_0.75_sub_step_6 sub_q_0.75_sub_step_7 sub_q_0.75_sub_step_8 sub_q_0.75_sub_step_9 sub_q_0.75_sub_step_10 sub_q_0.75_sub_step_11 sub_q_0.75_sub_step_12 sub_q_0.75_sub_step_13 sub_q_0.75_sub_step_14 sub_q_0.75_sub_step_15 sub_q_0.75_sub_step_16 sub_q_0.75_sub_step_17 sub_q_0.75_sub_step_18 sub_q_0.75_sub_step_19 sub_q_0.75_sub_step_20 sub_q_0.75_sub_step_21 sub_q_0.75_sub_step_22 sub_q_0.75_sub_step_23 sub_q_0.75_sub_step_24 sub_q_0.75_sub_step_25 sub_q_0.75_sub_step_26 sub_q_0.75_sub_step_27 sub_q_0.75_sub_step_28 sub_q_0.75_sub_step_29 sub_q_0.75_sub_step_30 sub_q_0.75_sub_step_31 sub_q_0.75_sub_step_32 sub_q_0.75_sub_step_33 sub_q_0.75_sub_step_34 sub_q_0.75_sub_step_35 sub_q_0.75_sub_step_36 sub_q_0.75_sub_step_37 sub_q_0.75_sub_step_38 sub_q_0.75_sub_step_39 sub_q_0.75_sub_step_40 sub_q_0.75_sub_step_41 sub_q_0.75_sub_step_42 sub_q_0.75_sub_step_43 sub_q_0.75_sub_step_44 sub_q_0.75_sub_step_45 sub_q_0.75_sub_step_46 sub_q_0.75_sub_step_47 sub_q_0.75_sub_step_48 sub_q_0.75_sub_step_49 sub_q_0.75_sub_step_50 sub_q_0.75_sub_step_51 sub_q_0.75_sub_step_52 sub_q_0.75_sub_step_53 sub_q_0.75_sub_step_54 sub_q_0.75_sub_step_55 sub_q_0.75_sub_step_56 sub_q_0.75_sub_step_57 sub_q_0.75_sub_step_58 sub_q_0.75_sub_step_59 sub_q_0.75_sub_step_60 sub_q_0.75_sub_step_61 sub_q_0.75_sub_step_62 sub_q_0.75_sub_step_63 sub_q_0.75_sub_step_64 sub_q_0.75_sub_step_65 sub_q_0.75_sub_step_66 sub_q_0.75_sub_step_67 sub_q_0.75_sub_step_68 sub_q_0.75_sub_step_69 sub_q_0.75_sub_step_70 sub_q_0.75_sub_step_71 sub_q_0.75_sub_step_72 sub_q_0.75_sub_step_73 sub_q_0.75_sub_step_74 sub_q_0.75_sub_step_75 sub_q_0.75_sub_step_76 sub_q_0.75_sub_step_77 sub_q_0.75_sub_step_78 sub_q_0.75_sub_step_79 sub_q_0.75_sub_step_80 sub_q_0.75_sub_step_81 sub_q_0.75_sub_step_82 sub_q_0.75_sub_step_83 sub_q_0.75_sub_step_84 sub_q_0.75_sub_step_85 sub_q_0.75_sub_step_86 sub_q_0.75_sub_step_87 sub_q_0.75_sub_step_88 sub_q_0.75_sub_step_89 sub_q_0.75_sub_step_90 sub_q_0.75_sub_step_91 sub_q_0.75_sub_step_92 sub_q_0.75_sub_step_93 sub_q_0.75_sub_step_94 sub_q_0.75_sub_step_95 sub_q_0.75_sub_step_96 sub_q_0.75_sub_step_97 sub_q_0.75_sub_step_98 sub_q_0.75_sub_step_99 sub_q_1_sub_step_0 sub_q_1_sub_step_1 sub_q_1_sub_step_2 sub_q_1_sub_step_3 sub_q_1_sub_step_4 sub_q_1_sub_step_5 sub_q_1_sub_step_6 sub_q_1_sub_step_7 sub_q_1_sub_step_8 sub_q_1_sub_step_9 sub_q_1_sub_step_10 sub_q_1_sub_step_11 sub_q_1_sub_step_12 sub_q_1_sub_step_13 sub_q_1_sub_step_14 sub_q_1_sub_step_15 sub_q_1_sub_step_16 sub_q_1_sub_step_17 sub_q_1_sub_step_18 sub_q_1_sub_step_19 sub_q_1_sub_step_20 sub_q_1_sub_step_21 sub_q_1_sub_step_22 sub_q_1_sub_step_23 sub_q_1_sub_step_24 sub_q_1_sub_step_25 sub_q_1_sub_step_26 sub_q_1_sub_step_27 sub_q_1_sub_step_28 sub_q_1_sub_step_29 sub_q_1_sub_step_30 sub_q_1_sub_step_31 sub_q_1_sub_step_32 sub_q_1_sub_step_33 sub_q_1_sub_step_34 sub_q_1_sub_step_35 sub_q_1_sub_step_36 sub_q_1_sub_step_37 sub_q_1_sub_step_38 sub_q_1_sub_step_39 sub_q_1_sub_step_40 sub_q_1_sub_step_41 sub_q_1_sub_step_42 sub_q_1_sub_step_43 sub_q_1_sub_step_44 sub_q_1_sub_step_45 sub_q_1_sub_step_46 sub_q_1_sub_step_47 sub_q_1_sub_step_48 sub_q_1_sub_step_49 sub_q_1_sub_step_50 sub_q_1_sub_step_51 sub_q_1_sub_step_52 sub_q_1_sub_step_53 sub_q_1_sub_step_54 sub_q_1_sub_step_55 sub_q_1_sub_step_56 sub_q_1_sub_step_57 sub_q_1_sub_step_58 sub_q_1_sub_step_59 sub_q_1_sub_step_60 sub_q_1_sub_step_61 sub_q_1_sub_step_62 sub_q_1_sub_step_63 sub_q_1_sub_step_64 sub_q_1_sub_step_65 sub_q_1_sub_step_66 sub_q_1_sub_step_67 sub_q_1_sub_step_68 sub_q_1_sub_step_69 sub_q_1_sub_step_70 sub_q_1_sub_step_71 sub_q_1_sub_step_72 sub_q_1_sub_step_73 sub_q_1_sub_step_74 sub_q_1_sub_step_75 sub_q_1_sub_step_76 sub_q_1_sub_step_77 sub_q_1_sub_step_78 sub_q_1_sub_step_79 sub_q_1_sub_step_80 sub_q_1_sub_step_81 sub_q_1_sub_step_82 sub_q_1_sub_step_83 sub_q_1_sub_step_84 sub_q_1_sub_step_85 sub_q_1_sub_step_86 sub_q_1_sub_step_87 sub_q_1_sub_step_88 sub_q_1_sub_step_89 sub_q_1_sub_step_90 sub_q_1_sub_step_91 sub_q_1_sub_step_92 sub_q_1_sub_step_93 sub_q_1_sub_step_94 sub_q_1_sub_step_95 sub_q_1_sub_step_96 sub_q_1_sub_step_97 sub_q_1_sub_step_98 sub_q_1_sub_step_99 sub_fft_0_sub_step_0 sub_fft_0_sub_step_1 sub_fft_0_sub_step_2 sub_fft_0_sub_step_3 sub_fft_0_sub_step_4 sub_fft_0_sub_step_5 sub_fft_0_sub_step_6 sub_fft_0_sub_step_7 sub_fft_0_sub_step_8 sub_fft_0_sub_step_9 sub_fft_0_sub_step_10 sub_fft_0_sub_step_11 sub_fft_0_sub_step_12 sub_fft_0_sub_step_13 sub_fft_0_sub_step_14 sub_fft_0_sub_step_15 sub_fft_0_sub_step_16 sub_fft_0_sub_step_17 sub_fft_0_sub_step_18 sub_fft_0_sub_step_19 sub_fft_0_sub_step_20 sub_fft_0_sub_step_21 sub_fft_0_sub_step_22 sub_fft_0_sub_step_23 sub_fft_0_sub_step_24 sub_fft_0_sub_step_25 sub_fft_0_sub_step_26 sub_fft_0_sub_step_27 sub_fft_0_sub_step_28 sub_fft_0_sub_step_29 sub_fft_0_sub_step_30 sub_fft_0_sub_step_31 sub_fft_0_sub_step_32 sub_fft_0_sub_step_33 sub_fft_0_sub_step_34 sub_fft_0_sub_step_35 sub_fft_0_sub_step_36 sub_fft_0_sub_step_37 sub_fft_0_sub_step_38 sub_fft_0_sub_step_39 sub_fft_0_sub_step_40 sub_fft_0_sub_step_41 sub_fft_0_sub_step_42 sub_fft_0_sub_step_43 sub_fft_0_sub_step_44 sub_fft_0_sub_step_45 sub_fft_0_sub_step_46 sub_fft_0_sub_step_47 sub_fft_0_sub_step_48 sub_fft_0_sub_step_49 sub_fft_0_sub_step_50 sub_fft_0_sub_step_51 sub_fft_0_sub_step_52 sub_fft_0_sub_step_53 sub_fft_0_sub_step_54 sub_fft_0_sub_step_55 sub_fft_0_sub_step_56 sub_fft_0_sub_step_57 sub_fft_0_sub_step_58 sub_fft_0_sub_step_59 sub_fft_0_sub_step_60 sub_fft_0_sub_step_61 sub_fft_0_sub_step_62 sub_fft_0_sub_step_63 sub_fft_0_sub_step_64 sub_fft_0_sub_step_65 sub_fft_0_sub_step_66 sub_fft_0_sub_step_67 sub_fft_0_sub_step_68 sub_fft_0_sub_step_69 sub_fft_0_sub_step_70 sub_fft_0_sub_step_71 sub_fft_0_sub_step_72 sub_fft_0_sub_step_73 sub_fft_0_sub_step_74 sub_fft_0_sub_step_75 sub_fft_0_sub_step_76 sub_fft_0_sub_step_77 sub_fft_0_sub_step_78 sub_fft_0_sub_step_79 sub_fft_0_sub_step_80 sub_fft_0_sub_step_81 sub_fft_0_sub_step_82 sub_fft_0_sub_step_83 sub_fft_0_sub_step_84 sub_fft_0_sub_step_85 sub_fft_0_sub_step_86 sub_fft_0_sub_step_87 sub_fft_0_sub_step_88 sub_fft_0_sub_step_89 sub_fft_0_sub_step_90 sub_fft_0_sub_step_91 sub_fft_0_sub_step_92 sub_fft_0_sub_step_93 sub_fft_0_sub_step_94 sub_fft_0_sub_step_95 sub_fft_0_sub_step_96 sub_fft_0_sub_step_97 sub_fft_0_sub_step_98 sub_fft_0_sub_step_99 sub_fft_1_sub_step_0 sub_fft_1_sub_step_1 sub_fft_1_sub_step_2 sub_fft_1_sub_step_3 sub_fft_1_sub_step_4 sub_fft_1_sub_step_5 sub_fft_1_sub_step_6 sub_fft_1_sub_step_7 sub_fft_1_sub_step_8 sub_fft_1_sub_step_9 sub_fft_1_sub_step_10 sub_fft_1_sub_step_11 sub_fft_1_sub_step_12 sub_fft_1_sub_step_13 sub_fft_1_sub_step_14 sub_fft_1_sub_step_15 sub_fft_1_sub_step_16 sub_fft_1_sub_step_17 sub_fft_1_sub_step_18 sub_fft_1_sub_step_19 sub_fft_1_sub_step_20 sub_fft_1_sub_step_21 sub_fft_1_sub_step_22 sub_fft_1_sub_step_23 sub_fft_1_sub_step_24 sub_fft_1_sub_step_25 sub_fft_1_sub_step_26 sub_fft_1_sub_step_27 sub_fft_1_sub_step_28 sub_fft_1_sub_step_29 sub_fft_1_sub_step_30 sub_fft_1_sub_step_31 sub_fft_1_sub_step_32 sub_fft_1_sub_step_33 sub_fft_1_sub_step_34 sub_fft_1_sub_step_35 sub_fft_1_sub_step_36 sub_fft_1_sub_step_37 sub_fft_1_sub_step_38 sub_fft_1_sub_step_39 sub_fft_1_sub_step_40 sub_fft_1_sub_step_41 sub_fft_1_sub_step_42 sub_fft_1_sub_step_43 sub_fft_1_sub_step_44 sub_fft_1_sub_step_45 sub_fft_1_sub_step_46 sub_fft_1_sub_step_47 sub_fft_1_sub_step_48 sub_fft_1_sub_step_49 sub_fft_1_sub_step_50 sub_fft_1_sub_step_51 sub_fft_1_sub_step_52 sub_fft_1_sub_step_53 sub_fft_1_sub_step_54 sub_fft_1_sub_step_55 sub_fft_1_sub_step_56 sub_fft_1_sub_step_57 sub_fft_1_sub_step_58 sub_fft_1_sub_step_59 sub_fft_1_sub_step_60 sub_fft_1_sub_step_61 sub_fft_1_sub_step_62 sub_fft_1_sub_step_63 sub_fft_1_sub_step_64 sub_fft_1_sub_step_65 sub_fft_1_sub_step_66 sub_fft_1_sub_step_67 sub_fft_1_sub_step_68 sub_fft_1_sub_step_69 sub_fft_1_sub_step_70 sub_fft_1_sub_step_71 sub_fft_1_sub_step_72 sub_fft_1_sub_step_73 sub_fft_1_sub_step_74 sub_fft_1_sub_step_75 sub_fft_1_sub_step_76 sub_fft_1_sub_step_77 sub_fft_1_sub_step_78 sub_fft_1_sub_step_79 sub_fft_1_sub_step_80 sub_fft_1_sub_step_81 sub_fft_1_sub_step_82 sub_fft_1_sub_step_83 sub_fft_1_sub_step_84 sub_fft_1_sub_step_85 sub_fft_1_sub_step_86 sub_fft_1_sub_step_87 sub_fft_1_sub_step_88 sub_fft_1_sub_step_89 sub_fft_1_sub_step_90 sub_fft_1_sub_step_91 sub_fft_1_sub_step_92 sub_fft_1_sub_step_93 sub_fft_1_sub_step_94 sub_fft_1_sub_step_95 sub_fft_1_sub_step_96 sub_fft_1_sub_step_97 sub_fft_1_sub_step_98 sub_fft_1_sub_step_99 sub_fft_2_sub_step_0 sub_fft_2_sub_step_1 sub_fft_2_sub_step_2 sub_fft_2_sub_step_3 sub_fft_2_sub_step_4 sub_fft_2_sub_step_5 sub_fft_2_sub_step_6 sub_fft_2_sub_step_7 sub_fft_2_sub_step_8 sub_fft_2_sub_step_9 sub_fft_2_sub_step_10 sub_fft_2_sub_step_11 sub_fft_2_sub_step_12 sub_fft_2_sub_step_13 sub_fft_2_sub_step_14 sub_fft_2_sub_step_15 sub_fft_2_sub_step_16 sub_fft_2_sub_step_17 sub_fft_2_sub_step_18 sub_fft_2_sub_step_19 sub_fft_2_sub_step_20 sub_fft_2_sub_step_21 sub_fft_2_sub_step_22 sub_fft_2_sub_step_23 sub_fft_2_sub_step_24 sub_fft_2_sub_step_25 sub_fft_2_sub_step_26 sub_fft_2_sub_step_27 sub_fft_2_sub_step_28 sub_fft_2_sub_step_29 sub_fft_2_sub_step_30 sub_fft_2_sub_step_31 sub_fft_2_sub_step_32 sub_fft_2_sub_step_33 sub_fft_2_sub_step_34 sub_fft_2_sub_step_35 sub_fft_2_sub_step_36 sub_fft_2_sub_step_37 sub_fft_2_sub_step_38 sub_fft_2_sub_step_39 sub_fft_2_sub_step_40 sub_fft_2_sub_step_41 sub_fft_2_sub_step_42 sub_fft_2_sub_step_43 sub_fft_2_sub_step_44 sub_fft_2_sub_step_45 sub_fft_2_sub_step_46 sub_fft_2_sub_step_47 sub_fft_2_sub_step_48 sub_fft_2_sub_step_49 sub_fft_2_sub_step_50 sub_fft_2_sub_step_51 sub_fft_2_sub_step_52 sub_fft_2_sub_step_53 sub_fft_2_sub_step_54 sub_fft_2_sub_step_55 sub_fft_2_sub_step_56 sub_fft_2_sub_step_57 sub_fft_2_sub_step_58 sub_fft_2_sub_step_59 sub_fft_2_sub_step_60 sub_fft_2_sub_step_61 sub_fft_2_sub_step_62 sub_fft_2_sub_step_63 sub_fft_2_sub_step_64 sub_fft_2_sub_step_65 sub_fft_2_sub_step_66 sub_fft_2_sub_step_67 sub_fft_2_sub_step_68 sub_fft_2_sub_step_69 sub_fft_2_sub_step_70 sub_fft_2_sub_step_71 sub_fft_2_sub_step_72 sub_fft_2_sub_step_73 sub_fft_2_sub_step_74 sub_fft_2_sub_step_75 sub_fft_2_sub_step_76 sub_fft_2_sub_step_77 sub_fft_2_sub_step_78 sub_fft_2_sub_step_79 sub_fft_2_sub_step_80 sub_fft_2_sub_step_81 sub_fft_2_sub_step_82 sub_fft_2_sub_step_83 sub_fft_2_sub_step_84 sub_fft_2_sub_step_85 sub_fft_2_sub_step_86 sub_fft_2_sub_step_87 sub_fft_2_sub_step_88 sub_fft_2_sub_step_89 sub_fft_2_sub_step_90 sub_fft_2_sub_step_91 sub_fft_2_sub_step_92 sub_fft_2_sub_step_93 sub_fft_2_sub_step_94 sub_fft_2_sub_step_95 sub_fft_2_sub_step_96 sub_fft_2_sub_step_97 sub_fft_2_sub_step_98 sub_fft_2_sub_step_99 sub_fft_3_sub_step_0 sub_fft_3_sub_step_1 sub_fft_3_sub_step_2 sub_fft_3_sub_step_3 sub_fft_3_sub_step_4 sub_fft_3_sub_step_5 sub_fft_3_sub_step_6 sub_fft_3_sub_step_7 sub_fft_3_sub_step_8 sub_fft_3_sub_step_9 sub_fft_3_sub_step_10 sub_fft_3_sub_step_11 sub_fft_3_sub_step_12 sub_fft_3_sub_step_13 sub_fft_3_sub_step_14 sub_fft_3_sub_step_15 sub_fft_3_sub_step_16 sub_fft_3_sub_step_17 sub_fft_3_sub_step_18 sub_fft_3_sub_step_19 sub_fft_3_sub_step_20 sub_fft_3_sub_step_21 sub_fft_3_sub_step_22 sub_fft_3_sub_step_23 sub_fft_3_sub_step_24 sub_fft_3_sub_step_25 sub_fft_3_sub_step_26 sub_fft_3_sub_step_27 sub_fft_3_sub_step_28 sub_fft_3_sub_step_29 sub_fft_3_sub_step_30 sub_fft_3_sub_step_31 sub_fft_3_sub_step_32 sub_fft_3_sub_step_33 sub_fft_3_sub_step_34 sub_fft_3_sub_step_35 sub_fft_3_sub_step_36 sub_fft_3_sub_step_37 sub_fft_3_sub_step_38 sub_fft_3_sub_step_39 sub_fft_3_sub_step_40 sub_fft_3_sub_step_41 sub_fft_3_sub_step_42 sub_fft_3_sub_step_43 sub_fft_3_sub_step_44 sub_fft_3_sub_step_45 sub_fft_3_sub_step_46 sub_fft_3_sub_step_47 sub_fft_3_sub_step_48 sub_fft_3_sub_step_49 sub_fft_3_sub_step_50 sub_fft_3_sub_step_51 sub_fft_3_sub_step_52 sub_fft_3_sub_step_53 sub_fft_3_sub_step_54 sub_fft_3_sub_step_55 sub_fft_3_sub_step_56 sub_fft_3_sub_step_57 sub_fft_3_sub_step_58 sub_fft_3_sub_step_59 sub_fft_3_sub_step_60 sub_fft_3_sub_step_61 sub_fft_3_sub_step_62 sub_fft_3_sub_step_63 sub_fft_3_sub_step_64 sub_fft_3_sub_step_65 sub_fft_3_sub_step_66 sub_fft_3_sub_step_67 sub_fft_3_sub_step_68 sub_fft_3_sub_step_69 sub_fft_3_sub_step_70 sub_fft_3_sub_step_71 sub_fft_3_sub_step_72 sub_fft_3_sub_step_73 sub_fft_3_sub_step_74 sub_fft_3_sub_step_75 sub_fft_3_sub_step_76 sub_fft_3_sub_step_77 sub_fft_3_sub_step_78 sub_fft_3_sub_step_79 sub_fft_3_sub_step_80 sub_fft_3_sub_step_81 sub_fft_3_sub_step_82 sub_fft_3_sub_step_83 sub_fft_3_sub_step_84 sub_fft_3_sub_step_85 sub_fft_3_sub_step_86 sub_fft_3_sub_step_87 sub_fft_3_sub_step_88 sub_fft_3_sub_step_89 sub_fft_3_sub_step_90 sub_fft_3_sub_step_91 sub_fft_3_sub_step_92 sub_fft_3_sub_step_93 sub_fft_3_sub_step_94 sub_fft_3_sub_step_95 sub_fft_3_sub_step_96 sub_fft_3_sub_step_97 sub_fft_3_sub_step_98 sub_fft_3_sub_step_99 sub_fft_4_sub_step_0 sub_fft_4_sub_step_1 sub_fft_4_sub_step_2 sub_fft_4_sub_step_3 sub_fft_4_sub_step_4 sub_fft_4_sub_step_5 sub_fft_4_sub_step_6 sub_fft_4_sub_step_7 sub_fft_4_sub_step_8 sub_fft_4_sub_step_9 sub_fft_4_sub_step_10 sub_fft_4_sub_step_11 sub_fft_4_sub_step_12 sub_fft_4_sub_step_13 sub_fft_4_sub_step_14 sub_fft_4_sub_step_15 sub_fft_4_sub_step_16 sub_fft_4_sub_step_17 sub_fft_4_sub_step_18 sub_fft_4_sub_step_19 sub_fft_4_sub_step_20 sub_fft_4_sub_step_21 sub_fft_4_sub_step_22 sub_fft_4_sub_step_23 sub_fft_4_sub_step_24 sub_fft_4_sub_step_25 sub_fft_4_sub_step_26 sub_fft_4_sub_step_27 sub_fft_4_sub_step_28 sub_fft_4_sub_step_29 sub_fft_4_sub_step_30 sub_fft_4_sub_step_31 sub_fft_4_sub_step_32 sub_fft_4_sub_step_33 sub_fft_4_sub_step_34 sub_fft_4_sub_step_35 sub_fft_4_sub_step_36 sub_fft_4_sub_step_37 sub_fft_4_sub_step_38 sub_fft_4_sub_step_39 sub_fft_4_sub_step_40 sub_fft_4_sub_step_41 sub_fft_4_sub_step_42 sub_fft_4_sub_step_43 sub_fft_4_sub_step_44 sub_fft_4_sub_step_45 sub_fft_4_sub_step_46 sub_fft_4_sub_step_47 sub_fft_4_sub_step_48 sub_fft_4_sub_step_49 sub_fft_4_sub_step_50 sub_fft_4_sub_step_51 sub_fft_4_sub_step_52 sub_fft_4_sub_step_53 sub_fft_4_sub_step_54 sub_fft_4_sub_step_55 sub_fft_4_sub_step_56 sub_fft_4_sub_step_57 sub_fft_4_sub_step_58 sub_fft_4_sub_step_59 sub_fft_4_sub_step_60 sub_fft_4_sub_step_61 sub_fft_4_sub_step_62 sub_fft_4_sub_step_63 sub_fft_4_sub_step_64 sub_fft_4_sub_step_65 sub_fft_4_sub_step_66 sub_fft_4_sub_step_67 sub_fft_4_sub_step_68 sub_fft_4_sub_step_69 sub_fft_4_sub_step_70 sub_fft_4_sub_step_71 sub_fft_4_sub_step_72 sub_fft_4_sub_step_73 sub_fft_4_sub_step_74 sub_fft_4_sub_step_75 sub_fft_4_sub_step_76 sub_fft_4_sub_step_77 sub_fft_4_sub_step_78 sub_fft_4_sub_step_79 sub_fft_4_sub_step_80 sub_fft_4_sub_step_81 sub_fft_4_sub_step_82 sub_fft_4_sub_step_83 sub_fft_4_sub_step_84 sub_fft_4_sub_step_85 sub_fft_4_sub_step_86 sub_fft_4_sub_step_87 sub_fft_4_sub_step_88 sub_fft_4_sub_step_89 sub_fft_4_sub_step_90 sub_fft_4_sub_step_91 sub_fft_4_sub_step_92 sub_fft_4_sub_step_93 sub_fft_4_sub_step_94 sub_fft_4_sub_step_95 sub_fft_4_sub_step_96 sub_fft_4_sub_step_97 sub_fft_4_sub_step_98 sub_fft_4_sub_step_99 sub_fft_5_sub_step_0 sub_fft_5_sub_step_1 sub_fft_5_sub_step_2 sub_fft_5_sub_step_3 sub_fft_5_sub_step_4 sub_fft_5_sub_step_5 sub_fft_5_sub_step_6 sub_fft_5_sub_step_7 sub_fft_5_sub_step_8 sub_fft_5_sub_step_9 sub_fft_5_sub_step_10 sub_fft_5_sub_step_11 sub_fft_5_sub_step_12 sub_fft_5_sub_step_13 sub_fft_5_sub_step_14 sub_fft_5_sub_step_15 sub_fft_5_sub_step_16 sub_fft_5_sub_step_17 sub_fft_5_sub_step_18 sub_fft_5_sub_step_19 sub_fft_5_sub_step_20 sub_fft_5_sub_step_21 sub_fft_5_sub_step_22 sub_fft_5_sub_step_23 sub_fft_5_sub_step_24 sub_fft_5_sub_step_25 sub_fft_5_sub_step_26 sub_fft_5_sub_step_27 sub_fft_5_sub_step_28 sub_fft_5_sub_step_29 sub_fft_5_sub_step_30 sub_fft_5_sub_step_31 sub_fft_5_sub_step_32 sub_fft_5_sub_step_33 sub_fft_5_sub_step_34 sub_fft_5_sub_step_35 sub_fft_5_sub_step_36 sub_fft_5_sub_step_37 sub_fft_5_sub_step_38 sub_fft_5_sub_step_39 sub_fft_5_sub_step_40 sub_fft_5_sub_step_41 sub_fft_5_sub_step_42 sub_fft_5_sub_step_43 sub_fft_5_sub_step_44 sub_fft_5_sub_step_45 sub_fft_5_sub_step_46 sub_fft_5_sub_step_47 sub_fft_5_sub_step_48 sub_fft_5_sub_step_49 sub_fft_5_sub_step_50 sub_fft_5_sub_step_51 sub_fft_5_sub_step_52 sub_fft_5_sub_step_53 sub_fft_5_sub_step_54 sub_fft_5_sub_step_55 sub_fft_5_sub_step_56 sub_fft_5_sub_step_57 sub_fft_5_sub_step_58 sub_fft_5_sub_step_59 sub_fft_5_sub_step_60 sub_fft_5_sub_step_61 sub_fft_5_sub_step_62 sub_fft_5_sub_step_63 sub_fft_5_sub_step_64 sub_fft_5_sub_step_65 sub_fft_5_sub_step_66 sub_fft_5_sub_step_67 sub_fft_5_sub_step_68 sub_fft_5_sub_step_69 sub_fft_5_sub_step_70 sub_fft_5_sub_step_71 sub_fft_5_sub_step_72 sub_fft_5_sub_step_73 sub_fft_5_sub_step_74 sub_fft_5_sub_step_75 sub_fft_5_sub_step_76 sub_fft_5_sub_step_77 sub_fft_5_sub_step_78 sub_fft_5_sub_step_79 sub_fft_5_sub_step_80 sub_fft_5_sub_step_81 sub_fft_5_sub_step_82 sub_fft_5_sub_step_83 sub_fft_5_sub_step_84 sub_fft_5_sub_step_85 sub_fft_5_sub_step_86 sub_fft_5_sub_step_87 sub_fft_5_sub_step_88 sub_fft_5_sub_step_89 sub_fft_5_sub_step_90 sub_fft_5_sub_step_91 sub_fft_5_sub_step_92 sub_fft_5_sub_step_93 sub_fft_5_sub_step_94 sub_fft_5_sub_step_95 sub_fft_5_sub_step_96 sub_fft_5_sub_step_97 sub_fft_5_sub_step_98 sub_fft_5_sub_step_99 sub_fft_6_sub_step_0 sub_fft_6_sub_step_1 sub_fft_6_sub_step_2 sub_fft_6_sub_step_3 sub_fft_6_sub_step_4 sub_fft_6_sub_step_5 sub_fft_6_sub_step_6 sub_fft_6_sub_step_7 sub_fft_6_sub_step_8 sub_fft_6_sub_step_9 sub_fft_6_sub_step_10 sub_fft_6_sub_step_11 sub_fft_6_sub_step_12 sub_fft_6_sub_step_13 sub_fft_6_sub_step_14 sub_fft_6_sub_step_15 sub_fft_6_sub_step_16 sub_fft_6_sub_step_17 sub_fft_6_sub_step_18 sub_fft_6_sub_step_19 sub_fft_6_sub_step_20 sub_fft_6_sub_step_21 sub_fft_6_sub_step_22 sub_fft_6_sub_step_23 sub_fft_6_sub_step_24 sub_fft_6_sub_step_25 sub_fft_6_sub_step_26 sub_fft_6_sub_step_27 sub_fft_6_sub_step_28 sub_fft_6_sub_step_29 sub_fft_6_sub_step_30 sub_fft_6_sub_step_31 sub_fft_6_sub_step_32 sub_fft_6_sub_step_33 sub_fft_6_sub_step_34 sub_fft_6_sub_step_35 sub_fft_6_sub_step_36 sub_fft_6_sub_step_37 sub_fft_6_sub_step_38 sub_fft_6_sub_step_39 sub_fft_6_sub_step_40 sub_fft_6_sub_step_41 sub_fft_6_sub_step_42 sub_fft_6_sub_step_43 sub_fft_6_sub_step_44 sub_fft_6_sub_step_45 sub_fft_6_sub_step_46 sub_fft_6_sub_step_47 sub_fft_6_sub_step_48 sub_fft_6_sub_step_49 sub_fft_6_sub_step_50 sub_fft_6_sub_step_51 sub_fft_6_sub_step_52 sub_fft_6_sub_step_53 sub_fft_6_sub_step_54 sub_fft_6_sub_step_55 sub_fft_6_sub_step_56 sub_fft_6_sub_step_57 sub_fft_6_sub_step_58 sub_fft_6_sub_step_59 sub_fft_6_sub_step_60 sub_fft_6_sub_step_61 sub_fft_6_sub_step_62 sub_fft_6_sub_step_63 sub_fft_6_sub_step_64 sub_fft_6_sub_step_65 sub_fft_6_sub_step_66 sub_fft_6_sub_step_67 sub_fft_6_sub_step_68 sub_fft_6_sub_step_69 sub_fft_6_sub_step_70 sub_fft_6_sub_step_71 sub_fft_6_sub_step_72 sub_fft_6_sub_step_73 sub_fft_6_sub_step_74 sub_fft_6_sub_step_75 sub_fft_6_sub_step_76 sub_fft_6_sub_step_77 sub_fft_6_sub_step_78 sub_fft_6_sub_step_79 sub_fft_6_sub_step_80 sub_fft_6_sub_step_81 sub_fft_6_sub_step_82 sub_fft_6_sub_step_83 sub_fft_6_sub_step_84 sub_fft_6_sub_step_85 sub_fft_6_sub_step_86 sub_fft_6_sub_step_87 sub_fft_6_sub_step_88 sub_fft_6_sub_step_89 sub_fft_6_sub_step_90 sub_fft_6_sub_step_91 sub_fft_6_sub_step_92 sub_fft_6_sub_step_93 sub_fft_6_sub_step_94 sub_fft_6_sub_step_95 sub_fft_6_sub_step_96 sub_fft_6_sub_step_97 sub_fft_6_sub_step_98 sub_fft_6_sub_step_99 sub_fft_7_sub_step_0 sub_fft_7_sub_step_1 sub_fft_7_sub_step_2 sub_fft_7_sub_step_3 sub_fft_7_sub_step_4 sub_fft_7_sub_step_5 sub_fft_7_sub_step_6 sub_fft_7_sub_step_7 sub_fft_7_sub_step_8 sub_fft_7_sub_step_9 sub_fft_7_sub_step_10 sub_fft_7_sub_step_11 sub_fft_7_sub_step_12 sub_fft_7_sub_step_13 sub_fft_7_sub_step_14 sub_fft_7_sub_step_15 sub_fft_7_sub_step_16 sub_fft_7_sub_step_17 sub_fft_7_sub_step_18 sub_fft_7_sub_step_19 sub_fft_7_sub_step_20 sub_fft_7_sub_step_21 sub_fft_7_sub_step_22 sub_fft_7_sub_step_23 sub_fft_7_sub_step_24 sub_fft_7_sub_step_25 sub_fft_7_sub_step_26 sub_fft_7_sub_step_27 sub_fft_7_sub_step_28 sub_fft_7_sub_step_29 sub_fft_7_sub_step_30 sub_fft_7_sub_step_31 sub_fft_7_sub_step_32 sub_fft_7_sub_step_33 sub_fft_7_sub_step_34 sub_fft_7_sub_step_35 sub_fft_7_sub_step_36 sub_fft_7_sub_step_37 sub_fft_7_sub_step_38 sub_fft_7_sub_step_39 sub_fft_7_sub_step_40 sub_fft_7_sub_step_41 sub_fft_7_sub_step_42 sub_fft_7_sub_step_43 sub_fft_7_sub_step_44 sub_fft_7_sub_step_45 sub_fft_7_sub_step_46 sub_fft_7_sub_step_47 sub_fft_7_sub_step_48 sub_fft_7_sub_step_49 sub_fft_7_sub_step_50 sub_fft_7_sub_step_51 sub_fft_7_sub_step_52 sub_fft_7_sub_step_53 sub_fft_7_sub_step_54 sub_fft_7_sub_step_55 sub_fft_7_sub_step_56 sub_fft_7_sub_step_57 sub_fft_7_sub_step_58 sub_fft_7_sub_step_59 sub_fft_7_sub_step_60 sub_fft_7_sub_step_61 sub_fft_7_sub_step_62 sub_fft_7_sub_step_63 sub_fft_7_sub_step_64 sub_fft_7_sub_step_65 sub_fft_7_sub_step_66 sub_fft_7_sub_step_67 sub_fft_7_sub_step_68 sub_fft_7_sub_step_69 sub_fft_7_sub_step_70 sub_fft_7_sub_step_71 sub_fft_7_sub_step_72 sub_fft_7_sub_step_73 sub_fft_7_sub_step_74 sub_fft_7_sub_step_75 sub_fft_7_sub_step_76 sub_fft_7_sub_step_77 sub_fft_7_sub_step_78 sub_fft_7_sub_step_79 sub_fft_7_sub_step_80 sub_fft_7_sub_step_81 sub_fft_7_sub_step_82 sub_fft_7_sub_step_83 sub_fft_7_sub_step_84 sub_fft_7_sub_step_85 sub_fft_7_sub_step_86 sub_fft_7_sub_step_87 sub_fft_7_sub_step_88 sub_fft_7_sub_step_89 sub_fft_7_sub_step_90 sub_fft_7_sub_step_91 sub_fft_7_sub_step_92 sub_fft_7_sub_step_93 sub_fft_7_sub_step_94 sub_fft_7_sub_step_95 sub_fft_7_sub_step_96 sub_fft_7_sub_step_97 sub_fft_7_sub_step_98 sub_fft_7_sub_step_99 sub_fft_8_sub_step_0 sub_fft_8_sub_step_1 sub_fft_8_sub_step_2 sub_fft_8_sub_step_3 sub_fft_8_sub_step_4 sub_fft_8_sub_step_5 sub_fft_8_sub_step_6 sub_fft_8_sub_step_7 sub_fft_8_sub_step_8 sub_fft_8_sub_step_9 sub_fft_8_sub_step_10 sub_fft_8_sub_step_11 sub_fft_8_sub_step_12 sub_fft_8_sub_step_13 sub_fft_8_sub_step_14 sub_fft_8_sub_step_15 sub_fft_8_sub_step_16 sub_fft_8_sub_step_17 sub_fft_8_sub_step_18 sub_fft_8_sub_step_19 sub_fft_8_sub_step_20 sub_fft_8_sub_step_21 sub_fft_8_sub_step_22 sub_fft_8_sub_step_23 sub_fft_8_sub_step_24 sub_fft_8_sub_step_25 sub_fft_8_sub_step_26 sub_fft_8_sub_step_27 sub_fft_8_sub_step_28 sub_fft_8_sub_step_29 sub_fft_8_sub_step_30 sub_fft_8_sub_step_31 sub_fft_8_sub_step_32 sub_fft_8_sub_step_33 sub_fft_8_sub_step_34 sub_fft_8_sub_step_35 sub_fft_8_sub_step_36 sub_fft_8_sub_step_37 sub_fft_8_sub_step_38 sub_fft_8_sub_step_39 sub_fft_8_sub_step_40 sub_fft_8_sub_step_41 sub_fft_8_sub_step_42 sub_fft_8_sub_step_43 sub_fft_8_sub_step_44 sub_fft_8_sub_step_45 sub_fft_8_sub_step_46 sub_fft_8_sub_step_47 sub_fft_8_sub_step_48 sub_fft_8_sub_step_49 sub_fft_8_sub_step_50 sub_fft_8_sub_step_51 sub_fft_8_sub_step_52 sub_fft_8_sub_step_53 sub_fft_8_sub_step_54 sub_fft_8_sub_step_55 sub_fft_8_sub_step_56 sub_fft_8_sub_step_57 sub_fft_8_sub_step_58 sub_fft_8_sub_step_59 sub_fft_8_sub_step_60 sub_fft_8_sub_step_61 sub_fft_8_sub_step_62 sub_fft_8_sub_step_63 sub_fft_8_sub_step_64 sub_fft_8_sub_step_65 sub_fft_8_sub_step_66 sub_fft_8_sub_step_67 sub_fft_8_sub_step_68 sub_fft_8_sub_step_69 sub_fft_8_sub_step_70 sub_fft_8_sub_step_71 sub_fft_8_sub_step_72 sub_fft_8_sub_step_73 sub_fft_8_sub_step_74 sub_fft_8_sub_step_75 sub_fft_8_sub_step_76 sub_fft_8_sub_step_77 sub_fft_8_sub_step_78 sub_fft_8_sub_step_79 sub_fft_8_sub_step_80 sub_fft_8_sub_step_81 sub_fft_8_sub_step_82 sub_fft_8_sub_step_83 sub_fft_8_sub_step_84 sub_fft_8_sub_step_85 sub_fft_8_sub_step_86 sub_fft_8_sub_step_87 sub_fft_8_sub_step_88 sub_fft_8_sub_step_89 sub_fft_8_sub_step_90 sub_fft_8_sub_step_91 sub_fft_8_sub_step_92 sub_fft_8_sub_step_93 sub_fft_8_sub_step_94 sub_fft_8_sub_step_95 sub_fft_8_sub_step_96 sub_fft_8_sub_step_97 sub_fft_8_sub_step_98 sub_fft_8_sub_step_99 sub_fft_9_sub_step_0 sub_fft_9_sub_step_1 sub_fft_9_sub_step_2 sub_fft_9_sub_step_3 sub_fft_9_sub_step_4 sub_fft_9_sub_step_5 sub_fft_9_sub_step_6 sub_fft_9_sub_step_7 sub_fft_9_sub_step_8 sub_fft_9_sub_step_9 sub_fft_9_sub_step_10 sub_fft_9_sub_step_11 sub_fft_9_sub_step_12 sub_fft_9_sub_step_13 sub_fft_9_sub_step_14 sub_fft_9_sub_step_15 sub_fft_9_sub_step_16 sub_fft_9_sub_step_17 sub_fft_9_sub_step_18 sub_fft_9_sub_step_19 sub_fft_9_sub_step_20 sub_fft_9_sub_step_21 sub_fft_9_sub_step_22 sub_fft_9_sub_step_23 sub_fft_9_sub_step_24 sub_fft_9_sub_step_25 sub_fft_9_sub_step_26 sub_fft_9_sub_step_27 sub_fft_9_sub_step_28 sub_fft_9_sub_step_29 sub_fft_9_sub_step_30 sub_fft_9_sub_step_31 sub_fft_9_sub_step_32 sub_fft_9_sub_step_33 sub_fft_9_sub_step_34 sub_fft_9_sub_step_35 sub_fft_9_sub_step_36 sub_fft_9_sub_step_37 sub_fft_9_sub_step_38 sub_fft_9_sub_step_39 sub_fft_9_sub_step_40 sub_fft_9_sub_step_41 sub_fft_9_sub_step_42 sub_fft_9_sub_step_43 sub_fft_9_sub_step_44 sub_fft_9_sub_step_45 sub_fft_9_sub_step_46 sub_fft_9_sub_step_47 sub_fft_9_sub_step_48 sub_fft_9_sub_step_49 sub_fft_9_sub_step_50 sub_fft_9_sub_step_51 sub_fft_9_sub_step_52 sub_fft_9_sub_step_53 sub_fft_9_sub_step_54 sub_fft_9_sub_step_55 sub_fft_9_sub_step_56 sub_fft_9_sub_step_57 sub_fft_9_sub_step_58 sub_fft_9_sub_step_59 sub_fft_9_sub_step_60 sub_fft_9_sub_step_61 sub_fft_9_sub_step_62 sub_fft_9_sub_step_63 sub_fft_9_sub_step_64 sub_fft_9_sub_step_65 sub_fft_9_sub_step_66 sub_fft_9_sub_step_67 sub_fft_9_sub_step_68 sub_fft_9_sub_step_69 sub_fft_9_sub_step_70 sub_fft_9_sub_step_71 sub_fft_9_sub_step_72 sub_fft_9_sub_step_73 sub_fft_9_sub_step_74 sub_fft_9_sub_step_75 sub_fft_9_sub_step_76 sub_fft_9_sub_step_77 sub_fft_9_sub_step_78 sub_fft_9_sub_step_79 sub_fft_9_sub_step_80 sub_fft_9_sub_step_81 sub_fft_9_sub_step_82 sub_fft_9_sub_step_83 sub_fft_9_sub_step_84 sub_fft_9_sub_step_85 sub_fft_9_sub_step_86 sub_fft_9_sub_step_87 sub_fft_9_sub_step_88 sub_fft_9_sub_step_89 sub_fft_9_sub_step_90 sub_fft_9_sub_step_91 sub_fft_9_sub_step_92 sub_fft_9_sub_step_93 sub_fft_9_sub_step_94 sub_fft_9_sub_step_95 sub_fft_9_sub_step_96 sub_fft_9_sub_step_97 sub_fft_9_sub_step_98 sub_fft_9_sub_step_99
feature_infos=[-2.1819700650730707:3.9060827643902569] [-3.1689568571066165:4.1154334407409525] [-10:0.42512543784080148] [-6.7867475865773867:1.7157652620109902] [-0.92124315092478881:1.0665492315485503] [-1.6288281045833186:9.4051576302268369] [-8.9206924895531756:4.7116369616909335] [-2.6796578280248768:8.3881132905699953] [-10:5.8100766795309102] [-10:4.6002903189506021] [-10:3.7578352688665015] [-4.1847277962670555:4.1910702689072563] [-4.7456148728378089:5.2231577269540646] [-9.770334969237048:6.0036473832848891] [-6.3849868641195524:5.3641296109377006] [-7.0537750322195629:7.3434752752973029] [-10:8.0284909168610099] [-10:10] [-10:10] [-10:10] [-10:8.6293987399969438] [-7.9550175899337185:10] [-10:10] [-10:5.4118147234716014] [-4.3459346072881351:8.9590693684786427] [-10:10] [-6.1753908633026535:10] [-10:8.3924103731448145] [-10:10] [-10:10] [-8.3378961436318448:10] [-7.9145516956453941:10] [-5.4090808392051137:7.5815085843677021] [-10:10] [-4.2493285915723922:10] [-10:6.7254304470281374] [-5.0475110164266717:10] [-10:9.9819549000084287] [-10:10] [-10:9.8705792694809933] [-5.9221904912465453:10] [-6.9552169643489741:10] [-10:10] [-10:10] [-10:10] [-9.3804363368206864:8.9902034470457046] [-10:10] [-8.1933516969333553:10] [-5.7039665221974429:8.447366021504406] [-6.7905232810506426:5.389203928287313] [-10:10] [-6.2059371162667905:10] [-9.7146321299646878:8.457662246127482] [-10:10] [-10:10] [-8.2371445942562076:10] [-7.9551288709293635:10] [-5.5526854496157156:7.4212448439847991] [-10:10] [-5.1525192446900236:10] [-10:9.123724349567258] [-6.130355123121773:10] [-10:10] [-10:10] [-10:10] [-7.6487580012286127:10] [-7.6173854250785764:10] [-10:10] [-10:10] [-10:10] [-10:8.6387865780480677] [-8.7330658571322104:10] [-9.6300490820878046:10] [-6.1667286823739564:7.4820526662423674] [-4.5427818884757754:8.2306408354680709] [-10:10] [-6.3851592111677595:10] [-9.2077206649314434:8.6422200123578623] [-10:10] [-10:10] [-8.3538086706717305:10] [-7.6659204152915716:10] [-5.2293117909709652:7.7557999070857315] [-10:10] [-5.6342134416908429:10] [-10:9.1222490657926372] [-6.6435844437402425:10] [-10:10] [-10:10] [-10:10] [-7.4780294669606331:10] [-7.3363187504243124:10] [-10:10] [-10:10] [-10:10] [-10:8.6642326923606827] [-8.9326044092933667:10] [-8.32803699784324:10] [-6.2720476565252685:7.4548340495549867] [-4.5291501937430594:8.3141533636765015] [-10:10] [-6.4229891243836237:10] [-9.1580390078653355:8.7206073707433749] [-10:10] [-10:10] [-8.3989569280080527:10] [-7.8429861734896127:10] [-5.2529749335090283:7.7073793523789433] [-10:10] [-5.0593792307835939:10] [-10:9.0474431292261475] [-6.5828612437628582:10] [-10:10] [-10:10] [-10:10] [-7.6482292932294067:10] [-7.2299680130231847:10] [-2.0635903613932145:2.1497308225933867] [-1.9352543127874919:2.1602020620371731] [-1.8615331007463705:2.1476345504757335] [-1.9169868586318921:2.1535976278234226] [-2.034182667943917:2.1573235346237647] [-1.9418931111073316:2.115607114240933] [-1.9210637183294657:2.1087359347838142] [-2.0616798889900827:2.1462631301136432] [-1.9384628758622999:2.1528655964292298] [-1.9278766507826999:2.1726472657093163] [-1.9336353741760732:2.1444656203395422] [-2.0015125718811189:2.1376339052626525] [-1.8962924236438092:2.1355073327356187] [-2.0669940602995087:2.1487113814541647] [-1.8816803588813389:2.139467056158423] [-2.0121220036159406:2.1595365053042044] [-1.9374186419729609:2.1525773371812851] [-2.1252182391420411:2.148488949178772] [-2.030643712537914:2.1585881617918483] [-2.079617223059417:2.1412951054578322] [-2.1150073809462686:2.1325889006088832] [-1.9518354418625472:2.1468263055993138] [-2.1225356648333573:2.1420091106420283] [-1.9966403496705716:2.1419382543549146] [-1.9063403086713608:2.1644438144778282] [-2.0578711431970982:2.1559725782565851] [-1.9254336121761679:2.1557918873741651] [-1.8673585973223652:2.1566844903660281] [-1.9117173500657867:2.154690054521073] [-2.0332629784184904:2.1611364857442288] [-1.9323647529989705:2.1093651139111773] [-1.9276265954057847:2.1109875218281653] [-2.0596950197545545:2.1391485960106551] [-1.9362448173247258:2.1567143369803063] [-1.9311848219033032:2.1709639392601714] [-1.9368994955981389:2.1493802753434808] [-2.0031640668510176:2.1391070340354887] [-1.9155778284562168:2.1469794008046521] [-2.070531304214501:2.1429002892823146] [-1.8751235069137051:2.135162370076412] [-2.0040707165326497:2.1542566598162303] [-1.93335810072034:2.1509094383478491] [-2.1214041368159826:2.1514234497682803] [-2.0260655372728245:2.163286890990209] [-2.0781813926610884:2.1463067125570863] [-2.121782993557122:2.1289695734314562] [-1.9580722214557231:2.1470687122512242] [-2.1274523183065481:2.130015954848945] [-1.9957599369623615:2.1382901486204262] [-1.8908977234582569:2.1607800103169761] [-2.0559469657411045:2.1516667425237594] [-1.9323050089607976:2.1550577410670977] [-1.8684478480627544:2.151865743798175] [-1.9171966513576288:2.14615980635647] [-2.0330073936988731:2.1588743992863355] [-1.9444522780694369:2.1142932373237406] [-1.9304665219780039:2.1088835945399418] [-2.059548454807937:2.1410620691544699] [-1.9398224741798111:2.1620345349942678] [-1.9307034899027096:2.1725724249786609] [-1.93239014769418:2.1380525527541985] [-2.0038210876538707:2.1310716641514489] [-1.9124113043462332:2.1463351798581805] [-2.0658908925359785:2.1473145331950221] [-1.8796410421269871:2.1410754085113721] [-2.0052266149763294:2.1632284240870847] [-1.9358299367784351:2.1514504027383423] [-2.1182662038143194:2.1528788084463097] [-2.0296257898865342:2.1560193476326521] [-2.0801348203126007:2.1386281465082142] [-2.1136063361690645:2.1378709759704733] [-1.9525419541546309:2.1512247793517307] [-2.1245701702917881:2.1345704815051283] [-2.0058797851654329:2.141957203450064] [-1.9035086095630429:2.1720697650459813] [-2.0563998704295692:2.154118982820989] [-1.935074298531112:2.1598412906938456] [-1.8679512843480015:2.1528039112889799] [-1.9142802031081561:2.1534815420061544] [-2.0315866976614334:2.1608783846270727] [-1.9460758062466323:2.1149712678383517] [-1.9209695311140351:2.113397231418352] [-2.0659323628552659:2.1429960278908227] [-1.9427663121712624:2.1566010369873254] [-1.9286858372504925:2.1727489371351441] [-1.933059682117428:2.1536218839189707] [-2.0047823521640802:2.138228224501745] [-1.9084613337763852:2.1499741225418081] [-2.0723924824780644:2.1493884347509087] [-1.8741105502557831:2.1387223033536285] [-2.0120877214158503:2.1553772226206376] [-1.916174975297624:2.136368556868808] [-2.1232539172888454:2.1440800838042238] [-2.0294851663169595:2.1593489985851355] [-2.0772787231445164:2.1402932394896719] [-2.1168211267072912:2.1301836911994965] [-1.9532691615317539:2.148226507864424] [-2.129414090500295:2.1305313603856169] [-2.0034424409685214:2.1373879735103367] [-1.9090404098515081:2.1664487117943385] [-10:0.29278426283743897] [-10:0.25935575276129996] [-10:0.3636922584918984] [-10:0.25808303967028529] [-10:0.35778043139473509] [-10:0.34139119295545983] [-10:0.24525176331418766] [-10:0.31599624182706931] [-10:0.24893699671426259] [-10:0.20963882231765121] [-10:0.29984014019156163] [-10:0.2299434079472745] [-10:0.30926352835986293] [-10:0.40265170457220528] [-10:0.37449985080992615] [-10:0.18876735725049049] [-10:0.21812427506653889] [-10:0.25406234548265377] [-10:0.23176115540684805] [-10:0.2318059625693375] [-10:0.18795769972411569] [-10:0.27191011419402072] [-10:0.20021639713157255] [-10:0.32506507317574823] [-10:0.25257735419671939] [-10:0.29411064459308361] [-10:0.26079023536724061] [-10:0.28304270737394743] [-10:0.20464779974450065] [-10:0.34005191021836678] [-10:0.53221895124375673] [-10:0.36201567393065859] [-10:0.2005737628676936] [-10:0.24854230158488105] [-10:0.21005402486539301] [-10:0.30600078374525491] [-10:0.23251174523483084] [-10:0.30620366533356635] [-10:0.40004866706813869] [-10:0.42508640623769839] [-10:0.32543118282758382] [-10:0.26048027062282009] [-10:0.27683962624163982] [-10:0.25328436953704553] [-10:0.22913002457406509] [-10:0.24777191499532586] [-10:0.34959686996486761] [-10:0.22226160092736644] [-10:0.32576650635214449] [-10:0.25460154796058881] [-10:0.29293836744651042] [-10:0.25691430969385531] [-10:0.36419999435283468] [-10:0.25840766877587656] [-10:0.35444493902043306] [-10:0.53297542088256533] [-10:0.54084734548197944] [-10:0.47999227134409828] [-10:0.24940454737079851] [-10:0.20774181141950465] [-10:0.30546049598892971] [-10:0.23067858974503824] [-10:0.28913418803839314] [-10:0.38176290763547371] [-10:0.42515525036896384] [-10:0.32126118522647468] [-10:0.25890590084960635] [-10:0.27446464503570678] [-10:0.24906468327624084] [-10:0.27541872894248492] [-10:0.27679670599950201] [-10:0.32897770893951456] [-10:0.22070129481631898] [-10:0.32704142758024612] [-10:0.25130681880656452] [-10:0.29245458462133311] [-10:0.25875882303043723] [-10:0.36339925233409098] [-10:0.25797624894715304] [-10:0.3623856998849142] [-10:0.54132631262937569] [-10:0.54312096097596485] [-10:0.47676524840593731] [-10:0.24948359763709571] [-10:0.20839423903190751] [-10:0.30659091622727919] [-10:0.23177297738191074] [-10:0.3101212936375935] [-10:0.40410385686093298] [-10:0.42552631437794602] [-10:0.32225028855665372] [-10:0.25405649837832811] [-10:0.26631329198034753] [-10:0.24560472880682119] [-10:0.27529113989368259] [-10:0.28097920019495914] [-10:0.36756873593001138] [-10:0.220056929731892] [-10:0.32484916514188755] [-10:0.25154612090079348] [-10:0.22363458929175911] [-10:0.44393961577607238] [-10:0.36618994567605545] [-10:0.2639337364880377] [-10:0.48890440900093801] [-10:0.36184955051855361] [-7.8408858257418625:0.34964295944570212] [-10:0.33785489918531025] [-10:0.22611827788765254] [-10:0.22619717462821384] [-10:0.26300049636364747] [-10:0.3119840902576298] [-10:0.2991258949692413] [-10:0.73013770245328113] [-10:0.85101526053906007] [-10:0.22246443627643392] [-10:0.25426695074334021] [-10:0.20747569404252267] [-10:0.32507470800420168] [-10:0.32226927853387183] [-10:0.20691032901118608] [-10:0.37634995803121141] [-10:0.36320343675894651] [-10:0.4865068779500441] [-10:0.31044541294657885] [-10:0.22436311577784879] [-10:0.44470181333226738] [-10:0.36604830017344248] [-10:0.2095797730078349] [-10:0.44532610334742417] [-10:0.9108372063093032] [-10:0.73492378967432292] [-10:0.38144126068116763] [-10:0.22589540708469849] [-10:0.22650902079084451] [-10:0.26358610358949808] [-10:0.31294296107542707] [-10:0.29878873861094962] [-10:0.74652478829657709] [-10:0.86359841271215532] [-10:0.51031903384650645] [-10:0.28406679144983826] [-10:0.22905146846952831] [-10:0.41826685890967136] [-10:0.53739274548526617] [-10:0.22802816270625201] [-10:0.64296034678617853] [-10:0.41013061015562929] [-10:0.49845574932722558] [-10:0.31194679423730037] [-10:0.22462620789552054] [-10:0.4319582485051181] [-10:0.3661581222021858] [-10:0.26381286678174626] [-10:0.48855101353763758] [-10:1.0150484966989883] [-10:1.2174885098552837] [-10:0.96542709742630539] [-10:0.22709227298524079] [-10:0.22544366151637746] [-10:0.26354388977172621] [-10:0.31254397235961706] [-10:0.29078758197677268] [-10:0.70131713806317919] [-10:0.85239419146986162] [-10:0.51008045478079311] [-10:0.28358359264238608] [-10:0.2286821100457089] [-10:0.41706726072832812] [-10:0.53926895713373335] [-10:0.26957429053802889] [-10:0.66057421104976555] [-10:0.411813860480986] [-10:0.5031533359574959] [-10:0.30930757408810322] [-10:0.22392650510512366] [-10:0.44316171706369789] [-10:0.3659959887332811] [-10:0.2636946410701021] [-10:0.490763540458175] [-10:1.0464288490700313] [-10:1.2349988490571482] [-10:0.97203681626873017] [-10:0.22669541817833239] [-10:0.22586323348334869] [-10:0.2633923708226667] [-10:0.31259085380921997] [-10:0.29882481112253889] [-10:0.77007112593318272] [-10:0.8508152532439931] [-10:0.50964708236388145] [-10:0.2800302112919073] [-10:0.22822551921284154] [-10:0.39618215971338178] [-10:0.53868225423555582] [-10:0.27489750210880559] [-10:0.75082430009992462] [-10:0.41049669839304448] [-10:0.4997865970888799] [-10:0.3101286377745669] [-10:8.3576015023441652] [-10:10] [-10:10] [-10:10] [-10:10] [-9.2778278373776324:7.1727075392810358] [-8.5439254412438181:4.7186570970669868] [-6.6192470499142733:8.6585397660765562] [-6.5811618779594019:10] [-10:10] [-8.2804784331204448:10] [-5.7786688930838235:10] [-10:10] [-9.4608269681716486:10] [-9.2398465989224903:8.3781277144315034] [-6.9014914008178314:10] [-10:10] [-4.2117108002249966:10] [-10:10] [-10:10] [-8.9299345783857529:10] [-10:10] [-10:10] [-4.8766200348161179:4.7779509125032691] [-5.4490049027650462:10] [-10:8.2941089744574157] [-10:10] [-10:10] [-10:10] [-10:10] [-9.0864248333985902:7.2319574396541118] [-10:4.6099199498343086] [-10:5.2668905426330479] [-8.5563591998287052:10] [-10:10] [-8.1637394666497549:10] [-5.796859619050001:10] [-10:10] [-8.743986603884947:10] [-9.3963533753692428:8.3112274072255072] [-6.9448657362068014:10] [-10:10] [-4.3114074584154611:10] [-10:10] [-10:10] [-10:10] [-10:10] [-10:10] [-4.7329804578950796:4.9134514928566411] [-7.322334127090727:10] [-10:8.3072632730588136] [-10:10] [-10:10] [-10:10] [-10:10] [-9.3268736173139999:7.1418647352827564] [-10:4.6534243966683428] [-10:6.5598257509611289] [-8.7104468719236294:10] [-10:10] [-8.1390046153778446:10] [-5.7954001841212515:10] [-10:10] [-8.9521720755070895:10] [-8.9837090711653964:8.4469124221478946] [-6.837500854713606:10] [-10:10] [-4.3205781782765085:10] [-10:10] [-10:10] [-10:10] [-10:10] [-10:10] [-4.6917951988434385:4.9304084307813936] [-7.8392499292340174:10] [-10:8.3450112711581887] [-10:10] [-10:10] [-10:10] [-10:10] [-8.4960028191888473:7.4605593323455297] [-10:4.6271406577419159] [-10:6.5874573441093434] [-9.2597906288563934:10] [-10:10] [-8.2078684995789413:10] [-5.7806875590800928:10] [-10:10] [-9.117454115922822:10] [-9.2217538906505858:8.3627939083394089] [-6.8396137740324923:10] [-10:10] [-4.307539129093187:10] [-10:10] [-10:10] [-10:10] [-10:10] [-10:10] [-4.2996506793780265:5.3062793225196305] [-7.5073950699932039:10] [-4.4020995796410363:4.8181064300079663] [-4.4378056729299828:4.8312459063724331] [-4.4738425489368332:4.6273041732589215] [-4.3200439452230084:4.9591098714893267] [-4.3164044054634694:4.8874764171921621] [-4.3317758642368762:4.5008474396528069] [-4.318023377008827:4.3530202793636068] [-4.4119381736992871:4.6484741509830636] [-4.5103109214040913:4.7612760976115478] [-4.4991471182476293:4.7457097840024201] [-4.4197413865892061:4.6958066259979558] [-4.4216971682179018:4.7301369229497752] [-4.3737995820957867:4.8912326557949433] [-4.3829046031068071:4.7258619372307473] [-4.5869934073855383:4.3253081047252806] [-4.3763161601943699:4.748403118844875] [-4.3911989898857655:4.7518329349035433] [-4.3756677791736012:4.8432620056760127] [-4.4514841330110411:4.6938732507159271] [-4.4980684341697117:4.6418858108896552] [-4.4979637530996595:4.503460446955649] [-4.4195213161724238:4.6320421827476785] [-4.5069563395911656:4.6562573192136929] [-4.5693573130795535:4.5277174945469936] [-4.5486576844915518:4.6367013539361066] [-4.394397436469287:4.7870190356394939] [-4.3608472139998451:4.8547273596688711] [-4.2890288198856918:4.8830812731790401] [-4.3524061977601027:4.836945121130217] [-4.3658196541040972:4.824832365457028] [-4.3540865197278364:4.4678427411839401] [-4.3814997009862218:4.2433996336669573] [-4.3811599053277757:4.6711604623502057] [-4.4064796606184897:4.9516034905823298] [-4.518486081416671:4.6861871825661012] [-4.5053437812805432:4.6100698891304335] [-4.4414347094473232:4.7001201195914915] [-4.4201984998664425:4.8433655704560516] [-4.3270986054059888:4.7199197782343436] [-4.4279282561761502:4.4450487083274544] [-4.4166426048128118:4.6422964609120978] [-4.3758310686906787:4.7501061060400636] [-4.4056043508826956:4.8199352019053681] [-4.4425929585983308:4.7248655805966502] [-4.4405592244807597:4.800481624558893] [-4.3598408166081946:4.7441111729526044] [-4.3559988974032819:4.7638848739382187] [-4.3889300874699915:4.8186230509428825] [-4.5744128655548968:4.5146555591624722] [-4.4718201090391014:4.752390455610505] [-4.3700462445522383:4.845590474290554] [-4.3875800929643063:4.8861131033669833] [-4.3868048545334242:4.7429175445565743] [-4.3111904294614378:4.9608079028759082] [-4.3355621317858271:4.8644665151438868] [-4.4045460210081622:4.4018026802205066] [-4.3614336148230084:4.3190515189860585] [-4.298101972822022:4.8512194709873038] [-4.4273511048896994:4.9780175584971325] [-4.3525134584176133:5.0508289879915917] [-4.3942868189538746:4.745072554644012] [-4.4190438079332042:4.742700941690754] [-4.3593665000495436:4.8826446294046884] [-4.3460951545979229:4.7262600847200975] [-4.389245162159134:4.4960135521056523] [-4.3757396926641592:4.7231137277527626] [-4.316151366144017:4.8863759912852833] [-4.2694740413150987:5.0543825178964177] [-4.3781954355783599:4.8184452614962385] [-4.4827599411327377:4.7101236941005284] [-4.3998115030627645:4.7169540564856263] [-4.3368503198321404:4.8169872436723518] [-4.2694170443600337:5.0519691184317104] [-4.4099791932686605:4.7817902224844779] [-4.4092947941585789:4.9027588719661708] [-4.2678932117617991:5.0088331411120484] [-4.4087476783931061:4.8581462871399035] [-4.2796593635826765:4.9251615178822039] [-4.2741218883638918:5.0508996983958347] [-4.3307823675537982:4.8703650818311246] [-4.3573888032935342:4.4836012785633468] [-4.3851355058646915:4.289045470781252] [-4.4074948499708118:4.7009876514148381] [-4.5382635853092541:4.8070400996005969] [-4.4115800443180708:4.8927056424120829] [-4.4621398906548766:4.6960622028190855] [-4.41742868072288:4.7421054314164834] [-4.3778100883670081:4.9190480593564034] [-4.2323455461480997:4.9501478990495995] [-4.4331666750276417:4.5050726933174445] [-4.3944725045279194:4.7312002155169592] [-4.2948062638809166:4.9193303282162377] [-4.2086549576925165:5.1643953386608823] [-4.3213202040708847:4.9525416269333729] [-4.3499987746413264:4.8960185366529725] [-4.3996681071436585:4.6787488160951414] [-4.2614131584422239:4.920327957005675] [-4.3899530433051215:4.8761419580395433] [-4.3448589603400336:4.8938949100050682] [-4.3935774115705417:4.910334439499966] [-3.66796686175788:2.8780416056036344] [-3.7340241115352906:2.8243744479678399] [-3.7455895819491238:2.7199117136174205] [-3.704699106541796:2.8383266886780483] [-3.7227281146979179:2.8611355061163346] [-3.7398476227115598:2.5524695292888606] [-3.7376174146286409:2.5329639342765367] [-3.6521712001760624:2.7942703389252803] [-3.7461753373927982:2.8569734001963107] [-3.695928368679636:2.8772871474350987] [-3.7328970716751022:2.8020193900614414] [-3.7245551926532232:2.7581854984157355] [-3.7084555218391633:2.8372273920378914] [-3.775231878381216:2.755272402850141] [-3.740063210943843:2.656889271837926] [-3.680094372926261:2.8230426962207966] [-3.740172270895024:2.7858966228730782] [-3.1078322802266651:2.5492487207183774] [-3.7076402956285519:2.8405781402614987] [-3.7374011667035374:2.8115759832696847] [-3.6748568053874817:2.8428817150552619] [-3.6853997035888439:2.7802584667026933] [-3.66852712998578:2.8485140515135594] [-3.7473824323660159:2.7773452171177997] [-3.6936697172004576:2.8615795846288119] [-3.6742364672927375:2.8771328235538731] [-3.6998897444518448:2.8300266383640964] [-3.1250079902581436:2.4916841264919083] [-3.6816720430970018:2.843521473897936] [-3.1571453256047142:2.560726518221077] [-3.1606318885501787:2.380521061595501] [-3.7736317988216954:2.5156487644343333] [-3.6772157838891424:2.7713304446673703] [-3.716598375981528:2.8835179115677665] [-3.6922060226663365:2.8810846040835623] [-3.7239537099724354:2.8225066740622817] [-3.6784387817898878:2.7782578225566046] [-3.7365215088163568:2.8309242685764362] [-3.7746828956149616:2.7477866381344604] [-3.123615910479228:2.4483487150970293] [-3.6581426001533122:2.814889801648508] [-3.7227223604045503:2.7873307505255847] [-3.6932518320952408:2.8247667302603605] [-3.664731922219981:2.8872741471503365] [-3.7562757995127529:2.8105095543477137] [-3.68229921995417:2.8423961548211105] [-3.1046914818810478:2.5229348132501954] [-3.7169530530581367:2.801908284212197] [-3.7155316488881729:2.7950819253235908] [-3.6898440684531519:2.8599669943985613] [-3.6482226357209124:2.8851382443035782] [-3.7461894716660082:2.8260997059364921] [-3.7434984818976318:2.7168411372047614] [-3.6881978839758767:2.8379703114686241] [-3.7303365458944366:2.8595080171481162] [-3.7816472700197212:2.5320059723727559] [-3.7653293514690449:2.5257892731758416] [-3.650869212877069:2.792645994915905] [-3.7378276407277977:2.8880154208688582] [-3.7287051622938958:2.8803271897806355] [-3.7091189815189582:2.8179061365346256] [-3.7318755642257178:2.7413654788941848] [-3.7254490875990314:2.8379198696448569] [-3.7500379415888219:2.7554166666390207] [-3.677596269213351:2.6775333726071642] [-3.6236221700178186:2.8528765682542061] [-3.6937205449498807:2.8089944461666168] [-3.6691219254957215:2.838214625701887] [-3.0915697620852751:2.578155258827159] [-3.7359107169424206:2.8166931875084416] [-3.6805115188184736:2.8521386434349214] [-3.6557384120829761:2.80876492350282] [-3.6612884048658341:2.8418458829405808] [-3.7210771575442703:2.7995345151625948] [-3.6821220250925517:2.8795200243052159] [-3.6327332519311617:2.9080698292928107] [-3.7189227149369151:2.8495093186182006] [-3.7044448076021648:2.7497295589929616] [-3.6680409451973963:2.8582346312270777] [-3.7396754970530313:2.8502807508999348] [-3.7573645429675446:2.5425864247575896] [-3.7319087791574979:2.5335798655158062] [-3.6848564487926816:2.7880758880127372] [-3.7413780001589121:2.8666494580747983] [-3.6833279841367159:2.8926764857237197] [-3.7080099897582159:2.8345534665426442] [-3.7313396688817728:2.7523869239027392] [-3.719424348367669:2.8436937545308387] [-3.7352550337795751:2.7822136143272371] [-3.714539529045207:2.6633164531762512] [-3.674319634406344:2.8268933872189046] [-3.715886914069221:2.7922037371388506] [-3.6671677988677316:2.8300134736115421] [-3.6452822756928449:2.8856904295069485] [-3.7232965384537886:2.8157720037587923] [-3.6684400480585215:2.8468732658455336] [-3.6957603298471731:2.7782640430912924] [-3.7056522395192717:2.8230363899629398] [-3.7095609880530889:2.8001238778256963] [-3.6969544262584999:2.8594978939442042] [-8.1780954659037306:10] [-9.49079157010841:10] [-8.0073596916814012:9.7908506713865204] [-8.4813253823249273:7.672821522879107] [-7.5793972378085757:10] [-10:10] [-10:5.5820671854346715] [-4.6568860500765066:7.8232436588317826] [-10:10] [-5.8239621807207822:10] [-8.2616050490532622:7.9647497029034682] [-7.0761682023723891:10] [-9.7012431053105423:10] [-8.0912316874940249:10] [-7.5887385641597822:10] [-5.1858770150501545:7.550869774279807] [-10:10] [-4.453837305148296:10] [-5.185829749653351:6.1773199162359385] [-6.3205930735092171:10] [-10:8.6787299204254413] [-10:10] [-10:8.5831248940559988] [-8.8258408880445902:10] [-6.8853126508407225:10] [-8.2503468271117377:10] [-7.3647958068337314:10] [-8.011018387663837:9.743361237199986] [-7.7876138086995432:7.8498849418260495] [-10:10] [-8.158458608342043:10] [-6.8676829962824808:6.9431749031692096] [-7.1040701744841455:5.5028641426887335] [-10:10] [-5.8565346179317164:10] [-8.0248744787067157:8.0210368697019714] [-6.7044369626841345:10] [-10:10] [-7.9734900943793718:10] [-7.6248358571881827:10] [-5.3588077473834685:7.4117044531592908] [-10:10] [-4.9100457365401553:10] [-4.4423308725403405:7.8381255974562745] [-5.9531945639432529:10] [-7.5574917522989695:10] [-10:10] [-6.3486713342852674:10] [-8.7336141109177738:10] [-7.2748965525403761:10] [-8.1956109041569487:10] [-9.2103726916770299:10] [-7.8636430529166557:9.8429829445774715] [-8.2678522048433312:7.7041671549827138] [-9.6516993274897267:10] [-9.154352934310177:10] [-5.8736866981905971:7.4441839193945674] [-4.3824573212678537:8.182677892372622] [-9.722773952197862:10] [-6.0224614483320185:10] [-7.698542852654465:8.1628693306829572] [-6.7264725650570343:10] [-9.8067608330811336:10] [-8.1408814385375958:10] [-7.3131251445941734:10] [-4.9783943455804431:7.7016472037338977] [-10:10] [-7.4425311963384697:10] [-4.4679762634022913:7.826738795090848] [-6.3561391518572687:10] [-6.7395826524391245:10] [-10:10] [-6.3099852409226624:10] [-7.9709056295360075:10] [-6.9779636616386664:10] [-8.1939369173023575:10] [-9.2757954845193638:10] [-7.8513062233788871:9.8457563789616955] [-8.0889021877837628:7.7547866557351073] [-10:10] [-7.9470965443102024:10] [-5.9878499278306441:7.4234848029817284] [-4.4626408257091947:8.2791681741087348] [-10:10] [-6.0455161495278524:10] [-7.677632413416247:8.230099644481804] [-6.7333211017544166:10] [-10:10] [-8.1816265776981911:10] [-7.5171621998483094:10] [-5.0155066941381037:7.6505955323528472] [-10:10] [-4.7586555239414086:10] [-4.4167807379452091:7.8393367484016681] [-6.3177952917705475:10] [-6.5146954141619728:10] [-10:10] [-6.6824223409751644:10] [-8.8280297379006178:10] [-6.8623002782695481:10] [-7.4098596895878606:10] [-6.1234514851067274:10] [-5.3344489244624542:10] [-6.0989670605340063:10] [-5.9775343013666324:10] [-6.1318253614973344:10] [-7.5609889200450349:10] [-5.4022429217049845:10] [-7.2916899916067077:10] [-8.5768115153479734:10] [-8.2420905643921394:10] [-8.0562171054344116:10] [-8.2441087296043936:10] [-5.2424151530854859:10] [-6.9469026706795454:10] [-7.9768559091656375:10] [-6.1655320606700936:10] [-7.7576284883892059:10] [-8.8903432771292739:10] [-7.8299410095038215:10] [-7.284096027397382:10] [-8.2737022673760201:10] [-8.0747204516900837:10] [-8.9314768472193116:10] [-7.6547601045611566:10] [-7.4282016294698021:10] [-7.1819188531831326:10] [-5.5270914825334367:10] [-6.2856877264748929:10] [-7.1549347385844086:10] [-5.9556888008871436:10] [-6.9279049235165191:10] [-5.9326218522007776:10] [-6.5279378323103128:10] [-8.4491966028071221:10] [-8.1208899178450249:10] [-8.0588435224525732:10] [-8.2650647859430713:10] [-5.2419584386668117:10] [-6.8450617619443275:10] [-7.1265173454585078:10] [-4.866776262056292:10] [-7.3818199151357069:10] [-8.1101013891559663:10] [-7.6651545945884907:10] [-5.5323156984704891:10] [-7.9701262679696967:10] [-7.4395403586766466:10] [-8.7054992964704994:10] [-7.6590248288111571:10] [-7.5666401159711327:10] [-7.2636587133141814:10] [-5.3532215474583964:10] [-6.079478426718854:10] [-6.9190883919741175:10] [-5.2720567438251908:10] [-6.3900743836388623:10] [-5.3674639765566949:10] [-6.97050529457705:10] [-8.120043288143016:10] [-8.0235906789671745:10] [-6.1784469679363276:10] [-8.2400390392159313:10] [-5.2760066974561797:10] [-6.7951608014599287:10] [-7.1683376452447209:10] [-5.6858201992484192:10] [-7.3678006499596274:10] [-8.0901137682047715:10] [-7.4848344208282098:10] [-6.4800557447177471:10] [-6.6889560885122981:10] [-7.1874290768497495:10] [-8.3437448796155245:10] [-7.4916609550733924:10] [-7.3530917780439875:10] [-7.0523939112928389:10] [-5.1904429555205089:10] [-5.8409558509862682:10] [-6.7739648038680969:10] [-5.6809096263728476:10] [-6.2108885728527774:10] [-4.5569010704271911:10] [-6.89995641062497:10] [-8.1321987565463729:10] [-7.9063166446463358:10] [-7.951361610429081:10] [-8.2144242235095248:10] [-5.2042024120898205:10] [-5.5367657975717055:10] [-7.2088926516822864:10] [-5.4486705611293491:10] [-7.5100330974893392:10] [-8.2024310972500913:10] [-7.4371552094500597:10] [-6.3908879434938655:10] [-7.5548229572369019:10] [-7.3319551438791688:10] [-8.3773464691097637:10] [-7.5135164735526061:10] [-10:10] [-6.7272814865813171:10] [-8.1610856678710366:10] [-9.791376949941192:10] [-9.1731004364612563:10] [-9.9610861572828107:10] [-10:8.793819215217205] [-7.3190983654654111:10] [-10:10] [-10:10] [-10:9.9082398290650033] [-10:10] [-10:10] [-10:10] [-10:9.8209087499477032] [-8.6317145786034626:8.8840238822274529] [-10:10] [-10:10] [-10:10] [-10:10] [-10:10] [-10:10] [-10:9.5565642686065022] [-8.9515112223699251:10] [-10:10] [-10:10] [-6.7885518755723524:10] [-10:10] [-10:10] [-9.134847631593658:10] [-10:10] [-10:9.4032817072660499] [-6.4341113575395523:10] [-10:10] [-10:10] [-10:10] [-10:10] [-10:10] [-7.1013404468589334:10] [-10:9.920790724815193] [-10:9.4400900113408639] [-10:10] [-10:10] [-10:10] [-10:10] [-10:10] [-10:10] [-10:10] [-10:10] [-10:10] [-10:10] [-6.8517224883686527:10] [-10:10] [-5.9431803475671483:10] [-9.0305484849652462:10] [-10:10] [-9.3747812764078624:10] [-6.3910774830448975:10] [-10:10] [-10:10] [-10:10] [-10:10] [-10:10] [-10:10] [-10:9.8182984395642965] [-10:9.6001268321922826] [-7.7500809908066675:10] [-10:10] [-10:10] [-10:10] [-10:10] [-10:10] [-10:10] [-8.8576291008171459:10] [-10:10] [-10:10] [-6.813622721862413:10] [-7.1465039613412413:10] [-10:10] [-8.7237349820754293:10] [-10:10] [-8.9223362419238743:10] [-6.3690020912124368:10] [-10:10] [-10:10] [-10:10] [-10:10] [-10:10] [-10:10] [-10:10] [-10:9.3601315351958174] [-10:10] [-10:10] [-10:10] [-10:10] [-10:10] [-10:10] [-10:10] [-8.6773119000381378:10] [-10:10] [-10:7.9799078737980151] [-10:8.6348707970477108] [-10:8.1243033657422572] [-8.5112009816822614:10] [-10:9.2674084496506435] [-10:8.2823174757733025] [-8.9529154971647262:7.0492852415512681] [-10:7.858988824214169] [-10:9.7623196530833667] [-10:8.6136124348470968] [-10:8.2907498078932598] [-8.1211237555830191:7.8820211581316686] [-10:8.7842236010187698] [-10:7.8078959625153841] [-6.5655450942731832:7.0609717038477537] [-10:7.1488692572993102] [-10:9.765113029175275] [-10:10] [-9.258724862688883:8.8384729524525092] [-10:8.4043442287096219] [-10:8.5126248462193903] [-10:8.2388377339645462] [-10:8.1440785603210202] [-10:8.0839248720994572] [-10:9.0074449788033668] [-10:7.7859739782852229] [-10:8.5450867951159761] [-10:8.0231889896826747] [-9.1589962324226182:9.2855655480669732] [-10:9.2929104825404316] [-10:8.5160930220349975] [-10:7.6072831551909932] [-9.5060332948421316:8.3281790907355191] [-10:10] [-10:8.5611674975469736] [-10:8.3993830287778213] [-10:8.9299702134706607] [-10:8.7286145894614293] [-10:7.5341140516523435] [-10:8.1620502166021343] [-10:7.265011097273514] [-7.9811013653355429:8.5704200938268134] [-10:10] [-6.2197456184447191:8.2766729701986499] [-10:9.0252527716355964] [-9.9992883626297555:8.9412373776222118] [-10:8.5630095702019524] [-10:8.3586221231086419] [-10:8.1678192978559157] [-10:9.102542561314463] [-10:8.4530967959833987] [-10:8.4458314116954831] [-9.330669963963393:7.5355060879776419] [-9.002911222032159:9.6317630250689703] [-10:9.4337427674065832] [-10:8.712728156909046] [-10:7.5404026419543531] [-10:8.3792189851309367] [-10:10] [-10:9.0692552796481642] [-10:8.4882299130808168] [-8.9982913181208737:8.2268455996887102] [-10:8.6903414634788927] [-10:7.5652598529774524] [-7.7903294984630929:7.2666063714082618] [-10:7.3323767519750405] [-10:9.9248800502162222] [-10:10] [-8.9230154187933337:9.4193725487628672] [-10:8.8968132009661236] [-10:9.0241441761898802] [-10:8.6534793130596341] [-10:8.4268137895688984] [-10:8.4539004206290596] [-10:9.3028668713196581] [-10:7.9329831170002363] [-10:8.5577317512746376] [-10:8.1625359916467595] [-8.8508746064898869:10] [-10:9.6659741095878697] [-10:8.6412786742474488] [-10:7.850775314781318] [-9.7592111212507255:8.8592353219754401] [-10:10] [-10:8.9683316193271896] [-10:8.874602246093902] [-10:9.0897217247302482] [-10:9.2424198541894196] [-10:7.7260222239240681] [-10:8.2309744479786318] [-10:7.4867390981118076] [-10:10] [-10:9.9610758601681031] [-8.9610386830067021:9.3489514333520169] [-10:8.8955673497131507] [-8.638668908912237:8.8361402091485015] [-10:8.6715977365647952] [-10:8.6382616469317171] [-10:8.4378996632502599] [-10:9.1766869237721647] [-10:3.450556542829625] [-9.8339776070426446:3.6660526190304608] [-10:3.7749822547231271] [-10:3.4882937929114379] [-10:3.6390218651335728] [-10:3.5029961101150806] [-10:3.2927496007842483] [-10:3.6367455166788449] [-10:3.6889728846248553] [-10:3.48163527866107] [-10:3.729906939182186] [-10:3.5238282647964816] [-10:3.6646019912006009] [-10:3.7306076225347762] [-10:3.3925029400375726] [-10:3.5270097506089435] [-6.8852130795904518:3.511063290817753] [-10:3.4865491406203186] [-10:3.8903243436961801] [-10:3.5049432433528938] [-10:3.7057726822177237] [-5.9265203635384012:3.41185384051643] [-10:3.7018619819062391] [-10:3.4468653600284882] [-10:3.6939233894202639] [-7.5137475507242684:3.5493626332126986] [-9.9198542651505655:3.6268568740063154] [-10:3.8043660764048619] [-10:3.4750297001450945] [-10:3.6432840777167623] [-10:3.4957077693880896] [-10:3.2901604710548162] [-8.2511545725229816:3.5018288307417103] [-10:3.6382931403406764] [-10:3.5128832182264733] [-10:3.7427683791928046] [-10:3.5613130596947968] [-10:3.6839968952924154] [-10:3.735673222055544] [-10:3.3699213326530857] [-10:3.5163547835928024] [-6.9408724140661189:3.4785611692518845] [-10:3.5165966190466547] [-10:3.9135419584771074] [-10:3.529446894431266] [-10:3.6256177129266871] [-5.9293731300146391:3.4223448915023997] [-10:3.7128321229532855] [-10:3.4643775374928336] [-10:3.6935724997920012] [-10:3.4682288839458133] [-9.8314711647405044:3.677211707118397] [-10:3.7946611852524801] [-10:3.5066296022238301] [-10:3.6372642635083134] [-10:3.4841227428985371] [-10:3.2825961425899908] [-10:3.6796114540315776] [-10:3.6971443186028039] [-10:3.5347640725394256] [-10:3.7306164450674055] [-10:3.534578206182593] [-10:3.6437778260983729] [-10:3.7603598905660096] [-10:3.3762947340998619] [-10:3.546671623537164] [-6.8926927548823569:3.4938250328387803] [-10:3.511383558860123] [-10:3.901116681704544] [-10:3.6072815900005888] [-10:3.6754331728362639] [-5.9130204012662491:3.4181163120415974] [-10:3.7150120021405768] [-10:3.4738525990876448] [-10:3.7325530005202889] [-10:3.4433416173491187] [-9.9075255127849573:3.6606886841495592] [-10:3.7737348091658727] [-10:3.4968048236526315] [-10:3.6626292965900729] [-10:3.5153037015432167] [-10:3.2924074827347751] [-10:3.7292422738681426] [-10:3.7813701607395811] [-10:3.5324375525677727] [-10:3.7364403098188053] [-10:3.5055770540937261] [-10:3.7709211228726804] [-10:3.7659874273513068] [-10:3.3914780657177563] [-10:3.5536345734026291] [-6.9343492084520877:3.4959011743040525] [-10:3.4942007821775687] [-10:3.8993268221846948] [-10:3.5481232645605312] [-10:3.6326604613962727] [-5.582113604845917:3.5722983060744675] [-10:3.7417393621367694] [-10:3.5050617974508755] [-10:3.7104043095096677] [-10:3.0149580308211501] [-10:3.1538128581674392] [-10:2.9889572077143693] [-10:3.2372078085344129] [-8.767577806591051:3.4822392479443707] [-10:2.7642609413734403] [-8.166263366595361:2.7154022301986749] [-10:3.1726437358233426] [-10:3.229315493185819] [-4.9298788540464109:3.1245944384983098] [-5.7766516896457292:3.2443317641363247] [-10:3.057974096496535] [-7.280925722031852:3.0236501461682908] [-10:3.1867443554680235] [-10:2.8186319559116235] [-4.3213630861907335:3.0515684858466248] [-10:3.1887728373509066] [-10:3.3319714985685525] [-9.9498295419327967:3.3942650235596594] [-5.8020361089706887:3.0587371439020843] [-10:3.0289527768652542] [-5.4691290524186087:3.0684756582143016] [-5.0400193413562695:3.0808267338091166] [-10:2.9580496526891347] [-7.9158840583969523:3.1490486797875903] [-10:3.0318975468610048] [-10:3.1401210860349766] [-10:2.9885721338806173] [-10:3.2391003441097337] [-8.7547637346769971:3.4822836693948638] [-10:2.7738819910010681] [-8.4268703640359259:2.7049056306699164] [-6.0966392102640494:2.990718324315865] [-10:3.236823135333609] [-4.9077111782606293:3.1429113321144833] [-6.395555076307085:3.312511599584373] [-10:3.0582005094005877] [-7.0791005159830043:3.0927286135052179] [-10:2.9571413580547143] [-10:2.8091036308991515] [-8.0502211840911198:3.4470103416645133] [-10:3.200799255082869] [-10:3.3420807601754312] [-9.8687973386565293:3.4205231286432971] [-5.7498159909180426:3.0927407511836691] [-10:3.042742856733947] [-5.805610531545109:3.1196439899252493] [-6.2747002988727427:3.2117063213936348] [-10:2.9556409249260565] [-7.8895434964475593:3.1539867102091383] [-10:3.0325485982937561] [-10:3.1592756305388523] [-10:2.9835991522505227] [-10:3.2251539362555066] [-8.6331020517314325:3.5114721752660865] [-10:2.7588272445308943] [-10:2.7516004919027357] [-10:3.1386073360551827] [-7.5255659529800516:3.2183440100638614] [-4.6457839493292266:3.2373213432423498] [-6.2478217671812999:3.3072208662984868] [-8.095976553182151:3.0529196236434024] [-7.3221890414807858:3.0252903922538592] [-10:3.1614913825291397] [-10:2.8319122766431812] [-7.9400269329659965:3.4956545658308245] [-10:3.2037579502602584] [-10:3.3765862725341811] [-5.0126260310767528:3.1072559711522851] [-5.7157411823841118:3.1100995611798488] [-10:3.0491901606806677] [-9.0017498240761729:3.3028598788824528] [-9.7181214401746274:3.3423610495178475] [-10:2.9735961367676635] [-7.8244970327634826:3.1867187114707614] [-10:3.0412156535356338] [-10:3.154008627513063] [-10:2.9847805131384963] [-10:3.2546552639890338] [-8.6544460300018589:3.4981898846499582] [-10:2.7668047822211213] [-10:2.7420398875980045] [-10:3.1613848526987685] [-10:3.2537302508573358] [-4.9407953550782988:3.1397457064840029] [-6.4123713696070457:3.3004661804077817] [-10:3.0621410118174266] [-7.2389080939413395:3.0370327002412867] [-10:3.1691887193747403] [-10:2.8172807953011065] [-7.9854606496391503:3.4844218425430751] [-10:3.2246817582084017] [-10:3.3517928647813418] [-9.9015726763967891:3.4168821568034136] [-5.7775477444850623:3.0745361911017226] [-10:3.0404936693461835] [-9.0665006474586676:3.2967816881673304] [-5.4136569320376804:3.1186868552631952] [-10:2.9829054196819818] [-7.9345557352271223:3.1653829469197325] [-6.3899717138517902:4.3415285726901738] [-6.0575113700548551:4.0971188445581488] [-3.6688611919962151:3.6283200295408342] [-3.8960135006391985:4.3148759317962577] [-8.0697798444610704:3.8148782070707736] [-4.1606152458583967:3.1559656184376337] [-5.9500711926708805:3.1923279647710623] [-4.7418436165761104:3.5919301233042829] [-4.4369313049017824:4.1231075103243437] [-4.9719915975194136:4.1383667422109625] [-7.9743424454924234:3.9178880902216409] [-7.2190672926865229:3.700971085868471] [-7.7031607859390876:3.8323266862515921] [-4.2650547907141663:3.6830242201572472] [-6.1369396876992734:3.5330140582631406] [-6.0337117936685978:4.2099435615338132] [-6.1682360375471594:4.3302906945288901] [-4.9101573370554883:4.4297097174408115] [-5.0562305567305046:4.0962830518404916] [-6.4285182326756027:4.0464548080081668] [-6.4386823417152099:4.2151351940628796] [-6.7796002990202817:3.7437864980264437] [-4.2095396761522874:3.8531864544654817] [-6.6737366942045036:3.8501457889302437] [-4.9308748977576133:4.3227339966789149] [-6.2730998421243767:4.392413798583541] [-4.4467144943641195:3.8613317617934975] [-3.676512945857719:3.6198834314077049] [-3.9084361930978817:4.3043630249382074] [-8.0795121513725157:3.8090336756011967] [-4.4651385228004488:3.1772282625097263] [-5.305895711299434:3.1749216323176337] [-4.6042183451620629:3.5902941212440966] [-4.4147543601015764:4.1474011830866537] [-4.9679269838019318:4.1318477462666738] [-7.8456129083185706:3.9792491642405263] [-7.2335292555330994:3.6835764601315888] [-7.8097779343939964:3.826643337091959] [-4.2714613518556117:3.6734449456427649] [-6.0700451462195293:3.5216968989909385] [-6.0678482693960012:4.165296639759787] [-6.1189027209057461:4.3446006243722364] [-3.9212981383830203:4.2365054202547636] [-5.0254003728457564:4.1259460828986736] [-6.3583689015419278:4.1005034931575732] [-6.4285905172291686:4.2422335878382604] [-6.7778771426877675:3.7538703017478281] [-6.6686280097651469:4.1053982118645571] [-6.6296187809506124:3.8592104744015625] [-4.0516007462482646:4.2058814479544182] [-6.3071388604113112:4.3653087539314539] [-4.44398926810159:3.8892026300367495] [-3.6670749905060638:3.6276326717133336] [-3.8926159786506669:4.3214993505867341] [-8.0698087412698793:3.8137379285517423] [-5.1191750046307334:3.2294918901732688] [-5.8481378620372473:3.2314624521192177] [-4.7243997918084304:3.6065792503133247] [-4.3787094585676636:4.2215723946438608] [-4.9709769028729047:4.1762925872480086] [-8.0035728015114334:3.9090771880365849] [-4.8126230199836977:3.542425974719174] [-7.8100153619160482:3.813723672134564] [-4.0398939327421095:3.5618528198394586] [-6.0552177492300769:3.5367964892884816] [-6.028979221795522:4.2069749631334226] [-6.0900743917910045:4.3738602129490927] [-5.4452565455428728:4.5606716323634924] [-5.0624894260060858:4.0911951338759307] [-6.3388298870139845:4.1004561024593924] [-5.0042639763158379:4.1738025840985067] [-4.7867283361347877:3.6601261980375472] [-5.2675535085780645:4.0768616871350876] [-6.6243924117208346:3.890664473810336] [-5.4427031781206061:4.4313537809382284] [-6.3006288834146185:4.3746587835760513] [-4.4636147077138189:3.8811028675181114] [-3.6878462185152916:3.634891327323293] [-3.894600068662561:4.3305401278305373] [-7.9849517712270321:3.8353982730965366] [-5.1201041057916319:3.2352018087489509] [-5.8562736652132639:3.2183795196501279] [-4.7135102663352288:3.6214412091793649] [-4.4336176471185045:4.1558271557935687] [-4.9773059129038151:4.149410656485343] [-7.875725194193147:3.9649876653244736] [-7.1933783481781362:3.7040822013008015] [-7.7283687852626963:3.8491865486934782] [-4.7706038270553721:3.717981170384391] [-5.2320933802040424:3.5024040400583125] [-6.0860210806975159:4.1882728936114724] [-6.1576451528612326:4.3367202858662415] [-5.3041719044948019:4.5822010720692887] [-5.0476497041421631:4.1179970504437247] [-6.3900522014792625:4.0754121973056936] [-6.44119958952533:4.2346968284852977] [-6.7231719563094572:3.7716530423833241] [-6.6462547656213351:4.1311753177868695] [-6.6143113665622124:3.8870824053652102] [-3.3380247502269045:3.8516357796258469] [-10:4.3054153677522118] [-5.6941362320855164:3.9804154086674064] [-10:4.1024607067556342] [-10:4.6242646954902105] [-10:3.9107819756434332] [-4.8058113362077357:3.5886887652065367] [-6.9234044956447756:3.4176056146606801] [-10:3.806508886703222] [-10:4.6440354617440232] [-10:3.9984020324070602] [-10:4.0546631051265951] [-6.8923710778016147:4.1769832204152095] [-10:4.1280532094191225] [-10:4.0031553643268785] [-7.4430592781685956:3.831358023587383] [-10:4.4321576920506045] [-10:4.0999268696938813] [-10:4.3188633554843898] [-10:3.9751358086551569] [-10:4.2824554378332262] [-10:4.2130495863322546] [-10:4.0776594823827299] [-8.9004106563876793:4.4471239257967765] [-10:4.1824068138436683] [-9.1902260107019718:4.3221249115566467] [-10:4.3932103525688717] [-5.6527551047132576:3.9394295320465158] [-10:4.0843321798141483] [-8.2566178338043326:4.3532807776416851] [-10:3.9008780765532327] [-4.6480499143176184:3.6411527042535536] [-9.2669633026565528:3.5999681088146063] [-10:3.8491693509018163] [-10:4.593296910476079] [-10:3.9595508215543527] [-10:4.1849735570339313] [-6.969358979290968:4.1243693051884751] [-10:4.1050322828010133] [-10:3.9747191694170287] [-7.4246110437291071:3.8161794337891566] [-10:4.3794451400957319] [-10:4.085715580236335] [-9.6725370953224878:4.2307274260970464] [-10:4.035060032049147] [-10:4.3749641473754677] [-10:4.2575141200098665] [-10:4.0082265239422856] [-8.7957835885215623:4.4704742303216065] [-10:4.1968173908721109] [-7.9214084804342466:4.3186188086618804] [-10:4.2943532445738546] [-5.6796670778358624:3.970613247131312] [-10:4.0991137353404863] [-8.8639973979075233:4.5000358708849335] [-10:3.9225577997262873] [-5.6100402082892664:3.9750016113631399] [-9.3997920946925362:3.6105992194943402] [-10:3.9186713857467641] [-10:4.7221423972633341] [-10:4.0000542397315435] [-10:4.0703240122852655] [-6.944811880546812:4.1332274017995561] [-10:4.0960401484197462] [-10:3.9246018360430468] [-5.9166259415274691:3.7246869530105533] [-8.7501145208704383:4.2202957014162985] [-10:4.1400875004704556] [-10:4.4026934776280413] [-10:4.0072871102290604] [-10:4.3256164115243845] [-10:4.2940592306093404] [-10:3.9752478513893159] [-8.8107854985891816:4.4711056349066771] [-7.1045325527720085:4.1901005422954105] [-7.7392107834651789:4.3322758880917993] [-10:4.4001447185364855] [-5.6783763224216557:3.9601384241227962] [-10:4.1169729871930247] [-10:4.6318950422974936] [-10:3.8809888538531987] [-5.6688813249068666:3.9693329633783883] [-9.1833647078436478:3.6211920350346949] [-10:3.8062696115876888] [-10:4.6067405947171274] [-10:4.0073402009783647] [-10:4.2502707272645877] [-6.8440392628451088:4.1704052937373985] [-9.9455188660183804:4.1830246776133722] [-10:4.0305043426379301] [-7.4476567198561598:3.842806225959353] [-10:4.4500395812056084] [-10:4.1569256333116069] [-9.1967685809218391:4.1722071088760373] [-10:4.0597099529821543] [-10:4.3147284309002059] [-10:4.2647227061818285] [-10:4.1358519731235228] [-8.7981769426308514:4.4920723844938797] [-10:4.3101779176499919] [-10:4.4440271198407331] [-10:10] [-10:10] [-9.1135943457845787:10] [-7.5454081869879541:10] [-7.735667312614753:10] [-9.2534036289492629:9.9545406566255465] [-6.8108215791742142:7.7937330042762829] [-7.7456122858134107:10] [-8.4654798307300183:10] [-7.9662164296142457:10] [-8.2429532878616616:10] [-9.4525268305242029:10] [-6.4613213272242662:10] [-10:10] [-6.9699477342578531:10] [-10:10] [-7.6350769925383739:10] [-8.3479875906054808:10] [-10:10] [-8.5978311491259927:10] [-7.4910354813958415:10] [-9.224909413478759:10] [-9.3988658814933661:10] [-10:10] [-6.2350446838159659:10] [-10:10] [-10:10] [-9.8412835850487692:10] [-8.7653953038409682:10] [-7.7822116944436548:10] [-7.4328364930152047:10] [-6.0107566354427764:9.8347704054075606] [-7.5365174452864805:10] [-8.3977563963997888:10] [-7.9301139610720721:10] [-8.1698357509691437:10] [-9.3743201653472443:10] [-6.8169722406034685:10] [-10:10] [-6.6493866697034534:10] [-10:10] [-7.2256463847548806:10] [-8.0302861034676418:10] [-10:10] [-8.5148683748822087:10] [-6.9742747945569015:10] [-8.5032243539732981:10] [-8.3436808437893202:10] [-10:10] [-6.5537836029163872:10] [-9.1795892929208165:10] [-10:10] [-9.1456709143114558:10] [-7.8160874897800587:10] [-6.7961608965066125:10] [-7.5007037202352516:10] [-5.4107950872969584:10] [-6.7076571153181872:10] [-8.4735093339196315:10] [-7.9377252880932128:10] [-7.5667483071462716:10] [-9.4822717953760272:10] [-7.3611560147531652:10] [-10:10] [-6.7664814895289132:10] [-10:10] [-7.3102313062616169:10] [-8.1029400149317947:10] [-10:10] [-8.0630943167270619:10] [-7.2560624291326441:10] [-6.6553147300930586:10] [-8.3547282373046095:10] [-10:10] [-6.2561458297413779:10] [-10:10] [-10:10] [-9.1849741199705299:10] [-7.8904831134310349:10] [-6.8253467431681916:10] [-7.04947273154683:10] [-5.374070326587046:10] [-6.8031538673640926:10] [-8.325498029775984:10] [-7.8012896585534595:10] [-8.0835846984810935:10] [-9.5397923820459205:10] [-7.2144008913794693:10] [-10:10] [-6.757160930781863:10] [-10:10] [-7.3328434453995142:10] [-8.2703799647218741:10] [-10:10] [-7.9985378465711756:10] [-6.8290470128477363:10] [-8.1276549308155044:10] [-8.1589996802659197:10] [-10:10] [-6.8228025006158219:9.8807778755903737] [-10:10] [-7.3264557584047578:10] [-7.9579610477654095:10] [-5.9633653133195725:10] [-6.1696555261019084:10] [-6.5714028877675883:10] [-6.7924616649772735:7.6297960834880874] [-6.6505409716510675:10] [-7.2262751377466659:10] [-7.5043859279108878:10] [-9.661041372998417:10] [-8.1376571146727983:10] [-8.7643212890873787:10] [-7.5163889357122509:10] [-5.5940534063420913:10] [-8.7764732243620589:10] [-9.2616096009809343:10] [-6.769992283116343:10] [-10:10] [-10:10] [-6.9252064856364939:10] [-10:10] [-10:10] [-7.8323946509695128:10] [-5.9448219108917071:9.4304356234941196] [-10:10] [-7.3247124262082721:10] [-8.612259115394:10] [-6.5043007819795884:10] [-6.6031275357446564:10] [-5.427066979749589:10] [-6.2784993879388535:9.4044203980593117] [-6.4893426843305484:10] [-7.177513913610448:10] [-7.4814414120473716:10] [-9.4205075766905946:10] [-8.1035493235221825:10] [-9.1926530088740197:10] [-7.7404588437591197:10] [-5.6095203954924884:10] [-7.8651066080069372:10] [-8.211460125837915:10] [-7.1837477884502068:10] [-7.3589814473293806:10] [-10:10] [-7.1453903585548009:10] [-9.1442869690131889:10] [-8.8916320761673564:10] [-7.6983422127740244:10] [-6.1413631693863246:9.0606385378476659] [-10:10] [-6.7485129914686537:10] [-7.9470411262357317:10] [-5.9698215762339286:10] [-5.4457011910502517:10] [-5.0803306290214243:10] [-5.5623750472791516:10] [-6.0521768040271828:10] [-6.60308494645375:10] [-7.4754273382716478:10] [-9.3061480543781823:10] [-8.045370834852271:10] [-8.7702825699035234:10] [-7.7747821951364626:10] [-6.2085322008838473:10] [-7.8755713298928738:10] [-8.5437265191262046:10] [-6.7394162023529125:10] [-7.4121052817149486:10] [-10:10] [-6.4022016274493527:10] [-8.7775204301082148:10] [-8.9283870208677119:10] [-7.8055935978591036:10] [-5.7513861244493247:9.8461810790455182] [-10:10] [-7.2588206939280582:10] [-8.0159245978393638:10] [-5.9790582112125144:10] [-5.5381651828162237:10] [-4.8913668527968328:10] [-5.7015764514251055:10] [-6.0381505135680946:10] [-6.5636261864524901:10] [-7.4176812323909367:10] [-9.3985804469925149:10] [-8.0851507184627263:10] [-8.6187047849592382:10] [-7.464132914605063:10] [-5.7514095959049705:10] [-7.7953134395346622:10] [-8.5513437349135586:10] [-6.9043848034081563:10] [-7.4034490864793385:10] [-10:10] [-6.4577145493814907:10] [-8.7198104790807953:10] [-8.7701331948095795:10] [-7.1893299733524323:10] [-6.4844877173623248:8.3857608325046051]
tree_sizes=1188 1251 1245 1246 1253 1254 1249 1240 1252 1252 1253 1255 1257 1250 1255 1256 1260 1252 1251 1263 1255 1257 1245 1258 1246 1252 1246 1255 1257 1252 1252 1250 1246 1244 1251 1251 1263 1257 1252 1252 1253 1247 1250 1258 1264 1254 1267 1247 1265 1261 1262 1263 1259 1257 1263 1267 1265 1265 1259 1260 1256 1263 1261 1257 1265 1254 1252 1259 1266 1263 1260 1264 1260 1269 1263 1260 1261 1255 1270 1265 1266 1272 1258 1256 1260 1260 1271 1262 1275 1264 1267 1270 1270 1275 1273 1273 1268 1268 1275 1271 1269 1278 1265 1279 1278 1272 1269 1271 1274 1268 1272 1280 1274 1269 1278 1277 1275 1273 1274 1268 1276 1272 1267 1265 1285 1272 1270 1277 1270 1275 1278 1273 1276 1276 1277 1274 1278 1281 1267 1278 1273 1282 1279 1283 1265 1264 1275 1270 1269 1284 1264 1274 1266 1273 1271 1270 1255 1261 1270 1273 1269 1261 1260 1267 1277 1260 1270 1260 1279 1261 1274 1278 1265 1264 1264 1284 1270 1264 1278 1263 1266 1275 1270 1265 1275 1262 1261 1274 1268 1266 1275 1269 1262 1269 1266 1267 1265 1277 1266 1272 1256 1268 1274 1267 1272 1267 1259 1269 1270 1277 1269 1273 1263 1262 1275 1270 1266 1274 1274 1270 1260 1270 1263 1268 1276 1272 1266 1277 1264 1268 1274 1279 1268 1267 1269 1267 1260 1273 1263 1265 1274 1271 1270 1270 1277 1269 1268 1270 1279 1270 1269 1285 1278 1273 1278 1269 1273 1276 1272 1279 1275 1283 1269 1279 1273 1273 1278 1273 1275 1273 1270 1278 1279 1284 1280 1274 1273 1279 1275 1272 1275 1273 1272 1275 1275 1266 1271 1277 1277 1275 1283 1279 1281 1271 1280 1273 1278 1274 1276 1274 1271 1279 1266 1288 1274 1280 1273 1260 1271 1273 1280 1275 1279 1266 1268 1280 1279 1267 1274 1266 1266 1281 1281 1269 1279 1269 1274 1276 1269 1282 1282 1277 1267 1280 1274 1264 1278 1282 1279 1274 1269 1268 1285 1275 1277 1270 1277 1274 1275 1277 1284 1271 1263 1268 1277 1271 1277 1270 1282 1271 1277 1269 1269 1271 1254 1278 1270 1271 1280 1282 1264 1273 1274 1275 1273 1274 1281 1280 1272 1275 1269 1268 1280 1272 1275 1270 1281 1268 1265 1275 1270 1280 1277 1280 1264 1278 1276 1280 1268 1282 1281 1266 1260 1283 1274 1268 1272 1273 1266 1279 1275 1274 1277 1274 1269 1268 1276 1280 1271 1276 1267 1273 1280 1250 1277 1277 1273 1271 1273 1260 1264 1259 1254 1269 1282 1282 1275 1262 1275 1273 1262 1273 1272 1282 1268 1279 1271 1275 1278 1274 1249 1266 1281 1273 1271 1271 1283 1265 1266 1268 1271 1273 1276 1272 1268 1273 1272 1264 1281 1274 1261 1269 1249 1262 1257 1247 1276 1271 1271 1256 1271 1264 1263 1260 1268 1267 1277 1275 1269 1257 1272 1271 1275 1264 1272 1276 1274 1270 1277 1270 1271 1277 1267 1271 1268 1269 1268 1258 1277 1258 1263 1258 1256 1266 1279 1269 1275 1272 1265 1273 1272 1271 1270 1278 1271 1265 1268 1270 1269 1272 1267 1274 1253 1268 1271 1274 1267 1263 1278 1268 1264 1267 1266 1258 1288 1254 1258 1256 1264 1268 1267 1279 1260 1275 1278 1272 1274 1279 1263 1267 1266 1262 1262 1261 1265 1273 1268 1261 1260 1265 1267 1252 1271 1260 1263 1264 1279 1267 1255 1267 1263 1262 1270 1264 1287 1265 1250 1280 1261 1263 1266 1279 1263 1264 1267 1255 1257 1281 1253 1277 1261 1268 1267 1266 1273 1266 1256 1276 1273 1264 1259 1260 1262 1273 1280 1267 1273 1266 1265 1274 1263 1259 1274 1264 1275 1265 1266 1259 1274 1261 1277 1271 1241 1264 1267 1271 1247 1264 1243 1256 1252 1276 1242 1264 1244 1268 1266 1259 1275 1256 1257 1246 1258 1251 1258 1260 1259 1252 1275 1266 1256 1258 1268 1257 1243 1272 1250 1249 1266 1251 1255 1268 1263 1256 1265 1250 1273 1251 1262 1262 1274 1267 1266 1255 1255 1253 1264 1270 1259 1246 1257 1233 1248 1274 1270 1272 1267 1251 1253 1253 1263 1238 1259 1264 1273 1242 1263 1258 1271 1255 1258 1260 1283 1256 1265 1266 1256 1246 1254 1238 1259 1246 1251 1258 1260 1269 1264 1251 1266 1276 1259 1257 1249 1255 1256 1260 1251 1239 1246 1257 1272 1261 1267 1253 1251 1258 1250 1243 1236 1261 1251 1255 1242 1262 1261 1255 1274 1263 1261 1271 1275 1251 1269 1239 1257 1268 1242 1258 1247 1253 1264 1271 1247 1256 1266 1243 1249 1265 1264 1243 1274 1268 1257 1270 1266 1265 1257 1241 1235 1246 1265 1261 1272 1250 1271 1252 1256 1237 1238 1269 1252 1268 1258 1244 1271 1269 1251 1260 1271 1258 1260 1253 1249 1249 1276 1249 1262 1271 1277 1257 1259 1259 1264 1265 1250 1255 1259 1268 1252 1251 1251 1269 1259 1261 1271 1255 1249 1266 1259 1263 1245 1240 1269 1264 1274 1267 1250 1279 1260 1236 1260 1244 1270 1253 1239 1263 1255 1253 1255 1255 1254 1245 1241 1257 1267 1253 1259 1261 1257 1258 1259 1250 1254 1243 1265 1269 1246 1257 1255 1266 1242 1275 1256 1253 1263 1236 1261 1249 1269 1266 1256 1248 1275 1253 1248 1240 1248 1266 1243 1242 1256 1252 1258 1253 1265 1259 1259 1263 1267 1243 1250 1269 1243 1248 1241 1268 1260 1261 1261 1266 1262 1251 1254 1254 1240 1245 1261 1261 1281 1259 1256 1260 1260 1248 1249 1267 1233 1250 1252 1261 1263 1265 1254 1238 1268 1254 1252 1255 1255 1244 1240 1249 1257 1259 1245 1238 1260 1246 1245 1243 1248 1246 1262 1274 1263 1253 1251 1264 1257 1278 1253 1259 1249 1277 1265 1267 1251 1265 1261 1270 1271 1275 1243 1248 1243 1248 1261 1271 1242 1232 1269 1275 1276 1264 1264 1261 1271 1260 1266 1258 1253 1263 1276 1247 1246 1251 1275 1257 1256 1259 1259 1263 1254 1255 1261 1256 1256 1263 1256 1244 1252 1253 1247 1257 1259 1269 1267 1257 1261 1254 1251 1249 1250 1267 1238 1256 1258 1260 1249 1237 1254 1259 1264 1256 1260 1240 1258 1239 1270 1256 1265 1245 1263 1260 1252 1258 1243 1279 1247 1253 1270 1249 1251 1261 1250 1251 1246 1266 1258 1259 1264 1249 1254 1268 1261 1260 1244 1256 1259 1258 1261 1269 1252 1252 1261 1261 1271 1270 1256 1257 1256 1255 1252 1255 1272 1266 1278 1265 1268 1261 1251 1247 1276 1273 1250 1246 1254 1263 1251 1256 1260 1262 1278 1267 1255 1262 1247 1255 1263 1260 1262 1242 1241 1248 1251 1238 1246 1254 1264 1254 1271 1270 1249 1268 1252 1246 1254 1257 1249 1258 1254 1257 1260 1257 1268 1241 1257 1250 1256 1261 1270 1245 1264 1275 1270 1243 1254 1261 1248 1251 1253 1258 1250 1255 1263 1262 1269 1242 1264 1261 1244 1265 1241 1251 1253 1248 1241 1237 1279 1234 1266 1256 1255 1249 1247 1251 1279 1259 1248 1270 1246 1262 1257 1265 1269 1246 1260 1230 1248 1246 1249 1267 1254 1253 1261 1246 1258 1264 1260 1264 1247 1255 1267 1246 1247 1260 1277 1265 1278 1251 1262 1262 1248 1240 1253 1263 1239 1242 1247 1267 1255 1260 1257 1261 1257 1252 1261 1250 1263 1264 1259 1259 1270 1272 1276 1265 1248 1255 1252 1257 1250 1251 1252 1223 1265 1270 1257 1248 1266 1258 1251 1266 1277 1272 1254 1251 1260 1250 1239 1253 1250 1271 1264 1259 1244 1252 1240 1254 1265 1252 1269 1252 1253 1237 1268 1257 1253 1249 1249 1271 1250 1255 1253 1260 1269 1261 1261 1260 1258 1257 1248 1261 1256 1256 1266 1254 1251 1276 1264 1263 1273 1255 1259 1247 1261 1240 1262 1260 1244 1262 1270 1269 1268 1264 1263 1257 1268 1257 1246 1253 1238 1253 1269 1265 1251 1258 1246 1239 1268 1243 1240 1268 1263 1252 1237 1228 1274 1259 1252 1256 1260 1261 1243 1242 1264 1271 1250 1241 1242 1264 1260 1243 1240 1268 1261 1259 1264 1249 1255 1261 1274 1263 1261 1256 1265 1251 1253 1253 1239 1248 1269 1261 1265 1251 1259 1236 1241 1247 1261 1264 1245 1253 1270 1243 1271 1261 1263 1260 1250 1257 1268 1269 1238 1247 1252 1249 1261 1258 1251 1250 1278 1271 1252 1279 1261 1258 1254 1232 1238 1268 1254 1254 1263 1267 1238 1270 1250 1255 1260 1263 1255 1279 1269 1237 1243 1245 1251 1245 1270 1259 1259 1279 1260 1268 1265 1250 1262 1274 1274 1264 1269 1249 1258 1261 1250 1272 1261 1250 1240 1257 1245 1260 1263 1251 1260 1250 1254 1231 1268 1247 1250 1241 1258 1251 1262 1250 1260 1255 1264 1256 1265 1251 1257 1281 1275 1258 1265 1253 1265 1247 1257 1251 1244 1258 1261 1257 1256 1250 1261 1231 1251 1262 1273 1238 1261 1253 1256 1262 1258 1235 1260 1243 1264 1264 1259 1259 1234 1260 1271 1259 1271 1255 1254 1247 1253 1271 1246 1268 1272 1262 1268 1256 1240 1240 1256 1265 1255 1256 1259 1254 1265 1252 1264 1278 1264 1259 1266 1274 1261 1243 1240 1236 1252 1256 1262 1262 1235 1239 1253 1258 1256 1268 1263 1247 1251 1269 1266 1264 1246 1237 1250 1256 1259 1259 1257 1263 1267 1258 1256 1256 1267 1272 1246 1262 1252 1248 1255 1226 1251 1245 1267 1260 1263 1257 1263 1258 1262 1250 1251 1255 1270 1243 1253 1264 1263 1251 1261 1239 1243 1260 1245 1258 1256 1253 1253 1267 1252 1275 1253 1259 1261 1270 1241 1265 1269 1268 1256 1271 1267 1235 1243 1250 1250 1253 1253 1232 1235 1250 1251 1257 1237 1238 1245 1242 1274 1271 1271 1266 1256 1267 1248 1245 1263 1256 1242 1252 1249 1245 1270 1243 1262 1247 1256 1251 1253 1254 1268 1262 1266 1262 1239 1258 1234 1257 1256 1245 1251 1257 1260 1245 1254 1248 1252 1250 1251 1251 1253 1251 1240 1254 1246 1260 1253 1239 1251 1261 1258 1245 1276 1266 1261 1255 1261 1250 1252 1264 1262 1249 1268 1251 1267 1269 1257 1256 1260 1253 1254 1264 1264 1255 1273 1274 1255 1276 1234 1252 1258 1247 1264 1244 1253 1262 1262 1248 1267 1244 1265 1270 1264 1243 1267 1242 1266 1253 1250 1244 1242 1253 1265 1247 1252 1249 1246 1244 1249 1242 1251 1262 1267 1255 1237 1272 1245 1251 1232 1268 1269 1272 1260 1238 1247 1247 1261 1259 1258 1253 1260 1261 1265 1256 1257 1256 1254 1272 1247 1262 1253 1255 1263 1259 1272 1271 1252 1279 1266 1256 1268 1265 1266 1263 1259 1248 1270 1251 1273 1266 1278 1248 1253 1260 1269 1263 1257 1266 1251 1251 1262 1256 1259 1265 1249 1258 1256 1255 1263 1256 1263 1250 1250 1251 1244 1264 1243 1257 1264 1264 1253 1262 1246 1266 1260 1258 1246 1254 1255 1246 1256 1265 1258 1247 1258 1237 1260 1269 1258 1270 1254 1246 1246 1258 1270 1264 1273 1275 1239 1258 1257 1260 1262 1272 1242 1246 1249 1260 1264 1239 1258 1259 1253 1264 1250 1254 1246 1265 1253 1251 1264 1271 1263 1263 1261 1256 1255 1247 1239 1248 1257 1258 1278 1272 1244 1242 1250 1255 1223 1242 1250 1266 1270 1263 1242 1264 1251 1258 1243 1250 1249 1272 1263 1267 1251 1268 1271 1257 1241 1251 1238 1251 1259 1244 1265 1268 1266 1235 1236 1255 1267 1277 1261 1266 1259 1269 1277 1243 1264 1249 1275 1248 1251 1277 1260 1247 1272 1260 1271 1260 1256 1272 1272 1261 1263 1255 1251 1262 1263 1276 1261 1266 1245 1253 1235 1256 1250 1244 1255 1251 1248 1260 1256 1241 1257 1249 1257 1258 1266 1246 1246 1250 1239 1263 1243 1240 1259 1271 1257 1251 1263 1256 1260 1269

Tree=0
num_leaves=14
num_cat=0
split_feature=13 13 13 2 3 0 6 3 157 5 1 182 195
split_gain=4708.83 415.97 391.539 223.493 161.363 153.756 105.139 94.7665 71.4331 56.8451 48.201 46.6116 45.9028
threshold=0.014056215707463496 -0.38777453192244132 0.47480579716508148 0.19196807399654772 1.0000000180025095e-35 1.6280552425391288 0.74838867009120424 1.0000000180025095e-35 -0.70751147212583188 1.3426946370486434 -0.18747850002254748 -0.68504879960380161 -1.1641916024683463
decision_type=2 2 2 2 2 2 2 2 2 2 2 2 2
left_child=1 -1 4 -3 6 -6 8 -4 11 -9 -5 -2 -10
right_child=2 3 7 10 5 -7 -8 9 12 -11 -12 -13 -14
leaf_value=0.49381465256214141 0.49905908465385435 0.49672940552234651 0.50590827405452732 0.49961742103099821 0.49679265379905702 0.5019743919372559 0.4990889889001846 0.49822749972343444 0.49899141550064086 0.50485951185226441 0.50188692152500147 0.50181844592094427 0.50324066996574401
leaf_count=4100 125 1313 3875 612 258 210 255 113 72 62 385 380 2157
internal_value=0 -0.629539 0.537416 -0.28982 0.289987 -0.255337 0.375527 0.748469 0.432855 0.0262258 0.0667736 0.0922042 0.509823
internal_count=13917 6410 7507 2310 3457 468 2989 4050 2734 175 997 505 2229
shrinkage=1


Tree=1
num_leaves=14
num_cat=0
split_feature=14 14 14 1329 1340 131 14 180 11 1369 1410 135 120
split_gain=5639.58 442.999 305.072 110.835 75.7494 64.2158 55.5056 54.2637 46.7754 41.6074 39.2019 39.0607 38.4256
threshold=-0.0081094792762611539 0.5439974676365863 -0.42912409497597365 -0.59050185098252561 -0.69138618625138692 -0.2844553041920328 0.11795529551053331 -0.54636212233358383 -0.32801476297785082 -0.90721152322790044 -0.78133704431097906 -0.91891989202002911 -0.7935898295487448
decision_type=2 2 2 2 2 2 2 2 2 2 2 2 2
left_child=2 3 -1 7 10 -4 -6 -2 -7 -10 -5 -8 -9
right_child=1 -3 5 4 6 8 11 12 9 -11 -12 -13 -14
leaf_value=-0.006611983436346054 -0.0016496275722980502 0.0055714674115180966 -0.0030502951502799991 -0.0022569500088691721 0.00087091157436370865 -0.0028056181192398066 0.0012092430353164675 -0.0014661675214767468 -0.0030714498639106747 8.2844543457031298e-05 0.0012475385189056399 0.0030060738801956166 0.0016471748471260073
leaf_count=4015 241 3872 1054 80 466 374 230 106 112 531 413 2000 423
internal_value=0 0.560385 -0.722858 0.324948 0.407161 -0.41064 0.473075 -0.0150571 -0.230588 -0.0662108 0.0458046 0.538737 0.163581
internal_count=13917 7831 6086 3959 3189 2071 2696 770 1017 643 493 2230 529
shrinkage=0.02


Tree=2
num_leaves=14
num_cat=0
split_feature=14 14 14 14 1328 131 140 1334 1382 186 13 1335 1410
split_gain=5546.94 425.767 314.452 104.409 72.5168 58.1315 53.4184 43.807 43.7231 42.3004 37.9226 37.7965 34.8764
threshold=-0.0081094792762611539 0.5439974676365863 -0.42912409497597365 0.14911866000627574 -1.1285148031309389 -0.2844553041920328 -0.83244660845131369 -0.75894034290477508 -0.3756510887543259 -0.9201965486841942 0.37068555579417201 -0.58437161077217781 -0.78133704431097906
decision_type=2 2 2 2 2 2 2 2 2 2 2 2 2
left_child=2 3 -1 9 -5 -4 12 -8 -7 -2 -3 -11 -6
right_child=1 10 5 4 6 8 7 -9 -10 11 -12 -13 -14
leaf_value=-0.0064797437676191328 -0.0020428244732618337 0.0030082736823558798 -0.0029892892472743993 -0.0011111485137939448 -0.0016026117708683018 -0.0026404901323318491 0.00094372262859344414 0.0030212653806209579 -0.00048126331663131741 -0.0010944279749393461 0.0057410304341316207 0.0014135579547882072 0.0016000584564208964
leaf_count=4015 166 449 1054 153 64 397 306 2091 620 201 3423 622 356
internal_value=0 0.553745 -0.718914 0.322928 0.416644 -0.40195 0.453113 0.510803 -0.230588 0.041035 0.789588 0.134321 0.12274
internal_count=13917 7831 6086 3959 2970 2071 2817 2397 1017 989 3872 823 420
shrinkage=0.02


Tree=3
num_leaves=14
num_cat=0
split_feature=14 14 14 14 1328 117 140 133 1334 186 13 207 1335
split_gain=5494.27 418.174 320.164 102.914 67.545 62.4753 53.1021 45.8193 44.7674 42.3004 38.6946 38.6374 37.7965
